{"learner":{"attributes":{"scikit_learn":"{\"_estimator_type\": \"regressor\"}"},"feature_names":["daily","weekly","quarterly","monthly","yearly","day of year","week of year","one_year_lag_co","two_year_lag_co","three_year_lag_co","one_year_lag_no","two_year_lag_no","three_year_lag_no","one_year_lag_no2","two_year_lag_no2","three_year_lag_no2","one_year_lag_o3","two_year_lag_o3","three_year_lag_o3","one_year_lag_so2","two_year_lag_so2","three_year_lag_so2","one_year_lag_pm2_5","two_year_lag_pm2_5","three_year_lag_pm2_5","one_year_lag_pm10","two_year_lag_pm10","three_year_lag_pm10","one_year_lag_nh3","two_year_lag_nh3","three_year_lag_nh3"],"feature_types":["int","int","int","int","int","int","int","float","float","float","float","float","float","float","float","float","float","float","float","float","float","float","float","float","float","float","float","float","float","float","float"],"gradient_booster":{"model":{"gbtree_model_param":{"num_parallel_tree":"1","num_trees":"500"},"iteration_indptr":[0,1,2,3,4,5,6,7,8,9,10,11,12,13,14,15,16,17,18,19,20,21,22,23,24,25,26,27,28,29,30,31,32,33,34,35,36,37,38,39,40,41,42,43,44,45,46,47,48,49,50,51,52,53,54,55,56,57,58,59,60,61,62,63,64,65,66,67,68,69,70,71,72,73,74,75,76,77,78,79,80,81,82,83,84,85,86,87,88,89,90,91,92,93,94,95,96,97,98,99,100,101,102,103,104,105,106,107,108,109,110,111,112,113,114,115,116,117,118,119,120,121,122,123,124,125,126,127,128,129,130,131,132,133,134,135,136,137,138,139,140,141,142,143,144,145,146,147,148,149,150,151,152,153,154,155,156,157,158,159,160,161,162,163,164,165,166,167,168,169,170,171,172,173,174,175,176,177,178,179,180,181,182,183,184,185,186,187,188,189,190,191,192,193,194,195,196,197,198,199,200,201,202,203,204,205,206,207,208,209,210,211,212,213,214,215,216,217,218,219,220,221,222,223,224,225,226,227,228,229,230,231,232,233,234,235,236,237,238,239,240,241,242,243,244,245,246,247,248,249,250,251,252,253,254,255,256,257,258,259,260,261,262,263,264,265,266,267,268,269,270,271,272,273,274,275,276,277,278,279,280,281,282,283,284,285,286,287,288,289,290,291,292,293,294,295,296,297,298,299,300,301,302,303,304,305,306,307,308,309,310,311,312,313,314,315,316,317,318,319,320,321,322,323,324,325,326,327,328,329,330,331,332,333,334,335,336,337,338,339,340,341,342,343,344,345,346,347,348,349,350,351,352,353,354,355,356,357,358,359,360,361,362,363,364,365,366,367,368,369,370,371,372,373,374,375,376,377,378,379,380,381,382,383,384,385,386,387,388,389,390,391,392,393,394,395,396,397,398,399,400,401,402,403,404,405,406,407,408,409,410,411,412,413,414,415,416,417,418,419,420,421,422,423,424,425,426,427,428,429,430,431,432,433,434,435,436,437,438,439,440,441,442,443,444,445,446,447,448,449,450,451,452,453,454,455,456,457,458,459,460,461,462,463,464,465,466,467,468,469,470,471,472,473,474,475,476,477,478,479,480,481,482,483,484,485,486,487,488,489,490,491,492,493,494,495,496,497,498,499,500],"tree_info":[0,0,0,0,0,0,0,0,0,0,0,0,0,0,0,0,0,0,0,0,0,0,0,0,0,0,0,0,0,0,0,0,0,0,0,0,0,0,0,0,0,0,0,0,0,0,0,0,0,0,0,0,0,0,0,0,0,0,0,0,0,0,0,0,0,0,0,0,0,0,0,0,0,0,0,0,0,0,0,0,0,0,0,0,0,0,0,0,0,0,0,0,0,0,0,0,0,0,0,0,0,0,0,0,0,0,0,0,0,0,0,0,0,0,0,0,0,0,0,0,0,0,0,0,0,0,0,0,0,0,0,0,0,0,0,0,0,0,0,0,0,0,0,0,0,0,0,0,0,0,0,0,0,0,0,0,0,0,0,0,0,0,0,0,0,0,0,0,0,0,0,0,0,0,0,0,0,0,0,0,0,0,0,0,0,0,0,0,0,0,0,0,0,0,0,0,0,0,0,0,0,0,0,0,0,0,0,0,0,0,0,0,0,0,0,0,0,0,0,0,0,0,0,0,0,0,0,0,0,0,0,0,0,0,0,0,0,0,0,0,0,0,0,0,0,0,0,0,0,0,0,0,0,0,0,0,0,0,0,0,0,0,0,0,0,0,0,0,0,0,0,0,0,0,0,0,0,0,0,0,0,0,0,0,0,0,0,0,0,0,0,0,0,0,0,0,0,0,0,0,0,0,0,0,0,0,0,0,0,0,0,0,0,0,0,0,0,0,0,0,0,0,0,0,0,0,0,0,0,0,0,0,0,0,0,0,0,0,0,0,0,0,0,0,0,0,0,0,0,0,0,0,0,0,0,0,0,0,0,0,0,0,0,0,0,0,0,0,0,0,0,0,0,0,0,0,0,0,0,0,0,0,0,0,0,0,0,0,0,0,0,0,0,0,0,0,0,0,0,0,0,0,0,0,0,0,0,0,0,0,0,0,0,0,0,0,0,0,0,0,0,0,0,0,0,0,0,0,0,0,0,0,0,0,0,0,0,0,0,0,0,0,0,0,0,0,0,0,0,0,0,0,0,0,0,0,0,0,0,0,0,0,0,0,0,0,0,0,0,0,0,0,0,0,0,0,0,0,0,0,0,0,0,0,0,0,0,0,0,0,0,0,0,0,0,0,0,0,0,0],"trees":[{"base_weights":[3.2772002E-1,1.3565349E1,-2.0357616E0,1.6113867E1,1.0994595E1,-3.4776433E0,6.053987E0,1.0809166E-1,1.9639235E1,9.5064335E0,2.0895313E-1,1.293235E0,-5.1528387E0,2.6385415E0,9.378448E0,2.0883822E-1,-7.593751E-3,1.0857407E1,3.758593E0,-1.8466522E0,2.7867453E0,-5.86087E0,-3.663516E0,-1.4140642E-1,3.4907606E0,1.0506E1,1.8649995E0,3.835937E-2,1.157526E-1,5.860937E-2,1.3249991E-2,3.665E-2,-2.9179692E-2,-5.030357E-2,3.7854563E-2,-3.2157056E-2,-6.651931E-2,-5.914067E-3,-3.95E-2,-2.259375E-2,4.839284E-3,5.398214E-2,2.4999997E-2,7.0886716E-2,1.4923126E-1,3.140625E-2,7.6093697E-3],"categories":[],"categories_nodes":[],"categories_segments":[],"categories_sizes":[],"default_left":[0,0,0,0,0,0,0,0,0,0,0,0,0,0,0,0,0,0,0,0,0,0,0,0,0,0,0,0,0,0,0,0,0,0,0,0,0,0,0,0,0,0,0,0,0,0,0],"id":0,"left_children":[1,3,5,7,9,11,13,-1,15,17,-1,19,21,23,25,-1,-1,27,29,31,33,35,37,39,41,43,45,-1,-1,-1,-1,-1,-1,-1,-1,-1,-1,-1,-1,-1,-1,-1,-1,-1,-1,-1,-1],"loss_changes":[1.4044144E4,2.6834473E2,4.4652124E3,3.8614844E2,3.4651318E2,2.5961223E3,6.338164E2,0E0,4.7284033E2,2.2320728E2,0E0,4.037497E2,2.3160547E2,7.156735E1,2.2608838E2,0E0,0E0,9.168848E1,3.3164276E1,1.7602669E2,4.7184973E2,3.154995E2,6.8072876E1,1.1688892E1,2.9970581E1,2.7158423E2,4.6520348E0,0E0,0E0,0E0,0E0,0E0,0E0,0E0,0E0,0E0,0E0,0E0,0E0,0E0,0E0,0E0,0E0,0E0,0E0,0E0,0E0],"parents":[2147483647,0,0,1,1,2,2,3,3,4,4,5,5,6,6,8,8,9,9,11,11,12,12,13,13,14,14,17,17,18,18,19,19,20,20,21,21,22,22,23,23,24,24,25,25,26,26],"right_children":[2,4,6,8,10,12,14,-1,16,18,-1,20,22,24,26,-1,-1,28,30,32,34,36,38,40,42,44,46,-1,-1,-1,-1,-1,-1,-1,-1,-1,-1,-1,-1,-1,-1,-1,-1,-1,-1,-1,-1],"split_conditions":[4.6E1,2.1E1,2.9E2,5.884725E3,4.4E1,1.13E2,3.26E2,1.0809166E-1,4E0,4E1,2.0895313E-1,7.2E0,2.35E2,1.8826E3,3.62E2,2.0883822E-1,-7.593751E-3,2.3E1,2.4834E3,6.05E1,5.4E1,1.38E2,7.043E2,4.9E0,2.98E2,3.49E2,1.008E3,3.835937E-2,1.157526E-1,5.860937E-2,1.3249991E-2,3.665E-2,-2.9179692E-2,-5.030357E-2,3.7854563E-2,-3.2157056E-2,-6.651931E-2,-5.914067E-3,-3.95E-2,-2.259375E-2,4.839284E-3,5.398214E-2,2.4999997E-2,7.0886716E-2,1.4923126E-1,3.140625E-2,7.6093697E-3],"split_indices":[5,5,5,7,5,5,5,0,6,5,0,19,5,7,5,0,0,5,7,25,5,5,7,19,5,5,7,0,0,0,0,0,0,0,0,0,0,0,0,0,0,0,0,0,0,0,0],"split_type":[0,0,0,0,0,0,0,0,0,0,0,0,0,0,0,0,0,0,0,0,0,0,0,0,0,0,0,0,0,0,0,0,0,0,0,0,0,0,0,0,0,0,0,0,0,0,0],"sum_hessian":[4.47E2,6.7E1,3.8E2,3.1E1,3.6E1,3.23E2,5.7E1,1.4E1,1.7E1,3.3E1,3E0,8.4E1,2.39E2,2.9E1,2.8E1,1.6E1,1E0,2.6E1,7E0,2.7E1,5.7E1,1.6E2,7.9E1,7E0,2.2E1,2.4E1,4E0,3E0,2.3E1,3E0,4E0,4E0,2.3E1,6E0,5.1E1,3.8E1,1.22E2,7E0,7.2E1,1E0,6E0,6E0,1.6E1,1.5E1,9E0,1E0,3E0],"tree_param":{"num_deleted":"0","num_feature":"31","num_nodes":"47","size_leaf_vector":"1"}},{"base_weights":[2.3933475E-1,1.3383951E1,-1.8738035E0,1.5030716E1,8.04384E0,-3.3507476E0,7.8475766E0,1.000747E1,1.8081938E1,9.987175E0,-7.6878997E-3,1.0490729E0,-5.0541296E0,9.578919E0,4.3363533E0,1.16976544E-1,5.1974626E0,1.9627657E1,9.143022E-2,1.1006816E-1,2.5795516E-2,3.8220975E0,-1.1785038E0,-6.152925E0,-2.975263E0,5.014773E0,1.1271698E1,-2.3131805E-2,4.834282E0,7.827482E-3,5.80279E-2,2.0159298E-1,3.965777E-2,1.2387211E-2,7.341302E-2,-6.257352E-2,1.1799259E-3,-5.2561607E-2,-8.327852E-2,-1.8292932E-2,-5.3246535E-2,5.738889E-2,1.1708332E-2,1.191348E-1,5.0844193E-2,2.5241096E-2,8.103965E-2],"categories":[],"categories_nodes":[],"categories_segments":[],"categories_sizes":[],"default_left":[0,0,0,0,0,0,0,0,1,1,0,0,0,0,0,0,0,0,0,0,0,0,0,0,0,0,0,0,0,0,0,0,0,0,0,0,0,0,0,0,0,0,0,0,0,0,0],"id":1,"left_children":[1,3,5,7,9,11,13,15,17,19,-1,21,23,25,27,-1,29,31,-1,-1,-1,33,35,37,39,41,43,-1,45,-1,-1,-1,-1,-1,-1,-1,-1,-1,-1,-1,-1,-1,-1,-1,-1,-1,-1],"loss_changes":[1.263556E4,4.3311133E2,5.654606E3,5.39416E2,2.988181E2,2.5609526E3,2.745769E2,1.0179785E2,2.0742188E2,7.735095E1,0E0,5.9750836E2,5.4361914E2,2.0616235E2,7.409143E1,0E0,1.4164322E1,1.1156348E2,0E0,0E0,0E0,3.8183777E2,3.5631262E2,2.6829053E2,2.2449237E2,2.3898773E1,3.4728027E1,0E0,1.155083E2,0E0,0E0,0E0,0E0,0E0,0E0,0E0,0E0,0E0,0E0,0E0,0E0,0E0,0E0,0E0,0E0,0E0,0E0],"parents":[2147483647,0,0,1,1,2,2,3,3,4,4,5,5,6,6,7,7,8,8,9,9,11,11,12,12,13,13,14,14,16,16,17,17,21,21,22,22,23,23,24,24,25,25,26,26,28,28],"right_children":[2,4,6,8,10,12,14,16,18,20,-1,22,24,26,28,-1,30,32,-1,-1,-1,34,36,38,40,42,44,-1,46,-1,-1,-1,-1,-1,-1,-1,-1,-1,-1,-1,-1,-1,-1,-1,-1,-1,-1],"split_conditions":[4.8E1,5E0,3.05E2,3.60925E2,6E0,1.16E2,5E0,3E0,1.43E1,2.4567E3,-7.6878997E-3,7.9E1,3.5E1,3.23E2,2.023E3,1.16976544E-1,2.6E1,4.6E1,9.143022E-2,1.1006816E-1,2.5795516E-2,6.8E1,1.3E1,5E0,5E0,4E0,3.57E2,-2.3131805E-2,3.47E2,7.827482E-3,5.80279E-2,2.0159298E-1,3.965777E-2,1.2387211E-2,7.341302E-2,-6.257352E-2,1.1799259E-3,-5.2561607E-2,-8.327852E-2,-1.8292932E-2,-5.3246535E-2,5.738889E-2,1.1708332E-2,1.191348E-1,5.0844193E-2,2.5241096E-2,8.103965E-2],"split_indices":[5,1,5,25,6,5,1,1,19,7,0,5,6,5,4,0,5,5,0,0,0,5,6,1,1,1,5,0,5,0,0,0,0,0,0,0,0,0,0,0,0,0,0,0,0,0,0],"split_type":[0,0,0,0,0,0,0,0,0,0,0,0,0,0,0,0,0,0,0,0,0,0,0,0,0,0,0,0,0,0,0,0,0,0,0,0,0,0,0,0,0,0,0,0,0,0,0],"sum_hessian":[4.53E2,6.2E1,3.91E2,4.6E1,1.6E1,3.4E2,5.1E1,1.9E1,2.7E1,1.3E1,3E0,9.5E1,2.45E2,3.3E1,1.8E1,1.3E1,6E0,2.2E1,5E0,1.1E1,2E0,4.2E1,5.3E1,1.59E2,8.6E1,1E1,2.3E1,1E0,1.7E1,1E0,5E0,2.1E1,1E0,2.5E1,1.7E1,1E1,4.3E1,1.15E2,4.4E1,5.9E1,2.7E1,8E0,2E0,2E1,3E0,1.1E1,6E0],"tree_param":{"num_deleted":"0","num_feature":"31","num_nodes":"47","size_leaf_vector":"1"}},{"base_weights":[1.6970885E-1,1.2215332E1,-1.8182431E0,1.3954968E1,5.9067826E0,-3.065021E0,8.08556E0,9.533652E0,1.6980324E1,9.1986065E0,2.3244076E0,2.4161544E0,-4.7666197E0,4.649902E0,1.020378E1,1.0960212E1,4.7072E0,1.7774504E1,4.1725907E0,2.3374748E0,1.1096071E-1,-4.5040514E-2,3.7409716E0,9.883986E0,1.7238636E0,-3.9812973E0,-6.8927755E0,5.70934E0,1.4028965E0,1.0957459E1,5.218585E-1,1.2382748E-1,6.288436E-2,7.7883434E-3,5.2321218E-2,4.631951E-2,1.8101832E-1,-1.9722853E-2,8.231171E-2,6.5742604E-2,-3.0680483E-2,1.0490217E-2,3.9756756E-2,1.5173255E-1,2.1237202E-2,-4.2663492E-2,2.274653E-2,-4.803137E-2,-2.0163672E-2,-7.512791E-3,-7.148909E-2,2.076036E-2,6.9550574E-2,5.37618E-5,2.1003127E-2,3.8719475E-2,1.21227026E-1,-2.3016142E-2,3.084402E-2],"categories":[],"categories_nodes":[],"categories_segments":[],"categories_sizes":[],"default_left":[0,0,0,0,0,0,0,0,0,0,0,0,0,0,0,0,0,0,0,0,0,0,0,0,0,0,0,0,0,0,0,0,0,0,0,0,0,0,0,0,0,0,0,0,0,0,0,0,0,0,0,0,0,0,0,0,0,0,0],"id":2,"left_children":[1,3,5,7,9,11,13,15,17,19,21,23,25,27,29,31,33,35,37,39,-1,-1,41,43,45,47,49,51,53,55,57,-1,-1,-1,-1,-1,-1,-1,-1,-1,-1,-1,-1,-1,-1,-1,-1,-1,-1,-1,-1,-1,-1,-1,-1,-1,-1,-1,-1],"loss_changes":[1.1157156E4,6.4189355E2,4.963919E3,5.2029395E2,1.672995E2,3.3318442E3,2.8004004E2,1.0676807E2,2.208125E2,7.821326E1,1.0390607E2,4.2240393E2,4.2672168E2,5.7350403E1,1.9130225E2,3.5109985E1,1.035965E1,3.230664E1,9.105266E1,8.887629E1,0E0,0E0,8.8391876E-1,2.5509918E2,2.7035278E2,3.149016E2,1.0788818E2,4.8926025E1,5.836628E0,1.5947046E2,2.880492E1,0E0,0E0,0E0,0E0,0E0,0E0,0E0,0E0,0E0,0E0,0E0,0E0,0E0,0E0,0E0,0E0,0E0,0E0,0E0,0E0,0E0,0E0,0E0,0E0,0E0,0E0,0E0,0E0],"parents":[2147483647,0,0,1,1,2,2,3,3,4,4,5,5,6,6,7,7,8,8,9,9,10,10,11,11,12,12,13,13,14,14,15,15,16,16,17,17,18,18,19,19,22,22,23,23,24,24,25,25,26,26,27,27,28,28,29,29,30,30],"right_children":[2,4,6,8,10,12,14,16,18,20,22,24,26,28,30,32,34,36,38,40,-1,-1,42,44,46,48,50,52,54,56,58,-1,-1,-1,-1,-1,-1,-1,-1,-1,-1,-1,-1,-1,-1,-1,-1,-1,-1,-1,-1,-1,-1,-1,-1,-1,-1,-1,-1],"split_conditions":[8E0,6E0,1.1E1,2.510125E2,3E0,1.6E1,1.4E1,2E1,6E0,7E0,4E0,3E0,5E0,5E0,3.1E1,2.76E1,1.01E1,2E0,6E0,6E0,1.1096071E-1,-4.5040514E-2,9.64E1,2E0,4.9E0,3.5E1,1.7E1,2E0,6E0,4.7E1,6E0,1.2382748E-1,6.288436E-2,7.7883434E-3,5.2321218E-2,4.631951E-2,1.8101832E-1,-1.9722853E-2,8.231171E-2,6.5742604E-2,-3.0680483E-2,1.0490217E-2,3.9756756E-2,1.5173255E-1,2.1237202E-2,-4.2663492E-2,2.274653E-2,-4.803137E-2,-2.0163672E-2,-7.512791E-3,-7.148909E-2,2.076036E-2,6.9550574E-2,5.37618E-5,2.1003127E-2,3.8719475E-2,1.21227026E-1,-2.3016142E-2,3.084402E-2],"split_indices":[6,6,3,22,1,6,0,0,1,0,1,0,1,1,0,28,16,0,0,0,0,0,22,2,19,6,6,1,1,6,1,0,0,0,0,0,0,0,0,0,0,0,0,0,0,0,0,0,0,0,0,0,0,0,0,0,0,0,0],"split_type":[0,0,0,0,0,0,0,0,0,0,0,0,0,0,0,0,0,0,0,0,0,0,0,0,0,0,0,0,0,0,0,0,0,0,0,0,0,0,0,0,0,0,0,0,0,0,0,0,0,0,0,0,0,0,0,0,0,0,0],"sum_hessian":[4.64E2,6.5E1,3.99E2,5E1,1.5E1,3.55E2,4.4E1,2.2E1,2.8E1,7E0,8E0,8.4E1,2.71E2,1.8E1,2.6E1,1.6E1,6E0,2.6E1,2E0,2E0,5E0,1E0,7E0,6E0,7.8E1,2E2,7.1E1,1.3E1,5E0,2.4E1,2E0,1.1E1,5E0,1E0,5E0,1E0,2.5E1,1E0,1E0,1E0,1E0,1E0,6E0,3E0,3E0,6E0,7.2E1,1.4E2,6E1,3E0,6.8E1,4E0,9E0,2E0,3E0,4E0,2E1,1E0,1E0],"tree_param":{"num_deleted":"0","num_feature":"31","num_nodes":"59","size_leaf_vector":"1"}},{"base_weights":[1.745339E-1,1.0225723E1,-2.8576849E0,1.3270643E1,5.10188E0,-4.301768E0,8.45357E0,1.4970932E1,8.67137E0,1.313622E0,8.046184E0,4.2627507E-1,-5.0000277E0,1.0126659E1,4.3840604E0,1.8387672E1,1.1751675E1,9.820404E0,-1.4963061E0,2.3729465E0,-2.3389406E0,2.5163255E0,1.2531731E1,2.5031683E0,-2.0873108E0,-5.500933E0,6.765289E-1,5.5070596E0,1.2268182E1,5.0591235E0,2.2245438E-1,1.10152856E-1,2.1093765E-1,9.724408E-2,1.9132216E-1,8.560755E-3,1.0824672E-1,-2.8203486E-3,-1.9624243E-2,-5.560773E-3,3.7548732E-2,1.9071076E-2,-5.805342E-2,3.750236E-2,-2.4354855E-2,1.251831E-2,1.4468817E-1,-8.629739E-3,4.5803856E-2,-4.7306325E-2,5.054651E-3,-4.815262E-2,-7.028307E-2,2.2571316E-2,-2.766818E-2,3.0988898E-2,6.440458E-2,1.2566327E-1,3.4507837E-2,2.557803E-2,9.4223134E-2,2.6237879E-2,-2.2901062E-2],"categories":[],"categories_nodes":[],"categories_segments":[],"categories_sizes":[],"default_left":[0,0,0,0,0,0,0,0,0,1,0,1,0,0,0,0,0,0,0,0,0,0,0,0,0,0,0,0,0,0,0,0,0,0,0,0,0,0,0,0,0,0,0,0,0,0,0,0,0,0,0,0,0,0,0,0,0,0,0,0,0,0,0],"id":3,"left_children":[1,3,5,7,9,11,13,15,17,19,21,23,25,27,29,31,33,35,37,39,41,43,45,47,49,51,53,55,57,59,61,-1,-1,-1,-1,-1,-1,-1,-1,-1,-1,-1,-1,-1,-1,-1,-1,-1,-1,-1,-1,-1,-1,-1,-1,-1,-1,-1,-1,-1,-1,-1,-1],"loss_changes":[1.4597421E4,1.664084E3,6.04742E3,4.0976855E2,4.6904285E2,1.0816904E3,2.4156738E2,3.228828E2,2.6003748E2,8.293516E1,5.637726E2,2.2970421E2,8.140957E2,2.1933472E2,3.8205414E1,2.065542E2,2.3289575E2,1.6178271E2,1.1445098E0,6.685115E1,8.466395E1,8.2454765E1,2.6593945E2,1.7176573E2,1.3946202E2,2.4054297E2,1.3686661E2,4.767334E0,6.584961E0,1.0686447E2,2.4109241E1,0E0,0E0,0E0,0E0,0E0,0E0,0E0,0E0,0E0,0E0,0E0,0E0,0E0,0E0,0E0,0E0,0E0,0E0,0E0,0E0,0E0,0E0,0E0,0E0,0E0,0E0,0E0,0E0,0E0,0E0,0E0,0E0],"parents":[2147483647,0,0,1,1,2,2,3,3,4,4,5,5,6,6,7,7,8,8,9,9,10,10,11,11,12,12,13,13,14,14,15,15,16,16,17,17,18,18,19,19,20,20,21,21,22,22,23,23,24,24,25,25,26,26,27,27,28,28,29,29,30,30],"right_children":[2,4,6,8,10,12,14,16,18,20,22,24,26,28,30,32,34,36,38,40,42,44,46,48,50,52,54,56,58,60,62,-1,-1,-1,-1,-1,-1,-1,-1,-1,-1,-1,-1,-1,-1,-1,-1,-1,-1,-1,-1,-1,-1,-1,-1,-1,-1,-1,-1,-1,-1,-1,-1],"split_conditions":[7.5E1,4.6E1,1.1E1,5E0,3E0,1.05E2,5E0,2.1E1,3.6E1,1.16E1,2.7237E3,6.05E1,2.89E2,3.23E2,3.59E2,2.88E1,4.4E1,7E0,6E0,2E0,4.9E1,1.65E2,2E0,8.3E1,1.24E1,5E0,4E0,2E0,3.57E2,3.44E2,7.677E2,1.10152856E-1,2.1093765E-1,9.724408E-2,1.9132216E-1,8.560755E-3,1.0824672E-1,-2.8203486E-3,-1.9624243E-2,-5.560773E-3,3.7548732E-2,1.9071076E-2,-5.805342E-2,3.750236E-2,-2.4354855E-2,1.251831E-2,1.4468817E-1,-8.629739E-3,4.5803856E-2,-4.7306325E-2,5.054651E-3,-4.815262E-2,-7.028307E-2,2.2571316E-2,-2.766818E-2,3.0988898E-2,6.440458E-2,1.2566327E-1,3.4507837E-2,2.557803E-2,9.4223134E-2,2.6237879E-2,-2.2901062E-2],"split_indices":[5,5,3,1,3,5,1,5,5,28,7,25,5,5,5,28,5,5,1,1,5,22,1,5,28,1,1,1,5,5,7,0,0,0,0,0,0,0,0,0,0,0,0,0,0,0,0,0,0,0,0,0,0,0,0,0,0,0,0,0,0,0,0],"split_type":[0,0,0,0,0,0,0,0,0,0,0,0,0,0,0,0,0,0,0,0,0,0,0,0,0,0,0,0,0,0,0,0,0,0,0,0,0,0,0,0,0,0,0,0,0,0,0,0,0,0,0,0,0,0,0,0,0,0,0,0,0,0,0],"sum_hessian":[4.77E2,1.1E2,3.67E2,6.8E1,4.2E1,3.26E2,4.1E1,4.8E1,2E1,1.9E1,2.3E1,4.2E1,2.84E2,2.8E1,1.3E1,2.1E1,2.7E1,1.8E1,2E0,1.5E1,4E0,1.1E1,1.2E1,2.3E1,1.9E1,2.61E2,2.3E1,1E1,1.8E1,1.1E1,2E0,7E0,1.4E1,2.3E1,4E0,2E0,1.6E1,1E0,1E0,5E0,1E1,2E0,2E0,9E0,2E0,2E0,1E1,9E0,1.4E1,9E0,1E1,1.83E2,7.8E1,1.6E1,7E0,4E0,6E0,1.7E1,1E0,8E0,3E0,1E0,1E0],"tree_param":{"num_deleted":"0","num_feature":"31","num_nodes":"63","size_leaf_vector":"1"}},{"base_weights":[-2.6555556E-1,1.2822467E1,-2.2558393E0,1.6589796E1,9.34283E0,-3.3895445E0,7.5153437E0,1.04010634E-1,2.0581278E1,-7.2026965E-3,9.669599E0,2.009174E0,-5.0144644E0,5.2677603E0,1.0838432E1,2.1333991E-1,4.645278E-2,1.1468258E1,6.746657E0,-2.4143991E0,3.0058117E0,-5.326012E0,-7.4477667E-1,5.5751724E0,2.106349E0,1.5837628E-1,5.190432E0,1.4736515E-1,6.199471E-2,1.8556435E-2,1.3773903E-1,5.1602125E-3,-4.7509506E-2,-2.030322E-3,4.0587615E-2,-2.5704397E-2,-5.8499176E-2,1.3204332E-2,-1.5212089E-2,4.079357E-2,7.614936E-2,-7.202549E-3,3.2886352E-2,-2.2786554E-2,6.408899E-2],"categories":[],"categories_nodes":[],"categories_segments":[],"categories_sizes":[],"default_left":[0,0,0,0,0,0,0,0,1,0,0,0,0,0,0,0,0,1,1,0,0,0,0,0,0,0,0,0,0,0,0,0,0,0,0,0,0,0,0,0,0,0,0,0,0],"id":4,"left_children":[1,3,5,7,9,11,13,-1,15,-1,17,19,21,23,25,-1,-1,27,29,31,33,35,37,39,41,-1,43,-1,-1,-1,-1,-1,-1,-1,-1,-1,-1,-1,-1,-1,-1,-1,-1,-1,-1],"loss_changes":[1.2037459E4,6.4464844E2,4.4676074E3,4.7759473E2,1.1876709E2,3.1681694E3,2.5660034E2,0E0,9.282178E1,0E0,9.612109E1,3.7758798E2,3.6450146E2,1.4496826E1,3.6956323E2,0E0,0E0,2.358169E2,4.8999585E2,1.12004845E2,2.3395789E2,3.5742773E2,3.4078568E1,4.2162537E1,1.5736074E1,0E0,9.651128E1,0E0,0E0,0E0,0E0,0E0,0E0,0E0,0E0,0E0,0E0,0E0,0E0,0E0,0E0,0E0,0E0,0E0,0E0],"parents":[2147483647,0,0,1,1,2,2,3,3,4,4,5,5,6,6,8,8,10,10,11,11,12,12,13,13,14,14,17,17,18,18,19,19,20,20,21,21,22,22,23,23,24,24,26,26],"right_children":[2,4,6,8,10,12,14,-1,16,-1,18,20,22,24,26,-1,-1,28,30,32,34,36,38,40,42,-1,44,-1,-1,-1,-1,-1,-1,-1,-1,-1,-1,-1,-1,-1,-1,-1,-1,-1,-1],"split_conditions":[4.5E1,4E0,3.05E2,3.60925E2,3E0,1.04E2,3.49E2,1.04010634E-1,1.43E1,-7.2026965E-3,3.5E1,6E0,2.88E2,3.41E2,3.57E2,2.1333991E-1,4.645278E-2,1.7224E3,6.6E0,8E1,6E1,1.38E2,2.93E2,4.7E1,3.44E2,1.5837628E-1,2.023E3,1.4736515E-1,6.199471E-2,1.8556435E-2,1.3773903E-1,5.1602125E-3,-4.7509506E-2,-2.030322E-3,4.0587615E-2,-2.5704397E-2,-5.8499176E-2,1.3204332E-2,-1.5212089E-2,4.079357E-2,7.614936E-2,-7.202549E-3,3.2886352E-2,-2.2786554E-2,6.408899E-2],"split_indices":[5,6,5,25,5,5,5,0,19,0,5,19,5,5,5,0,0,7,19,5,5,5,5,6,5,0,4,0,0,0,0,0,0,0,0,0,0,0,0,0,0,0,0,0,0],"split_type":[0,0,0,0,0,0,0,0,0,0,0,0,0,0,0,0,0,0,0,0,0,0,0,0,0,0,0,0,0,0,0,0,0,0,0,0,0,0,0,0,0,0,0,0,0],"sum_hessian":[4.6E2,6E1,4E2,2.7E1,3.3E1,3.59E2,4.1E1,1.2E1,1.5E1,1E0,3.2E1,8.3E1,2.76E2,2.6E1,1.5E1,1.4E1,1E0,1.8E1,1.4E1,1.5E1,6.8E1,2.57E2,1.9E1,2.3E1,3E0,7E0,8E0,1E1,8E0,9E0,5E0,7E0,8E0,1.7E1,5.1E1,4.2E1,2.15E2,5E0,1.4E1,1.5E1,8E0,1E0,2E0,1E0,7E0],"tree_param":{"num_deleted":"0","num_feature":"31","num_nodes":"45","size_leaf_vector":"1"}},{"base_weights":[1.2620737E-1,9.21701E0,-2.6463344E0,1.3317331E1,5.240555E0,-3.9573672E0,7.4991393E0,1.7060989E-1,9.231756E0,7.2590175E0,7.153411E-1,3.3069208E-1,-4.800322E0,-2.267262E-2,7.792643E0,6.9532106E-3,9.522168E0,7.661646E0,-4.221748E-2,-3.3434486E0,1.3895192E0,2.0984464E0,-2.1431699E0,-5.2639313E0,6.6508746E-1,4.3802757E0,8.752108E0,1.0129074E-1,4.8259653E-2,3.41764E-2,8.8209264E-2,-8.509769E-3,-4.1641958E-2,3.4570534E-2,2.3995882E-3,3.390561E-2,-3.3762518E-3,-2.914647E-2,3.9715607E-2,-4.3973017E-2,-7.374674E-2,3.3673864E-2,-1.4647647E-2,1.8841872E-2,5.0807856E-2,9.368717E-2,3.6719926E-2],"categories":[],"categories_nodes":[],"categories_segments":[],"categories_sizes":[],"default_left":[0,0,0,1,0,0,0,0,0,1,0,1,0,0,0,0,0,0,0,0,0,0,0,0,0,0,0,0,0,0,0,0,0,0,0,0,0,0,0,0,0,0,0,0,0,0,0],"id":5,"left_children":[1,3,5,7,9,11,13,-1,15,17,19,21,23,-1,25,-1,27,29,-1,31,33,35,37,39,41,43,45,-1,-1,-1,-1,-1,-1,-1,-1,-1,-1,-1,-1,-1,-1,-1,-1,-1,-1,-1,-1],"loss_changes":[1.1971386E4,1.7400361E3,4.8712583E3,6.684258E2,5.24578E2,1.1691167E3,1.3806006E2,0E0,6.2793457E1,2.1724487E2,5.6636387E1,2.4064903E2,6.876304E2,0E0,9.589917E1,0E0,2.8071533E1,1.6173291E2,0E0,2.5934334E0,3.9575294E1,1.0187062E2,1.2007534E2,4.230498E2,1.3155338E2,9.660721E0,6.27041E1,0E0,0E0,0E0,0E0,0E0,0E0,0E0,0E0,0E0,0E0,0E0,0E0,0E0,0E0,0E0,0E0,0E0,0E0,0E0,0E0],"parents":[2147483647,0,0,1,1,2,2,3,3,4,4,5,5,6,6,8,8,9,9,10,10,11,11,12,12,14,14,16,16,17,17,19,19,20,20,21,21,22,22,23,23,24,24,25,25,26,26],"right_children":[2,4,6,8,10,12,14,-1,16,18,20,22,24,-1,26,-1,28,30,-1,32,34,36,38,40,42,44,46,-1,-1,-1,-1,-1,-1,-1,-1,-1,-1,-1,-1,-1,-1,-1,-1,-1,-1,-1,-1],"split_conditions":[7.7E1,6E0,4.5E1,1.4352E3,5E0,1.15E2,2.023E3,1.7060989E-1,1.01E1,3.75375E1,7.38E1,4.6E1,2.9E2,-2.267262E-2,4.7E1,6.9532106E-3,6E0,1E0,-4.221748E-2,6.4E1,1.7224E3,5E0,2.04E1,5E0,3E0,3.13E2,3.62E2,1.0129074E-1,4.8259653E-2,3.41764E-2,8.8209264E-2,-8.509769E-3,-4.1641958E-2,3.4570534E-2,2.3995882E-3,3.390561E-2,-3.3762518E-3,-2.914647E-2,3.9715607E-2,-4.3973017E-2,-7.374674E-2,3.3673864E-2,-1.4647647E-2,1.8841872E-2,5.0807856E-2,9.368717E-2,3.6719926E-2],"split_indices":[5,6,6,7,1,5,4,0,16,28,22,22,5,0,6,0,1,1,0,5,7,1,28,1,1,5,5,0,0,0,0,0,0,0,0,0,0,0,0,0,0,0,0,0,0,0,0],"split_type":[0,0,0,0,0,0,0,0,0,0,0,0,0,0,0,0,0,0,0,0,0,0,0,0,0,0,0,0,0,0,0,0,0,0,0,0,0,0,0,0,0,0,0,0,0,0,0],"sum_hessian":[4.73E2,1.1E2,3.63E2,5.3E1,5.7E1,3.22E2,4.1E1,2.6E1,2.7E1,3.9E1,1.8E1,5.3E1,2.69E2,1E0,4E1,1E0,2.6E1,3.8E1,1E0,2E0,1.6E1,3.1E1,2.2E1,2.48E2,2.1E1,1E1,3E1,2.2E1,4E0,9E0,2.9E1,1E0,1E0,5E0,1.1E1,2E1,1.1E1,2E1,2E0,1.78E2,7E1,9E0,1.2E1,3E0,7E0,2.6E1,4E0],"tree_param":{"num_deleted":"0","num_feature":"31","num_nodes":"47","size_leaf_vector":"1"}},{"base_weights":[-1.5327676E-1,9.849208E0,-2.9236233E0,1.3462505E1,6.1136365E0,-4.337799E0,7.635578E0,9.68092E0,1.5467964E1,7.6021E0,1.1779659E0,-1.23153806E-1,-5.2153835E0,5.0613966E0,9.286532E0,6.9184494E-3,1.0117616E1,2.4555418E0,1.6280699E1,5.499831E0,1.13835745E1,-2.5642657E0,4.7519164E0,-1.3437864E0,4.017691E0,-5.672407E0,-6.193452E-1,6.0760202E0,3.2589234E-2,1.3448475E1,5.0558295E0,1.0751731E-1,5.0517518E-2,-7.1786833E-3,4.4011813E-2,1.8293172E-1,9.775963E-2,1.6803859E-1,3.9233543E-2,1.6657268E-1,8.135739E-2,3.3310305E-2,-5.58859E-2,1.3690863E-2,5.0875407E-2,-5.449647E-3,-4.389763E-2,-1.7610531E-2,5.9274197E-2,-6.2008083E-2,-3.6910497E-2,1.3987493E-4,-2.6272299E-2,1.5975812E-2,6.89372E-2,1.1875544E-2,1.4455144E-1,5.769451E-2,5.160672E-3],"categories":[],"categories_nodes":[],"categories_segments":[],"categories_sizes":[],"default_left":[0,0,0,0,0,0,0,0,0,0,0,0,0,0,0,0,0,0,0,0,0,0,0,0,0,1,0,0,0,0,0,0,0,0,0,0,0,0,0,0,0,0,0,0,0,0,0,0,0,0,0,0,0,0,0,0,0,0,0],"id":6,"left_children":[1,3,5,7,9,11,13,15,17,19,21,23,25,27,29,-1,31,33,35,37,39,41,43,45,47,49,51,53,-1,55,57,-1,-1,-1,-1,-1,-1,-1,-1,-1,-1,-1,-1,-1,-1,-1,-1,-1,-1,-1,-1,-1,-1,-1,-1,-1,-1,-1,-1],"loss_changes":[1.2775555E4,1.2674688E3,5.4237783E3,2.2944727E2,3.6571997E2,1.1792451E3,1.3574121E2,7.151013E1,2.878667E2,2.4742969E2,1.8605432E2,2.8844812E2,5.5101807E2,1.4946472E1,3.7220532E2,0E0,6.7193604E0,2.1682404E1,2.0079443E2,4.15227E2,8.714575E1,1.434208E2,9.8223877E-1,1.04668175E2,1.5390436E2,2.2838184E2,3.1828224E1,2.926892E1,0E0,1.3094604E2,4.237799E1,0E0,0E0,0E0,0E0,0E0,0E0,0E0,0E0,0E0,0E0,0E0,0E0,0E0,0E0,0E0,0E0,0E0,0E0,0E0,0E0,0E0,0E0,0E0,0E0,0E0,0E0,0E0,0E0],"parents":[2147483647,0,0,1,1,2,2,3,3,4,4,5,5,6,6,7,7,8,8,9,9,10,10,11,11,12,12,13,13,14,14,16,16,17,17,18,18,19,19,20,20,21,21,22,22,23,23,24,24,25,25,26,26,27,27,29,29,30,30],"right_children":[2,4,6,8,10,12,14,16,18,20,22,24,26,28,30,-1,32,34,36,38,40,42,44,46,48,50,52,54,-1,56,58,-1,-1,-1,-1,-1,-1,-1,-1,-1,-1,-1,-1,-1,-1,-1,-1,-1,-1,-1,-1,-1,-1,-1,-1,-1,-1,-1,-1],"split_conditions":[7.7E1,3.5E1,3.11E2,3.60925E2,1.8E1,1.16E2,1.4E1,1.01E1,2E0,1.3E1,2.3E1,2.4E1,2.88E2,1E1,2.4E1,6.9184494E-3,2.4E1,2E0,2.1E1,3E0,4.6E1,8.9E0,1.682E2,2.1E1,1.9E1,6E0,2.6E1,3.13E2,3.2589234E-2,3.23E2,3.1E1,1.0751731E-1,5.0517518E-2,-7.1786833E-3,4.4011813E-2,1.8293172E-1,9.775963E-2,1.6803859E-1,3.9233543E-2,1.6657268E-1,8.135739E-2,3.3310305E-2,-5.58859E-2,1.3690863E-2,5.0875407E-2,-5.449647E-3,-4.389763E-2,-1.7610531E-2,5.9274197E-2,-6.2008083E-2,-3.6910497E-2,1.3987493E-4,-2.6272299E-2,1.5975812E-2,6.89372E-2,1.1875544E-2,1.4455144E-1,5.769451E-2,5.160672E-3],"split_indices":[5,5,5,25,0,5,0,16,0,0,0,0,5,0,0,0,0,3,0,0,5,13,25,0,13,19,0,5,0,5,0,0,0,0,0,0,0,0,0,0,0,0,0,0,0,0,0,0,0,0,0,0,0,0,0,0,0,0,0],"split_type":[0,0,0,0,0,0,0,0,0,0,0,0,0,0,0,0,0,0,0,0,0,0,0,0,0,0,0,0,0,0,0,0,0,0,0,0,0,0,0,0,0,0,0,0,0,0,0,0,0,0,0,0,0,0,0,0,0,0,0],"sum_hessian":[4.59E2,9.9E1,3.6E2,4.9E1,5E1,3.18E2,4.2E1,1.9E1,3E1,3.8E1,1.2E1,5.5E1,2.63E2,1.8E1,2.4E1,1E0,1.8E1,2E0,2.8E1,2.6E1,1.2E1,6E0,6E0,4.3E1,1.2E1,2.39E2,2.4E1,1E1,8E0,1.1E1,1.3E1,1.5E1,3E0,1E0,1E0,2E1,8E0,2E0,2.4E1,3E0,9E0,2E0,4E0,1E0,5E0,3.5E1,8E0,3E0,9E0,1.87E2,5.2E1,1.9E1,5E0,2E0,8E0,1E0,1E1,1.1E1,2E0],"tree_param":{"num_deleted":"0","num_feature":"31","num_nodes":"59","size_leaf_vector":"1"}},{"base_weights":[-7.242313E-2,1.1985104E1,-1.8723089E0,1.4283806E1,8.60159E0,-2.9331052E0,6.862311E0,1.473273E1,-7.142787E-3,6.8838596E-3,8.869176E0,2.1049647E0,-4.406875E0,3.5835154E0,8.333227E0,1.7358585E-1,1.0529616E1,6.3740015E0,9.961984E-2,3.69267E0,-9.747402E-2,-5.3887258E0,-2.2479835E0,3.7203792E-2,7.652788E-3,9.291375E0,1.4925864E0,8.0996715E-2,1.5794533E-1,7.255491E-2,3.0175213E-2,-2.0726519E-2,4.6794124E-2,-6.5244295E-2,1.1106262E-2,-3.1819165E-2,-6.289575E-2,-3.0740095E-2,3.9966144E-3,6.591099E-2,1.2619859E-1,2.5314169E-2,6.0002445E-3],"categories":[],"categories_nodes":[],"categories_segments":[],"categories_sizes":[],"default_left":[0,1,0,0,0,0,0,0,0,0,0,1,0,0,0,0,0,0,0,0,0,0,0,0,0,0,0,0,0,0,0,0,0,0,0,0,0,0,0,0,0,0,0],"id":7,"left_children":[1,3,5,7,9,11,13,15,-1,-1,17,19,21,23,25,-1,27,29,-1,31,33,35,37,-1,-1,39,41,-1,-1,-1,-1,-1,-1,-1,-1,-1,-1,-1,-1,-1,-1,-1,-1],"loss_changes":[1.052629E4,3.6712988E2,3.930233E3,2.5291211E2,5.318335E1,2.8084849E3,1.9198828E2,2.0350732E2,0E0,0E0,1.0124512E1,3.0108685E2,6.068413E2,3.3243103E0,1.893164E2,0E0,7.676477E1,1.0652161E1,0E0,2.94143E2,2.9452927E2,3.7758838E2,2.0462177E2,0E0,0E0,1.5949268E2,3.1171913E0,0E0,0E0,0E0,0E0,0E0,0E0,0E0,0E0,0E0,0E0,0E0,0E0,0E0,0E0,0E0,0E0],"parents":[2147483647,0,0,1,1,2,2,3,3,4,4,5,5,6,6,7,7,10,10,11,11,12,12,13,13,14,14,16,16,17,17,19,19,20,20,21,21,22,22,25,25,26,26],"right_children":[2,4,6,8,10,12,14,16,-1,-1,18,20,22,24,26,-1,28,30,-1,32,34,36,38,-1,-1,40,42,-1,-1,-1,-1,-1,-1,-1,-1,-1,-1,-1,-1,-1,-1,-1,-1],"split_conditions":[4.8E1,9.6E0,3.05E2,8E0,1.01E1,1.04E2,4.7E1,3.4E1,-7.142787E-3,6.8838596E-3,1.53E2,9.813E2,2.45E2,3.23E2,3.62E2,1.7358585E-1,4.3E1,1.258E2,9.961984E-2,5.4E1,1.0414E3,1.46E2,2.9E2,3.7203792E-2,7.652788E-3,3.49E2,7.677E2,8.0996715E-2,1.5794533E-1,7.255491E-2,3.0175213E-2,-2.0726519E-2,4.6794124E-2,-6.5244295E-2,1.1106262E-2,-3.1819165E-2,-6.289575E-2,-3.0740095E-2,3.9966144E-3,6.591099E-2,1.2619859E-1,2.5314169E-2,6.0002445E-3],"split_indices":[5,28,5,6,16,5,6,5,0,0,22,7,5,5,5,0,5,22,0,5,7,5,5,0,0,5,7,0,0,0,0,0,0,0,0,0,0,0,0,0,0,0,0],"split_type":[0,0,0,0,0,0,0,0,0,0,0,0,0,0,0,0,0,0,0,0,0,0,0,0,0,0,0,0,0,0,0,0,0,0,0,0,0,0,0,0,0,0,0],"sum_hessian":[4.83E2,6.2E1,4.21E2,3.5E1,2.7E1,3.76E2,4.5E1,3.4E1,1E0,1E0,2.6E1,8.5E1,2.91E2,1.5E1,3E1,1.9E1,1.5E1,1E1,1.6E1,4.9E1,3.6E1,1.99E2,9.2E1,1.4E1,1E0,2.6E1,4E0,1.2E1,3E0,7E0,3E0,7E0,4.2E1,5E0,3.1E1,5.9E1,1.4E2,7E1,2.2E1,1.6E1,1E1,1E0,3E0],"tree_param":{"num_deleted":"0","num_feature":"31","num_nodes":"43","size_leaf_vector":"1"}},{"base_weights":[7.0144184E-2,1.2551243E1,-2.100661E0,1.5149784E1,8.044207E0,-3.2323275E0,7.6387424E0,1.6564016E1,8.967835E0,9.881093E0,2.4464655E0,1.4433402E0,-4.9481096E0,9.205178E0,3.960246E0,1.2159949E1,1.9169123E1,1.03494845E-1,2.2941616E0,1.0316172E-1,3.976916E-2,7.03195E-1,4.0139373E-2,-8.5195625E-1,3.440301E0,-6.3078337E0,-2.398418E0,5.410656E-2,1.0717813E1,4.6128044E0,-2.2615066E-2,1.5230107E-1,6.4754665E-2,2.1642053E-1,1.0204097E-1,2.756298E-2,6.849441E-3,3.451203E-2,-8.466079E-3,1.906146E-2,-2.7612891E-2,1.0915028E-1,2.5719192E-2,-4.1615892E-2,-6.9510475E-2,-3.3615272E-2,9.720187E-3,1.1572549E-1,2.3017032E-2,2.2350397E-2,7.970219E-2],"categories":[],"categories_nodes":[],"categories_segments":[],"categories_sizes":[],"default_left":[0,0,0,1,0,0,0,0,0,1,0,0,0,0,0,0,0,0,0,0,0,0,0,0,0,0,0,0,0,0,0,0,0,0,0,0,0,0,0,0,0,0,0,0,0,0,0,0,0,0,0],"id":8,"left_children":[1,3,5,7,9,11,13,15,17,19,21,23,25,27,29,31,33,-1,35,-1,-1,37,-1,39,41,43,45,-1,47,49,-1,-1,-1,-1,-1,-1,-1,-1,-1,-1,-1,-1,-1,-1,-1,-1,-1,-1,-1,-1,-1],"loss_changes":[1.2435433E4,6.745293E2,4.3341973E3,2.1865137E2,2.5345154E2,2.8230134E3,1.9979224E2,1.4551465E2,6.846332E1,1.0349243E1,1.9037643E1,4.3837463E2,8.758584E2,1.02721924E2,6.727269E1,1.6316211E2,2.0039014E2,0E0,3.4312344E-1,0E0,0E0,2.4216173E1,0E0,2.4223953E2,3.029641E2,2.0161523E2,2.9866248E2,0E0,1.1004077E2,8.596707E1,0E0,0E0,0E0,0E0,0E0,0E0,0E0,0E0,0E0,0E0,0E0,0E0,0E0,0E0,0E0,0E0,0E0,0E0,0E0,0E0,0E0],"parents":[2147483647,0,0,1,1,2,2,3,3,4,4,5,5,6,6,7,7,8,8,9,9,10,10,11,11,12,12,13,13,14,14,15,15,16,16,18,18,21,21,23,23,24,24,25,25,26,26,28,28,29,29],"right_children":[2,4,6,8,10,12,14,16,18,20,22,24,26,28,30,32,34,-1,36,-1,-1,38,-1,40,42,44,46,-1,48,50,-1,-1,-1,-1,-1,-1,-1,-1,-1,-1,-1,-1,-1,-1,-1,-1,-1,-1,-1,-1,-1],"split_conditions":[4.6E1,4E0,1.1E1,4E-1,6E0,1.16E2,5E0,1E1,2.3E1,5E-1,2.024E3,2.54E1,2.4E2,3.23E2,3.1E1,2E0,2.4E1,1.03494845E-1,2.5E1,1.0316172E-1,3.976916E-2,5E0,4.0139373E-2,7.7E1,3E0,1.45E2,2.9E2,5.410656E-2,3.62E2,3.47E2,-2.2615066E-2,1.5230107E-1,6.4754665E-2,2.1642053E-1,1.0204097E-1,2.756298E-2,6.849441E-3,3.451203E-2,-8.466079E-3,1.906146E-2,-2.7612891E-2,1.0915028E-1,2.5719192E-2,-4.1615892E-2,-6.9510475E-2,-3.3615272E-2,9.720187E-3,1.1572549E-1,2.3017032E-2,2.2350397E-2,7.970219E-2],"split_indices":[5,1,3,10,6,5,1,0,0,10,4,28,5,5,0,3,0,0,0,0,0,1,0,5,0,5,5,0,5,5,0,0,0,0,0,0,0,0,0,0,0,0,0,0,0,0,0,0,0,0,0],"split_type":[0,0,0,0,0,0,0,0,0,0,0,0,0,0,0,0,0,0,0,0,0,0,0,0,0,0,0,0,0,0,0,0,0,0,0,0,0,0,0,0,0,0,0,0,0,0,0,0,0,0,0],"sum_hessian":[4.57E2,6.7E1,3.9E2,4.1E1,2.6E1,3.5E2,4E1,3.2E1,9E0,1.9E1,7E0,9.4E1,2.56E2,2.7E1,1.3E1,1.4E1,1.8E1,7E0,2E0,1.7E1,2E0,4E0,3E0,4.4E1,5E1,1.66E2,9E1,9E0,1.8E1,1.2E1,1E0,8E0,6E0,1.3E1,5E0,1E0,1E0,1E0,3E0,1.8E1,2.6E1,4E0,4.6E1,4E1,1.26E2,7E1,2E1,1.6E1,2E0,8E0,4E0],"tree_param":{"num_deleted":"0","num_feature":"31","num_nodes":"51","size_leaf_vector":"1"}},{"base_weights":[-1.7831716E-1,1.1684251E1,-2.1598976E0,1.3216182E1,5.975211E0,-3.4197526E0,6.96028E0,1.6108894E1,1.0161395E1,1.0415349E0,1.0778695E1,1.2180362E0,-4.654213E0,8.646555E0,2.5616195E0,1.22238986E-1,2.0714E-1,1.2168706E1,6.909213E0,3.4105256E-2,-1.535763E0,5.0310668E-2,1.5268557E-1,9.995526E0,4.482793E-1,-5.5734425E0,-2.7857985E0,3.8989887E0,1.0660065E1,1.2970059E0,3.821606E0,8.8604525E-2,1.9878353E-1,8.499779E-2,4.3316167E-2,-3.4698485E-3,-1.7462112E-2,1.658787E-1,2.5523871E-2,-3.4994848E-2,1.2436165E-2,-3.1857137E-2,-6.380872E-2,-1.8877488E-2,-4.7335733E-2,1.994362E-2,4.9745273E-2,1.111574E-1,8.976841E-4,2.0216813E-2,-2.2501988E-2,5.992937E-3,4.2587757E-2],"categories":[],"categories_nodes":[],"categories_segments":[],"categories_sizes":[],"default_left":[0,0,0,0,0,0,0,0,0,0,0,0,0,0,0,0,0,0,0,0,0,0,0,0,0,0,0,0,0,0,0,0,0,0,0,0,0,0,0,0,0,0,0,0,0,0,0,0,0,0,0,0,0],"id":9,"left_children":[1,3,5,7,9,11,13,15,17,19,21,23,25,27,29,-1,-1,31,33,-1,35,-1,-1,37,39,41,43,45,47,49,51,-1,-1,-1,-1,-1,-1,-1,-1,-1,-1,-1,-1,-1,-1,-1,-1,-1,-1,-1,-1,-1,-1],"loss_changes":[1.1002834E4,5.0700293E2,4.6313325E3,2.9581543E2,3.6795496E2,2.0266528E3,3.4130103E2,1.9406494E2,9.871167E1,6.018812E1,1.2963135E2,5.0225925E2,4.6365674E2,2.9301123E2,1.8944298E1,0E0,0E0,2.319563E2,1.6480103E1,0E0,6.449728E-1,0E0,0E0,2.5206775E2,2.2413828E2,3.382661E2,1.5548889E2,1.466098E1,1.1460083E2,2.7684334E1,7.3086243E0,0E0,0E0,0E0,0E0,0E0,0E0,0E0,0E0,0E0,0E0,0E0,0E0,0E0,0E0,0E0,0E0,0E0,0E0,0E0,0E0,0E0,0E0],"parents":[2147483647,0,0,1,1,2,2,3,3,4,4,5,5,6,6,7,7,8,8,9,9,10,10,11,11,12,12,13,13,14,14,17,17,18,18,20,20,23,23,24,24,25,25,26,26,27,27,28,28,29,29,30,30],"right_children":[2,4,6,8,10,12,14,16,18,20,22,24,26,28,30,-1,-1,32,34,-1,36,-1,-1,38,40,42,44,46,48,50,52,-1,-1,-1,-1,-1,-1,-1,-1,-1,-1,-1,-1,-1,-1,-1,-1,-1,-1,-1,-1,-1,-1],"split_conditions":[4.9E1,5E0,1.1E1,2.3E1,1.3E1,1.04E2,5E0,1.00001E0,3E0,2E-1,1.00001E0,3E0,2.35E2,3.23E2,6E0,1.22238986E-1,2.0714E-1,4.4E1,4E1,3.4105256E-2,6E0,5.0310668E-2,1.5268557E-1,2E0,6E1,1.38E2,5E0,9E0,3.62E2,3.1E1,1.2E1,8.8604525E-2,1.9878353E-1,8.499779E-2,4.3316167E-2,-3.4698485E-3,-1.7462112E-2,1.658787E-1,2.5523871E-2,-3.4994848E-2,1.2436165E-2,-3.1857137E-2,-6.380872E-2,-1.8877488E-2,-4.7335733E-2,1.994362E-2,4.9745273E-2,1.111574E-1,8.976841E-4,2.0216813E-2,-2.2501988E-2,5.992937E-3,4.2587757E-2],"split_indices":[5,1,3,5,0,5,1,10,1,10,10,0,5,5,1,0,0,5,5,0,1,0,0,2,22,5,1,0,5,0,3,0,0,0,0,0,0,0,0,0,0,0,0,0,0,0,0,0,0,0,0,0,0],"split_type":[0,0,0,0,0,0,0,0,0,0,0,0,0,0,0,0,0,0,0,0,0,0,0,0,0,0,0,0,0,0,0,0,0,0,0,0,0,0,0,0,0,0,0,0,0,0,0,0,0,0,0,0,0],"sum_hessian":[4.66E2,6.6E1,4E2,5.1E1,1.5E1,3.52E2,4.8E1,2.4E1,2.7E1,8E0,7E0,7.4E1,2.78E2,3.4E1,1.4E1,1.5E1,9E0,1.5E1,1.2E1,4E0,4E0,4E0,3E0,5E0,6.9E1,1.85E2,9.3E1,1.1E1,2.3E1,8E0,6E0,1.2E1,3E0,6E0,6E0,1E0,3E0,2E0,3E0,1.1E1,5.8E1,4.8E1,1.37E2,6.5E1,2.8E1,5E0,6E0,2.2E1,1E0,7E0,1E0,1E0,5E0],"tree_param":{"num_deleted":"0","num_feature":"31","num_nodes":"53","size_leaf_vector":"1"}},{"base_weights":[-1.612423E-1,8.484624E0,-2.7473707E0,1.2183227E1,4.8326497E0,-4.2530475E0,5.0317388E0,1.384219E1,7.0577054E0,7.9162726E0,6.413563E-2,1.0881273E0,-4.887755E0,1.5632192E0,7.2043147E0,1.7642279E1,9.744863E0,7.052991E-1,7.980745E0,8.859926E0,6.711006E-1,-2.4440103E0,3.0224774E0,-3.8551705E0,2.8241894E0,-4.0996604E0,-6.6542215E0,3.9270327E0,-2.812807E0,9.357373E0,4.2475214E0,4.2157028E-2,1.8153994E-1,1.1461143E-1,4.6749942E-2,-6.977429E-3,1.7556915E-2,2.9886672E-2,8.616698E-2,1.0713078E-1,4.082312E-2,3.2855175E-2,-8.038831E-3,2.9782219E-2,-4.368502E-2,6.288693E-2,2.5768334E-3,1.2702324E-2,-6.629577E-2,-8.305863E-3,5.316079E-2,-1.9182978E-2,-4.7439177E-2,-3.2523792E-2,-7.081527E-2,4.6405938E-2,6.2620044E-3,3.2450103E-3,-3.2455333E-2,9.8404646E-2,8.9319225E-4,-2.2389473E-2,4.7928598E-2],"categories":[],"categories_nodes":[],"categories_segments":[],"categories_sizes":[],"default_left":[0,0,0,0,0,0,0,1,0,0,0,0,0,0,0,0,0,0,0,1,0,0,0,0,0,0,0,1,0,0,0,0,0,0,0,0,0,0,0,0,0,0,0,0,0,0,0,0,0,0,0,0,0,0,0,0,0,0,0,0,0,0,0],"id":10,"left_children":[1,3,5,7,9,11,13,15,17,19,21,23,25,27,29,31,33,35,37,39,41,43,45,47,49,51,53,55,57,59,61,-1,-1,-1,-1,-1,-1,-1,-1,-1,-1,-1,-1,-1,-1,-1,-1,-1,-1,-1,-1,-1,-1,-1,-1,-1,-1,-1,-1,-1,-1,-1,-1],"loss_changes":[1.0487471E4,1.3999004E3,4.24973E3,3.529673E2,8.229331E2,1.0325137E3,4.3333972E2,4.353169E2,8.2324036E1,2.2650977E2,1.7804587E2,2.9408954E2,3.4999072E2,2.5930463E2,1.8943567E2,5.4009277E1,1.2914673E2,5.646256E0,1.5519043E1,2.2187549E2,2.1922283E1,1.4866591E2,9.771407E1,1.3640068E2,2.3209793E2,2.579182E2,9.616553E1,3.4779617E1,1.3271538E1,8.866748E1,7.086542E1,0E0,0E0,0E0,0E0,0E0,0E0,0E0,0E0,0E0,0E0,0E0,0E0,0E0,0E0,0E0,0E0,0E0,0E0,0E0,0E0,0E0,0E0,0E0,0E0,0E0,0E0,0E0,0E0,0E0,0E0,0E0,0E0],"parents":[2147483647,0,0,1,1,2,2,3,3,4,4,5,5,6,6,7,7,8,8,9,9,10,10,11,11,12,12,13,13,14,14,15,15,16,16,17,17,18,18,19,19,20,20,21,21,22,22,23,23,24,24,25,25,26,26,27,27,28,28,29,29,30,30],"right_children":[2,4,6,8,10,12,14,16,18,20,22,24,26,28,30,32,34,36,38,40,42,44,46,48,50,52,54,56,58,60,62,-1,-1,-1,-1,-1,-1,-1,-1,-1,-1,-1,-1,-1,-1,-1,-1,-1,-1,-1,-1,-1,-1,-1,-1,-1,-1,-1,-1,-1,-1,-1,-1],"split_conditions":[7.7E1,3.6E1,2.9E2,5E0,1.6E1,9.7E1,3.13E2,1.19E2,7E0,6E0,5.4E1,8.3E1,5E0,4E0,5E0,2E0,2.3E1,2E0,1E-1,1E1,4.3E1,9.6E0,4E0,2E1,2.54E1,1.38E2,1.14E2,2.52E1,2.93E2,3.62E2,2.023E3,4.2157028E-2,1.8153994E-1,1.1461143E-1,4.6749942E-2,-6.977429E-3,1.7556915E-2,2.9886672E-2,8.616698E-2,1.0713078E-1,4.082312E-2,3.2855175E-2,-8.038831E-3,2.9782219E-2,-4.368502E-2,6.288693E-2,2.5768334E-3,1.2702324E-2,-6.629577E-2,-8.305863E-3,5.316079E-2,-1.9182978E-2,-4.7439177E-2,-3.2523792E-2,-7.081527E-2,4.6405938E-2,6.2620044E-3,3.2450103E-3,-3.2455333E-2,9.8404646E-2,8.9319225E-4,-2.2389473E-2,4.7928598E-2],"split_indices":[5,5,5,1,0,5,5,22,5,1,5,5,1,1,1,0,0,0,10,28,5,28,1,0,28,5,5,16,5,5,4,0,0,0,0,0,0,0,0,0,0,0,0,0,0,0,0,0,0,0,0,0,0,0,0,0,0,0,0,0,0,0,0],"split_type":[0,0,0,0,0,0,0,0,0,0,0,0,0,0,0,0,0,0,0,0,0,0,0,0,0,0,0,0,0,0,0,0,0,0,0,0,0,0,0,0,0,0,0,0,0,0,0,0,0,0,0,0,0,0,0,0,0,0,0,0,0,0,0],"sum_hessian":[4.67E2,1.07E2,3.6E2,5.2E1,5.5E1,3.02E2,5.8E1,3.8E1,1.4E1,3.3E1,2.2E1,3.2E1,2.7E2,2.3E1,3.5E1,1.8E1,2E1,2E0,1.2E1,2.9E1,4E0,1.2E1,1E1,8E0,2.4E1,1.89E2,8.1E1,1.5E1,8E0,1.9E1,1.6E1,1E0,1.7E1,1.4E1,6E0,1E0,1E0,2E0,1E1,2E1,9E0,1E0,3E0,3E0,9E0,4E0,6E0,3E0,5E0,1E1,1.4E1,4.4E1,1.45E2,1E1,7.1E1,1.2E1,3E0,1E0,7E0,1.8E1,1E0,1E0,1.5E1],"tree_param":{"num_deleted":"0","num_feature":"31","num_nodes":"63","size_leaf_vector":"1"}},{"base_weights":[3.6194365E-4,1.2881096E1,-1.9067379E0,1.4562786E1,7.24117E0,-3.2930288E0,7.3448396E0,1.5932402E1,6.0655584E0,9.174882E0,-8.53688E-3,8.92877E-1,-4.8681693E0,8.74187E0,3.7900174E0,1.1880028E1,1.9572794E1,1.651809E-2,7.261507E-2,4.473449E0,1.1554096E-1,-1.4448668E0,2.3728628E0,-5.998354E0,-2.690919E0,4.633301E0,1.04599285E1,-2.2277521E-2,4.3053627E0,1.277848E-1,2.2298176E-2,1.16903655E-1,2.155292E-1,1.847833E-2,5.3242993E-2,3.960399E-2,-2.1757657E-2,1.8502591E-2,7.85597E-2,-3.9011896E-2,-6.7163795E-2,-1.4452105E-2,-4.2430665E-2,5.220812E-2,9.346596E-3,1.1045943E-1,2.2851638E-2,2.0498736E-2,7.722864E-2],"categories":[],"categories_nodes":[],"categories_segments":[],"categories_sizes":[],"default_left":[0,0,0,0,0,0,0,0,0,0,0,0,0,0,0,0,0,0,0,0,0,0,0,0,0,0,0,0,0,0,0,0,0,0,0,0,0,0,0,0,0,0,0,0,0,0,0,0,0],"id":11,"left_children":[1,3,5,7,9,11,13,15,17,19,-1,21,23,25,27,29,31,-1,-1,33,-1,35,37,39,41,43,45,-1,47,-1,-1,-1,-1,-1,-1,-1,-1,-1,-1,-1,-1,-1,-1,-1,-1,-1,-1,-1,-1],"loss_changes":[1.1619168E4,4.7311035E2,5.308242E3,4.3870605E2,2.582826E2,2.3713738E3,2.3504248E2,3.4281152E2,3.0234344E1,9.372754E1,0E0,3.459514E2,6.261006E2,2.1976904E2,6.2312164E1,1.5358179E2,4.4594727E1,0E0,0E0,3.5656204E0,0E0,1.626943E2,1.602594E2,2.3129297E2,1.6981848E2,2.3369202E1,9.9312256E1,0E0,1.074993E2,0E0,0E0,0E0,0E0,0E0,0E0,0E0,0E0,0E0,0E0,0E0,0E0,0E0,0E0,0E0,0E0,0E0,0E0,0E0,0E0],"parents":[2147483647,0,0,1,1,2,2,3,3,4,4,5,5,6,6,7,7,8,8,9,9,11,11,12,12,13,13,14,14,15,15,16,16,19,19,21,21,22,22,23,23,24,24,25,25,26,26,28,28],"right_children":[2,4,6,8,10,12,14,16,18,20,-1,22,24,26,28,30,32,-1,-1,34,-1,36,38,40,42,44,46,-1,48,-1,-1,-1,-1,-1,-1,-1,-1,-1,-1,-1,-1,-1,-1,-1,-1,-1,-1,-1,-1],"split_conditions":[4.6E1,5E0,3.05E2,2.4E1,6E0,1.16E2,5E0,1.1E1,2.6E1,4.98E1,-8.53688E-3,1.644E2,2.35E2,3.23E2,2.023E3,4E1,3.165E2,1.651809E-2,7.261507E-2,8E0,1.1554096E-1,6.05E1,2.9E1,1.46E2,4E0,4E0,3.62E2,-2.2277521E-2,3.47E2,1.277848E-1,2.2298176E-2,1.16903655E-1,2.155292E-1,1.847833E-2,5.3242993E-2,3.960399E-2,-2.1757657E-2,1.8502591E-2,7.85597E-2,-3.9011896E-2,-6.7163795E-2,-1.4452105E-2,-4.2430665E-2,5.220812E-2,9.346596E-3,1.1045943E-1,2.2851638E-2,2.0498736E-2,7.722864E-2],"split_indices":[5,1,5,0,6,5,1,0,0,16,0,25,5,5,4,5,25,0,0,0,0,25,0,5,1,1,5,0,5,0,0,0,0,0,0,0,0,0,0,0,0,0,0,0,0,0,0,0,0],"split_type":[0,0,0,0,0,0,0,0,0,0,0,0,0,0,0,0,0,0,0,0,0,0,0,0,0,0,0,0,0,0,0,0,0,0,0,0,0,0,0,0,0,0,0,0,0,0,0,0,0],"sum_hessian":[4.71E2,6E1,4.11E2,4.5E1,1.5E1,3.58E2,5.3E1,3.8E1,7E0,1.2E1,3E0,9.8E1,2.6E2,3.7E1,1.6E1,2E1,1.8E1,2E0,5E0,5E0,7E0,3.8E1,6E1,1.7E2,9E1,1.2E1,2.5E1,1E0,1.5E1,1.8E1,2E0,5E0,1.3E1,2E0,3E0,4E0,3.4E1,5.6E1,4E0,4.5E1,1.25E2,5.1E1,3.9E1,1E1,2E0,2.3E1,2E0,1E1,5E0],"tree_param":{"num_deleted":"0","num_feature":"31","num_nodes":"49","size_leaf_vector":"1"}},{"base_weights":[-2.2674078E-1,7.1796427E0,-2.8131206E0,-7.101291E-2,8.574682E0,-4.057122E0,6.5542536E0,3.6858656E0,-2.6664662E0,1.138629E1,6.5641713E0,-3.3407047E0,-5.887997E0,8.614058E-2,4.290155E0,1.538855E0,5.984915E-2,3.6894188E0,-5.9012394E0,1.3319723E1,8.593528E0,1.2632039E-1,5.7038336E0,-3.9524813E0,-1.6010466E0,-2.7926116E0,-6.494083E0,-2.2166133E-2,4.705554E0,3.6019012E-2,-4.3881882E-2,4.102223E-2,1.0191011E-2,-7.519376E-2,-1.5850575E-3,1.5435617E-1,1.0093852E-1,4.0986698E-2,9.145639E-2,6.902255E-2,1.8881008E-2,-2.0590503E-2,-5.1574558E-2,-2.7894951E-2,-7.547692E-3,-4.127E-2,-1.8108897E-2,-7.2012626E-2,-4.433729E-2,2.5268584E-2,5.8519162E-2],"categories":[],"categories_nodes":[],"categories_segments":[],"categories_sizes":[],"default_left":[0,0,0,0,0,0,0,0,0,1,0,0,0,0,0,0,0,0,0,0,0,0,0,0,0,0,0,0,0,0,0,0,0,0,0,0,0,0,0,0,0,0,0,0,0,0,0,0,0,0,0],"id":12,"left_children":[1,3,5,7,9,11,13,15,17,19,21,23,25,-1,27,29,-1,31,33,35,37,-1,39,41,43,45,47,-1,49,-1,-1,-1,-1,-1,-1,-1,-1,-1,-1,-1,-1,-1,-1,-1,-1,-1,-1,-1,-1,-1,-1],"loss_changes":[9.176632E3,1.2548628E3,4.163417E3,2.1459511E2,5.131465E2,3.9219482E2,1.5891565E2,3.5214836E1,2.8905017E2,1.1232031E2,2.568352E2,2.3632788E2,1.4508252E2,0E0,6.989435E1,8.917241E1,0E0,1.3310089E0,8.244092E1,1.184082E0,1.2148315E1,0E0,2.4762085E2,3.7267847E2,5.9245758E1,1.348642E1,7.2978516E1,0E0,3.766205E1,0E0,0E0,0E0,0E0,0E0,0E0,0E0,0E0,0E0,0E0,0E0,0E0,0E0,0E0,0E0,0E0,0E0,0E0,0E0,0E0,0E0,0E0],"parents":[2147483647,0,0,1,1,2,2,3,3,4,4,5,5,6,6,7,7,8,8,9,9,10,10,11,11,12,12,14,14,15,15,17,17,18,18,19,19,20,20,22,22,23,23,24,24,25,25,26,26,28,28],"right_children":[2,4,6,8,10,12,14,16,18,20,22,24,26,-1,28,30,-1,32,34,36,38,-1,40,42,44,46,48,-1,50,-1,-1,-1,-1,-1,-1,-1,-1,-1,-1,-1,-1,-1,-1,-1,-1,-1,-1,-1,-1,-1,-1],"split_conditions":[2E0,1.032E2,1.1E1,3E0,2E0,5E0,4E0,6.2E0,6.05E1,1.17E2,9.3E0,9E0,5E0,8.614058E-2,2.023E3,5.7E0,5.984915E-2,5E0,6E0,4E0,1.23E2,1.2632039E-1,5E0,6E0,3.6E0,4.7E0,9E0,-2.2166133E-2,1.2E1,3.6019012E-2,-4.3881882E-2,4.102223E-2,1.0191011E-2,-7.519376E-2,-1.5850575E-3,1.5435617E-1,1.0093852E-1,4.0986698E-2,9.145639E-2,6.902255E-2,1.8881008E-2,-2.0590503E-2,-5.1574558E-2,-2.7894951E-2,-7.547692E-3,-4.127E-2,-1.8108897E-2,-7.2012626E-2,-4.433729E-2,2.5268584E-2,5.8519162E-2],"split_indices":[2,22,3,3,3,1,1,19,25,22,28,3,3,0,4,19,0,1,19,1,22,0,1,3,28,19,3,0,3,0,0,0,0,0,0,0,0,0,0,0,0,0,0,0,0,0,0,0,0,0,0],"split_type":[0,0,0,0,0,0,0,0,0,0,0,0,0,0,0,0,0,0,0,0,0,0,0,0,0,0,0,0,0,0,0,0,0,0,0,0,0,0,0,0,0,0,0,0,0,0,0,0,0,0,0],"sum_hessian":[4.77E2,1.23E2,3.54E2,2E1,1.03E2,3.13E2,4.1E1,8E0,1.2E1,4.1E1,6.2E1,2.27E2,8.6E1,2E1,2.1E1,5E0,3E0,4E0,8E0,2.2E1,1.9E1,6E0,5.6E1,1.67E2,6E1,1.5E1,7.1E1,1E0,2E1,4E0,1E0,3E0,1E0,6E0,2E0,1.1E1,1.1E1,3E0,1.6E1,4.2E1,1.4E1,6.6E1,1.01E2,2.4E1,3.6E1,5E0,1E1,5.1E1,2E1,8E0,1.2E1],"tree_param":{"num_deleted":"0","num_feature":"31","num_nodes":"51","size_leaf_vector":"1"}},{"base_weights":[-9.402824E-2,9.283393E0,-2.7204936E0,1.1963901E1,4.7840376E0,-4.1946588E0,5.4502816E0,1.4326199E1,9.301552E0,5.919768E-1,9.165577E0,-1.0899854E-1,-4.727827E0,2.2813134E0,7.19594E0,5.537311E-2,1.5803396E1,7.4065223E0,1.8053405E-1,3.5357623E0,-1.1324704E0,6.1957383E-1,1.4099114E-1,-3.2216249E0,1.047863E0,-5.2934504E0,-3.256042E0,2.9173288E0,-2.5072213E-2,4.354869E0,8.882612E0,1.626234E-1,2.1648845E-2,9.450692E-2,3.8934052E-2,9.481696E-3,3.7699655E-2,3.491794E-2,-2.7110692E-2,-3.6348484E-2,3.899197E-2,2.6048092E-2,-6.0907833E-2,2.0282485E-2,-1.1382689E-2,-3.3217963E-2,-6.253325E-2,1.8198235E-2,-3.4864124E-2,-9.505455E-3,3.7019644E-2,5.3925335E-2,1.8996157E-2,9.547296E-2,-2.2055306E-2],"categories":[],"categories_nodes":[],"categories_segments":[],"categories_sizes":[],"default_left":[0,0,0,0,0,0,0,0,0,0,0,0,0,0,0,0,0,0,0,0,0,0,0,0,0,0,0,0,0,0,0,0,0,0,0,0,0,0,0,0,0,0,0,0,0,0,0,0,0,0,0,0,0,0,0],"id":13,"left_children":[1,3,5,7,9,11,13,15,17,19,21,23,25,27,29,-1,31,33,-1,35,37,39,-1,41,43,45,47,49,-1,51,53,-1,-1,-1,-1,-1,-1,-1,-1,-1,-1,-1,-1,-1,-1,-1,-1,-1,-1,-1,-1,-1,-1,-1,-1],"loss_changes":[1.1256294E4,1.1488213E3,4.322953E3,2.5667773E2,7.109136E2,6.5952344E2,2.878402E2,3.149619E2,3.970078E2,1.10608604E2,7.9234314E2,1.330074E2,2.0586768E2,7.127161E1,1.2903589E2,0E0,1.2753662E2,1.6428394E2,0E0,1.2736053E0,1.1166452E2,1.2579621E2,0E0,1.8303497E2,6.01765E1,3.425952E2,9.638306E1,6.1181442E1,0E0,2.7972229E1,1.758291E2,0E0,0E0,0E0,0E0,0E0,0E0,0E0,0E0,0E0,0E0,0E0,0E0,0E0,0E0,0E0,0E0,0E0,0E0,0E0,0E0,0E0,0E0,0E0,0E0],"parents":[2147483647,0,0,1,1,2,2,3,3,4,4,5,5,6,6,7,7,8,8,9,9,10,10,11,11,12,12,13,13,14,14,16,16,17,17,19,19,20,20,21,21,23,23,24,24,25,25,26,26,27,27,29,29,30,30],"right_children":[2,4,6,8,10,12,14,16,18,20,22,24,26,28,30,-1,32,34,-1,36,38,40,-1,42,44,46,48,50,-1,52,54,-1,-1,-1,-1,-1,-1,-1,-1,-1,-1,-1,-1,-1,-1,-1,-1,-1,-1,-1,-1,-1,-1,-1,-1],"split_conditions":[7.5E1,4.6E1,2.89E2,4E0,6E1,1.04E2,3.13E2,1E-1,4.3E1,1.7224E3,2.2831E3,8.3E1,3.5E1,2.6E1,1.4E1,5.537311E-2,2.1E1,3.6E1,1.8053405E-1,5.9E1,1.9E1,5E0,1.4099114E-1,7.4E0,9.7E1,1.46E2,2.41E2,1.3351E3,-2.5072213E-2,3.41E2,3.1E1,1.626234E-1,2.1648845E-2,9.450692E-2,3.8934052E-2,9.481696E-3,3.7699655E-2,3.491794E-2,-2.7110692E-2,-3.6348484E-2,3.899197E-2,2.6048092E-2,-6.0907833E-2,2.0282485E-2,-1.1382689E-2,-3.3217963E-2,-6.253325E-2,1.8198235E-2,-3.4864124E-2,-9.505455E-3,3.7019644E-2,5.3925335E-2,1.8996157E-2,9.547296E-2,-2.2055306E-2],"split_indices":[5,5,5,6,5,5,5,10,5,7,7,5,6,0,0,0,0,5,0,16,0,19,0,28,5,5,5,7,0,5,0,0,0,0,0,0,0,0,0,0,0,0,0,0,0,0,0,0,0,0,0,0,0,0,0],"split_type":[0,0,0,0,0,0,0,0,0,0,0,0,0,0,0,0,0,0,0,0,0,0,0,0,0,0,0,0,0,0,0,0,0,0,0,0,0,0,0,0,0,0,0,0,0,0,0,0,0,0,0,0,0,0,0],"sum_hessian":[4.55E2,9.9E1,3.56E2,6.1E1,3.8E1,3.02E2,5.4E1,3E1,3.1E1,2E1,1.8E1,3.5E1,2.67E2,2E1,3.4E1,5E0,2.5E1,2.7E1,4E0,7E0,1.3E1,7E0,1.1E1,9E0,2.6E1,1.91E2,7.6E1,1.8E1,2E0,1.4E1,2E1,2.4E1,1E0,1.6E1,1.1E1,1E0,6E0,3E0,1E1,3E0,4E0,3E0,6E0,1.8E1,8E0,6.4E1,1.27E2,3E0,7.3E1,3E0,1.5E1,9E0,5E0,1.9E1,1E0],"tree_param":{"num_deleted":"0","num_feature":"31","num_nodes":"55","size_leaf_vector":"1"}},{"base_weights":[-5.7990987E-2,8.779079E0,-2.6654925E0,1.14198475E1,4.5216427E0,-3.9049957E0,6.7360063E0,1.3725633E1,8.846002E0,-1.2893647E0,7.3714175E0,-8.392617E-1,-4.6128683E0,7.028536E0,4.9276385E-1,9.126442E0,1.5919149E1,9.921479E0,2.1735268E0,4.281291E0,-3.704266E0,1.8077143E0,9.404841E0,-1.7052406E0,2.911087E0,-5.037857E0,4.083567E-2,5.4993267E0,1.0265848E1,-2.1945033E-2,2.933649E-2,9.9176064E-2,-1.8376445E-3,1.9065507E-1,8.423127E-2,-7.877087E-3,1.0332082E-1,-1.5549291E-2,4.4264868E-2,1.53630385E-2,5.5991814E-2,-6.2269595E-2,-5.6419466E-3,-2.3105795E-2,3.3144526E-2,3.153109E-2,1.3830882E-1,-4.652581E-2,-6.790696E-3,4.437563E-2,-1.2512554E-2,-4.3302383E-2,-6.810924E-2,1.4398924E-2,-2.7623823E-2,6.3385315E-2,2.3991946E-2,1.3379605E-1,6.1303627E-2],"categories":[],"categories_nodes":[],"categories_segments":[],"categories_sizes":[],"default_left":[0,0,0,0,0,0,0,0,0,0,0,0,0,0,0,0,1,0,0,0,0,0,0,0,0,0,0,0,0,0,0,0,0,0,0,0,0,0,0,0,0,0,0,0,0,0,0,0,0,0,0,0,0,0,0,0,0,0,0],"id":14,"left_children":[1,3,5,7,9,11,13,15,17,19,21,23,25,27,29,31,33,35,37,39,41,43,45,47,49,51,53,55,57,-1,-1,-1,-1,-1,-1,-1,-1,-1,-1,-1,-1,-1,-1,-1,-1,-1,-1,-1,-1,-1,-1,-1,-1,-1,-1,-1,-1,-1,-1],"loss_changes":[1.0922587E4,1.1625967E3,4.2913696E3,2.702754E2,7.2158704E2,6.9925684E2,7.506885E1,1.8763184E2,2.2242236E2,2.176478E2,3.1108655E2,2.0632292E2,5.2036035E2,1.4651624E2,2.6115833E1,9.757922E1,3.3469727E2,1.3565869E2,5.728324E1,9.485916E0,8.3622604E1,6.350502E1,5.374686E2,1.5108882E2,8.179711E1,2.728789E2,9.4180336E1,6.2842102E1,7.2500854E1,0E0,0E0,0E0,0E0,0E0,0E0,0E0,0E0,0E0,0E0,0E0,0E0,0E0,0E0,0E0,0E0,0E0,0E0,0E0,0E0,0E0,0E0,0E0,0E0,0E0,0E0,0E0,0E0,0E0,0E0],"parents":[2147483647,0,0,1,1,2,2,3,3,4,4,5,5,6,6,7,7,8,8,9,9,10,10,11,11,12,12,13,13,14,14,15,15,16,16,17,17,18,18,19,19,20,20,21,21,22,22,23,23,24,24,25,25,26,26,27,27,28,28],"right_children":[2,4,6,8,10,12,14,16,18,20,22,24,26,28,30,32,34,36,38,40,42,44,46,48,50,52,54,56,58,-1,-1,-1,-1,-1,-1,-1,-1,-1,-1,-1,-1,-1,-1,-1,-1,-1,-1,-1,-1,-1,-1,-1,-1,-1,-1,-1,-1,-1,-1],"split_conditions":[7.5E1,4.6E1,3.05E2,3E0,5.4E1,1.16E2,3.1E1,9E0,3.6E1,9.7E0,2E0,2.5E1,4.2E1,3.49E2,6E0,3.9E1,2.08E1,3E0,1E1,2E0,4E0,8E0,2.4033E3,2E0,3E1,5E0,4E0,5E0,2.3E1,-2.1945033E-2,2.933649E-2,9.9176064E-2,-1.8376445E-3,1.9065507E-1,8.423127E-2,-7.877087E-3,1.0332082E-1,-1.5549291E-2,4.4264868E-2,1.53630385E-2,5.5991814E-2,-6.2269595E-2,-5.6419466E-3,-2.3105795E-2,3.3144526E-2,3.153109E-2,1.3830882E-1,-4.652581E-2,-6.790696E-3,4.437563E-2,-1.2512554E-2,-4.3302383E-2,-6.810924E-2,1.4398924E-2,-2.7623823E-2,6.3385315E-2,2.3991946E-2,1.3379605E-1,6.1303627E-2],"split_indices":[5,5,5,1,5,5,0,0,5,28,1,0,6,5,1,5,28,5,0,1,1,0,7,2,0,1,1,1,0,0,0,0,0,0,0,0,0,0,0,0,0,0,0,0,0,0,0,0,0,0,0,0,0,0,0,0,0,0,0],"split_type":[0,0,0,0,0,0,0,0,0,0,0,0,0,0,0,0,0,0,0,0,0,0,0,0,0,0,0,0,0,0,0,0,0,0,0,0,0,0,0,0,0,0,0,0,0,0,0,0,0,0,0,0,0,0,0,0,0,0,0],"sum_hessian":[4.72E2,1.07E2,3.65E2,6.5E1,4.2E1,3.23E2,4.2E1,3.2E1,3.3E1,1.4E1,2.8E1,6.1E1,2.62E2,4E1,2E0,1.2E1,2E1,2.8E1,5E0,4E0,1E1,8E0,2E1,5E1,1.1E1,2.4E2,2.2E1,2.9E1,1.1E1,1E0,1E0,1.1E1,1E0,1.3E1,7E0,1E0,2.7E1,2E0,3E0,2E0,2E0,5E0,5E0,2E0,6E0,9E0,1.1E1,1.2E1,3.8E1,8E0,3E0,1.74E2,6.6E1,1.5E1,7E0,2.2E1,7E0,5E0,6E0],"tree_param":{"num_deleted":"0","num_feature":"31","num_nodes":"59","size_leaf_vector":"1"}},{"base_weights":[-1.0272346E-1,1.114268E1,-1.9395896E0,1.34267845E1,4.3058047E0,-3.037203E0,6.6687317E0,1.6983385E1,1.0388323E1,7.1862116E0,1.8195263E0,2.0327706E0,-4.5454E0,2.6948378E0,7.4344244E0,1.01251826E-1,1.8493748E1,8.658369E0,1.5576748E1,-7.837701E-3,8.436748E0,-1.8556459E-1,4.262748E-2,-3.5449583E-2,3.5415864E0,-5.4510846E0,-2.7242157E0,7.3754406E-3,2.8473067E0,-2.1835303E-2,7.7533836E0,4.6461955E-2,1.9107172E-1,4.8797987E-3,8.9923866E-2,1.9173689E-1,5.5885777E-2,9.546031E-2,8.905229E-3,1.3867412E-2,-1.7114792E-2,2.8552966E-2,-2.2362348E-2,-3.1039794E-3,4.981192E-2,-3.4671724E-2,-6.336796E-2,-3.3952013E-2,1.0310569E-3,3.911696E-2,1.8405607E-2,8.784746E-2,4.8726495E-2],"categories":[],"categories_nodes":[],"categories_segments":[],"categories_sizes":[],"default_left":[0,0,0,0,0,0,0,0,0,0,0,0,0,0,0,0,0,0,0,0,1,0,0,0,0,0,0,0,0,0,0,0,0,0,0,0,0,0,0,0,0,0,0,0,0,0,0,0,0,0,0,0,0],"id":15,"left_children":[1,3,5,7,9,11,13,15,17,19,21,23,25,27,29,-1,31,33,35,-1,37,39,-1,41,43,45,47,-1,49,-1,51,-1,-1,-1,-1,-1,-1,-1,-1,-1,-1,-1,-1,-1,-1,-1,-1,-1,-1,-1,-1,-1,-1],"loss_changes":[9.709418E3,9.7285156E2,3.8374922E3,3.5309375E2,1.1583139E2,2.7543406E3,1.1993347E2,3.0273438E1,1.25427246E2,8.6346436E1,5.4678726E1,2.5913232E2,4.4203906E2,5.8582306E-1,1.3350366E2,0E0,4.7134766E1,6.110901E1,1.0840759E2,0E0,5.0095398E1,1.9167809E1,0E0,2.3541393E2,2.677224E2,3.0134912E2,1.7867664E2,0E0,1.3728409E0,0E0,6.7124756E1,0E0,0E0,0E0,0E0,0E0,0E0,0E0,0E0,0E0,0E0,0E0,0E0,0E0,0E0,0E0,0E0,0E0,0E0,0E0,0E0,0E0,0E0],"parents":[2147483647,0,0,1,1,2,2,3,3,4,4,5,5,6,6,7,7,8,8,9,9,10,10,11,11,12,12,13,13,14,14,16,16,17,17,18,18,20,20,21,21,23,23,24,24,25,25,26,26,28,28,30,30],"right_children":[2,4,6,8,10,12,14,16,18,20,22,24,26,28,30,-1,32,34,36,-1,38,40,-1,42,44,46,48,-1,50,-1,52,-1,-1,-1,-1,-1,-1,-1,-1,-1,-1,-1,-1,-1,-1,-1,-1,-1,-1,-1,-1,-1,-1],"split_conditions":[4.8E1,5E0,3.05E2,2.1E1,2.1E1,1.04E2,3.18E2,3.60925E2,4.3E1,3E0,2.024E3,1.9894E3,2.4E2,2E0,2.023E3,1.01251826E-1,4.62375E1,1.01E1,2E0,-7.837701E-3,3.68E1,3.6E1,4.262748E-2,3E0,2E0,1.46E2,2.9E2,7.3754406E-3,4E0,-2.1835303E-2,5E0,4.6461955E-2,1.9107172E-1,4.8797987E-3,8.9923866E-2,1.9173689E-1,5.5885777E-2,9.546031E-2,8.905229E-3,1.3867412E-2,-1.7114792E-2,2.8552966E-2,-2.2362348E-2,-3.1039794E-3,4.981192E-2,-3.4671724E-2,-6.336796E-2,-3.3952013E-2,1.0310569E-3,3.911696E-2,1.8405607E-2,8.784746E-2,4.8726495E-2],"split_indices":[5,1,5,5,5,5,5,25,5,5,4,7,5,1,4,0,13,16,1,0,16,5,0,1,1,5,5,0,1,0,1,0,0,0,0,0,0,0,0,0,0,0,0,0,0,0,0,0,0,0,0,0,0],"split_type":[0,0,0,0,0,0,0,0,0,0,0,0,0,0,0,0,0,0,0,0,0,0,0,0,0,0,0,0,0,0,0,0,0,0,0,0,0,0,0,0,0,0,0,0,0,0,0,0,0,0,0,0,0],"sum_hessian":[4.68E2,6.5E1,4.03E2,4.8E1,1.7E1,3.58E2,4.5E1,2E1,2.8E1,7E0,1E1,8.2E1,2.76E2,8E0,3.7E1,5E0,1.5E1,2.3E1,5E0,1E0,6E0,6E0,4E0,3.5E1,4.7E1,1.83E2,9.3E1,1E0,7E0,1E0,3.6E1,1E0,1.4E1,1E0,2.2E1,3E0,2E0,5E0,1E0,3E0,3E0,1.5E1,2E1,1.3E1,3.4E1,5.8E1,1.25E2,7.5E1,1.8E1,2E0,5E0,2.5E1,1.1E1],"tree_param":{"num_deleted":"0","num_feature":"31","num_nodes":"53","size_leaf_vector":"1"}},{"base_weights":[-1.2350854E-1,8.96027E0,-2.5724764E0,1.1614585E1,3.9116395E0,-3.7920916E0,6.6453547E0,1.3135195E1,5.9466896E0,5.3943257E0,-6.310461E-1,-1.2056645E0,-4.6976914E0,7.808935E0,3.5110753E0,7.3429832E0,1.4176751E1,7.732109E0,4.7234574E-1,3.15049E0,9.781258E0,1.7608593E0,-2.5191262E0,-1.0828536E-1,-3.7215617E0,-6.0281205E0,-2.6417658E0,5.3713093E0,9.002945E0,1.5133446E0,5.922492E0,1.753889E-2,8.5210204E-2,1.7701618E-1,1.1432326E-1,7.081254E-4,9.257287E-2,-1.00578545E-2,3.1924352E-2,3.7545554E-2,-4.1633762E-2,1.3645773E-1,1.5391691E-2,2.054983E-2,2.9218197E-3,-4.0657535E-2,-7.293744E-3,-2.3368249E-2,1.9884726E-2,8.969019E-3,-4.8119806E-2,-6.504101E-2,-3.9758053E-2,-3.3273023E-2,6.6608307E-3,6.415251E-2,2.417953E-2,9.660167E-2,2.0586273E-2,1.9428963E-2,-9.615345E-3,-2.1726126E-2,7.976035E-2],"categories":[],"categories_nodes":[],"categories_segments":[],"categories_sizes":[],"default_left":[0,0,0,0,0,0,0,0,0,0,0,0,0,0,0,0,0,0,0,1,0,0,0,0,0,1,0,0,0,0,0,0,0,0,0,0,0,0,0,0,0,0,0,0,0,0,0,0,0,0,0,0,0,0,0,0,0,0,0,0,0,0,0],"id":16,"left_children":[1,3,5,7,9,11,13,15,17,19,21,23,25,27,29,31,33,35,37,39,41,43,45,47,49,51,53,55,57,59,61,-1,-1,-1,-1,-1,-1,-1,-1,-1,-1,-1,-1,-1,-1,-1,-1,-1,-1,-1,-1,-1,-1,-1,-1,-1,-1,-1,-1,-1,-1,-1,-1],"loss_changes":[1.0790058E4,1.334835E3,4.319723E3,4.9933887E2,2.5261304E2,7.86022E2,1.3669666E2,2.096123E2,1.5273169E2,2.4480371E2,4.959692E1,2.453165E2,6.678911E2,4.4779907E1,5.8480286E1,5.089673E1,2.1359961E2,1.3956256E2,2.331415E1,1.0399269E2,2.6566205E2,1.5594349E0,1.3643013E1,2.9902734E2,1.4028952E2,1.2164697E2,2.2898132E2,2.4568909E1,7.139258E1,1.1435959E1,1.17070724E2,0E0,0E0,0E0,0E0,0E0,0E0,0E0,0E0,0E0,0E0,0E0,0E0,0E0,0E0,0E0,0E0,0E0,0E0,0E0,0E0,0E0,0E0,0E0,0E0,0E0,0E0,0E0,0E0,0E0,0E0,0E0,0E0],"parents":[2147483647,0,0,1,1,2,2,3,3,4,4,5,5,6,6,7,7,8,8,9,9,10,10,11,11,12,12,13,13,14,14,15,15,16,16,17,17,18,18,19,19,20,20,21,21,22,22,23,23,24,24,25,25,26,26,27,27,28,28,29,29,30,30],"right_children":[2,4,6,8,10,12,14,16,18,20,22,24,26,28,30,32,34,36,38,40,42,44,46,48,50,52,54,56,58,60,62,-1,-1,-1,-1,-1,-1,-1,-1,-1,-1,-1,-1,-1,-1,-1,-1,-1,-1,-1,-1,-1,-1,-1,-1,-1,-1,-1,-1,-1,-1,-1,-1],"split_conditions":[7.5E1,4.6E1,1.1E1,5E0,5E0,1.38E2,5E0,3.02E1,3.5E1,6.8E1,1E-1,5E0,2.35E2,2E0,3.44E2,1.52E2,2.1E1,8E0,2.024E3,1.43E1,2.024E3,3E0,5.7E1,8E0,8.4E1,6.6E0,2.9E2,3.41E2,3.62E2,3.39E2,2.023E3,1.753889E-2,8.5210204E-2,1.7701618E-1,1.1432326E-1,7.081254E-4,9.257287E-2,-1.00578545E-2,3.1924352E-2,3.7545554E-2,-4.1633762E-2,1.3645773E-1,1.5391691E-2,2.054983E-2,2.9218197E-3,-4.0657535E-2,-7.293744E-3,-2.3368249E-2,1.9884726E-2,8.969019E-3,-4.8119806E-2,-6.504101E-2,-3.9758053E-2,-3.3273023E-2,6.6608307E-3,6.415251E-2,2.417953E-2,9.660167E-2,2.0586273E-2,1.9428963E-2,-9.615345E-3,-2.1726126E-2,7.976035E-2],"split_indices":[5,5,3,1,1,5,1,16,5,5,10,1,5,1,5,22,5,5,4,19,4,3,5,19,5,19,5,5,5,5,4,0,0,0,0,0,0,0,0,0,0,0,0,0,0,0,0,0,0,0,0,0,0,0,0,0,0,0,0,0,0,0,0],"split_type":[0,0,0,0,0,0,0,0,0,0,0,0,0,0,0,0,0,0,0,0,0,0,0,0,0,0,0,0,0,0,0,0,0,0,0,0,0,0,0,0,0,0,0,0,0,0,0,0,0,0,0,0,0,0,0,0,0,0,0,0,0,0,0],"sum_hessian":[4.83E2,1.02E2,3.81E2,6.6E1,3.6E1,3.37E2,4.4E1,5.1E1,1.5E1,2.7E1,9E0,8.8E1,2.49E2,3.1E1,1.3E1,9E0,4.2E1,1.1E1,4E0,1.9E1,8E0,4E0,5E0,6.2E1,2.6E1,1.5E2,9.9E1,1.2E1,1.9E1,8E0,5E0,2E0,7E0,1.6E1,2.6E1,2E0,9E0,3E0,1E0,1.8E1,1E0,5E0,3E0,3E0,1E0,2E0,3E0,3E1,3.2E1,5E0,2.1E1,1.2E2,3E1,8.2E1,1.7E1,8E0,4E0,1.7E1,2E0,7E0,1E0,1E0,4E0],"tree_param":{"num_deleted":"0","num_feature":"31","num_nodes":"63","size_leaf_vector":"1"}},{"base_weights":[1.129208E-2,1.1254138E1,-1.9452112E0,1.3492463E1,9.182124E0,-3.129629E0,5.555587E0,6.559278E-2,1.5171384E1,7.878605E0,1.8944144E-1,1.900047E0,-4.425133E0,2.395259E0,6.6533833E0,1.5868542E1,-7.8020524E-3,8.9036665E0,3.0497992E0,3.9119127E0,-2.7636817E-1,-5.0407815E0,-2.7871368E0,3.4646448E-2,1.7500764E0,-2.1617493E-2,6.927805E0,1.8381916E-1,9.637151E-2,2.1027228E-2,9.314351E-2,7.3822862E-3,5.1768124E-2,-4.6405504E-3,5.7119016E-2,-3.3111606E-2,1.0182119E-2,-2.7200174E-2,-5.8219712E-2,2.4091221E-2,-2.9533919E-2,1.2270145E-3,2.548426E-2,5.5216942E-2,8.9032106E-2],"categories":[],"categories_nodes":[],"categories_segments":[],"categories_sizes":[],"default_left":[0,0,0,0,0,0,0,0,0,0,0,1,0,0,0,1,0,0,0,0,0,0,0,0,0,0,0,0,0,0,0,0,0,0,0,0,0,0,0,0,0,0,0,0,0],"id":17,"left_children":[1,3,5,7,9,11,13,-1,15,17,-1,19,21,23,25,27,-1,29,31,33,35,37,39,-1,41,-1,43,-1,-1,-1,-1,-1,-1,-1,-1,-1,-1,-1,-1,-1,-1,-1,-1,-1,-1],"loss_changes":[1.0536298E4,2.0539746E2,3.6420908E3,2.729751E2,3.597456E2,2.3085444E3,1.7834973E2,0E0,2.903999E2,1.5598901E2,0E0,3.207229E2,2.6931934E2,4.9757843E0,1.1415784E2,1.9873438E2,0E0,6.420581E1,3.551226E1,3.0196503E2,1.4480762E2,3.5219434E2,7.536359E1,0E0,1.5277878E1,0E0,6.1944946E1,0E0,0E0,0E0,0E0,0E0,0E0,0E0,0E0,0E0,0E0,0E0,0E0,0E0,0E0,0E0,0E0,0E0,0E0],"parents":[2147483647,0,0,1,1,2,2,3,3,4,4,5,5,6,6,8,8,9,9,11,11,12,12,13,13,14,14,15,15,17,17,18,18,19,19,20,20,21,21,22,22,24,24,26,26],"right_children":[2,4,6,8,10,12,14,-1,16,18,-1,20,22,24,26,28,-1,30,32,34,36,38,40,-1,42,-1,44,-1,-1,-1,-1,-1,-1,-1,-1,-1,-1,-1,-1,-1,-1,-1,-1,-1,-1],"split_conditions":[4.6E1,2.1E1,2.96E2,1E-1,4.4E1,9.7E1,3.13E2,6.559278E-2,4E0,4E1,1.8944144E-1,8.612E2,2.4E2,2.98E2,2.023E3,2E-1,-7.8020524E-3,4E0,2.024E3,3E0,9.58E1,1.38E2,2.41E2,3.4646448E-2,1.1E1,-2.1617493E-2,3.47E2,1.8381916E-1,9.637151E-2,2.1027228E-2,9.314351E-2,7.3822862E-3,5.1768124E-2,-4.6405504E-3,5.7119016E-2,-3.3111606E-2,1.0182119E-2,-2.7200174E-2,-5.8219712E-2,2.4091221E-2,-2.9533919E-2,1.2270145E-3,2.548426E-2,5.5216942E-2,8.9032106E-2],"split_indices":[5,5,5,10,5,5,5,0,6,5,0,7,5,5,4,10,0,6,4,3,25,5,5,0,3,0,5,0,0,0,0,0,0,0,0,0,0,0,0,0,0,0,0,0,0],"split_type":[0,0,0,0,0,0,0,0,0,0,0,0,0,0,0,0,0,0,0,0,0,0,0,0,0,0,0,0,0,0,0,0,0,0,0,0,0,0,0,0,0,0,0,0,0],"sum_hessian":[4.77E2,7E1,4.07E2,3.1E1,3.9E1,3.52E2,5.5E1,7E0,2.4E1,3.6E1,3E0,7.2E1,2.8E2,1.5E1,4E1,2.3E1,1E0,2.9E1,7E0,3.7E1,3.5E1,2.02E2,7.8E1,4E0,1.1E1,1E0,3.9E1,1.5E1,8E0,2E0,2.7E1,4E0,3E0,1.1E1,2.6E1,1E1,2.5E1,5.2E1,1.5E2,2E0,7.6E1,4E0,7E0,2.5E1,1.4E1],"tree_param":{"num_deleted":"0","num_feature":"31","num_nodes":"45","size_leaf_vector":"1"}},{"base_weights":[-9.875782E-2,1.1277106E1,-1.9758123E0,1.4531633E1,8.71701E0,-2.9295218E0,6.585981E0,-7.7630375E-3,1.5127346E1,1.0629576E1,5.788896E0,1.86643E0,-4.192828E0,8.307288E0,3.667236E0,7.592041E-2,1.7385101E1,9.008542E0,1.466359E-1,8.273414E0,1.6490717E0,3.5567153E0,2.1399836E-1,-4.5616093E0,5.0694394E-1,8.770677E0,1.9855493E0,2.1727064E0,5.491892E0,1.7895834E-1,3.8405836E-2,1.01503335E-1,2.1892376E-2,2.611505E-2,1.0070192E-1,3.198916E-2,-2.0003077E-2,1.6394727E-3,6.01673E-2,-3.490026E-2,1.5650073E-2,-3.8206182E-2,-6.327105E-2,3.2003384E-2,-1.6038936E-2,4.037173E-2,9.861251E-2,-1.4274311E-3,3.121067E-2,2.5824662E-2,2.1919124E-3,1.1691167E-1,2.5101513E-2],"categories":[],"categories_nodes":[],"categories_segments":[],"categories_sizes":[],"default_left":[0,0,0,0,0,0,0,0,0,0,0,0,0,0,0,0,1,0,0,0,0,0,0,0,0,0,0,0,0,0,0,0,0,0,0,0,0,0,0,0,0,0,0,0,0,0,0,0,0,0,0,0,0],"id":18,"left_children":[1,3,5,7,9,11,13,-1,15,17,19,21,23,25,27,-1,29,31,-1,33,35,37,39,41,43,45,47,49,51,-1,-1,-1,-1,-1,-1,-1,-1,-1,-1,-1,-1,-1,-1,-1,-1,-1,-1,-1,-1,-1,-1,-1,-1],"loss_changes":[1.0100952E4,4.3156543E2,3.334472E3,2.670786E2,1.6247461E2,2.2253303E3,1.755216E2,0E0,3.2735938E2,1.8306152E1,1.7149493E2,2.1430609E2,5.04937E2,5.5821045E1,3.442679E1,0E0,6.962207E1,1.257168E2,0E0,8.560681E1,5.1646584E1,3.1617148E2,2.0562872E2,3.2773682E2,1.3021E2,7.891992E1,7.695651E0,8.23914E0,1.0004585E2,0E0,0E0,0E0,0E0,0E0,0E0,0E0,0E0,0E0,0E0,0E0,0E0,0E0,0E0,0E0,0E0,0E0,0E0,0E0,0E0,0E0,0E0,0E0,0E0],"parents":[2147483647,0,0,1,1,2,2,3,3,4,4,5,5,6,6,8,8,9,9,10,10,11,11,12,12,13,13,14,14,16,16,17,17,19,19,20,20,21,21,22,22,23,23,24,24,25,25,26,26,27,27,28,28],"right_children":[2,4,6,8,10,12,14,-1,16,18,20,22,24,26,28,-1,30,32,-1,34,36,38,40,42,44,46,48,50,52,-1,-1,-1,-1,-1,-1,-1,-1,-1,-1,-1,-1,-1,-1,-1,-1,-1,-1,-1,-1,-1,-1,-1,-1],"split_conditions":[4.9E1,2.1E1,3.13E2,2E0,4E0,1.04E2,5E0,-7.7630375E-3,4.62375E1,4.4E1,3.6E1,7.7E1,2.9E2,3.62E2,3.47E2,7.592041E-2,5E-1,3.9E1,1.466359E-1,2.7E1,6E0,3E0,1.3E1,5E0,3E0,3.23E2,2.9E1,3.39E2,1.7E1,1.7895834E-1,3.8405836E-2,1.01503335E-1,2.1892376E-2,2.611505E-2,1.0070192E-1,3.198916E-2,-2.0003077E-2,1.6394727E-3,6.01673E-2,-3.490026E-2,1.5650073E-2,-3.8206182E-2,-6.327105E-2,3.2003384E-2,-1.6038936E-2,4.037173E-2,9.861251E-2,-1.4274311E-3,3.121067E-2,2.5824662E-2,2.1919124E-3,1.1691167E-1,2.5101513E-2],"split_indices":[5,5,5,0,1,5,1,0,13,5,5,5,5,5,5,0,10,5,0,5,1,1,6,1,1,5,0,5,0,0,0,0,0,0,0,0,0,0,0,0,0,0,0,0,0,0,0,0,0,0,0,0,0],"split_type":[0,0,0,0,0,0,0,0,0,0,0,0,0,0,0,0,0,0,0,0,0,0,0,0,0,0,0,0,0,0,0,0,0,0,0,0,0,0,0,0,0,0,0,0,0,0,0,0,0,0,0,0,0],"sum_hessian":[4.71E2,6.6E1,4.05E2,2.7E1,3.9E1,3.65E2,4E1,1E0,2.6E1,2.2E1,1.7E1,7.6E1,2.89E2,2.4E1,1.6E1,7E0,1.9E1,1.8E1,4E0,1E1,7E0,3.7E1,3.9E1,2.68E2,2.1E1,2.2E1,2E0,1E1,6E0,1.8E1,1E0,1.5E1,3E0,3E0,7E0,5E0,2E0,1.6E1,2.1E1,1E1,2.9E1,1.91E2,7.7E1,9E0,1.2E1,5E0,1.7E1,1E0,1E0,8E0,2E0,1E0,5E0],"tree_param":{"num_deleted":"0","num_feature":"31","num_nodes":"53","size_leaf_vector":"1"}},{"base_weights":[2.0240036E-1,9.066302E0,-2.1231105E0,1.2658656E1,4.5330977E0,-3.328376E0,6.548413E0,1.5610108E-1,8.993299E0,6.118582E0,1.0599233E0,5.374189E-1,-4.233935E0,3.75922E0,7.9576497E0,1.7890053E0,9.5191145E0,4.945509E0,1.0994843E1,-2.842161E-1,3.1235018E0,-1.6436536E0,2.0555396E0,-3.270939E0,-6.259746E0,5.0536876E0,1.671233E0,9.500509E0,2.7200794E0,2.30406E-2,3.7944792E-3,1.0240165E-1,5.6492656E-2,1.9678319E-2,7.357244E-2,1.6044392E-1,2.2803446E-2,-1.0252467E-2,1.0836415E-2,9.260702E-3,3.377774E-2,2.826373E-2,-2.3495862E-2,3.015143E-2,-1.9489645E-3,-3.60409E-2,9.129119E-3,-6.7707896E-2,-3.2574024E-2,2.5020193E-2,6.337796E-2,-3.6099337E-3,2.4088075E-2,6.5510266E-2,1.3032982E-1,-2.1634907E-2,3.7268024E-2],"categories":[],"categories_nodes":[],"categories_segments":[],"categories_sizes":[],"default_left":[0,0,0,1,0,0,0,0,0,0,1,0,0,0,0,0,0,0,0,0,0,0,0,0,0,0,0,0,0,0,0,0,0,0,0,0,0,0,0,0,0,0,0,0,0,0,0,0,0,0,0,0,0,0,0,0,0],"id":19,"left_children":[1,3,5,7,9,11,13,-1,15,17,19,21,23,25,27,29,31,33,35,37,39,41,43,45,47,49,51,53,55,-1,-1,-1,-1,-1,-1,-1,-1,-1,-1,-1,-1,-1,-1,-1,-1,-1,-1,-1,-1,-1,-1,-1,-1,-1,-1,-1,-1],"loss_changes":[9.521888E3,1.5059653E3,3.84704E3,4.329746E2,2.3580792E2,1.1295024E3,1.4696375E2,0E0,8.146167E1,1.1723108E2,4.2493813E1,2.0866872E2,4.886958E2,3.7502243E1,2.0850208E2,1.3037262E0,9.119385E0,1.722378E2,1.8343475E2,1.1247245E1,2.2442245E-1,8.868481E1,8.049013E1,2.527898E2,1.05293945E2,1.6908875E1,1.286091E1,1.4383789E2,4.7394115E1,0E0,0E0,0E0,0E0,0E0,0E0,0E0,0E0,0E0,0E0,0E0,0E0,0E0,0E0,0E0,0E0,0E0,0E0,0E0,0E0,0E0,0E0,0E0,0E0,0E0,0E0,0E0,0E0],"parents":[2147483647,0,0,1,1,2,2,3,3,4,4,5,5,6,6,8,8,9,9,10,10,11,11,12,12,13,13,14,14,15,15,16,16,17,17,18,18,19,19,20,20,21,21,22,22,23,23,24,24,25,25,26,26,27,27,28,28],"right_children":[2,4,6,8,10,12,14,-1,16,18,20,22,24,26,28,30,32,34,36,38,40,42,44,46,48,50,52,54,56,-1,-1,-1,-1,-1,-1,-1,-1,-1,-1,-1,-1,-1,-1,-1,-1,-1,-1,-1,-1,-1,-1,-1,-1,-1,-1,-1,-1],"split_conditions":[1E1,6E0,1.1E1,1.803E2,5E0,1.7E1,4.7E1,1.5610108E-1,1.23E2,3E0,9.58E1,7.2E0,5E0,4E0,5.2E1,3E0,5E0,2.024E3,4E0,3E0,9.64E1,3.74E1,1.4E1,4.2E1,3.8E1,2E0,4.5E1,5E1,2.023E3,2.30406E-2,3.7944792E-3,1.0240165E-1,5.6492656E-2,1.9678319E-2,7.357244E-2,1.6044392E-1,2.2803446E-2,-1.0252467E-2,1.0836415E-2,9.260702E-3,3.377774E-2,2.826373E-2,-2.3495862E-2,3.015143E-2,-1.9489645E-3,-3.60409E-2,9.129119E-3,-6.7707896E-2,-3.2574024E-2,2.5020193E-2,6.337796E-2,-3.6099337E-3,2.4088075E-2,6.5510266E-2,1.3032982E-1,-2.1634907E-2,3.7268024E-2],"split_indices":[6,6,3,25,1,6,6,0,22,3,22,19,1,1,6,1,1,4,1,3,22,22,6,6,6,1,6,6,4,0,0,0,0,0,0,0,0,0,0,0,0,0,0,0,0,0,0,0,0,0,0,0,0,0,0,0,0],"split_type":[0,0,0,0,0,0,0,0,0,0,0,0,0,0,0,0,0,0,0,0,0,0,0,0,0,0,0,0,0,0,0,0,0,0,0,0,0,0,0,0,0,0,0,0,0,0,0,0,0,0,0,0,0,0,0,0,0],"sum_hessian":[4.6E2,9.5E1,3.65E2,5.2E1,4.3E1,3.21E2,4.4E1,2.7E1,2.5E1,2.9E1,1.4E1,6.1E1,2.6E2,1.6E1,2.8E1,2E0,2.3E1,2.5E1,4E0,9E0,5E0,2.5E1,3.6E1,1.78E2,8.2E1,9E0,7E0,2.1E1,7E0,1E0,1E0,1.8E1,5E0,1.2E1,1.3E1,2E0,2E0,6E0,3E0,1E0,4E0,3E0,2.2E1,2.5E1,1.1E1,1.65E2,1.3E1,6.9E1,1.3E1,4E0,5E0,2E0,5E0,1.3E1,8E0,1E0,6E0],"tree_param":{"num_deleted":"0","num_feature":"31","num_nodes":"57","size_leaf_vector":"1"}},{"base_weights":[1.2741058E-1,7.872675E0,-2.278177E0,1.1687211E1,4.3170104E0,-3.50349E0,6.35079E0,1.3839082E1,8.123793E0,7.25128E0,1.5372357E-1,-7.507708E-2,-4.1205792E0,3.8590271E0,8.458095E0,1.5684626E1,9.0576725E0,9.442134E0,3.9499E0,-2.199955E0,8.236881E0,-1.2540214E0,3.9527853E0,-1.5853304E0,4.587794E0,-5.0451336E0,-2.3961682E0,4.147146E0,1.5257044E0,1.0892437E1,4.2042055E0,3.7218817E-2,1.6096668E-1,6.0438022E-2,1.2820995E-1,1.1569374E-1,5.868721E-2,4.666559E-2,1.4388345E-2,-2.0485497E-3,-4.0926274E-2,4.1498445E-2,9.985478E-2,1.8541558E-2,-2.206479E-2,9.589787E-3,5.9583955E-2,3.784502E-2,-2.170448E-2,-7.861023E-3,8.538591E-2,-3.212195E-2,-5.684408E-2,-3.0691005E-2,5.717654E-4,2.0161582E-2,4.4206962E-2,-2.403593E-3,2.194512E-2,1.829328E-2,1.3197891E-1,5.0986663E-2,4.1757617E-3],"categories":[],"categories_nodes":[],"categories_segments":[],"categories_sizes":[],"default_left":[0,0,0,1,0,0,0,0,0,0,0,0,0,0,0,0,0,0,0,0,0,0,1,0,0,0,0,0,0,0,0,0,0,0,0,0,0,0,0,0,0,0,0,0,0,0,0,0,0,0,0,0,0,0,0,0,0,0,0,0,0,0,0],"id":20,"left_children":[1,3,5,7,9,11,13,15,17,19,21,23,25,27,29,31,33,35,37,39,41,43,45,47,49,51,53,55,57,59,61,-1,-1,-1,-1,-1,-1,-1,-1,-1,-1,-1,-1,-1,-1,-1,-1,-1,-1,-1,-1,-1,-1,-1,-1,-1,-1,-1,-1,-1,-1,-1,-1],"loss_changes":[8.569982E3,1.4279365E3,3.733438E3,2.8631104E2,7.074253E2,6.513064E2,1.9839978E2,1.314873E2,8.376196E1,3.3483606E2,1.3865962E2,3.4529474E2,4.0402637E2,8.4627075E0,1.923805E2,4.360254E1,4.7276245E1,5.3726807E1,5.882637E0,1.4265888E1,1.8010547E2,6.0338886E1,3.6316887E1,1.2446746E2,2.6148633E2,1.797666E2,1.5371252E2,2.1629028E0,5.2521E0,2.6838098E2,3.174083E1,0E0,0E0,0E0,0E0,0E0,0E0,0E0,0E0,0E0,0E0,0E0,0E0,0E0,0E0,0E0,0E0,0E0,0E0,0E0,0E0,0E0,0E0,0E0,0E0,0E0,0E0,0E0,0E0,0E0,0E0,0E0,0E0],"parents":[2147483647,0,0,1,1,2,2,3,3,4,4,5,5,6,6,7,7,8,8,9,9,10,10,11,11,12,12,13,13,14,14,15,15,16,16,17,17,18,18,19,19,20,20,21,21,22,22,23,23,24,24,25,25,26,26,27,27,28,28,29,29,30,30],"right_children":[2,4,6,8,10,12,14,16,18,20,22,24,26,28,30,32,34,36,38,40,42,44,46,48,50,52,54,56,58,60,62,-1,-1,-1,-1,-1,-1,-1,-1,-1,-1,-1,-1,-1,-1,-1,-1,-1,-1,-1,-1,-1,-1,-1,-1,-1,-1,-1,-1,-1,-1,-1,-1],"split_conditions":[1.2E1,6E0,1.1E1,2.34E1,1.6E1,1.6E1,1.4E1,2.1E1,2.3E1,5.1E0,2.6E1,2.5E1,3.5E1,5E1,2.3E1,2E0,2.8E1,1.39E1,5E-1,5E0,7E0,1.8E1,8.1E0,5.61E1,2.54E1,2.1E1,4.2E1,4.5E1,1.2E1,4.7E1,3.1E1,3.7218817E-2,1.6096668E-1,6.0438022E-2,1.2820995E-1,1.1569374E-1,5.868721E-2,4.666559E-2,1.4388345E-2,-2.0485497E-3,-4.0926274E-2,4.1498445E-2,9.985478E-2,1.8541558E-2,-2.206479E-2,9.589787E-3,5.9583955E-2,3.784502E-2,-2.170448E-2,-7.861023E-3,8.538591E-2,-3.212195E-2,-5.684408E-2,-3.0691005E-2,5.717654E-4,2.0161582E-2,4.4206962E-2,-2.403593E-3,2.194512E-2,1.829328E-2,1.3197891E-1,5.0986663E-2,4.1757617E-3],"split_indices":[6,6,3,13,0,6,0,0,0,19,0,0,6,6,0,0,0,19,10,0,6,0,19,25,28,6,6,6,0,6,0,0,0,0,0,0,0,0,0,0,0,0,0,0,0,0,0,0,0,0,0,0,0,0,0,0,0,0,0,0,0,0,0],"split_type":[0,0,0,0,0,0,0,0,0,0,0,0,0,0,0,0,0,0,0,0,0,0,0,0,0,0,0,0,0,0,0,0,0,0,0,0,0,0,0,0,0,0,0,0,0,0,0,0,0,0,0,0,0,0,0,0,0,0,0,0,0,0,0],"sum_hessian":[4.58E2,1.08E2,3.5E2,5.1E1,5.7E1,3.07E2,4.3E1,3E1,2.1E1,3.3E1,2.4E1,4.7E1,2.6E2,2.1E1,2.2E1,2E1,1E1,1.5E1,6E0,3E0,3E1,1.8E1,6E0,3.6E1,1.1E1,1.68E2,9.2E1,1.8E1,3E0,1.3E1,9E0,1E0,1.9E1,7E0,3E0,8E0,7E0,4E0,2E0,2E0,1E0,1E1,2E1,4E0,1.4E1,3E0,3E0,3E0,3.3E1,5E0,6E0,4.5E1,1.23E2,7.2E1,2E1,3E0,1.5E1,1E0,2E0,3E0,1E1,7E0,2E0],"tree_param":{"num_deleted":"0","num_feature":"31","num_nodes":"63","size_leaf_vector":"1"}},{"base_weights":[-3.2839793E-1,8.081537E0,-2.488693E0,1.4308689E1,5.1335855E0,-3.6613677E0,6.925604E0,1.5652674E1,6.5479684E0,-3.644955E-2,5.62507E0,-6.749699E-1,-4.227156E0,3.264701E0,9.230177E0,1.9855699E-1,1.05689056E-1,-7.5642155E-3,8.160131E-2,7.87178E0,3.0410776E0,-2.4932055E0,1.2391583E0,-3.450762E0,-6.253814E0,4.0856123E0,1.0787611E0,1.1810259E1,4.4370356E0,8.606873E-2,-2.1030776E-2,5.7616275E-2,6.2173773E-3,-8.89994E-3,-6.1895836E-2,-2.7623696E-2,4.3577697E-2,-3.797424E-2,1.7212816E-2,-6.762145E-2,-4.0202547E-2,5.7406016E-2,2.8961048E-2,1.2262788E-3,1.5261707E-2,4.5536947E-2,1.4035037E-1,-2.1547608E-2,5.4088753E-2],"categories":[],"categories_nodes":[],"categories_segments":[],"categories_sizes":[],"default_left":[0,0,0,0,0,0,0,0,0,0,0,0,0,0,0,0,0,0,0,0,0,0,0,0,0,0,0,0,0,0,0,0,0,0,0,0,0,0,0,0,0,0,0,0,0,0,0,0,0],"id":21,"left_children":[1,3,5,7,9,11,13,15,17,-1,19,21,23,25,27,-1,-1,-1,-1,29,31,33,35,37,39,41,43,45,47,-1,-1,-1,-1,-1,-1,-1,-1,-1,-1,-1,-1,-1,-1,-1,-1,-1,-1,-1,-1],"loss_changes":[8.177518E3,1.6154209E3,3.9776436E3,1.9998535E2,2.9663232E2,5.3615137E2,3.0733887E2,3.0295996E2,7.682767E1,0E0,3.3019556E2,1.8406694E2,4.0011377E2,2.609848E1,2.4439807E2,0E0,0E0,0E0,0E0,2.5273938E2,1.9387585E2,1.5449539E2,3.364973E2,3.5795508E2,5.569751E1,6.9980774E0,2.379548E0,1.7825244E2,7.571651E1,0E0,0E0,0E0,0E0,0E0,0E0,0E0,0E0,0E0,0E0,0E0,0E0,0E0,0E0,0E0,0E0,0E0,0E0,0E0,0E0],"parents":[2147483647,0,0,1,1,2,2,3,3,4,4,5,5,6,6,7,7,8,8,10,10,11,11,12,12,13,13,14,14,19,19,20,20,21,21,22,22,23,23,24,24,25,25,26,26,27,27,28,28],"right_children":[2,4,6,8,10,12,14,16,18,-1,20,22,24,26,28,-1,-1,-1,-1,30,32,34,36,38,40,42,44,46,48,-1,-1,-1,-1,-1,-1,-1,-1,-1,-1,-1,-1,-1,-1,-1,-1,-1,-1,-1,-1],"split_conditions":[7.5E1,2.1E1,1.1E1,5E0,5E0,1.16E2,1.4E1,2.024E3,2E0,-3.644955E-2,1.6E1,1.9E1,5E0,5E0,2.4E1,1.9855699E-1,1.05689056E-1,-7.5642155E-3,8.160131E-2,6E0,2E0,1.05E2,2.54E1,2.9E2,2.6E2,3E0,6E0,3.23E2,2.023E3,8.606873E-2,-2.1030776E-2,5.7616275E-2,6.2173773E-3,-8.89994E-3,-6.1895836E-2,-2.7623696E-2,4.3577697E-2,-3.797424E-2,1.7212816E-2,-6.762145E-2,-4.0202547E-2,5.7406016E-2,2.8961048E-2,1.2262788E-3,1.5261707E-2,4.5536947E-2,1.4035037E-1,-2.1547608E-2,5.4088753E-2],"split_indices":[5,5,3,1,19,5,0,4,0,0,0,0,1,1,0,0,0,0,0,1,3,5,28,5,5,0,1,5,4,0,0,0,0,0,0,0,0,0,0,0,0,0,0,0,0,0,0,0,0],"split_type":[0,0,0,0,0,0,0,0,0,0,0,0,0,0,0,0,0,0,0,0,0,0,0,0,0,0,0,0,0,0,0,0,0,0,0,0,0,0,0,0,0,0,0,0,0,0,0,0,0],"sum_hessian":[4.48E2,9.1E1,3.57E2,2.8E1,6.3E1,3.18E2,3.9E1,2.3E1,5E0,3E0,6E1,5.1E1,2.67E2,1.6E1,2.3E1,1.1E1,1.2E1,1E0,4E0,3.1E1,2.9E1,2.6E1,2.5E1,1.95E2,7.2E1,1.1E1,5E0,1.4E1,9E0,2.9E1,2E0,1.3E1,1.6E1,1.9E1,7E0,1.1E1,1.4E1,1.83E2,1.2E1,5.7E1,1.5E1,3E0,8E0,2E0,3E0,4E0,1E1,1E0,8E0],"tree_param":{"num_deleted":"0","num_feature":"31","num_nodes":"49","size_leaf_vector":"1"}},{"base_weights":[-1.6710354E-1,7.7946725E0,-2.374523E0,1.17861805E1,3.8068566E0,-3.5519493E0,7.317106E0,1.20630865E1,-7.5263926E-3,5.443096E0,9.9853045E-1,-1.2742597E0,-4.2347035E0,-2.143987E-2,7.622503E0,1.3967947E1,8.697884E0,-2.0302064E0,6.902234E0,4.0490947E0,-2.4569435E0,3.4543486E0,-1.6613653E0,-5.3046856E0,-2.2305436E0,5.622194E0,1.1036775E1,1.5800259E-1,9.53323E-2,9.5322184E-2,4.2884316E-2,1.526823E-3,-4.263989E-2,1.3935187E-1,5.442482E-2,2.6129832E-2,5.9090443E-2,-5.2539766E-2,1.3908856E-2,-9.928939E-3,5.926193E-2,1.7818434E-2,-2.0722272E-2,-5.825838E-2,-3.3622533E-2,-2.8707124E-2,5.755768E-4,4.324087E-2,7.593718E-2,1.2584658E-1,4.4078723E-2],"categories":[],"categories_nodes":[],"categories_segments":[],"categories_sizes":[],"default_left":[0,0,0,0,0,0,0,1,0,0,0,0,0,0,0,0,0,0,0,0,0,0,0,1,0,0,0,0,0,0,0,0,0,0,0,0,0,0,0,0,0,0,0,0,0,0,0,0,0,0,0],"id":22,"left_children":[1,3,5,7,9,11,13,15,-1,17,19,21,23,-1,25,27,29,31,33,35,37,39,41,43,45,47,49,-1,-1,-1,-1,-1,-1,-1,-1,-1,-1,-1,-1,-1,-1,-1,-1,-1,-1,-1,-1,-1,-1,-1,-1],"loss_changes":[8.015124E3,1.5309541E3,4.099781E3,1.7921045E2,2.289148E2,4.906814E2,1.2902856E2,1.862002E2,0E0,3.629594E2,2.207713E2,1.4302423E2,5.135488E2,0E0,1.9747388E2,8.502002E1,3.270105E1,2.9907629E1,2.013501E2,1.3941803E1,1.1493274E2,7.184144E1,1.02720215E2,1.4136816E2,1.2760028E2,3.370459E1,7.791846E1,0E0,0E0,0E0,0E0,0E0,0E0,0E0,0E0,0E0,0E0,0E0,0E0,0E0,0E0,0E0,0E0,0E0,0E0,0E0,0E0,0E0,0E0,0E0,0E0],"parents":[2147483647,0,0,1,1,2,2,3,3,4,4,5,5,6,6,7,7,9,9,10,10,11,11,12,12,14,14,15,15,16,16,17,17,18,18,19,19,20,20,21,21,22,22,23,23,24,24,25,25,26,26],"right_children":[2,4,6,8,10,12,14,16,-1,18,20,22,24,-1,26,28,30,32,34,36,38,40,42,44,46,48,50,-1,-1,-1,-1,-1,-1,-1,-1,-1,-1,-1,-1,-1,-1,-1,-1,-1,-1,-1,-1,-1,-1,-1,-1],"split_conditions":[7.4E1,3.6E1,1.1E1,6E0,1.6E1,1.25E2,2.023E3,1.5E1,-7.5263926E-3,6.2E0,1.11E1,3E0,2.4E2,-2.143987E-2,3.47E2,2.1E1,2.3E1,2.2E1,3E0,2.7E1,2.3E1,2E0,8E1,6E0,4.2E1,2E1,2.3E1,1.5800259E-1,9.53323E-2,9.5322184E-2,4.2884316E-2,1.526823E-3,-4.263989E-2,1.3935187E-1,5.442482E-2,2.6129832E-2,5.9090443E-2,-5.2539766E-2,1.3908856E-2,-9.928939E-3,5.926193E-2,1.7818434E-2,-2.0722272E-2,-5.825838E-2,-3.3622533E-2,-2.8707124E-2,5.755768E-4,4.324087E-2,7.593718E-2,1.2584658E-1,4.4078723E-2],"split_indices":[5,5,3,6,0,5,4,28,0,19,19,0,5,0,5,0,0,13,0,0,0,0,5,19,6,0,0,0,0,0,0,0,0,0,0,0,0,0,0,0,0,0,0,0,0,0,0,0,0,0,0],"split_type":[0,0,0,0,0,0,0,0,0,0,0,0,0,0,0,0,0,0,0,0,0,0,0,0,0,0,0,0,0,0,0,0,0,0,0,0,0,0,0,0,0,0,0,0,0,0,0,0,0,0,0],"sum_hessian":[4.54E2,9.8E1,3.56E2,4.8E1,5E1,3.18E2,3.8E1,4.7E1,1E0,3.1E1,1.9E1,7.4E1,2.44E2,1E0,3.7E1,2.8E1,1.9E1,5E0,2.6E1,1E1,9E0,5E0,6.9E1,1.58E2,8.6E1,2.5E1,1.2E1,1.8E1,1E1,1.5E1,4E0,3E0,2E0,3E0,2.3E1,7E0,3E0,5E0,4E0,2E0,3E0,7E0,6.2E1,1.23E2,3.5E1,6.7E1,1.9E1,1.7E1,8E0,9E0,3E0],"tree_param":{"num_deleted":"0","num_feature":"31","num_nodes":"51","size_leaf_vector":"1"}},{"base_weights":[4.6502645E-3,1.0284006E1,-1.704336E0,1.2339139E1,4.8374853E0,-2.8194547E0,7.4580965E0,1.5613767E1,9.442485E0,6.237069E0,5.322774E-1,2.060605E0,-3.9629638E0,8.835394E0,3.8756454E0,1.8391435E-1,9.866715E-2,3.2010553E-3,9.768495E0,4.280723E-1,7.097832E0,-1.8627834E0,3.548266E-2,-1.6888046E0,3.1333818E0,-4.298047E0,8.0906993E-1,4.2870893E0,9.983355E0,-2.1332668E-2,4.501967E0,8.510944E-2,1.4871676E-1,1.3909845E-2,-7.4887606E-3,7.741499E-2,2.3717746E-2,-2.4437083E-2,-8.545723E-3,4.1790575E-2,-3.9930135E-2,1.0478988E-3,5.5527624E-2,-3.6676906E-2,-5.7995833E-2,2.2915602E-2,-2.2714922E-2,6.023216E-3,4.727439E-2,1.0638476E-1,1.8513398E-2,2.4617685E-2,7.27393E-2],"categories":[],"categories_nodes":[],"categories_segments":[],"categories_sizes":[],"default_left":[0,0,0,0,0,0,0,1,0,0,0,0,0,0,0,0,0,0,0,0,1,0,0,0,0,0,0,0,0,0,0,0,0,0,0,0,0,0,0,0,0,0,0,0,0,0,0,0,0,0,0,0,0],"id":23,"left_children":[1,3,5,7,9,11,13,15,17,19,21,23,25,27,29,-1,-1,-1,31,33,35,37,-1,39,41,43,45,47,49,-1,51,-1,-1,-1,-1,-1,-1,-1,-1,-1,-1,-1,-1,-1,-1,-1,-1,-1,-1,-1,-1,-1,-1],"loss_changes":[8.256581E3,6.902622E2,4.138559E3,3.0786914E2,1.17190155E2,2.0171074E3,1.8285791E2,1.5376855E2,8.0144775E1,7.196417E1,4.995051E1,2.8282904E2,4.7039355E2,1.19059814E2,6.229306E1,0E0,0E0,0E0,4.6700684E1,4.4415693E0,2.1184998E1,2.544546E-1,0E0,2.3301955E2,3.950932E2,2.3712402E2,9.654333E1,1.0133255E1,1.0816382E2,0E0,5.5612885E1,0E0,0E0,0E0,0E0,0E0,0E0,0E0,0E0,0E0,0E0,0E0,0E0,0E0,0E0,0E0,0E0,0E0,0E0,0E0,0E0,0E0,0E0],"parents":[2147483647,0,0,1,1,2,2,3,3,4,4,5,5,6,6,7,7,8,8,9,9,10,10,11,11,12,12,13,13,14,14,18,18,19,19,20,20,21,21,23,23,24,24,25,25,26,26,27,27,28,28,30,30],"right_children":[2,4,6,8,10,12,14,16,18,20,22,24,26,28,30,-1,-1,-1,32,34,36,38,-1,40,42,44,46,48,50,-1,52,-1,-1,-1,-1,-1,-1,-1,-1,-1,-1,-1,-1,-1,-1,-1,-1,-1,-1,-1,-1,-1,-1],"split_conditions":[4.6E1,5E0,1.1E1,2.1E1,3.6E1,9.7E1,5E0,1.7E1,1.01E1,7E0,2.024E3,5.7E1,2.88E2,3.23E2,2.023E3,1.8391435E-1,9.866715E-2,3.2010553E-3,4.4E1,6E0,2.88E1,3.7E1,3.548266E-2,9.7E0,2.16E1,5E0,4E0,2E0,3.62E2,-2.1332668E-2,3.47E2,8.510944E-2,1.4871676E-1,1.3909845E-2,-7.4887606E-3,7.741499E-2,2.3717746E-2,-2.4437083E-2,-8.545723E-3,4.1790575E-2,-3.9930135E-2,1.0478988E-3,5.5527624E-2,-3.6676906E-2,-5.7995833E-2,2.2915602E-2,-2.2714922E-2,6.023216E-3,4.727439E-2,1.0638476E-1,1.8513398E-2,2.4617685E-2,7.27393E-2],"split_indices":[5,1,3,5,5,5,1,16,16,5,4,5,5,5,4,0,0,0,5,1,28,5,0,28,28,1,1,1,5,0,5,0,0,0,0,0,0,0,0,0,0,0,0,0,0,0,0,0,0,0,0,0,0],"split_type":[0,0,0,0,0,0,0,0,0,0,0,0,0,0,0,0,0,0,0,0,0,0,0,0,0,0,0,0,0,0,0,0,0,0,0,0,0,0,0,0,0,0,0,0,0,0,0,0,0,0,0,0,0],"sum_hessian":[4.68E2,6.6E1,4.02E2,4.7E1,1.9E1,3.59E2,4.3E1,2E1,2.7E1,1.4E1,5E0,6.8E1,2.91E2,3E1,1.3E1,1.2E1,8E0,1E0,2.6E1,2E0,1.2E1,3E0,2E0,1.5E1,5.3E1,2.72E2,1.9E1,7E0,2.3E1,1E0,1.2E1,2.3E1,3E0,1E0,1E0,1E1,2E0,1E0,2E0,4E0,1.1E1,2.4E1,2.9E1,1.94E2,7.8E1,1.3E1,6E0,1E0,6E0,2.1E1,2E0,8E0,4E0],"tree_param":{"num_deleted":"0","num_feature":"31","num_nodes":"53","size_leaf_vector":"1"}},{"base_weights":[5.4572444E-2,7.5473742E0,-2.111926E0,1.1303692E1,4.172466E0,-3.3491945E0,7.3280644E0,1.2851619E1,6.731893E0,5.6710525E0,4.4396052E-1,-4.5447823E-1,-3.9432175E0,8.144476E0,2.6361532E0,1.5911444E1,9.455194E0,4.259316E-1,7.669277E0,6.2832785E0,-1.7159157E0,-7.772401E-1,4.9124727E0,-3.2193475E0,4.1580284E-1,-3.0045085E0,-6.217232E0,6.0957026E0,1.4809316E-1,3.60861E-2,1.3309572E0,1.6833347E-1,5.690807E-2,3.3096682E-2,9.9541605E-2,1.38402935E-2,-7.4513196E-3,8.633064E-2,1.5789635E-2,4.7114514E-2,9.427268E-2,2.8859977E-2,-4.211886E-2,-1.6636217E-2,3.322827E-2,5.8912408E-2,9.880838E-3,-3.003334E-3,-4.3569196E-2,-3.0906987E-3,2.6844157E-2,-3.430502E-2,1.732867E-2,-6.756228E-2,-3.8223498E-2,6.8062454E-2,2.1191584E-2,3.179481E-3,2.6914967E-2],"categories":[],"categories_nodes":[],"categories_segments":[],"categories_sizes":[],"default_left":[0,0,0,0,0,0,0,1,0,1,0,0,0,0,0,0,0,0,1,0,0,1,0,0,0,0,0,0,0,0,0,0,0,0,0,0,0,0,0,0,0,0,0,0,0,0,0,0,0,0,0,0,0,0,0,0,0,0,0],"id":24,"left_children":[1,3,5,7,9,11,13,15,17,19,21,23,25,27,29,31,33,35,37,39,41,43,45,47,49,51,53,55,-1,-1,57,-1,-1,-1,-1,-1,-1,-1,-1,-1,-1,-1,-1,-1,-1,-1,-1,-1,-1,-1,-1,-1,-1,-1,-1,-1,-1,-1,-1],"loss_changes":[7.889014E3,1.3346538E3,4.4278286E3,2.7440137E2,3.2714404E2,5.725303E2,1.4707349E2,2.340752E2,8.5400024E1,2.0072644E2,1.02043274E2,1.4089899E2,5.7261475E2,4.149524E2,5.3510666E0,7.380859E1,2.8383057E1,4.3972645E0,6.267572E1,1.4831433E2,5.8100456E1,6.0041298E1,9.543236E0,4.5179718E1,7.483018E1,4.0552698E2,7.744214E1,7.034155E1,0E0,0E0,6.0354385E0,0E0,0E0,0E0,0E0,0E0,0E0,0E0,0E0,0E0,0E0,0E0,0E0,0E0,0E0,0E0,0E0,0E0,0E0,0E0,0E0,0E0,0E0,0E0,0E0,0E0,0E0,0E0,0E0],"parents":[2147483647,0,0,1,1,2,2,3,3,4,4,5,5,6,6,7,7,8,8,9,9,10,10,11,11,12,12,13,13,14,14,15,15,16,16,17,17,18,18,19,19,20,20,21,21,22,22,23,23,24,24,25,25,26,26,27,27,30,30],"right_children":[2,4,6,8,10,12,14,16,18,20,22,24,26,28,30,32,34,36,38,40,42,44,46,48,50,52,54,56,-1,-1,58,-1,-1,-1,-1,-1,-1,-1,-1,-1,-1,-1,-1,-1,-1,-1,-1,-1,-1,-1,-1,-1,-1,-1,-1,-1,-1,-1,-1],"split_conditions":[7.7E1,3.6E1,3.05E2,5E0,5E0,1.16E2,3.57E2,1.7224E3,7E0,3.09E1,6.5E1,1.24E1,5E0,3.49E2,3.62E2,3.1E1,1.769E3,6E0,1.39E1,6.8E1,3E0,8.15E1,7.3E1,4.34E1,1.09E2,2.9E2,2.6E2,5E0,1.4809316E-1,3.60861E-2,6E0,1.6833347E-1,5.690807E-2,3.3096682E-2,9.9541605E-2,1.38402935E-2,-7.4513196E-3,8.633064E-2,1.5789635E-2,4.7114514E-2,9.427268E-2,2.8859977E-2,-4.211886E-2,-1.6636217E-2,3.322827E-2,5.8912408E-2,9.880838E-3,-3.003334E-3,-4.3569196E-2,-3.0906987E-3,2.6844157E-2,-3.430502E-2,1.732867E-2,-6.756228E-2,-3.8223498E-2,6.8062454E-2,2.1191584E-2,3.179481E-3,2.6914967E-2],"split_indices":[5,5,5,1,1,5,5,7,5,28,5,28,1,5,5,5,7,1,19,5,1,16,5,16,5,5,5,1,0,0,1,0,0,0,0,0,0,0,0,0,0,0,0,0,0,0,0,0,0,0,0,0,0,0,0,0,0,0,0],"split_type":[0,0,0,0,0,0,0,0,0,0,0,0,0,0,0,0,0,0,0,0,0,0,0,0,0,0,0,0,0,0,0,0,0,0,0,0,0,0,0,0,0,0,0,0,0,0,0,0,0,0,0,0,0,0,0,0,0,0,0],"sum_hessian":[4.84E2,1.08E2,3.76E2,5E1,5.8E1,3.33E2,4.3E1,3.6E1,1.4E1,4.1E1,1.7E1,5.7E1,2.76E2,3.6E1,7E0,1.7E1,1.9E1,2E0,1.2E1,3.8E1,3E0,1.4E1,3E0,1.3E1,4.4E1,1.97E2,7.9E1,2.9E1,7E0,3E0,4E0,1.5E1,2E0,2E0,1.7E1,1E0,1E0,1E1,2E0,2.7E1,1.1E1,1E0,2E0,1.2E1,2E0,2E0,1E0,4E0,9E0,3.4E1,1E1,1.81E2,1.6E1,6.3E1,1.6E1,2.4E1,5E0,3E0,1E0],"tree_param":{"num_deleted":"0","num_feature":"31","num_nodes":"59","size_leaf_vector":"1"}},{"base_weights":[4.721317E-2,7.3269773E0,-2.180603E0,1.3348246E1,4.8577476E0,-3.238886E0,6.0604105E0,1.5038948E1,7.3565674E0,7.134688E0,2.2227175E0,4.5507115E-1,-3.803763E0,3.3303998E0,7.453735E0,1.553986E1,1.7589903E-2,1.3771095E-2,7.9318605E-2,-2.689354E0,8.21124E0,-1.3010024E0,5.0047283E0,-8.5164064E-1,4.4526286E0,-4.6454067E0,-2.0433743E0,3.6201313E-2,8.681863E-3,-2.1241907E-2,7.903816E0,9.107962E-2,1.7274179E-1,-3.6038745E-2,4.843645E-3,2.7871963E-2,8.751496E-2,-3.2208073E-3,-6.08825E-2,8.362601E-2,4.0344007E-2,1.7722193E-3,-4.8454277E-2,-2.3957431E-2,6.2406823E-2,-2.85293E-2,-5.2480906E-2,-2.7353493E-2,3.1415261E-3,4.1472357E-2,9.648638E-2],"categories":[],"categories_nodes":[],"categories_segments":[],"categories_sizes":[],"default_left":[0,0,0,1,0,0,0,0,0,0,0,0,0,0,0,0,0,0,0,0,0,0,0,0,0,0,0,0,0,0,0,0,0,0,0,0,0,0,0,0,0,0,0,0,0,0,0,0,0,0,0],"id":25,"left_children":[1,3,5,7,9,11,13,15,17,19,21,23,25,27,29,31,-1,-1,-1,33,35,37,39,41,43,45,47,-1,-1,-1,49,-1,-1,-1,-1,-1,-1,-1,-1,-1,-1,-1,-1,-1,-1,-1,-1,-1,-1,-1,-1],"loss_changes":[7.751952E3,1.6003613E3,3.2116335E3,2.1352979E2,4.7012598E2,6.79886E2,1.349353E2,1.3231543E2,2.0036407E1,4.7685474E2,3.8882922E2,2.3363287E2,4.0832422E2,8.271133E0,1.33182E2,9.923193E1,0E0,0E0,0E0,1.6257748E1,8.9892334E1,8.239322E1,3.7943115E1,1.4056668E2,1.496489E2,1.9028418E2,1.5257489E2,0E0,0E0,0E0,1.3040356E2,0E0,0E0,0E0,0E0,0E0,0E0,0E0,0E0,0E0,0E0,0E0,0E0,0E0,0E0,0E0,0E0,0E0,0E0,0E0,0E0],"parents":[2147483647,0,0,1,1,2,2,3,3,4,4,5,5,6,6,7,7,8,8,9,9,10,10,11,11,12,12,13,13,14,14,15,15,19,19,20,20,21,21,22,22,23,23,24,24,25,25,26,26,30,30],"right_children":[2,4,6,8,10,12,14,16,18,20,22,24,26,28,30,32,-1,-1,-1,34,36,38,40,42,44,46,48,-1,-1,-1,50,-1,-1,-1,-1,-1,-1,-1,-1,-1,-1,-1,-1,-1,-1,-1,-1,-1,-1,-1,-1],"split_conditions":[1.2E1,4E0,1.1E1,1.43E1,1.6E1,1.6E1,4.7E1,2.1E1,2.1896E3,5.1E0,2.3E1,2.4E1,3.5E1,1.8E1,2.023E3,1.36E1,1.7589903E-2,1.3771095E-2,7.9318605E-2,5E0,9.71E1,2.2E1,2.4E1,2E1,1.3952E3,2.1E1,4.2E1,3.6201313E-2,8.681863E-3,-2.1241907E-2,1.4E1,9.107962E-2,1.7274179E-1,-3.6038745E-2,4.843645E-3,2.7871963E-2,8.751496E-2,-3.2208073E-3,-6.08825E-2,8.362601E-2,4.0344007E-2,1.7722193E-3,-4.8454277E-2,-2.3957431E-2,6.2406823E-2,-2.85293E-2,-5.2480906E-2,-2.7353493E-2,3.1415261E-3,4.1472357E-2,9.648638E-2],"split_indices":[6,6,3,19,0,6,6,0,7,19,0,0,6,0,4,19,0,0,0,19,22,0,0,0,7,6,6,0,0,0,0,0,0,0,0,0,0,0,0,0,0,0,0,0,0,0,0,0,0,0,0],"split_type":[0,0,0,0,0,0,0,0,0,0,0,0,0,0,0,0,0,0,0,0,0,0,0,0,0,0,0,0,0,0,0,0,0,0,0,0,0,0,0,0,0,0,0,0,0,0,0,0,0,0,0],"sum_hessian":[4.76E2,1.11E2,3.65E2,3.1E1,8E1,3.24E2,4.1E1,2.3E1,8E0,4.2E1,3.8E1,4.3E1,2.81E2,1.5E1,2.6E1,2.2E1,1E0,1E0,7E0,4E0,3.8E1,1.7E1,2.1E1,3.3E1,1E1,1.89E2,9.2E1,1.3E1,2E0,1E0,2.5E1,6E0,1.6E1,3E0,1E0,4E0,3.4E1,1.5E1,2E0,3E0,1.8E1,2.7E1,6E0,2E0,8E0,4.9E1,1.4E2,7.1E1,2.1E1,9E0,1.6E1],"tree_param":{"num_deleted":"0","num_feature":"31","num_nodes":"51","size_leaf_vector":"1"}},{"base_weights":[-1.2169712E-1,7.0105553E0,-2.2995965E0,1.1166513E1,3.6541734E0,-3.6530018E0,4.616062E0,1.29835825E1,7.214858E0,5.249687E0,1.2732959E0,1.0196334E-1,-4.1159396E0,9.7051513E-1,6.002512E0,3.9601038E0,1.3753926E1,8.15281E-2,1.8938217E0,3.6217732E0,9.445668E-2,-1.4001781E0,3.8558202E0,-1.9049181E0,3.6447566E0,-4.7325945E0,-2.4899101E0,1.9822116E0,-5.418819E-1,-2.1135697E-2,6.240411E0,1.8156627E-2,5.1967133E-2,1.7167352E-1,1.1188845E-1,2.485628E-3,2.359387E-2,4.907011E-2,-1.1185464E-2,2.7028421E-2,-2.7648965E-2,2.8071634E-2,5.7756707E-2,7.677153E-3,-6.1476495E-2,-1.8802796E-2,5.4902952E-2,-3.0656427E-2,-5.593779E-2,6.912862E-3,-2.8132856E-2,-1.0636326E-2,2.7772473E-2,-1.6507067E-2,9.796195E-3,3.8233534E-2,6.951795E-2],"categories":[],"categories_nodes":[],"categories_segments":[],"categories_sizes":[],"default_left":[0,0,0,1,0,0,0,0,0,0,0,0,0,0,0,0,0,0,0,1,0,0,1,0,0,0,0,0,0,0,0,0,0,0,0,0,0,0,0,0,0,0,0,0,0,0,0,0,0,0,0,0,0,0,0,0,0],"id":26,"left_children":[1,3,5,7,9,11,13,15,17,19,21,23,25,27,29,31,33,-1,35,37,-1,39,41,43,45,47,49,51,53,-1,55,-1,-1,-1,-1,-1,-1,-1,-1,-1,-1,-1,-1,-1,-1,-1,-1,-1,-1,-1,-1,-1,-1,-1,-1,-1,-1],"loss_changes":[7.5031865E3,1.5354302E3,3.4799475E3,2.6534668E2,2.3643384E2,5.392969E2,3.0249084E2,1.7492236E2,7.439581E1,2.2535632E2,1.9181525E2,2.5579176E2,2.6496143E2,2.8615685E1,9.814502E1,1.1718674E0,7.058789E1,0E0,2.4774456E0,1.8216937E2,0E0,8.586562E1,1.1972443E1,2.6552277E2,1.4287999E2,2.6852637E2,8.2185E1,2.9591076E1,1.5113691E1,0E0,4.735742E1,0E0,0E0,0E0,0E0,0E0,0E0,0E0,0E0,0E0,0E0,0E0,0E0,0E0,0E0,0E0,0E0,0E0,0E0,0E0,0E0,0E0,0E0,0E0,0E0,0E0,0E0],"parents":[2147483647,0,0,1,1,2,2,3,3,4,4,5,5,6,6,7,7,8,8,9,9,10,10,11,11,12,12,13,13,14,14,15,15,16,16,18,18,19,19,21,21,22,22,23,23,24,24,25,25,26,26,27,27,28,28,30,30],"right_children":[2,4,6,8,10,12,14,16,18,20,22,24,26,28,30,32,34,-1,36,38,-1,40,42,44,46,48,50,52,54,-1,56,-1,-1,-1,-1,-1,-1,-1,-1,-1,-1,-1,-1,-1,-1,-1,-1,-1,-1,-1,-1,-1,-1,-1,-1,-1,-1],"split_conditions":[7.7E1,3.7E1,2.9E2,1.5E1,1.6E1,9.7E1,3.13E2,2E0,2.3E1,1.3E1,5.4E1,2.5E1,2.35E2,2.98E2,2.023E3,2.024E3,1.3E1,8.15281E-2,2.6E1,1.61E1,9.445668E-2,9.6E0,1.26E1,2E1,1.053E2,1.46E2,2.41E2,1.1883E3,3.08E2,-2.1135697E-2,3.26E2,1.8156627E-2,5.1967133E-2,1.7167352E-1,1.1188845E-1,2.485628E-3,2.359387E-2,4.907011E-2,-1.1185464E-2,2.7028421E-2,-2.7648965E-2,2.8071634E-2,5.7756707E-2,7.677153E-3,-6.1476495E-2,-1.8802796E-2,5.4902952E-2,-3.0656427E-2,-5.593779E-2,6.912862E-3,-2.8132856E-2,-1.0636326E-2,2.7772473E-2,-1.6507067E-2,9.796195E-3,3.8233534E-2,6.951795E-2],"split_indices":[5,5,5,28,0,5,5,0,0,0,5,0,5,5,4,4,5,0,0,28,0,28,28,0,25,5,5,7,5,0,5,0,0,0,0,0,0,0,0,0,0,0,0,0,0,0,0,0,0,0,0,0,0,0,0,0,0],"split_type":[0,0,0,0,0,0,0,0,0,0,0,0,0,0,0,0,0,0,0,0,0,0,0,0,0,0,0,0,0,0,0,0,0,0,0,0,0,0,0,0,0,0,0,0,0,0,0,0,0,0,0,0,0,0,0,0,0],"sum_hessian":[4.81E2,1.12E2,3.69E2,4.9E1,6.3E1,3.09E2,6E1,3.2E1,1.7E1,3.7E1,2.6E1,3.4E1,2.75E2,1.7E1,4.3E1,3E0,2.9E1,1.4E1,3E0,2.8E1,9E0,1.3E1,1.3E1,2.2E1,1.2E1,1.98E2,7.7E1,1E1,7E0,1E0,4.2E1,2E0,1E0,1E1,1.9E1,1E0,2E0,2.2E1,6E0,3E0,1E1,1E1,3E0,1.4E1,8E0,3E0,9E0,6.9E1,1.29E2,7E0,7E1,2E0,8E0,4E0,3E0,1.1E1,3.1E1],"tree_param":{"num_deleted":"0","num_feature":"31","num_nodes":"57","size_leaf_vector":"1"}},{"base_weights":[-5.1168853E-1,7.7970114E0,-2.7559001E0,1.1349062E1,4.017979E0,-4.066314E0,3.948761E0,7.3205075E0,1.3512251E1,1.8387897E0,7.1948237E0,-3.3455176E0,-5.7122006E0,1.075126E0,6.052743E0,8.063688E0,3.478229E0,1.399665E1,-7.5205467E-3,5.786345E0,-1.333686E0,1.7765316E0,1.0658975E1,-1.3440211E0,-4.045774E0,-2.9783552E0,-6.328612E0,2.606099E0,-2.2763865E0,6.589793E0,2.4315572E-1,8.424006E-2,1.3294601E-2,2.4732016E-3,4.2241264E-2,1.4753269E-1,7.111571E-2,7.457936E-2,3.0493338E-2,1.1847774E-2,-4.6298627E-2,2.5422413E-2,-2.1745734E-2,1.2261318E-1,1.7648373E-2,-5.260204E-2,-7.033644E-3,-6.185314E-2,-2.6788013E-2,-3.410576E-2,4.6368153E-3,-6.8327814E-2,-3.1123217E-2,-3.0849837E-3,3.4038916E-2,-2.6890464E-2,5.1244637E-3,4.8066847E-2,1.1338283E-1,1.726209E-2,-2.103002E-2],"categories":[],"categories_nodes":[],"categories_segments":[],"categories_sizes":[],"default_left":[0,0,0,0,0,0,0,0,0,0,0,0,0,0,0,0,0,1,0,0,0,0,0,0,0,1,0,0,0,0,0,0,0,0,0,0,0,0,0,0,0,0,0,0,0,0,0,0,0,0,0,0,0,0,0,0,0,0,0,0,0],"id":27,"left_children":[1,3,5,7,9,11,13,15,17,19,21,23,25,27,29,31,33,35,-1,37,39,41,43,45,47,49,51,53,55,57,59,-1,-1,-1,-1,-1,-1,-1,-1,-1,-1,-1,-1,-1,-1,-1,-1,-1,-1,-1,-1,-1,-1,-1,-1,-1,-1,-1,-1,-1,-1],"loss_changes":[8.7666875E3,1.2967314E3,3.2668333E3,3.4552344E2,3.3291754E2,3.486587E2,3.6230328E2,2.9062744E1,2.3163428E2,3.9594638E2,3.564596E2,3.0010254E2,1.3787231E2,1.4447153E2,1.07599E2,2.7624023E1,1.1004921E1,5.6572266E1,0E0,4.1310577E1,1.5490875E2,3.275689E1,1.493783E2,1.4181804E2,4.5430615E2,2.9848114E1,1.0035083E2,4.5229736E1,1.173555E1,2.1644678E2,1.7548132E1,0E0,0E0,0E0,0E0,0E0,0E0,0E0,0E0,0E0,0E0,0E0,0E0,0E0,0E0,0E0,0E0,0E0,0E0,0E0,0E0,0E0,0E0,0E0,0E0,0E0,0E0,0E0,0E0,0E0,0E0],"parents":[2147483647,0,0,1,1,2,2,3,3,4,4,5,5,6,6,7,7,8,8,9,9,10,10,11,11,12,12,13,13,14,14,15,15,16,16,17,17,19,19,20,20,21,21,22,22,23,23,24,24,25,25,26,26,27,27,28,28,29,29,30,30],"right_children":[2,4,6,8,10,12,14,16,18,20,22,24,26,28,30,32,34,36,-1,38,40,42,44,46,48,50,52,54,56,58,60,-1,-1,-1,-1,-1,-1,-1,-1,-1,-1,-1,-1,-1,-1,-1,-1,-1,-1,-1,-1,-1,-1,-1,-1,-1,-1,-1,-1,-1,-1],"split_conditions":[7.7E1,3.5E1,2.9E2,3.071E2,6E1,5E0,3.13E2,5E-1,6E0,2.09E1,2.44E2,1.38E2,1.19E2,4E0,3.62E2,3.32E1,1.8959E3,1.43E1,-7.5205467E-3,4.8E1,5E1,2.4033E3,5E0,8.3E1,1.96E2,1.522E3,2.59E2,1.8826E3,3.08E2,3.49E2,5E0,8.424006E-2,1.3294601E-2,2.4732016E-3,4.2241264E-2,1.4753269E-1,7.111571E-2,7.457936E-2,3.0493338E-2,1.1847774E-2,-4.6298627E-2,2.5422413E-2,-2.1745734E-2,1.2261318E-1,1.7648373E-2,-5.260204E-2,-7.033644E-3,-6.185314E-2,-2.6788013E-2,-3.410576E-2,4.6368153E-3,-6.8327814E-2,-3.1123217E-2,-3.0849837E-3,3.4038916E-2,-2.6890464E-2,5.1244637E-3,4.8066847E-2,1.1338283E-1,1.726209E-2,-2.103002E-2],"split_indices":[5,5,5,25,5,1,5,10,6,28,25,5,5,1,5,28,7,19,0,5,5,7,1,5,5,7,5,7,5,5,1,0,0,0,0,0,0,0,0,0,0,0,0,0,0,0,0,0,0,0,0,0,0,0,0,0,0,0,0,0,0],"split_type":[0,0,0,0,0,0,0,0,0,0,0,0,0,0,0,0,0,0,0,0,0,0,0,0,0,0,0,0,0,0,0,0,0,0,0,0,0,0,0,0,0,0,0,0,0,0,0,0,0,0,0,0,0,0,0,0,0,0,0,0,0],"sum_hessian":[4.68E2,9.9E1,3.69E2,5E1,4.9E1,3.09E2,6E1,1.9E1,3.1E1,3E1,1.9E1,2.17E2,9.2E1,2.6E1,3.4E1,1.5E1,4E0,3E1,1E0,1.3E1,1.7E1,8E0,1.1E1,5.7E1,1.6E2,1.8E1,7.4E1,1.8E1,8E0,3.1E1,3E0,1.4E1,1E0,1E0,3E0,2.6E1,4E0,7E0,6E0,1E1,7E0,7E0,1E0,9E0,2E0,7E0,5E1,6.1E1,9.9E1,1.6E1,2E0,6.3E1,1.1E1,4E0,1.4E1,7E0,1E0,2.4E1,7E0,2E0,1E0],"tree_param":{"num_deleted":"0","num_feature":"31","num_nodes":"61","size_leaf_vector":"1"}},{"base_weights":[-2.0397511E-1,1.0124697E1,-1.9040858E0,1.3028061E1,7.894967E0,-2.9441454E0,5.705631E0,1.524411E1,6.6559463E0,6.4912443E0,1.6703524E-1,6.687648E-1,-4.2225666E0,6.9235973E0,3.1557126E0,2.9202101E0,1.6451198E-1,8.029239E-2,1.23294955E-2,7.917692E0,3.5822446E0,-1.4416198E0,1.9032744E0,-3.420946E0,-6.0736337E0,4.841373E0,9.099508E0,-2.0924868E-2,3.5875177E0,5.1286094E-2,-7.4829436E-3,4.778468E-2,1.02063835E-1,-1.8312763E-3,7.373778E-2,2.4386212E-2,-2.46232E-2,1.2694882E-1,1.5118329E-2,-3.7407003E-2,8.66016E-3,-6.86666E-2,-4.1624766E-2,5.45153E-2,1.19040245E-2,1.0103733E-1,1.7147012E-2,1.7513819E-2,6.6618696E-2],"categories":[],"categories_nodes":[],"categories_segments":[],"categories_sizes":[],"default_left":[0,0,0,1,0,0,0,0,0,0,0,0,0,0,0,0,0,0,0,0,0,0,0,0,0,0,0,0,0,0,0,0,0,0,0,0,0,0,0,0,0,0,0,0,0,0,0,0,0],"id":28,"left_children":[1,3,5,7,9,11,13,15,17,19,-1,21,23,25,27,29,-1,-1,-1,31,33,35,37,39,41,43,45,-1,47,-1,-1,-1,-1,-1,-1,-1,-1,-1,-1,-1,-1,-1,-1,-1,-1,-1,-1,-1,-1],"loss_changes":[8.448023E3,3.3735693E2,3.2855117E3,2.939214E2,3.985288E2,1.6840742E3,1.3343677E2,2.4947998E2,5.7126556E1,1.2516968E2,0E0,2.5285164E2,3.783789E2,1.05460205E2,4.8298416E1,2.8142279E1,0E0,0E0,0E0,1.2366235E2,2.0122183E2,1.4858496E2,2.3848871E2,2.6368677E2,9.266528E1,3.583615E1,9.391516E1,0E0,8.4296326E1,0E0,0E0,0E0,0E0,0E0,0E0,0E0,0E0,0E0,0E0,0E0,0E0,0E0,0E0,0E0,0E0,0E0,0E0,0E0,0E0],"parents":[2147483647,0,0,1,1,2,2,3,3,4,4,5,5,6,6,7,7,8,8,9,9,11,11,12,12,13,13,14,14,15,15,19,19,20,20,21,21,22,22,23,23,24,24,25,25,26,26,28,28],"right_children":[2,4,6,8,10,12,14,16,18,20,-1,22,24,26,28,30,-1,-1,-1,32,34,36,38,40,42,44,46,-1,48,-1,-1,-1,-1,-1,-1,-1,-1,-1,-1,-1,-1,-1,-1,-1,-1,-1,-1,-1,-1],"split_conditions":[4.6E1,2.1E1,3.05E2,1.43E1,4.4E1,1.18E2,5E0,2E0,5E0,3.6E1,1.6703524E-1,8E0,5E0,1.8E1,2.023E3,1E0,1.6451198E-1,8.029239E-2,1.23294955E-2,2.8E1,2.024E3,6.8E1,3E0,2.87E2,2.45E2,3.44E2,3.62E2,-2.0924868E-2,3.47E2,5.1286094E-2,-7.4829436E-3,4.778468E-2,1.02063835E-1,-1.8312763E-3,7.373778E-2,2.4386212E-2,-2.46232E-2,1.2694882E-1,1.5118329E-2,-3.7407003E-2,8.66016E-3,-6.86666E-2,-4.1624766E-2,5.45153E-2,1.19040245E-2,1.0103733E-1,1.7147012E-2,1.7513819E-2,6.6618696E-2],"split_indices":[5,5,5,19,5,5,1,0,1,5,0,19,1,0,4,1,0,0,0,5,4,5,0,5,5,5,5,0,5,0,0,0,0,0,0,0,0,0,0,0,0,0,0,0,0,0,0,0,0],"split_type":[0,0,0,0,0,0,0,0,0,0,0,0,0,0,0,0,0,0,0,0,0,0,0,0,0,0,0,0,0,0,0,0,0,0,0,0,0,0,0,0,0,0,0,0,0,0,0,0,0],"sum_hessian":[4.79E2,6.7E1,4.12E2,2.7E1,4E1,3.63E2,4.9E1,1.9E1,8E0,3.6E1,4E0,9.5E1,2.68E2,3.2E1,1.7E1,2E0,1.7E1,6E0,2E0,2.3E1,1.3E1,3.5E1,6E1,1.89E2,7.9E1,1.8E1,1.4E1,1E0,1.6E1,1E0,1E0,1.1E1,1.2E1,7E0,6E0,7E0,2.8E1,1E0,5.9E1,1.76E2,1.3E1,5.4E1,2.5E1,1.5E1,3E0,1.2E1,2E0,1.1E1,5E0],"tree_param":{"num_deleted":"0","num_feature":"31","num_nodes":"49","size_leaf_vector":"1"}},{"base_weights":[7.1122676E-2,1.0326287E1,-1.5509133E0,1.1801862E1,5.8177395E0,-2.441683E0,5.748273E0,1.4435771E1,8.566462E0,7.4983954E0,-5.164547E-2,1.6730069E0,-3.687859E0,3.4105675E0,7.3254204E0,1.7202711E-1,7.605354E0,9.340889E0,3.7554562E-2,2.792004E0,9.1017514E-2,-1.0739166E-2,2.0187195E-2,-2.1974058E0,2.8033838E0,-3.988415E0,6.823826E-1,4.37872E0,1.4109993E0,-2.0820241E-2,7.7849994E0,1.0759792E-2,9.3171775E-2,9.7213924E-2,3.9442405E-2,5.0915156E-2,9.442472E-3,2.6557716E-3,-5.237227E-2,3.889547E-2,-1.4532089E-3,-3.322391E-2,-5.5627536E-2,2.2691585E-2,-2.3619704E-2,2.5929753E-2,6.029926E-2,1.9003272E-2,-3.798993E-4,4.6293113E-2,9.270741E-2],"categories":[],"categories_nodes":[],"categories_segments":[],"categories_sizes":[],"default_left":[0,0,0,1,0,0,0,0,0,0,0,0,0,0,0,0,0,0,0,0,0,0,0,0,0,0,0,0,0,0,0,0,0,0,0,0,0,0,0,0,0,0,0,0,0,0,0,0,0,0,0],"id":29,"left_children":[1,3,5,7,9,11,13,15,17,19,21,23,25,27,29,-1,31,33,-1,35,-1,-1,-1,37,39,41,43,45,47,-1,49,-1,-1,-1,-1,-1,-1,-1,-1,-1,-1,-1,-1,-1,-1,-1,-1,-1,-1,-1,-1],"loss_changes":[7.9172817E3,3.6376514E2,2.686314E3,2.8538086E2,1.7794678E2,1.8880093E3,1.4092688E2,3.4165137E2,5.4339355E1,8.023218E1,1.2750311E1,3.824123E2,3.7312915E2,3.2539337E1,1.2861853E2,0E0,9.056915E1,2.7253418E0,0E0,1.6437038E1,0E0,0E0,0E0,1.5113145E2,2.1515112E2,2.5833447E2,9.7143105E1,2.2696747E1,5.744443E0,0E0,7.429639E1,0E0,0E0,0E0,0E0,0E0,0E0,0E0,0E0,0E0,0E0,0E0,0E0,0E0,0E0,0E0,0E0,0E0,0E0,0E0,0E0],"parents":[2147483647,0,0,1,1,2,2,3,3,4,4,5,5,6,6,7,7,8,8,9,9,10,10,11,11,12,12,13,13,14,14,16,16,17,17,19,19,23,23,24,24,25,25,26,26,27,27,28,28,30,30],"right_children":[2,4,6,8,10,12,14,16,18,20,22,24,26,28,30,-1,32,34,-1,36,-1,-1,-1,38,40,42,44,46,48,-1,50,-1,-1,-1,-1,-1,-1,-1,-1,-1,-1,-1,-1,-1,-1,-1,-1,-1,-1,-1,-1],"split_conditions":[4.8E1,5E0,3.05E2,9.6E0,6E0,1.05E2,1.4E1,3.4E1,2.3E1,8E0,2.024E3,6.2E0,4.2E1,5E0,2.023E3,1.7202711E-1,1E0,4.6E1,3.7554562E-2,4E0,9.1017514E-2,-1.0739166E-2,2.0187195E-2,1.8E1,8.8E1,5E0,4E0,3E0,3.39E2,-2.0820241E-2,3.31E2,1.0759792E-2,9.3171775E-2,9.7213924E-2,3.9442405E-2,5.0915156E-2,9.442472E-3,2.6557716E-3,-5.237227E-2,3.889547E-2,-1.4532089E-3,-3.322391E-2,-5.5627536E-2,2.2691585E-2,-2.3619704E-2,2.5929753E-2,6.029926E-2,1.9003272E-2,-3.798993E-4,4.6293113E-2,9.270741E-2],"split_indices":[5,1,5,28,6,5,0,5,0,0,4,19,6,1,4,0,1,5,0,0,0,0,0,0,5,1,1,1,5,0,5,0,0,0,0,0,0,0,0,0,0,0,0,0,0,0,0,0,0,0,0],"split_type":[0,0,0,0,0,0,0,0,0,0,0,0,0,0,0,0,0,0,0,0,0,0,0,0,0,0,0,0,0,0,0,0,0,0,0,0,0,0,0,0,0,0,0,0,0,0,0,0,0,0,0],"sum_hessian":[4.74E2,6.4E1,4.1E2,4.7E1,1.7E1,3.66E2,4.4E1,2.4E1,2.3E1,1.3E1,4E0,8.5E1,2.81E2,1.9E1,2.5E1,1.6E1,8E0,1.9E1,4E0,4E0,9E0,3E0,1E0,1.9E1,6.6E1,2.63E2,1.8E1,1.2E1,7E0,1E0,2.4E1,2E0,6E0,1.7E1,2E0,1E0,3E0,1.1E1,8E0,4.8E1,1.8E1,1.87E2,7.6E1,1.2E1,6E0,7E0,5E0,5E0,2E0,9E0,1.5E1],"tree_param":{"num_deleted":"0","num_feature":"31","num_nodes":"51","size_leaf_vector":"1"}},{"base_weights":[-5.94004E-2,7.095575E0,-2.1836803E0,1.07719145E1,3.9843903E0,-3.3158805E0,6.161127E0,1.3179815E-1,8.227544E0,5.107036E0,9.103806E-1,-2.42477E0,-5.264311E0,7.9218745E0,3.9393024E0,8.939752E0,3.4483178E0,9.5306367E-1,6.178586E0,-3.871133E0,2.679395E0,-2.7494483E0,1.8461332E0,-1.4753109E-1,-5.717497E0,8.317655E0,-3.9264676E-3,1.8442813E0,6.0593977E0,9.943206E-2,5.369035E-2,5.1572514E-3,4.0525343E-2,-2.0953203E-2,6.0494695E-2,9.789615E-2,4.8798144E-2,-5.3802427E-2,1.082653E-2,-2.5326042E-2,3.3247784E-2,-4.0208446E-3,-3.6409467E-2,5.1655743E-2,3.0918822E-3,2.2208E-2,-3.6631446E-2,-6.592658E-2,-4.4587277E-2,6.601041E-2,1.1795119E-1,-1.23284E-2,2.2360958E-2,1.0653908E-1,2.568335E-2],"categories":[],"categories_nodes":[],"categories_segments":[],"categories_sizes":[],"default_left":[0,0,0,1,0,0,0,0,0,0,0,0,0,0,0,0,0,1,0,0,0,0,0,1,0,0,0,0,0,0,0,0,0,0,0,0,0,0,0,0,0,0,0,0,0,0,0,0,0,0,0,0,0,0,0],"id":30,"left_children":[1,3,5,7,9,11,13,-1,15,17,19,21,23,25,27,29,31,33,35,37,39,41,43,45,47,49,-1,51,53,-1,-1,-1,-1,-1,-1,-1,-1,-1,-1,-1,-1,-1,-1,-1,-1,-1,-1,-1,-1,-1,-1,-1,-1,-1,-1],"loss_changes":[7.0375117E3,1.1694839E3,3.3933628E3,1.8563867E2,1.9896106E2,5.341592E2,1.3701257E2,0E0,5.7671875E1,1.8551245E2,1.5416794E2,3.0736987E2,2.2640381E2,7.8952515E1,8.2099304E1,2.544165E1,6.769615E0,1.6803358E2,1.1168506E2,4.3203964E1,5.214895E1,4.2334827E2,8.003165E1,8.307034E1,6.9751465E1,5.346826E1,0E0,1.722469E1,1.3303442E2,0E0,0E0,0E0,0E0,0E0,0E0,0E0,0E0,0E0,0E0,0E0,0E0,0E0,0E0,0E0,0E0,0E0,0E0,0E0,0E0,0E0,0E0,0E0,0E0,0E0,0E0],"parents":[2147483647,0,0,1,1,2,2,3,3,4,4,5,5,6,6,8,8,9,9,10,10,11,11,12,12,13,13,14,14,15,15,16,16,17,17,18,18,19,19,20,20,21,21,22,22,23,23,24,24,25,25,27,27,28,28],"right_children":[2,4,6,8,10,12,14,-1,16,18,20,22,24,26,28,30,32,34,36,38,40,42,44,46,48,50,-1,52,54,-1,-1,-1,-1,-1,-1,-1,-1,-1,-1,-1,-1,-1,-1,-1,-1,-1,-1,-1,-1,-1,-1,-1,-1,-1,-1],"split_conditions":[1.2E1,3.6E1,1.1E1,1.4352E3,5E0,5E0,4E0,1.3179815E-1,6E0,1E0,7.4E1,2.9E2,9.8E1,3.62E2,3.47E2,2.5E1,8E0,1.164E2,4.6E1,6.2E0,3.7E1,1.38E2,2.92E2,3.72E1,2.1E2,3.49E2,-3.9264676E-3,3.08E2,3.57E2,9.943206E-2,5.369035E-2,5.1572514E-3,4.0525343E-2,-2.0953203E-2,6.0494695E-2,9.789615E-2,4.8798144E-2,-5.3802427E-2,1.082653E-2,-2.5326042E-2,3.3247784E-2,-4.0208446E-3,-3.6409467E-2,5.1655743E-2,3.0918822E-3,2.2208E-2,-3.6631446E-2,-6.592658E-2,-4.4587277E-2,6.601041E-2,1.1795119E-1,-1.23284E-2,2.2360958E-2,1.0653908E-1,2.568335E-2],"split_indices":[6,5,3,7,1,1,1,0,1,1,16,5,5,5,5,5,5,22,5,19,5,5,5,16,5,5,0,5,5,0,0,0,0,0,0,0,0,0,0,0,0,0,0,0,0,0,0,0,0,0,0,0,0,0,0],"split_type":[0,0,0,0,0,0,0,0,0,0,0,0,0,0,0,0,0,0,0,0,0,0,0,0,0,0,0,0,0,0,0,0,0,0,0,0,0,0,0,0,0,0,0,0,0,0,0,0,0,0,0,0,0,0,0],"sum_hessian":[4.61E2,1.05E2,3.56E2,4.7E1,5.8E1,3.14E2,4.2E1,2.2E1,2.5E1,4.2E1,1.6E1,2.17E2,9.7E1,2.2E1,2E1,2.1E1,4E0,9E0,3.3E1,4E0,1.2E1,2.02E2,1.5E1,8E0,8.9E1,2.1E1,1E0,1.1E1,9E0,1.5E1,6E0,1E0,3E0,6E0,3E0,7E0,2.6E1,3E0,1E0,1E0,1.1E1,5.6E1,1.46E2,4E0,1.1E1,5E0,3E0,5E1,3.9E1,1.6E1,5E0,1E0,1E1,3E0,6E0],"tree_param":{"num_deleted":"0","num_feature":"31","num_nodes":"55","size_leaf_vector":"1"}},{"base_weights":[2.7167696E-1,7.1882E0,-1.7322114E0,1.09155655E1,4.6691604E0,-3.034476E0,6.754572E0,6.9332104E0,1.4220743E1,6.183497E0,6.774251E-1,3.2735577E-1,-3.8336942E0,3.8192003E0,8.335781E0,1.7656898E-3,7.2622137E0,-7.5028753E-3,1.4969377E-1,4.461833E0,1.21074705E1,4.2156997E0,-3.722402E0,2.3693888E0,-2.236877E0,-4.194871E0,6.5599453E-1,1.6619047E0,4.6870365E0,9.428562E0,7.6760614E-1,8.3119184E-2,4.1253462E-2,8.855942E-2,3.1839393E-2,1.6560078E-1,6.379054E-2,1.2099481E-2,4.7492053E-2,-6.12543E-2,8.127403E-3,4.7386987E-3,6.461988E-2,-5.403288E-2,-9.24107E-3,-3.377328E-2,-5.8285832E-2,1.8285794E-2,-2.3848E-2,2.3666816E-2,-6.669172E-4,6.457068E-2,1.5458211E-2,4.1759275E-2,1.0160502E-1,2.9294357E-2,-1.650092E-2],"categories":[],"categories_nodes":[],"categories_segments":[],"categories_sizes":[],"default_left":[0,0,0,0,0,0,0,0,0,0,0,1,0,0,0,0,0,0,0,0,0,0,0,0,0,0,0,0,0,0,0,0,0,0,0,0,0,0,0,0,0,0,0,0,0,0,0,0,0,0,0,0,0,0,0,0,0],"id":31,"left_children":[1,3,5,7,9,11,13,15,17,19,21,23,25,27,29,-1,31,-1,-1,33,35,37,39,41,43,45,47,49,51,53,55,-1,-1,-1,-1,-1,-1,-1,-1,-1,-1,-1,-1,-1,-1,-1,-1,-1,-1,-1,-1,-1,-1,-1,-1,-1,-1],"loss_changes":[6.540483E3,9.443081E2,4.0655425E3,4.542251E2,3.8872522E2,8.556692E2,1.9559424E2,4.5399902E1,2.578037E2,4.2533582E2,3.1148068E2,3.2994742E2,4.1949536E2,2.7781982E1,2.4914355E2,0E0,3.1566162E1,0E0,0E0,1.8518097E2,1.4942627E2,1.1893143E1,1.0306104E2,2.684538E2,1.1139633E2,2.981953E2,7.56726E1,8.685762E0,6.2299194E1,6.1375E1,3.0967096E1,0E0,0E0,0E0,0E0,0E0,0E0,0E0,0E0,0E0,0E0,0E0,0E0,0E0,0E0,0E0,0E0,0E0,0E0,0E0,0E0,0E0,0E0,0E0,0E0,0E0,0E0],"parents":[2147483647,0,0,1,1,2,2,3,3,4,4,5,5,6,6,7,7,8,8,9,9,10,10,11,11,12,12,13,13,14,14,16,16,19,19,20,20,21,21,22,22,23,23,24,24,25,25,26,26,27,27,28,28,29,29,30,30],"right_children":[2,4,6,8,10,12,14,16,18,20,22,24,26,28,30,-1,32,-1,-1,34,36,38,40,42,44,46,48,50,52,54,56,-1,-1,-1,-1,-1,-1,-1,-1,-1,-1,-1,-1,-1,-1,-1,-1,-1,-1,-1,-1,-1,-1,-1,-1,-1,-1],"split_conditions":[7.5E1,3.1E1,1.1E1,9.2475006E1,1.6E1,1.16E2,1.4E1,1.01E1,2E0,1.3E1,4.59E1,4.62E1,2.88E2,2E0,3.62E2,1.7656898E-3,5E0,-7.5028753E-3,1.4969377E-1,3E0,2E0,1E0,4E0,2.4E1,1.56E1,5E0,4E0,3.39E2,5E0,3.23E2,1.63E1,8.3119184E-2,4.1253462E-2,8.855942E-2,3.1839393E-2,1.6560078E-1,6.379054E-2,1.2099481E-2,4.7492053E-2,-6.12543E-2,8.127403E-3,4.7386987E-3,6.461988E-2,-5.403288E-2,-9.24107E-3,-3.377328E-2,-5.8285832E-2,1.8285794E-2,-2.3848E-2,2.3666816E-2,-6.669172E-4,6.457068E-2,1.5458211E-2,4.1759275E-2,1.0160502E-1,