{"learner":{"attributes":{"scikit_learn":"{\"_estimator_type\": \"regressor\"}"},"feature_names":["daily","weekly","quarterly","monthly","yearly","day of year","week of year","one_year_lag_co","two_year_lag_co","three_year_lag_co","one_year_lag_no","two_year_lag_no","three_year_lag_no","one_year_lag_no2","two_year_lag_no2","three_year_lag_no2","one_year_lag_o3","two_year_lag_o3","three_year_lag_o3","one_year_lag_so2","two_year_lag_so2","three_year_lag_so2","one_year_lag_pm2_5","two_year_lag_pm2_5","three_year_lag_pm2_5","one_year_lag_pm10","two_year_lag_pm10","three_year_lag_pm10","one_year_lag_nh3","two_year_lag_nh3","three_year_lag_nh3"],"feature_types":["int","int","int","int","int","int","int","float","float","float","float","float","float","float","float","float","float","float","float","float","float","float","float","float","float","float","float","float","float","float","float"],"gradient_booster":{"model":{"gbtree_model_param":{"num_parallel_tree":"1","num_trees":"500"},"iteration_indptr":[0,1,2,3,4,5,6,7,8,9,10,11,12,13,14,15,16,17,18,19,20,21,22,23,24,25,26,27,28,29,30,31,32,33,34,35,36,37,38,39,40,41,42,43,44,45,46,47,48,49,50,51,52,53,54,55,56,57,58,59,60,61,62,63,64,65,66,67,68,69,70,71,72,73,74,75,76,77,78,79,80,81,82,83,84,85,86,87,88,89,90,91,92,93,94,95,96,97,98,99,100,101,102,103,104,105,106,107,108,109,110,111,112,113,114,115,116,117,118,119,120,121,122,123,124,125,126,127,128,129,130,131,132,133,134,135,136,137,138,139,140,141,142,143,144,145,146,147,148,149,150,151,152,153,154,155,156,157,158,159,160,161,162,163,164,165,166,167,168,169,170,171,172,173,174,175,176,177,178,179,180,181,182,183,184,185,186,187,188,189,190,191,192,193,194,195,196,197,198,199,200,201,202,203,204,205,206,207,208,209,210,211,212,213,214,215,216,217,218,219,220,221,222,223,224,225,226,227,228,229,230,231,232,233,234,235,236,237,238,239,240,241,242,243,244,245,246,247,248,249,250,251,252,253,254,255,256,257,258,259,260,261,262,263,264,265,266,267,268,269,270,271,272,273,274,275,276,277,278,279,280,281,282,283,284,285,286,287,288,289,290,291,292,293,294,295,296,297,298,299,300,301,302,303,304,305,306,307,308,309,310,311,312,313,314,315,316,317,318,319,320,321,322,323,324,325,326,327,328,329,330,331,332,333,334,335,336,337,338,339,340,341,342,343,344,345,346,347,348,349,350,351,352,353,354,355,356,357,358,359,360,361,362,363,364,365,366,367,368,369,370,371,372,373,374,375,376,377,378,379,380,381,382,383,384,385,386,387,388,389,390,391,392,393,394,395,396,397,398,399,400,401,402,403,404,405,406,407,408,409,410,411,412,413,414,415,416,417,418,419,420,421,422,423,424,425,426,427,428,429,430,431,432,433,434,435,436,437,438,439,440,441,442,443,444,445,446,447,448,449,450,451,452,453,454,455,456,457,458,459,460,461,462,463,464,465,466,467,468,469,470,471,472,473,474,475,476,477,478,479,480,481,482,483,484,485,486,487,488,489,490,491,492,493,494,495,496,497,498,499,500],"tree_info":[0,0,0,0,0,0,0,0,0,0,0,0,0,0,0,0,0,0,0,0,0,0,0,0,0,0,0,0,0,0,0,0,0,0,0,0,0,0,0,0,0,0,0,0,0,0,0,0,0,0,0,0,0,0,0,0,0,0,0,0,0,0,0,0,0,0,0,0,0,0,0,0,0,0,0,0,0,0,0,0,0,0,0,0,0,0,0,0,0,0,0,0,0,0,0,0,0,0,0,0,0,0,0,0,0,0,0,0,0,0,0,0,0,0,0,0,0,0,0,0,0,0,0,0,0,0,0,0,0,0,0,0,0,0,0,0,0,0,0,0,0,0,0,0,0,0,0,0,0,0,0,0,0,0,0,0,0,0,0,0,0,0,0,0,0,0,0,0,0,0,0,0,0,0,0,0,0,0,0,0,0,0,0,0,0,0,0,0,0,0,0,0,0,0,0,0,0,0,0,0,0,0,0,0,0,0,0,0,0,0,0,0,0,0,0,0,0,0,0,0,0,0,0,0,0,0,0,0,0,0,0,0,0,0,0,0,0,0,0,0,0,0,0,0,0,0,0,0,0,0,0,0,0,0,0,0,0,0,0,0,0,0,0,0,0,0,0,0,0,0,0,0,0,0,0,0,0,0,0,0,0,0,0,0,0,0,0,0,0,0,0,0,0,0,0,0,0,0,0,0,0,0,0,0,0,0,0,0,0,0,0,0,0,0,0,0,0,0,0,0,0,0,0,0,0,0,0,0,0,0,0,0,0,0,0,0,0,0,0,0,0,0,0,0,0,0,0,0,0,0,0,0,0,0,0,0,0,0,0,0,0,0,0,0,0,0,0,0,0,0,0,0,0,0,0,0,0,0,0,0,0,0,0,0,0,0,0,0,0,0,0,0,0,0,0,0,0,0,0,0,0,0,0,0,0,0,0,0,0,0,0,0,0,0,0,0,0,0,0,0,0,0,0,0,0,0,0,0,0,0,0,0,0,0,0,0,0,0,0,0,0,0,0,0,0,0,0,0,0,0,0,0,0,0,0,0,0,0,0,0,0,0,0,0,0,0,0,0,0,0,0,0,0,0,0,0,0,0,0,0,0,0,0,0,0,0,0,0,0,0,0,0,0,0,0,0,0,0,0,0],"trees":[{"base_weights":[4.9979255E-2,3.5656986E0,-5.776294E-1,5.466362E0,2.6001606E0,-8.8099176E-1,3.1349409E0,5.9484644E0,2.6375225E0,2.3009508E0,5.2414272E-2,-1.6395069E0,-4.421942E-1,1.5205342E0,4.756053E0,6.258034E-2,2.3146018E-2,4.347935E-2,4.7935486E-2,2.5546749E0,2.682527E-1,-1.7035353E-1,-1.9399838E0,4.0911818E-1,-5.8546424E-1,1.7560529E0,-8.539788E-2,6.606665E-2,1.9616311E-2,2.1095157E-3,-1.3904833E-3,-8.8904835E-3,2.6686952E-2,1.7479356E-2,-9.085727E-3,3.0044296E-3,-9.360862E-3,-2.4525765E-2,-1.3914654E-2,8.21027E-3,-7.805304E-3,-1.1283402E-2,-1.1003822E-3,1.1191651E-2,2.2330599E-2,1.1095166E-3,-2.3904848E-3],"categories":[],"categories_nodes":[],"categories_segments":[],"categories_sizes":[],"default_left":[0,0,0,0,0,0,0,1,0,0,0,0,0,0,0,0,0,0,0,0,0,0,0,1,0,0,0,0,0,0,0,0,0,0,0,0,0,0,0,0,0,0,0,0,0,0,0],"id":0,"left_children":[1,3,5,7,9,11,13,15,17,19,-1,21,23,25,27,-1,-1,-1,29,31,33,35,37,39,41,43,45,-1,-1,-1,-1,-1,-1,-1,-1,-1,-1,-1,-1,-1,-1,-1,-1,-1,-1,-1,-1],"loss_changes":[9.905699E2,1.105777E2,4.3186465E2,1.4314209E1,2.5083466E1,1.16765656E2,6.866519E1,5.763977E0,2.1937893E1,2.2007477E1,0E0,5.661615E1,2.768222E1,6.2015915E0,5.9439606E1,0E0,0E0,0E0,1.2077657E-1,1.7686127E1,1.2036098E1,8.572839E0,2.667212E1,1.6811718E1,4.968863E1,1.754036E0,1.170305E-1,0E0,0E0,0E0,0E0,0E0,0E0,0E0,0E0,0E0,0E0,0E0,0E0,0E0,0E0,0E0,0E0,0E0,0E0,0E0,0E0],"parents":[2147483647,0,0,1,1,2,2,3,3,4,4,5,5,6,6,7,7,8,8,9,9,11,11,12,12,13,13,14,14,18,18,19,19,20,20,21,21,22,22,23,23,24,24,25,25,26,26],"right_children":[2,4,6,8,10,12,14,16,18,20,-1,22,24,26,28,-1,-1,-1,30,32,34,36,38,40,42,44,46,-1,-1,-1,-1,-1,-1,-1,-1,-1,-1,-1,-1,-1,-1,-1,-1,-1,-1,-1,-1],"split_conditions":[4.6E1,3E0,3.26E2,1.3E1,4.4E1,1.58E1,3.49E2,4E-1,2.8439E3,4.1E1,5.2414272E-2,1.25E2,7.5E1,3.44E2,3.57E2,6.258034E-2,2.3146018E-2,4.347935E-2,1.4E1,3E0,2.4834E3,6.4E1,5.9E0,1.7357E3,1.86E2,3.36E2,3.47E2,6.606665E-2,1.9616311E-2,2.1095157E-3,-1.3904833E-3,-8.8904835E-3,2.6686952E-2,1.7479356E-2,-9.085727E-3,3.0044296E-3,-9.360862E-3,-2.4525765E-2,-1.3914654E-2,8.21027E-3,-7.805304E-3,-1.1283402E-2,-1.1003822E-3,1.1191651E-2,2.2330599E-2,1.1095166E-3,-2.3904848E-3],"split_indices":[5,6,5,5,5,13,5,10,7,5,0,5,5,5,5,0,0,0,5,5,7,25,19,7,5,5,5,0,0,0,0,0,0,0,0,0,0,0,0,0,0,0,0,0,0,0,0],"split_type":[0,0,0,0,0,0,0,0,0,0,0,0,0,0,0,0,0,0,0,0,0,0,0,0,0,0,0,0,0,0,0,0,0,0,0,0,0,0,0,0,0,0,0,0,0,0,0],"sum_hessian":[4.47E2,6.7E1,3.8E2,2.1E1,4.6E1,3.52E2,2.8E1,1.7E1,4E0,4.3E1,3E0,1.28E2,2.24E2,1.5E1,1.3E1,1.5E1,2E0,2E0,2E0,3.8E1,5E0,2.2E1,1.06E2,3.2E1,1.92E2,1.3E1,2E0,7E0,6E0,1E0,1E0,1E0,3.7E1,2E0,3E0,1.4E1,8E0,5.3E1,5.3E1,2.4E1,8E0,8.9E1,1.03E2,7E0,6E0,1E0,1E0],"tree_param":{"num_deleted":"0","num_feature":"31","num_nodes":"47","size_leaf_vector":"1"}},{"base_weights":[1.2691726E-2,3.4289238E0,-5.3637797E-1,5.5489345E0,2.45761E0,-9.258188E-1,2.413021E0,2.6758583E0,6.3839E-2,3.15281E0,5.0382423E-1,-5.164836E-1,-1.9176997E0,1.2589546E0,4.1382933E0,3.4742676E-2,7.1935984E-3,3.9138064E0,1.8404719E0,1.1556944E0,-1.2518071E-2,-1.1953111E0,-3.869678E-2,-4.9090895E-1,-2.2006109E0,1.7638154E0,1.2333753E-1,6.297099E-2,1.2798105E0,4.9760793E-3,4.067416E-2,4.6512964E-3,3.149367E-2,2.1464119E-2,4.2447085E-3,-1.7294817E-2,-7.256443E-3,-4.384539E-3,5.5820704E-3,2.4137401E-3,-9.788503E-3,-1.6773257E-2,-2.761393E-2,2.0463733E-2,-5.1947087E-3,-7.4159703E-3,8.235601E-3,2.5017152E-2,2.5190576E-3],"categories":[],"categories_nodes":[],"categories_segments":[],"categories_sizes":[],"default_left":[0,0,0,0,0,0,0,0,0,1,0,0,0,0,0,0,0,0,0,0,0,0,0,0,1,0,0,0,0,0,0,0,0,0,0,0,0,0,0,0,0,0,0,0,0,0,0,0,0],"id":1,"left_children":[1,3,5,7,9,11,13,15,-1,17,19,21,23,25,27,-1,-1,29,31,33,-1,35,37,39,41,43,45,-1,47,-1,-1,-1,-1,-1,-1,-1,-1,-1,-1,-1,-1,-1,-1,-1,-1,-1,-1,-1,-1],"loss_changes":[8.534295E2,1.16092224E2,4.5249164E2,2.849701E1,5.9533783E1,1.3989563E2,8.63797E1,6.873272E0,0E0,2.5753357E1,1.6324472E1,8.006445E1,3.9688873E1,1.6408985E1,1.0301724E2,0E0,0E0,8.471283E0,2.3737637E1,6.333269E0,0E0,2.4334976E1,3.5082764E1,6.6678686E0,2.0017975E1,1.3966244E1,6.6672163E0,0E0,1.0673818E1,0E0,0E0,0E0,0E0,0E0,0E0,0E0,0E0,0E0,0E0,0E0,0E0,0E0,0E0,0E0,0E0,0E0,0E0,0E0,0E0],"parents":[2147483647,0,0,1,1,2,2,3,3,4,4,5,5,6,6,7,7,9,9,10,10,11,11,12,12,13,13,14,14,17,17,18,18,19,19,21,21,22,22,23,23,24,24,25,25,26,26,28,28],"right_children":[2,4,6,8,10,12,14,16,-1,18,20,22,24,26,28,-1,-1,30,32,34,-1,36,38,40,42,44,46,-1,48,-1,-1,-1,-1,-1,-1,-1,-1,-1,-1,-1,-1,-1,-1,-1,-1,-1,-1,-1,-1],"split_conditions":[4.8E1,3E0,3.13E2,2.5902E3,5E0,5E0,3.47E2,1.32E1,6.3839E-2,7.8E0,6E0,1.26E1,8.4E1,5E0,3.57E2,3.4742676E-2,7.1935984E-3,1.0214E3,3.29E1,1.4553E3,-1.2518071E-2,6E0,1.86E2,5.9E1,6.2E0,3.44E2,3.26E2,6.297099E-2,5E0,4.9760793E-3,4.067416E-2,4.6512964E-3,3.149367E-2,2.1464119E-2,4.2447085E-3,-1.7294817E-2,-7.256443E-3,-4.384539E-3,5.5820704E-3,2.4137401E-3,-9.788503E-3,-1.6773257E-2,-2.761393E-2,2.0463733E-2,-5.1947087E-3,-7.4159703E-3,8.235601E-3,2.5017152E-2,2.5190576E-3],"split_indices":[5,6,5,7,1,1,5,19,0,19,6,28,5,1,5,0,0,7,13,7,0,19,5,5,13,5,5,0,1,0,0,0,0,0,0,0,0,0,0,0,0,0,0,0,0,0,0,0,0],"split_type":[0,0,0,0,0,0,0,0,0,0,0,0,0,0,0,0,0,0,0,0,0,0,0,0,0,0,0,0,0,0,0,0,0,0,0,0,0,0,0,0,0,0,0,0,0,0,0,0,0],"sum_hessian":[4.53E2,6.2E1,3.91E2,1.8E1,4.4E1,3.46E2,4.5E1,5E0,1.3E1,3.2E1,1.2E1,2.46E2,1E2,2.8E1,1.7E1,3E0,2E0,1.9E1,1.3E1,9E0,3E0,1.01E2,1.45E2,1.7E1,8.3E1,1.9E1,9E0,9E0,8E0,1E0,1.8E1,7E0,6E0,3E0,6E0,4.6E1,5.5E1,8.7E1,5.8E1,7E0,1E1,4.5E1,3.8E1,1.7E1,2E0,4E0,5E0,3E0,5E0],"tree_param":{"num_deleted":"0","num_feature":"31","num_nodes":"49","size_leaf_vector":"1"}},{"base_weights":[4.087687E-2,3.3068473E0,-4.9811044E-1,4.860595E0,2.4737518E0,-8.207398E-1,2.5969572E0,5.675749E0,2.7246075E0,3.1136281E0,8.3448064E-1,-3.6925966E-1,-2.0550127E0,3.3759086E0,1.0204757E0,6.1054845E0,-1.7027259E-3,4.739555E-1,3.9802074E-2,3.4982095E0,1.522608E0,-4.768977E-3,1.2354836E0,-1.1085597E0,1.6388696E-1,8.834593E-1,-2.1581922E0,1.2691455E0,4.124697E0,-8.5867476E-1,1.8580034E0,1.46229025E-2,6.350169E-2,-1.2393522E-3,7.1456414E-3,1.014927E-2,3.6700197E-2,6.985563E-3,3.6454853E-2,2.1758148E-2,7.847639E-3,-3.1195092E-3,-1.423304E-2,1.2595136E-2,-7.5193925E-4,-9.436035E-4,1.2408527E-2,-2.7200755E-2,-1.762539E-2,2.447973E-2,-5.216752E-3,5.1974487E-2,2.474452E-2,-1.5239622E-2,9.012377E-3,2.846827E-2,2.9981423E-3],"categories":[],"categories_nodes":[],"categories_segments":[],"categories_sizes":[],"default_left":[0,0,0,1,1,0,0,0,0,0,0,0,0,0,0,0,0,0,0,0,0,0,0,0,0,0,0,0,0,0,0,0,0,0,0,0,0,0,0,0,0,0,0,0,0,0,0,0,0,0,0,0,0,0,0,0,0],"id":2,"left_children":[1,3,5,7,9,11,13,15,17,19,21,23,25,27,29,31,-1,33,-1,35,37,-1,39,41,43,45,47,49,51,53,55,-1,-1,-1,-1,-1,-1,-1,-1,-1,-1,-1,-1,-1,-1,-1,-1,-1,-1,-1,-1,-1,-1,-1,-1,-1,-1],"loss_changes":[8.201944E2,7.34079E1,4.0155533E2,2.2841309E1,4.4603638E1,2.0152283E2,4.3219055E1,3.8723206E1,2.0720905E1,1.4253662E1,7.951333E0,1.0542116E2,3.1316101E1,3.4203156E1,2.3629189E1,6.619934E0,0E0,6.6399044E-1,0E0,6.941559E0,1.1448311E1,0E0,2.9545822E0,2.7637527E1,4.095788E1,1.5149522E0,1.6102966E1,1.8165596E1,1.9004608E1,7.2276917E0,1.4554222E1,0E0,0E0,0E0,0E0,0E0,0E0,0E0,0E0,0E0,0E0,0E0,0E0,0E0,0E0,0E0,0E0,0E0,0E0,0E0,0E0,0E0,0E0,0E0,0E0,0E0,0E0],"parents":[2147483647,0,0,1,1,2,2,3,3,4,4,5,5,6,6,7,7,8,8,9,9,10,10,11,11,12,12,13,13,14,14,15,15,17,17,19,19,20,20,22,22,23,23,24,24,25,25,26,26,27,27,28,28,29,29,30,30],"right_children":[2,4,6,8,10,12,14,16,18,20,22,24,26,28,30,32,-1,34,-1,36,38,-1,40,42,44,46,48,50,52,54,56,-1,-1,-1,-1,-1,-1,-1,-1,-1,-1,-1,-1,-1,-1,-1,-1,-1,-1,-1,-1,-1,-1,-1,-1,-1,-1],"split_conditions":[8E0,3E0,4.6E1,1.43E1,1.65E1,5E0,5E0,1.4E1,2.5902E3,5E0,8.7E0,8.3E1,3E0,1.4E1,1.2E1,2E0,-1.7027259E-3,2.1896E3,3.9802074E-2,6E0,2.2E1,-4.768977E-3,1.52E1,1.9E1,2E0,6E0,7.3E0,5E1,2.3E1,2E1,1.8E1,1.46229025E-2,6.350169E-2,-1.2393522E-3,7.1456414E-3,1.014927E-2,3.6700197E-2,6.985563E-3,3.6454853E-2,2.1758148E-2,7.847639E-3,-3.1195092E-3,-1.423304E-2,1.2595136E-2,-7.5193925E-4,-9.436035E-4,1.2408527E-2,-2.7200755E-2,-1.762539E-2,2.447973E-2,-5.216752E-3,5.1974487E-2,2.474452E-2,-1.5239622E-2,9.012377E-3,2.846827E-2,2.9981423E-3],"split_indices":[6,6,6,19,28,1,1,0,7,1,19,16,3,0,3,0,0,7,0,19,0,0,16,6,2,1,28,6,0,0,0,0,0,0,0,0,0,0,0,0,0,0,0,0,0,0,0,0,0,0,0,0,0,0,0,0,0],"split_type":[0,0,0,0,0,0,0,0,0,0,0,0,0,0,0,0,0,0,0,0,0,0,0,0,0,0,0,0,0,0,0,0,0,0,0,0,0,0,0,0,0,0,0,0,0,0,0,0,0,0,0,0,0,0,0,0,0],"sum_hessian":[4.64E2,6.5E1,3.99E2,2.1E1,4.4E1,3.62E2,3.7E1,1.4E1,7E0,3.1E1,1.3E1,2.66E2,9.6E1,2.4E1,1.3E1,1.3E1,1E0,3E0,4E0,2.4E1,7E0,3E0,1E1,1.11E2,1.55E2,3E0,9.3E1,7E0,1.7E1,4E0,9E0,1E0,1.2E1,1E0,2E0,2E0,2.2E1,6E0,1E0,2E0,8E0,3.2E1,7.9E1,2.7E1,1.28E2,1E0,2E0,3.6E1,5.7E1,4E0,3E0,9E0,8E0,3E0,1E0,5E0,4E0],"tree_param":{"num_deleted":"0","num_feature":"31","num_nodes":"57","size_leaf_vector":"1"}},{"base_weights":[1.879664E-2,2.9172745E0,-6.610494E-1,4.7910957E0,2.174546E0,-9.515786E-1,3.108311E0,5.688354E0,2.8763726E0,2.6163836E0,9.2062026E-1,-5.662721E-1,-1.8982855E0,1.8967047E0,4.360418E0,1.1635113E0,6.251652E-2,3.5581715E0,9.945091E-2,1.0094186E0,3.0025434E0,1.6388216E0,-5.947256E-2,-1.2859235E0,-4.7804296E-2,-2.6611903E0,-1.5222559E0,2.1410713E0,-8.843975E-3,6.0491774E-2,4.4856673E-1,2.615991E-2,-8.707242E-3,3.9299283E-2,4.779372E-3,-1.2331557E-3,2.7249192E-3,1.2866392E-2,-8.813936E-3,2.5452567E-2,4.7293883E-2,6.3473027E-4,2.5299532E-2,-6.047134E-3,1.2325802E-2,-1.4266002E-2,-3.186211E-3,-5.156371E-3,4.7267387E-3,-8.13383E-3,-2.818858E-2,1.4006219E-2,-1.5831502E-2,2.4639457E-2,1.0025328E-2,1.2762625E-2,-7.7422854E-4],"categories":[],"categories_nodes":[],"categories_segments":[],"categories_sizes":[],"default_left":[0,0,0,1,0,0,0,0,0,0,0,0,0,0,0,0,0,0,0,0,1,0,0,0,0,0,0,0,0,0,0,0,0,0,0,0,0,0,0,0,0,0,0,0,0,0,0,0,0,0,0,0,0,0,0,0,0],"id":3,"left_children":[1,3,5,7,9,11,13,15,17,19,21,23,25,27,29,31,-1,33,35,37,39,41,43,45,47,49,51,53,-1,-1,55,-1,-1,-1,-1,-1,-1,-1,-1,-1,-1,-1,-1,-1,-1,-1,-1,-1,-1,-1,-1,-1,-1,-1,-1,-1,-1],"loss_changes":[9.438364E2,1.1622992E2,4.2786017E2,2.6588196E1,3.4711426E1,1.3060788E2,3.4207245E1,3.3507507E1,1.8579163E1,2.7375916E1,1.347164E1,9.6202484E1,2.5783966E1,1.2767296E1,8.316687E1,1.1141865E1,0E0,7.282524E0,1.4924572E-1,6.899928E0,1.8759338E1,1.52816925E1,7.085677E0,1.424176E1,3.7011738E1,7.321396E0,1.503244E1,3.0438843E0,0E0,0E0,2.275609E0,0E0,0E0,0E0,0E0,0E0,0E0,0E0,0E0,0E0,0E0,0E0,0E0,0E0,0E0,0E0,0E0,0E0,0E0,0E0,0E0,0E0,0E0,0E0,0E0,0E0,0E0],"parents":[2147483647,0,0,1,1,2,2,3,3,4,4,5,5,6,6,7,7,8,8,9,9,10,10,11,11,12,12,13,13,14,14,15,15,17,17,18,18,19,19,20,20,21,21,22,22,23,23,24,24,25,25,26,26,27,27,30,30],"right_children":[2,4,6,8,10,12,14,16,18,20,22,24,26,28,30,32,-1,34,36,38,40,42,44,46,48,50,52,54,-1,-1,56,-1,-1,-1,-1,-1,-1,-1,-1,-1,-1,-1,-1,-1,-1,-1,-1,-1,-1,-1,-1,-1,-1,-1,-1,-1,-1],"split_conditions":[6.2E1,1.8E1,3.23E2,2.1496E3,5E0,5E0,3.47E2,3E0,5E0,1E-1,3.6E1,1.26E1,1.2E1,3.44E2,3.57E2,1E0,6.251652E-2,1.2E1,6E0,1.93E1,3.06E1,2.8E1,5.2E1,3E-1,1.87E2,6.2E0,1.21E1,5E0,-8.843975E-3,6.0491774E-2,5E0,2.615991E-2,-8.707242E-3,3.9299283E-2,4.779372E-3,-1.2331557E-3,2.7249192E-3,1.2866392E-2,-8.813936E-3,2.5452567E-2,4.7293883E-2,6.3473027E-4,2.5299532E-2,-6.047134E-3,1.2325802E-2,-1.4266002E-2,-3.186211E-3,-5.156371E-3,4.7267387E-3,-8.13383E-3,-2.818858E-2,1.4006219E-2,-1.5831502E-2,2.4639457E-2,1.0025328E-2,1.2762625E-2,-7.7422854E-4],"split_indices":[5,5,5,7,1,1,5,5,1,10,5,28,13,5,5,1,0,5,1,28,16,5,5,10,5,13,13,1,0,0,1,0,0,0,0,0,0,0,0,0,0,0,0,0,0,0,0,0,0,0,0,0,0,0,0,0,0],"split_type":[0,0,0,0,0,0,0,0,0,0,0,0,0,0,0,0,0,0,0,0,0,0,0,0,0,0,0,0,0,0,0,0,0,0,0,0,0,0,0,0,0,0,0,0,0,0,0,0,0,0,0,0,0,0,0,0,0],"sum_hessian":[4.77E2,9E1,3.87E2,2.4E1,6.6E1,3.6E2,2.7E1,1.5E1,9E0,4.8E1,1.8E1,2.57E2,1.03E2,1.5E1,1.2E1,2E0,1.3E1,7E0,2E0,1E1,3.8E1,1E1,8E0,1.07E2,1.5E2,3.2E1,7.1E1,1.4E1,1E0,8E0,4E0,1E0,1E0,6E0,1E0,1E0,1E0,9E0,1E0,3.2E1,6E0,4E0,6E0,6E0,2E0,9.3E1,1.4E1,7.9E1,7.1E1,3E0,2.9E1,1E0,7E1,1E1,4E0,1E0,3E0],"tree_param":{"num_deleted":"0","num_feature":"31","num_nodes":"57","size_leaf_vector":"1"}},{"base_weights":[-8.033222E-4,3.458016E0,-5.5699337E-1,5.0438275E0,2.4453943E0,-8.3478403E-1,2.5408366E0,1.1809628E0,5.7573524E0,2.6668758E0,7.0893985E-1,-1.5758988E0,-4.3913254E-1,1.246155E0,3.838551E0,-8.6637065E-3,1.9093888E-2,6.209781E-2,1.1236614E0,3.2596402E0,1.8930203E0,9.4111985E-1,-2.2598004E-3,1.6982426E-1,-1.963605E0,-7.4356264E-1,1.9604412E-3,2.2821698E-2,7.871387E-1,6.263726E-2,1.2563341E0,-1.2269903E-3,1.808191E-2,4.007323E-2,1.4054228E-2,5.107874E-3,4.5723546E-2,1.0807776E-2,1.9124435E-3,-2.313241E-3,1.4118234E-2,-2.4051422E-2,-1.1334315E-2,-9.426485E-5,-1.477566E-2,4.2691114E-3,-9.439608E-3,-1.4342919E-2,1.2769015E-2,-6.01228E-3,1.5636828E-2],"categories":[],"categories_nodes":[],"categories_segments":[],"categories_sizes":[],"default_left":[0,0,0,0,1,0,0,0,1,0,0,0,0,0,0,0,0,0,0,1,1,0,0,0,0,0,0,0,0,0,0,0,0,0,0,0,0,0,0,0,0,0,0,0,0,0,0,0,0,0,0],"id":4,"left_children":[1,3,5,7,9,11,13,15,17,19,21,23,25,27,29,-1,-1,-1,31,33,35,37,-1,39,41,43,45,-1,47,-1,49,-1,-1,-1,-1,-1,-1,-1,-1,-1,-1,-1,-1,-1,-1,-1,-1,-1,-1,-1,-1],"loss_changes":[8.887798E2,9.043878E1,3.4461926E2,5.935083E1,1.387764E1,1.06627655E2,5.0660767E1,9.110894E0,3.4950623E1,1.034314E1,1.5150919E0,8.629062E1,3.222913E1,6.7634735E0,9.232793E1,0E0,0E0,0E0,2.781375E0,2.070897E1,6.432685E1,3.1693745E-1,0E0,1.2284011E1,3.5395386E1,7.6503975E1,4.0198006E1,0E0,1.7063086E1,0E0,6.0784035E0,0E0,0E0,0E0,0E0,0E0,0E0,0E0,0E0,0E0,0E0,0E0,0E0,0E0,0E0,0E0,0E0,0E0,0E0,0E0,0E0],"parents":[2147483647,0,0,1,1,2,2,3,3,4,4,5,5,6,6,7,7,8,8,9,9,10,10,11,11,12,12,13,13,14,14,18,18,19,19,20,20,21,21,23,23,24,24,25,25,26,26,28,28,30,30],"right_children":[2,4,6,8,10,12,14,16,18,20,22,24,26,28,30,-1,-1,-1,32,34,36,38,-1,40,42,44,46,-1,48,-1,50,-1,-1,-1,-1,-1,-1,-1,-1,-1,-1,-1,-1,-1,-1,-1,-1,-1,-1,-1,-1],"split_conditions":[4.8E1,1.8E1,4.6E1,4E0,2.16E1,1.63E1,3.49E2,2.024E3,3.68E1,3.5E1,3.1E1,1.25E2,1.91E2,3.21E2,3.57E2,-8.6637065E-3,1.9093888E-2,6.209781E-2,2.1896E3,1.7224E3,1.1549E3,3.09E1,-2.2598004E-3,9.03E1,6.7E0,1.11E2,2.78E2,2.2821698E-2,4.7E1,6.263726E-2,2.023E3,-1.2269903E-3,1.808191E-2,4.007323E-2,1.4054228E-2,5.107874E-3,4.5723546E-2,1.0807776E-2,1.9124435E-3,-2.313241E-3,1.4118234E-2,-2.4051422E-2,-1.1334315E-2,-9.426485E-5,-1.477566E-2,4.2691114E-3,-9.439608E-3,-1.4342919E-2,1.2769015E-2,-6.01228E-3,1.5636828E-2],"split_indices":[5,5,6,5,28,13,5,4,28,5,5,5,5,5,5,0,0,0,7,7,7,28,0,25,19,5,5,0,6,0,4,0,0,0,0,0,0,0,0,0,0,0,0,0,0,0,0,0,0,0,0],"split_type":[0,0,0,0,0,0,0,0,0,0,0,0,0,0,0,0,0,0,0,0,0,0,0,0,0,0,0,0,0,0,0,0,0,0,0,0,0,0,0,0,0,0,0,0,0,0,0,0,0,0,0],"sum_hessian":[4.6E2,6.3E1,3.97E2,2.3E1,4E1,3.65E2,3.2E1,4E0,1.9E1,3.5E1,5E0,1.26E2,2.39E2,1.7E1,1.5E1,1E0,3E0,1.7E1,2E0,1.8E1,1.7E1,4E0,1E0,2.3E1,1.03E2,1.41E2,9.8E1,4E0,1.3E1,7E0,8E0,1E0,1E0,1.2E1,6E0,1.2E1,5E0,3E0,1E0,1.8E1,5E0,6.6E1,3.7E1,7.1E1,7E1,6.8E1,3E1,2E0,1.1E1,1E0,7E0],"tree_param":{"num_deleted":"0","num_feature":"31","num_nodes":"51","size_leaf_vector":"1"}},{"base_weights":[-8.76049E-2,3.210983E0,-6.575149E-1,4.6617026E0,2.4489512E0,-9.688882E-1,2.289447E0,5.512127E0,3.0049384E0,3.7318566E0,1.690878E0,-5.4243016E-1,-1.9475443E0,1.4153084E0,3.5937152E0,6.2573284E-2,2.9192977E0,7.866319E-2,3.7266742E-2,1.46496985E-2,4.31667E0,7.933361E-1,2.1897364E0,-1.3171544E0,3.7043437E-2,1.774599E-1,-2.09228E0,1.68936E0,4.692669E-1,6.0059704E-2,1.7869905E0,8.3919044E-4,3.6071625E-2,-1.2208556E-3,2.4008036E-3,4.8481762E-2,9.289234E-3,1.6310891E-2,3.7890123E-3,2.6820265E-2,1.7646094E-3,4.083557E-3,-1.4206295E-2,-3.3981034E-3,6.1127725E-3,-6.64235E-3,8.153238E-3,-2.8388431E-2,-1.7210456E-2,1.7900746E-2,8.641614E-3,-2.2556924E-3,7.923151E-3,2.7367713E-2,2.8985539E-3],"categories":[],"categories_nodes":[],"categories_segments":[],"categories_sizes":[],"default_left":[0,0,0,1,0,0,0,0,0,0,0,0,0,0,0,0,0,0,0,0,1,0,0,0,0,0,0,0,0,0,0,0,0,0,0,0,0,0,0,0,0,0,0,0,0,0,0,0,0,0,0,0,0,0,0],"id":5,"left_children":[1,3,5,7,9,11,13,15,17,19,21,23,25,27,29,-1,31,33,-1,-1,35,37,39,41,43,45,47,49,51,-1,53,-1,-1,-1,-1,-1,-1,-1,-1,-1,-1,-1,-1,-1,-1,-1,-1,-1,-1,-1,-1,-1,-1,-1,-1],"loss_changes":[8.9318304E2,6.596838E1,3.7384833E2,1.5842316E1,4.0371613E1,1.5211322E2,3.9378143E1,8.783508E0,2.082682E1,1.6213211E1,1.2590683E1,1.1542438E2,3.4510834E1,5.6888466E0,5.46416E1,0E0,9.449078E0,1.2652324E-1,0E0,0E0,1.8904312E1,3.895502E0,1.9349045E1,2.0220337E1,3.223524E1,4.8366613E0,2.3937775E1,3.2165527E-2,1.7499813E0,0E0,1.3426235E1,0E0,0E0,0E0,0E0,0E0,0E0,0E0,0E0,0E0,0E0,0E0,0E0,0E0,0E0,0E0,0E0,0E0,0E0,0E0,0E0,0E0,0E0,0E0,0E0],"parents":[2147483647,0,0,1,1,2,2,3,3,4,4,5,5,6,6,7,7,8,8,9,9,10,10,11,11,12,12,13,13,14,14,16,16,17,17,20,20,21,21,22,22,23,23,24,24,25,25,26,26,27,27,28,28,30,30],"right_children":[2,4,6,8,10,12,14,16,18,20,22,24,26,28,30,-1,32,34,-1,-1,36,38,40,42,44,46,48,50,52,-1,54,-1,-1,-1,-1,-1,-1,-1,-1,-1,-1,-1,-1,-1,-1,-1,-1,-1,-1,-1,-1,-1,-1,-1,-1],"split_conditions":[4.6E1,3E0,3.13E2,2.1496E3,2E0,5E0,3.49E2,1.3E1,1.923E2,3.29E1,4E0,1.26E1,3E0,5E0,3.57E2,6.2573284E-2,5E0,6E0,3.7266742E-2,1.46496985E-2,2.9423625E3,2.5E1,4.1E1,8E1,1.93E2,5.2E1,1.18E1,3.44E2,3.26E2,6.0059704E-2,5E0,8.3919044E-4,3.6071625E-2,-1.2208556E-3,2.4008036E-3,4.8481762E-2,9.289234E-3,1.6310891E-2,3.7890123E-3,2.6820265E-2,1.7646094E-3,4.083557E-3,-1.4206295E-2,-3.3981034E-3,6.1127725E-3,-6.64235E-3,8.153238E-3,-2.8388431E-2,-1.7210456E-2,1.7900746E-2,8.641614E-3,-2.2556924E-3,7.923151E-3,2.7367713E-2,2.8985539E-3],"split_indices":[5,6,5,7,1,1,5,5,22,13,1,28,3,1,5,0,1,1,0,0,7,5,5,5,5,5,13,5,5,0,1,0,0,0,0,0,0,0,0,0,0,0,0,0,0,0,0,0,0,0,0,0,0,0,0],"split_type":[0,0,0,0,0,0,0,0,0,0,0,0,0,0,0,0,0,0,0,0,0,0,0,0,0,0,0,0,0,0,0,0,0,0,0,0,0,0,0,0,0,0,0,0,0,0,0,0,0,0,0,0,0,0,0],"sum_hessian":[4.73E2,6.9E1,4.04E2,2.2E1,4.7E1,3.66E2,3.8E1,1.3E1,9E0,1.6E1,3.1E1,2.56E2,1.1E2,2.4E1,1.4E1,9E0,4E0,2E0,7E0,4E0,1.2E1,1.2E1,1.9E1,1.09E2,1.47E2,7E0,1.03E2,1.8E1,6E0,5E0,9E0,1E0,3E0,1E0,1E0,1E1,2E0,3E0,9E0,1.5E1,4E0,6E0,1.03E2,8.9E1,5.8E1,3E0,4E0,3.2E1,7.1E1,1.5E1,3E0,2E0,4E0,5E0,4E0],"tree_param":{"num_deleted":"0","num_feature":"31","num_nodes":"55","size_leaf_vector":"1"}},{"base_weights":[-6.5312237E-3,2.8063939E0,-6.061112E-1,4.7869925E0,2.0785422E0,-9.209545E-1,2.5236566E0,3.544666E-1,5.2349176E0,1.3804877E0,2.385386E0,-1.5206552E0,-5.060091E-1,1.4385045E0,3.7223685E0,1.4071488E-2,-8.754489E-3,5.8266764E0,2.4126585E0,1.9149476E0,-2.7482018E-1,2.9672036E0,1.6261176E0,2.226907E-1,-1.6133873E0,-9.3162245E-1,-3.6592405E-2,1.8232327E0,2.369333E-1,6.1563663E-2,1.1452184E0,6.0167663E-2,1.582709E-2,4.1526905E-3,3.6058284E-2,8.051187E-3,2.500333E-2,-7.629831E-3,4.6767043E-3,3.3128552E-2,1.1294169E-2,-1.4941698E-3,2.5936682E-2,9.838371E-3,-4.307646E-3,-1.945996E-2,-1.2076539E-2,-2.7867344E-3,-1.6294392E-2,3.862936E-3,-9.340817E-3,1.9455926E-2,5.5096624E-4,-4.811692E-3,1.913723E-2,1.6580485E-2,8.966851E-4],"categories":[],"categories_nodes":[],"categories_segments":[],"categories_sizes":[],"default_left":[0,0,0,0,0,0,0,0,1,0,0,0,0,0,0,0,0,1,0,0,0,1,0,0,0,0,0,0,0,0,0,0,0,0,0,0,0,0,0,0,0,0,0,0,0,0,0,0,0,0,0,0,0,0,0,0,0],"id":6,"left_children":[1,3,5,7,9,11,13,15,17,19,21,23,25,27,29,-1,-1,31,33,35,37,39,41,43,45,47,49,51,53,-1,55,-1,-1,-1,-1,-1,-1,-1,-1,-1,-1,-1,-1,-1,-1,-1,-1,-1,-1,-1,-1,-1,-1,-1,-1,-1,-1],"loss_changes":[7.7752496E2,1.0681824E2,3.7677097E2,3.9838654E1,9.772797E0,8.533026E1,4.017282E1,5.1160173E0,1.7674072E1,1.9104877E1,1.3286987E1,2.31539E1,4.1122654E1,8.813583E0,9.331404E1,0E0,0E0,2.5782166E0,1.0418737E1,8.381779E0,2.531563E0,1.0233551E1,3.4745934E1,4.402804E0,1.5733307E1,4.8754906E1,3.7934864E1,3.1380386E0,8.145466E0,0E0,4.7231855E0,0E0,0E0,0E0,0E0,0E0,0E0,0E0,0E0,0E0,0E0,0E0,0E0,0E0,0E0,0E0,0E0,0E0,0E0,0E0,0E0,0E0,0E0,0E0,0E0,0E0,0E0],"parents":[2147483647,0,0,1,1,2,2,3,3,4,4,5,5,6,6,7,7,8,8,9,9,10,10,11,11,12,12,13,13,14,14,17,17,18,18,19,19,20,20,21,21,22,22,23,23,24,24,25,25,26,26,27,27,28,28,30,30],"right_children":[2,4,6,8,10,12,14,16,18,20,22,24,26,28,30,-1,-1,32,34,36,38,40,42,44,46,48,50,52,54,-1,56,-1,-1,-1,-1,-1,-1,-1,-1,-1,-1,-1,-1,-1,-1,-1,-1,-1,-1,-1,-1,-1,-1,-1,-1,-1,-1],"split_conditions":[6.2E1,1.4E1,3.23E2,2E0,3.54E1,1.26E1,3.49E2,3E-1,1.43E1,2.54E1,3.5E1,8.2E1,1.87E2,3.44E2,2.3E1,1.4071488E-2,-8.754489E-3,6.26E1,3.8E1,1.64E1,3.03E1,4.36E1,4.4E1,6.05E1,6E0,1.16E2,2.76E2,3E1,1.4E1,6.1563663E-2,3E1,6.0167663E-2,1.582709E-2,4.1526905E-3,3.6058284E-2,8.051187E-3,2.500333E-2,-7.629831E-3,4.6767043E-3,3.3128552E-2,1.1294169E-2,-1.4941698E-3,2.5936682E-2,9.838371E-3,-4.307646E-3,-1.945996E-2,-1.2076539E-2,-2.7867344E-3,-1.6294392E-2,3.862936E-3,-9.340817E-3,1.9455926E-2,5.5096624E-4,-4.811692E-3,1.913723E-2,1.6580485E-2,8.966851E-4],"split_indices":[5,5,5,0,13,28,5,10,19,13,5,5,5,5,0,0,0,16,13,13,13,13,5,25,19,5,5,0,0,0,0,0,0,0,0,0,0,0,0,0,0,0,0,0,0,0,0,0,0,0,0,0,0,0,0,0,0],"split_type":[0,0,0,0,0,0,0,0,0,0,0,0,0,0,0,0,0,0,0,0,0,0,0,0,0,0,0,0,0,0,0,0,0,0,0,0,0,0,0,0,0,0,0,0,0,0,0,0,0,0,0,0,0,0,0,0,0],"sum_hessian":[4.59E2,8E1,3.79E2,2E1,6E1,3.45E2,3.4E1,2E0,1.8E1,2E1,4E1,1.4E2,2.05E2,1.9E1,1.5E1,1E0,1E0,1.4E1,4E0,1.5E1,5E0,2.1E1,1.9E1,7E0,1.33E2,1.07E2,9.8E1,1.4E1,5E0,7E0,8E0,1.3E1,1E0,2E0,2E0,6E0,9E0,3E0,2E0,1.7E1,4E0,7E0,1.2E1,3E0,4E0,7.1E1,6.2E1,5.6E1,5.1E1,6.7E1,3.1E1,1.3E1,1E0,4E0,1E0,5E0,3E0],"tree_param":{"num_deleted":"0","num_feature":"31","num_nodes":"57","size_leaf_vector":"1"}},{"base_weights":[-3.2072455E-2,3.128863E0,-5.038897E-1,4.9139876E0,2.4166083E0,-7.6233464E-1,2.7804432E0,5.7136493E0,2.955378E0,1.4111828E0,2.992004E0,-1.4365246E0,-3.6073926E-1,1.6899239E0,3.8310022E0,6.164887E-2,2.4553852E0,-1.235516E-3,3.4891248E-2,-8.829427E-2,1.6978531E0,-8.710718E-3,3.1610808E0,-6.651167E-2,-1.6921651E0,-7.2067773E-1,1.1694356E-1,2.393485E-2,-4.773198E-1,5.9462637E-2,1.760132E0,3.629662E-2,5.3415535E-4,-4.20166E-3,1.6238499E-3,6.7526894E-3,2.1012759E-2,3.3473566E-2,4.929968E-3,1.3343498E-2,-5.053884E-3,-1.1074659E-2,-2.0774731E-2,6.788506E-4,-1.4773266E-2,5.5530486E-3,-5.7469425E-3,-1.1147332E-3,-5.409131E-3,-1.1094403E-3,2.0078845E-2],"categories":[],"categories_nodes":[],"categories_segments":[],"categories_sizes":[],"default_left":[0,0,0,1,0,0,0,0,0,0,0,0,0,0,0,0,0,0,0,0,0,0,1,0,0,0,0,0,0,0,0,0,0,0,0,0,0,0,0,0,0,0,0,0,0,0,0,0,0,0,0],"id":7,"left_children":[1,3,5,7,9,11,13,15,17,19,21,23,25,27,29,-1,31,-1,-1,33,35,-1,37,39,41,43,45,-1,47,-1,49,-1,-1,-1,-1,-1,-1,-1,-1,-1,-1,-1,-1,-1,-1,-1,-1,-1,-1,-1,-1],"loss_changes":[7.2340643E2,6.822699E1,3.603214E2,9.739838E0,2.2968079E1,1.0561641E2,2.9041183E1,1.035614E0,1.1934673E1,8.317169E0,2.1695007E1,5.102115E1,4.2552574E1,2.706385E1,5.5240265E1,0E0,8.267853E0,0E0,0E0,4.010021E-1,5.181614E0,0E0,1.2265747E1,1.5429697E1,2.5409851E1,8.423007E1,3.2760166E1,0E0,5.602956E-2,0E0,4.3948345E0,0E0,0E0,0E0,0E0,0E0,0E0,0E0,0E0,0E0,0E0,0E0,0E0,0E0,0E0,0E0,0E0,0E0,0E0,0E0,0E0],"parents":[2147483647,0,0,1,1,2,2,3,3,4,4,5,5,6,6,7,7,8,8,9,9,10,10,11,11,12,12,13,13,14,14,16,16,19,19,20,20,22,22,23,23,24,24,25,25,26,26,28,28,30,30],"right_children":[2,4,6,8,10,12,14,16,18,20,22,24,26,28,30,-1,32,-1,-1,34,36,-1,38,40,42,44,46,-1,48,-1,50,-1,-1,-1,-1,-1,-1,-1,-1,-1,-1,-1,-1,-1,-1,-1,-1,-1,-1,-1,-1],"split_conditions":[4.8E1,3E0,4.7E1,2.1496E3,2.47E3,9.1E0,3.49E2,1.3E1,2.1896E3,2.82E1,3E0,1.25E2,1.9E2,3.44E2,3.57E2,6.164887E-2,1.6088E3,-1.235516E-3,3.4891248E-2,1.8959E3,1E-1,-8.710718E-3,2.8572E3,6.2E1,3.65E1,1.04E2,2.78E2,2.393485E-2,5E1,5.9462637E-2,7.677E2,3.629662E-2,5.3415535E-4,-4.20166E-3,1.6238499E-3,6.7526894E-3,2.1012759E-2,3.3473566E-2,4.929968E-3,1.3343498E-2,-5.053884E-3,-1.1074659E-2,-2.0774731E-2,6.788506E-4,-1.4773266E-2,5.5530486E-3,-5.7469425E-3,-1.1147332E-3,-5.409131E-3,-1.1094403E-3,2.0078845E-2],"split_indices":[5,6,6,7,7,28,5,5,7,16,5,5,5,5,5,0,7,0,0,7,10,0,7,5,16,5,5,0,6,0,7,0,0,0,0,0,0,0,0,0,0,0,0,0,0,0,0,0,0,0,0],"split_type":[0,0,0,0,0,0,0,0,0,0,0,0,0,0,0,0,0,0,0,0,0,0,0,0,0,0,0,0,0,0,0,0,0,0,0,0,0,0,0,0,0,0,0,0,0,0,0,0,0,0,0],"sum_hessian":[4.83E2,6.2E1,4.21E2,1.6E1,4.6E1,3.91E2,3E1,1E1,6E0,1.8E1,2.8E1,1.45E2,2.46E2,1.6E1,1.4E1,8E0,2E0,1E0,5E0,3E0,1.5E1,1E0,2.7E1,2.3E1,1.22E2,1.4E2,1.06E2,1.2E1,4E0,6E0,8E0,1E0,1E0,1E0,2E0,5E0,1E1,2.5E1,2E0,5E0,1.8E1,5E1,7.2E1,6.9E1,7.1E1,6.5E1,4.1E1,1E0,3E0,1E0,7E0],"tree_param":{"num_deleted":"0","num_feature":"31","num_nodes":"51","size_leaf_vector":"1"}},{"base_weights":[1.1244201E-1,2.7916648E0,-5.5949515E-1,4.961886E0,2.038711E0,-9.012287E-1,2.422915E0,2.3112861E-2,5.2439117E0,3.2783647E0,1.4405257E0,-4.3278345E-1,-2.0057852E0,3.1632078E0,7.5595117E-1,5.6747027E-2,2.816598E0,4.202502E0,6.977129E-1,2.8259017E0,1.0581684E0,-1.1566042E0,5.6301758E-2,-2.730993E0,-1.705974E0,2.042331E0,4.752378E0,1.5844218E0,4.010433E-2,-1.2293386E-3,3.5822142E-2,-3.6211999E-3,4.8804563E-2,-1.5732025E-3,1.3783178E-2,9.825943E-3,3.47552E-2,1.4954863E-2,2.2960606E-3,3.543858E-3,-1.301282E-2,-3.9164377E-3,4.971452E-3,-2.8176172E-2,-1.0987943E-2,-1.7936407E-2,-1.7251262E-3,2.1921618E-2,1.0073403E-2,5.84723E-2,2.4880791E-2,4.492696E-3,3.6300912E-2,2.9365506E-3,-4.803653E-3],"categories":[],"categories_nodes":[],"categories_segments":[],"categories_sizes":[],"default_left":[0,0,0,0,0,0,0,0,1,0,0,0,0,0,0,0,0,0,0,0,0,0,0,0,0,0,0,0,0,0,0,0,0,0,0,0,0,0,0,0,0,0,0,0,0,0,0,0,0,0,0,0,0,0,0],"id":8,"left_children":[1,3,5,7,9,11,13,-1,15,17,19,21,23,25,27,-1,29,31,33,35,37,39,41,43,45,47,49,51,53,-1,-1,-1,-1,-1,-1,-1,-1,-1,-1,-1,-1,-1,-1,-1,-1,-1,-1,-1,-1,-1,-1,-1,-1,-1,-1],"loss_changes":[8.260853E2,1.4021906E2,3.762262E2,5.073181E0,4.7185425E1,1.6988193E2,4.4502365E1,0E0,4.9299316E0,4.953514E1,2.2965439E1,8.254945E1,1.6648682E1,3.6606934E1,7.6462135E0,0E0,1.1693146E1,5.1281006E1,4.290416E0,8.559433E0,1.4150436E1,2.1010208E1,2.7841043E1,7.214966E-1,9.369797E0,4.2799377E-1,1.0242355E1,1.2301989E1,1.1967853E0,0E0,0E0,0E0,0E0,0E0,0E0,0E0,0E0,0E0,0E0,0E0,0E0,0E0,0E0,0E0,0E0,0E0,0E0,0E0,0E0,0E0,0E0,0E0,0E0,0E0,0E0],"parents":[2147483647,0,0,1,1,2,2,3,3,4,4,5,5,6,6,8,8,9,9,10,10,11,11,12,12,13,13,14,14,16,16,17,17,18,18,19,19,20,20,21,21,22,22,23,23,24,24,25,25,26,26,27,27,28,28],"right_children":[2,4,6,8,10,12,14,-1,16,18,20,22,24,26,28,-1,30,32,34,36,38,40,42,44,46,48,50,52,54,-1,-1,-1,-1,-1,-1,-1,-1,-1,-1,-1,-1,-1,-1,-1,-1,-1,-1,-1,-1,-1,-1,-1,-1,-1,-1],"split_conditions":[6.2E1,3E0,3.13E2,3E0,2E0,5E0,5E0,2.3112861E-2,3.68E1,4.6E1,1.08E1,1.26E1,3.4E0,3.49E2,1.7E1,5.6747027E-2,3.75375E1,8E0,2.024E3,7.2E0,5E0,3E0,1.74E2,2.6E1,3E1,4E0,2.3E1,1.2E1,2.7E1,-1.2293386E-3,3.5822142E-2,-3.6211999E-3,4.8804563E-2,-1.5732025E-3,1.3783178E-2,9.825943E-3,3.47552E-2,1.4954863E-2,2.2960606E-3,3.543858E-3,-1.301282E-2,-3.9164377E-3,4.971452E-3,-2.8176172E-2,-1.0987943E-2,-1.7936407E-2,-1.7251262E-3,2.1921618E-2,1.0073403E-2,5.84723E-2,2.4880791E-2,4.492696E-3,3.6300912E-2,2.9365506E-3,-4.803653E-3],"split_indices":[5,6,5,0,1,1,1,0,28,5,28,28,28,5,0,0,28,0,4,28,1,0,5,0,0,1,0,0,0,0,0,0,0,0,0,0,0,0,0,0,0,0,0,0,0,0,0,0,0,0,0,0,0,0,0],"split_type":[0,0,0,0,0,0,0,0,0,0,0,0,0,0,0,0,0,0,0,0,0,0,0,0,0,0,0,0,0,0,0,0,0,0,0,0,0,0,0,0,0,0,0,0,0,0,0,0,0,0,0,0,0,0,0],"sum_hessian":[4.57E2,9.1E1,3.66E2,2.2E1,6.9E1,3.29E2,3.7E1,3E0,1.9E1,2.1E1,4.8E1,2.32E2,9.7E1,2.5E1,1.2E1,1.5E1,4E0,1.5E1,6E0,9E0,3.9E1,9.3E1,1.39E2,2.6E1,7.1E1,1.6E1,9E0,5E0,7E0,1E0,3E0,2E0,1.3E1,3E0,3E0,3E0,6E0,2.5E1,1.4E1,8E0,8.5E1,6.9E1,7E1,2.4E1,2E0,6.7E1,4E0,1.3E1,3E0,5E0,4E0,4E0,1E0,5E0,2E0],"tree_param":{"num_deleted":"0","num_feature":"31","num_nodes":"55","size_leaf_vector":"1"}},{"base_weights":[1.4724112E-2,2.6780663E0,-5.7639545E-1,3.9908946E0,1.8894163E0,-8.692871E-1,2.5563726E0,6.082736E-1,4.331594E0,2.0609827E0,-2.384448E-1,-4.490146E-1,-1.9345361E0,1.4338113E0,3.659481E0,1.3896078E-2,-8.678644E-3,2.6819937E0,5.40117E0,2.3171577E0,7.7895004E-1,-8.792426E-3,1.4156532E-1,-1.1853188E0,7.287102E-2,-2.0197287E0,-5.263309E-1,1.7392495E0,-6.731291E-1,5.5925082E-2,1.5346258E0,1.4378115E-2,3.543034E-2,1.6003842E-2,5.547863E-2,9.392697E-3,2.7183954E-2,-2.8864383E-3,1.9042727E-2,1.7147367E-3,2.592015E-4,-8.499432E-3,-1.6135985E-2,-5.235707E-3,7.0099626E-3,-1.9710492E-3,-2.0576203E-2,-1.2882569E-2,9.1898935E-3,1.9465642E-2,8.938441E-3,-1.1316228E-3,-8.965313E-3,2.7081741E-2,5.4152106E-4],"categories":[],"categories_nodes":[],"categories_segments":[],"categories_sizes":[],"default_left":[0,0,0,0,1,0,0,0,0,0,0,0,0,0,0,0,0,0,0,0,0,0,0,0,0,0,0,0,0,0,0,0,0,0,0,0,0,0,0,0,0,0,0,0,0,0,0,0,0,0,0,0,0,0,0],"id":9,"left_children":[1,3,5,7,9,11,13,15,17,19,21,23,25,27,29,-1,-1,31,33,35,37,-1,39,41,43,45,47,49,51,-1,53,-1,-1,-1,-1,-1,-1,-1,-1,-1,-1,-1,-1,-1,-1,-1,-1,-1,-1,-1,-1,-1,-1,-1,-1],"loss_changes":[7.367668E2,8.046533E1,3.536483E2,3.30914E1,2.0570267E1,1.5627228E2,3.5617126E1,5.8194194E0,3.4916504E1,1.4944702E1,1.3420186E0,9.7305824E1,1.0813843E1,1.2754459E1,5.7136017E1,0E0,0E0,8.832573E0,4.2114258E-2,2.066684E1,1.2563531E1,0E0,9.390399E-3,1.3710144E1,5.6188396E1,6.0172424E0,8.892485E0,1.0643158E0,2.7384007E-1,0E0,1.5490021E1,0E0,0E0,0E0,0E0,0E0,0E0,0E0,0E0,0E0,0E0,0E0,0E0,0E0,0E0,0E0,0E0,0E0,0E0,0E0,0E0,0E0,0E0,0E0,0E0],"parents":[2147483647,0,0,1,1,2,2,3,3,4,4,5,5,6,6,7,7,8,8,9,9,10,10,11,11,12,12,13,13,14,14,17,17,18,18,19,19,20,20,22,22,23,23,24,24,25,25,26,26,27,27,28,28,30,30],"right_children":[2,4,6,8,10,12,14,16,18,20,22,24,26,28,30,-1,-1,32,34,36,38,-1,40,42,44,46,48,50,52,-1,54,-1,-1,-1,-1,-1,-1,-1,-1,-1,-1,-1,-1,-1,-1,-1,-1,-1,-1,-1,-1,-1,-1,-1,-1],"split_conditions":[6.2E1,2.3E1,3.26E2,3E0,3.2E1,5E0,3.47E2,2E0,2.432E2,6E0,1E-1,1.26E1,3E1,3.44E2,2.3E1,1.3896078E-2,-8.678644E-3,2E-1,8.6E0,1E-1,2E1,-8.792426E-3,2.8E1,4.5E1,1.86E2,1.61E1,4E-1,5E0,1.1E1,5.5925082E-2,4E0,1.4378115E-2,3.543034E-2,1.6003842E-2,5.547863E-2,9.392697E-3,2.7183954E-2,-2.8864383E-3,1.9042727E-2,1.7147367E-3,2.592015E-4,-8.499432E-3,-1.6135985E-2,-5.235707E-3,7.0099626E-3,-1.9710492E-3,-2.0576203E-2,-1.2882569E-2,9.1898935E-3,1.9465642E-2,8.938441E-3,-1.1316228E-3,-8.965313E-3,2.7081741E-2,5.4152106E-4],"split_indices":[5,5,5,0,28,1,5,1,22,1,10,28,0,5,0,0,0,10,16,10,0,0,0,22,5,16,10,1,0,0,1,0,0,0,0,0,0,0,0,0,0,0,0,0,0,0,0,0,0,0,0,0,0,0,0],"split_type":[0,0,0,0,0,0,0,0,0,0,0,0,0,0,0,0,0,0,0,0,0,0,0,0,0,0,0,0,0,0,0,0,0,0,0,0,0,0,0,0,0,0,0,0,0,0,0,0,0,0,0,0,0,0,0],"sum_hessian":[4.66E2,8.4E1,3.82E2,3E1,5.4E1,3.5E2,3.2E1,3E0,2.7E1,5E1,4E0,2.52E2,9.8E1,1.7E1,1.5E1,2E0,1E0,1.2E1,1.5E1,4.1E1,9E0,1E0,3E0,1.04E2,1.48E2,9.2E1,6E0,1.5E1,2E0,7E0,8E0,6E0,6E0,1E0,1.4E1,1E1,3.1E1,5E0,4E0,2E0,1E0,6E1,4.4E1,7.6E1,7.2E1,2E0,9E1,4E0,2E0,1.1E1,4E0,1E0,1E0,4E0,4E0],"tree_param":{"num_deleted":"0","num_feature":"31","num_nodes":"55","size_leaf_vector":"1"}},{"base_weights":[-7.508908E-2,2.7429748E0,-5.4457957E-1,3.2540839E0,1.280484E0,-8.0363077E-1,2.111431E0,6.605774E-1,3.6706069E0,8.608204E-1,3.2317497E-2,-4.0156752E-1,-1.776854E0,3.0222843E0,9.156367E-1,1.1662638E-2,-1.3667488E-1,4.6764245E0,2.7995937E0,-1.18131265E-1,1.7441254E0,-1.1787615E0,1.207696E-1,-3.1219667E-1,-2.0122633E0,2.0733361E0,4.488426E-2,2.0970526E0,-1.2105958E-1,1.1052322E-3,-4.3913457E-3,7.063525E-3,4.868408E-2,3.2803517E-2,1.0947366E-2,1.7945671E-2,-9.209833E-3,3.6191463E-4,2.2269363E-2,-1.0380783E-3,-1.4304704E-2,-2.2706736E-3,6.8689045E-3,-1.9138528E-2,2.0463571E-3,-1.5716543E-2,-2.4993774E-2,2.5495747E-2,-5.227315E-3,5.8452366E-3,4.4230927E-2,-1.4110068E-2,3.7780309E-3],"categories":[],"categories_nodes":[],"categories_segments":[],"categories_sizes":[],"default_left":[0,0,0,0,0,0,0,0,0,0,0,0,0,0,0,0,0,0,1,0,0,0,0,0,1,0,0,0,0,0,0,0,0,0,0,0,0,0,0,0,0,0,0,0,0,0,0,0,0,0,0,0,0],"id":10,"left_children":[1,3,5,7,9,11,13,15,17,19,-1,21,23,25,27,-1,29,31,33,35,37,39,41,43,45,47,-1,49,51,-1,-1,-1,-1,-1,-1,-1,-1,-1,-1,-1,-1,-1,-1,-1,-1,-1,-1,-1,-1,-1,-1,-1,-1],"loss_changes":[6.2068317E2,4.591519E1,2.7828998E2,5.0507812E1,1.277667E1,1.4289258E2,3.644365E1,3.3846757E0,2.3703247E1,1.4906155E1,0E0,1.060972E2,3.626477E1,1.8519836E1,2.1074947E1,0E0,3.4760445E-1,1.0280579E1,1.6899475E1,1.5473291E1,7.3408833E0,2.8261932E1,3.1072062E1,1.3636247E1,1.5817505E1,1.8641628E1,0E0,2.5560223E1,6.968148E0,0E0,0E0,0E0,0E0,0E0,0E0,0E0,0E0,0E0,0E0,0E0,0E0,0E0,0E0,0E0,0E0,0E0,0E0,0E0,0E0,0E0,0E0,0E0,0E0],"parents":[2147483647,0,0,1,1,2,2,3,3,4,4,5,5,6,6,7,7,8,8,9,9,11,11,12,12,13,13,14,14,16,16,17,17,18,18,19,19,20,20,21,21,22,22,23,23,24,24,25,25,27,27,28,28],"right_children":[2,4,6,8,10,12,14,16,18,20,-1,22,24,26,28,-1,30,32,34,36,38,40,42,44,46,48,-1,50,52,-1,-1,-1,-1,-1,-1,-1,-1,-1,-1,-1,-1,-1,-1,-1,-1,-1,-1,-1,-1,-1,-1,-1,-1],"split_conditions":[4.6E1,5E0,3.13E2,2.82E1,2.3E1,5E0,5E0,3E0,2.3E1,2.024E3,3.2317497E-2,1.25E1,8.4E1,3.47E2,1.8E1,1.1662638E-2,1.9E1,3E0,7.8E0,8E0,8E0,1.25E2,1.9E2,6E0,2E1,3.44E2,4.488426E-2,1.3E1,2E1,1.1052322E-3,-4.3913457E-3,7.063525E-3,4.868408E-2,3.2803517E-2,1.0947366E-2,1.7945671E-2,-9.209833E-3,3.6191463E-4,2.2269363E-2,-1.0380783E-3,-1.4304704E-2,-2.2706736E-3,6.8689045E-3,-1.9138528E-2,2.0463571E-3,-1.5716543E-2,-2.4993774E-2,2.5495747E-2,-5.227315E-3,5.8452366E-3,4.4230927E-2,-1.4110068E-2,3.7780309E-3],"split_indices":[5,1,5,16,0,1,1,1,5,4,0,28,5,5,0,0,0,0,19,5,5,5,5,0,16,5,0,0,0,0,0,0,0,0,0,0,0,0,0,0,0,0,0,0,0,0,0,0,0,0,0,0,0],"split_type":[0,0,0,0,0,0,0,0,0,0,0,0,0,0,0,0,0,0,0,0,0,0,0,0,0,0,0,0,0,0,0,0,0,0,0,0,0,0,0,0,0,0,0,0,0,0,0,0,0,0,0,0,0],"sum_hessian":[4.67E2,6.6E1,4.01E2,4.8E1,1.8E1,3.66E2,3.5E1,7E0,4.1E1,1.6E1,2E0,2.6E2,1.06E2,1.9E1,1.6E1,4E0,3E0,1.7E1,2.4E1,8E0,8E0,1.04E2,1.56E2,1.5E1,9.1E1,1.3E1,6E0,7E0,9E0,2E0,1E0,1E0,1.6E1,1.8E1,6E0,2E0,6E0,2E0,6E0,2E1,8.4E1,9.7E1,5.9E1,3E0,1.2E1,5E1,4.1E1,1.1E1,2E0,5E0,2E0,2E0,7E0],"tree_param":{"num_deleted":"0","num_feature":"31","num_nodes":"53","size_leaf_vector":"1"}},{"base_weights":[1.276357E-1,3.2067268E0,-3.5449013E-1,4.544036E0,2.2907403E0,-7.2427917E-1,2.5090823E0,-8.72498E-3,4.806079E0,2.7103636E0,1.4106772E0,-3.0163682E-1,-1.7461419E0,1.6080213E0,4.004601E0,5.4809594E0,2.7711978E0,2.8982375E0,-9.932417E-3,9.1740555E-1,3.077962E-2,1.2104286E0,-5.059017E-1,-2.4924238E0,-1.3746387E0,2.1681614E0,2.1491067E-1,6.049465E-2,1.514781E0,1.5865512E-2,5.6252006E-2,5.9095686E-3,3.3994522E-2,4.9303107E-2,2.507174E-2,-4.3693897E-3,1.0666792E-2,-5.228275E-3,1.737746E-2,-9.923635E-3,-2.0479121E-5,-6.980445E-3,-2.5827587E-2,-1.1742366E-2,-2.5197485E-2,2.448174E-2,2.960609E-3,-9.339279E-3,8.406883E-3,2.4559094E-2,2.7069633E-3],"categories":[],"categories_nodes":[],"categories_segments":[],"categories_sizes":[],"default_left":[0,0,0,0,1,0,0,0,1,0,0,0,0,0,0,0,0,0,0,0,0,0,0,0,0,0,0,0,0,0,0,0,0,0,0,0,0,0,0,0,0,0,0,0,0,0,0,0,0,0,0],"id":11,"left_children":[1,3,5,7,9,11,13,-1,15,17,19,21,23,25,27,29,31,33,-1,35,-1,37,39,41,43,45,47,-1,49,-1,-1,-1,-1,-1,-1,-1,-1,-1,-1,-1,-1,-1,-1,-1,-1,-1,-1,-1,-1,-1,-1],"loss_changes":[7.0182513E2,6.798804E1,4.3491464E2,3.967749E1,1.0948364E1,1.562466E2,5.689557E1,0E0,1.7770386E1,2.0969727E1,9.512627E0,8.029871E1,2.5961914E1,2.3724487E1,7.738925E1,6.248169E-1,8.949036E0,7.5055847E0,0E0,3.0942574E0,0E0,2.924181E1,5.588205E1,3.7083435E0,1.3793457E1,1.0807861E1,7.974316E0,0E0,9.872784E0,0E0,0E0,0E0,0E0,0E0,0E0,0E0,0E0,0E0,0E0,0E0,0E0,0E0,0E0,0E0,0E0,0E0,0E0,0E0,0E0,0E0,0E0],"parents":[2147483647,0,0,1,1,2,2,3,3,4,4,5,5,6,6,8,8,9,9,10,10,11,11,12,12,13,13,14,14,15,15,16,16,17,17,19,19,21,21,22,22,23,23,24,24,25,25,26,26,28,28],"right_children":[2,4,6,8,10,12,14,-1,16,18,20,22,24,26,28,30,32,34,-1,36,-1,38,40,42,44,46,48,-1,50,-1,-1,-1,-1,-1,-1,-1,-1,-1,-1,-1,-1,-1,-1,-1,-1,-1,-1,-1,-1,-1,-1],"split_conditions":[4.8E1,1.8E1,3.13E2,2E0,1.682E2,5E0,3.49E2,-8.72498E-3,3.65E1,6E0,2.994E2,8E1,8.62E1,5E0,2.3E1,8.6E0,3.72E1,4E0,-9.932417E-3,1.01E1,3.077962E-2,9E0,1.91E2,1.05E2,4E0,3.44E2,3.26E2,6.049465E-2,5E0,1.5865512E-2,5.6252006E-2,5.9095686E-3,3.3994522E-2,4.9303107E-2,2.507174E-2,-4.3693897E-3,1.0666792E-2,-5.228275E-3,1.737746E-2,-9.923635E-3,-2.0479121E-5,-6.980445E-3,-2.5827587E-2,-1.1742366E-2,-2.5197485E-2,2.448174E-2,2.960609E-3,-9.339279E-3,8.406883E-3,2.4559094E-2,2.7069633E-3],"split_indices":[5,5,5,0,25,1,5,0,16,1,25,5,25,1,0,16,16,0,0,16,0,0,5,5,2,5,5,0,1,0,0,0,0,0,0,0,0,0,0,0,0,0,0,0,0,0,0,0,0,0,0],"split_type":[0,0,0,0,0,0,0,0,0,0,0,0,0,0,0,0,0,0,0,0,0,0,0,0,0,0,0,0,0,0,0,0,0,0,0,0,0,0,0,0,0,0,0,0,0,0,0,0,0,0,0],"sum_hessian":[4.71E2,6.3E1,4.08E2,2.4E1,3.9E1,3.62E2,4.6E1,1E0,2.3E1,2.5E1,1.4E1,2.57E2,1.05E2,3E1,1.6E1,1.6E1,7E0,2.4E1,1E0,1.2E1,2E0,3E1,2.27E2,3.3E1,7.2E1,2.1E1,9E0,8E0,8E0,1E0,1.5E1,2E0,5E0,2E0,2.2E1,1E0,1.1E1,7E0,2.3E1,1.15E2,1.12E2,2E0,3.1E1,6.3E1,9E0,1.8E1,3E0,3E0,6E0,4E0,4E0],"tree_param":{"num_deleted":"0","num_feature":"31","num_nodes":"51","size_leaf_vector":"1"}},{"base_weights":[-9.410304E-2,2.4879875E0,-6.271945E-1,3.130721E0,1.7348492E0,-8.887404E-1,1.6046517E0,1.4546045E0,3.36321E-2,2.3722844E0,4.981017E-2,-5.308159E-1,-1.8125364E0,5.849198E-1,2.5050936E0,1.8419567E0,-4.3475437E-3,4.690756E-1,2.6580348E0,-5.8298594E-1,1.4611488E-2,-1.1579404E0,-3.4105454E-2,-2.2984316E0,-1.6173226E0,1.0033641E-2,-6.2841827E-1,-6.1127017E-3,2.6825998E0,2.1855883E-2,6.1899424E-4,-8.920749E-4,8.710001E-3,6.467348E-3,3.0103425E-2,-6.4610816E-3,-3.9004086E-4,-8.147325E-3,-1.6298596E-2,9.071572E-3,-2.2829934E-3,-6.515021E-3,-2.3382487E-2,-1.7564265E-2,-7.522501E-3,-1.0931608E-2,8.476474E-3,2.8278798E-2,-1.1150073E-3],"categories":[],"categories_nodes":[],"categories_segments":[],"categories_sizes":[],"default_left":[0,0,0,0,0,0,0,0,0,0,1,0,0,0,0,0,0,0,0,1,0,0,0,0,1,0,0,0,1,0,0,0,0,0,0,0,0,0,0,0,0,0,0,0,0,0,0,0,0],"id":12,"left_children":[1,3,5,7,9,11,13,15,-1,17,19,21,23,25,27,29,-1,31,33,35,-1,37,39,41,43,-1,45,-1,47,-1,-1,-1,-1,-1,-1,-1,-1,-1,-1,-1,-1,-1,-1,-1,-1,-1,-1,-1,-1],"loss_changes":[6.595229E2,3.4262177E1,2.3316705E2,1.1864044E1,4.2845955E1,1.1674899E2,3.7099503E1,5.923731E0,0E0,1.4524612E1,1.1568904E1,8.0327324E1,5.673218E0,1.1292534E1,1.3809631E1,3.5348186E0,0E0,1.1996382E0,1.5768036E1,2.8383517E-1,0E0,1.7136261E1,2.6711283E1,1.8157959E-1,7.5835114E0,0E0,5.0425587E0,0E0,8.839783E0,0E0,0E0,0E0,0E0,0E0,0E0,0E0,0E0,0E0,0E0,0E0,0E0,0E0,0E0,0E0,0E0,0E0,0E0,0E0,0E0],"parents":[2147483647,0,0,1,1,2,2,3,3,4,4,5,5,6,6,7,7,9,9,10,10,11,11,12,12,13,13,14,14,15,15,17,17,18,18,19,19,21,21,22,22,23,23,24,24,26,26,28,28],"right_children":[2,4,6,8,10,12,14,16,-1,18,20,22,24,26,28,30,-1,32,34,36,-1,38,40,42,44,-1,46,-1,48,-1,-1,-1,-1,-1,-1,-1,-1,-1,-1,-1,-1,-1,-1,-1,-1,-1,-1,-1,-1],"split_conditions":[3E0,2E0,1.1E1,1.74E1,5E0,5E0,1.2E1,1.56E1,3.36321E-2,1E0,9.71E1,1.19E1,4.8E0,5E0,2.023E3,1.97E2,-4.3475437E-3,2.024E3,1.212E2,6.1E0,1.4611488E-2,4.51E1,2E0,2E0,1.6E0,1.0033641E-2,6E0,-6.1127017E-3,5.4E0,2.1855883E-2,6.1899424E-4,-8.920749E-4,8.710001E-3,6.467348E-3,3.0103425E-2,-6.4610816E-3,-3.9004086E-4,-8.147325E-3,-1.6298596E-2,9.071572E-3,-2.2829934E-3,-6.515021E-3,-2.3382487E-2,-1.7564265E-2,-7.522501E-3,-1.0931608E-2,8.476474E-3,2.8278798E-2,-1.1150073E-3],"split_indices":[3,3,3,28,1,1,3,28,0,1,22,28,19,1,4,22,0,4,22,19,0,22,2,2,28,0,1,0,19,0,0,0,0,0,0,0,0,0,0,0,0,0,0,0,0,0,0,0,0],"split_type":[0,0,0,0,0,0,0,0,0,0,0,0,0,0,0,0,0,0,0,0,0,0,0,0,0,0,0,0,0,0,0,0,0,0,0,0,0,0,0,0,0,0,0,0,0,0,0,0,0],"sum_hessian":[4.77E2,8.1E1,3.96E2,4.2E1,3.9E1,3.55E2,4.1E1,6E0,3.6E1,2.8E1,1.1E1,2.57E2,9.8E1,2E1,2.1E1,5E0,1E0,4E0,2.4E1,8E0,3E0,1.13E2,1.44E2,2.5E1,7.3E1,1.5E1,5E0,1E0,2E1,4E0,1E0,2E0,2E0,4E0,2E1,7E0,1E0,6.7E1,4.6E1,2.4E1,1.2E2,1E0,2.4E1,6.2E1,1.1E1,4E0,1E0,1.9E1,1E0],"tree_param":{"num_deleted":"0","num_feature":"31","num_nodes":"49","size_leaf_vector":"1"}},{"base_weights":[2.0329067E-2,2.6129682E0,-5.807148E-1,3.7230227E0,1.6987836E0,-8.50187E-1,2.0305092E0,1.5546614E0,4.3423533E0,1.8064104E0,-5.536308E-1,-1.5177943E0,-3.3809927E-1,2.1971557E0,-4.7943816E-1,6.672168E-2,2.1828182E0,4.661993E0,1.8756859E0,1.4279898E0,2.7911382E0,6.7005155E-4,-8.974514E-3,-1.7631195E0,-1.1038108E0,-8.780168E-1,2.707984E-1,1.5868689E0,3.9059432E0,-1.1094331E-3,-6.082139E-3,-4.325807E-3,3.7734937E-3,2.6497168E-2,1.170215E-2,1.4552144E-2,4.877573E-2,2.2729237E-6,3.1259157E-2,9.571003E-3,2.5565924E-2,3.95777E-2,9.648776E-3,-7.6218997E-3,-1.9692369E-2,-8.928454E-3,-2.284368E-2,-9.071448E-4,-1.4276165E-2,6.221319E-3,-6.8160747E-3,1.8759362E-2,-4.719858E-3,4.978049E-2,2.2670696E-2],"categories":[],"categories_nodes":[],"categories_segments":[],"categories_sizes":[],"default_left":[0,0,0,0,1,0,0,0,1,1,0,0,0,0,0,0,0,0,0,0,0,0,0,0,0,0,0,0,0,0,0,0,0,0,0,0,0,0,0,0,0,0,0,0,0,0,0,0,0,0,0,0,0,0,0],"id":13,"left_children":[1,3,5,7,9,11,13,15,17,19,21,23,25,27,29,31,33,35,37,39,41,-1,-1,43,45,47,49,51,53,-1,-1,-1,-1,-1,-1,-1,-1,-1,-1,-1,-1,-1,-1,-1,-1,-1,-1,-1,-1,-1,-1,-1,-1,-1,-1],"loss_changes":[7.120976E2,8.094769E1,2.627813E2,4.428058E1,1.2878677E1,1.146982E2,1.5692993E1,9.200954E0,1.4120483E1,1.3528412E1,7.002962E-1,1.2881683E1,6.3358635E1,2.8215836E1,7.488233E-2,7.836227E-1,2.0874405E-1,1.0185059E1,1.1723061E1,1.668518E1,2.174813E1,0E0,0E0,1.7066895E1,1.2156647E1,4.4006004E1,3.0873756E1,1.6359253E1,2.7707825E0,0E0,0E0,0E0,0E0,0E0,0E0,0E0,0E0,0E0,0E0,0E0,0E0,0E0,0E0,0E0,0E0,0E0,0E0,0E0,0E0,0E0,0E0,0E0,0E0,0E0,0E0],"parents":[2147483647,0,0,1,1,2,2,3,3,4,4,5,5,6,6,7,7,8,8,9,9,10,10,11,11,12,12,13,13,14,14,15,15,16,16,17,17,18,18,19,19,20,20,23,23,24,24,25,25,26,26,27,27,28,28],"right_children":[2,4,6,8,10,12,14,16,18,20,22,24,26,28,30,32,34,36,38,40,42,-1,-1,44,46,48,50,52,54,-1,-1,-1,-1,-1,-1,-1,-1,-1,-1,-1,-1,-1,-1,-1,-1,-1,-1,-1,-1,-1,-1,-1,-1,-1,-1],"split_conditions":[6.2E1,5E0,3.13E2,3.02E1,3.75375E1,1.26E1,3E1,2.3098E3,1.43E1,1E-1,2E0,6.5E0,1.86E2,3.47E2,3.1E1,1.8959E3,1.6E1,1.86E1,2.5902E3,2.3E1,1.4E1,6.7005155E-4,-8.974514E-3,1.25E2,7.4E0,1.1E2,2.78E2,3.44E2,2.3E1,-1.1094331E-3,-6.082139E-3,-4.325807E-3,3.7734937E-3,2.6497168E-2,1.170215E-2,1.4552144E-2,4.877573E-2,2.2729237E-6,3.1259157E-2,9.571003E-3,2.5565924E-2,3.95777E-2,9.648776E-3,-7.6218997E-3,-1.9692369E-2,-8.928454E-3,-2.284368E-2,-9.071448E-4,-1.4276165E-2,6.221319E-3,-6.8160747E-3,1.8759362E-2,-4.719858E-3,4.978049E-2,2.2670696E-2],"split_indices":[5,6,5,16,28,28,0,7,19,10,0,19,5,5,0,7,0,28,7,0,0,0,0,5,28,5,5,5,0,0,0,0,0,0,0,0,0,0,0,0,0,0,0,0,0,0,0,0,0,0,0,0,0,0,0],"split_type":[0,0,0,0,0,0,0,0,0,0,0,0,0,0,0,0,0,0,0,0,0,0,0,0,0,0,0,0,0,0,0,0,0,0,0,0,0,0,0,0,0,0,0,0,0,0,0,0,0,0,0,0,0,0,0],"sum_hessian":[4.55E2,8.5E1,3.7E2,3.7E1,4.8E1,3.36E2,3.4E1,9E0,2.8E1,4.6E1,2E0,1.45E2,1.91E2,3.2E1,2E0,3E0,6E0,2.4E1,4E0,3.5E1,1.1E1,1E0,1E0,8.9E1,5.6E1,1.01E2,9E1,2.5E1,7E0,1E0,1E0,1E0,2E0,3E0,3E0,2E0,2.2E1,2E0,2E0,2.6E1,9E0,6E0,5E0,1.6E1,7.3E1,4.9E1,7E0,4.2E1,5.9E1,6.6E1,2.4E1,2.2E1,3E0,3E0,4E0],"tree_param":{"num_deleted":"0","num_feature":"31","num_nodes":"55","size_leaf_vector":"1"}},{"base_weights":[-8.798485E-2,2.3606443E0,-6.6165316E-1,4.340511E-2,1.8401204E0,-9.390541E-1,1.8888668E0,2.2383728E0,9.8594105E-1,-5.473284E-1,-1.9575522E0,1.152063E0,3.069669E0,3.3384101E0,1.6548736E0,6.1183356E-2,2.1573431E0,-1.2835635E0,-4.6379358E-2,-2.6822999E0,-1.6500416E0,1.49925E0,-5.3653544E-1,5.4200392E-2,1.1616813E0,2.426446E-3,4.3501113E-2,2.1004902E-2,6.6286847E-3,8.983344E-3,-3.2490196E-3,2.5788836E-2,1.7360782E-3,-2.5963746E-3,-1.3920376E-2,-5.0823195E-3,5.4024523E-3,-2.7956264E-2,-8.438124E-3,1.47897005E-2,-1.7168237E-2,2.3229066E-2,5.39298E-3,-2.279806E-4,-8.714277E-3,2.3224423E-2,1.9422714E-3],"categories":[],"categories_nodes":[],"categories_segments":[],"categories_sizes":[],"default_left":[0,0,0,0,0,0,0,0,0,0,0,0,0,0,1,0,1,0,0,0,0,0,0,0,0,0,0,0,0,0,0,0,0,0,0,0,0,0,0,0,0,0,0,0,0,0,0],"id":14,"left_children":[1,3,5,-1,7,9,11,13,15,17,19,21,23,25,27,29,31,33,35,37,39,41,43,-1,45,-1,-1,-1,-1,-1,-1,-1,-1,-1,-1,-1,-1,-1,-1,-1,-1,-1,-1,-1,-1,-1,-1],"loss_changes":[6.6598553E2,8.47641E1,2.7346008E2,0E0,2.2626144E1,1.3737186E2,2.9524292E1,2.5927017E1,2.694959E1,9.288217E1,1.696939E1,1.5460892E1,5.6486313E1,4.9056335E1,1.3637497E1,5.140047E0,8.750748E0,1.0967651E1,4.1185616E1,3.266449E0,1.7166534E1,1.5351345E1,8.403665E-1,0E0,9.6557665E0,0E0,0E0,0E0,0E0,0E0,0E0,0E0,0E0,0E0,0E0,0E0,0E0,0E0,0E0,0E0,0E0,0E0,0E0,0E0,0E0,0E0,0E0],"parents":[2147483647,0,0,1,1,2,2,4,4,5,5,6,6,7,7,8,8,9,9,10,10,11,11,12,12,13,13,14,14,15,15,16,16,17,17,18,18,19,19,20,20,21,21,22,22,24,24],"right_children":[2,4,6,-1,8,10,12,14,16,18,20,22,24,26,28,30,32,34,36,38,40,42,44,-1,46,-1,-1,-1,-1,-1,-1,-1,-1,-1,-1,-1,-1,-1,-1,-1,-1,-1,-1,-1,-1,-1,-1],"split_conditions":[6.2E1,3E0,3.13E2,4.340511E-2,4.6E1,5E0,3.49E2,2E0,5.4E1,1.26E1,8.812E2,3.44E2,2.3E1,8E0,1.749E3,1.8E1,1.578E2,1.25E2,1.87E2,8.37E1,8.846E2,4E0,1.2E1,5.4200392E-2,5E0,2.426446E-3,4.3501113E-2,2.1004902E-2,6.6286847E-3,8.983344E-3,-3.2490196E-3,2.5788836E-2,1.7360782E-3,-2.5963746E-3,-1.3920376E-2,-5.0823195E-3,5.4024523E-3,-2.7956264E-2,-8.438124E-3,1.47897005E-2,-1.7168237E-2,2.3229066E-2,5.39298E-3,-2.279806E-4,-8.714277E-3,2.3224423E-2,1.9422714E-3],"split_indices":[5,6,5,0,5,1,5,1,5,28,7,5,0,0,7,0,22,5,5,16,7,1,0,0,1,0,0,0,0,0,0,0,0,0,0,0,0,0,0,0,0,0,0,0,0,0,0],"split_type":[0,0,0,0,0,0,0,0,0,0,0,0,0,0,0,0,0,0,0,0,0,0,0,0,0,0,0,0,0,0,0,0,0,0,0,0,0,0,0,0,0,0,0,0,0,0,0],"sum_hessian":[4.72E2,8.9E1,3.83E2,1.7E1,7.2E1,3.46E2,3.7E1,4.8E1,2.4E1,2.51E2,9.5E1,2.4E1,1.3E1,1.5E1,3.3E1,1.4E1,1E1,1.01E2,1.5E2,2.6E1,6.9E1,2E1,4E0,5E0,8E0,4E0,1.1E1,2.2E1,1.1E1,4E0,1E1,8E0,2E0,1E1,9.1E1,8.4E1,6.6E1,2.4E1,2E0,1E0,6.8E1,1E1,1E1,2E0,2E0,3E0,5E0],"tree_param":{"num_deleted":"0","num_feature":"31","num_nodes":"47","size_leaf_vector":"1"}},{"base_weights":[-1.07622206E-1,2.2435951E0,-6.339167E-1,3.904004E0,1.5754458E0,-9.2110527E-1,2.005251E0,1.7990807E0,4.5056963E0,2.1876986E0,-7.6725245E-2,-5.449999E-1,-1.7710713E0,1.4396572E0,3.1107326E0,1.4213991E-3,2.0515475E0,1.00116E0,4.881191E0,1.1251459E0,2.5721846E0,-6.98645E-1,7.8800505E-1,-2.9895255E-2,-1.1135945E0,-2.452442E0,-1.4152513E0,1.805893E0,-5.329586E-1,5.3915385E-2,7.113656E-1,2.3373572E-2,3.1124924E-3,2.4019795E-2,-9.002394E-3,5.8553852E-2,2.7921712E-2,1.7257018E-2,-8.076695E-3,1.0028064E-2,2.754071E-2,-8.480429E-3,3.976669E-3,1.0821019E-2,-6.285699E-4,1.4986968E-2,-1.5809714E-3,-7.919196E-3,-1.4501142E-2,-8.848999E-3,-2.6261602E-2,1.4715753E-2,-1.4766372E-2,3.5346612E-2,1.3698447E-2,9.741902E-4,-7.1490775E-3,1.8518591E-2,-1.1520375E-3],"categories":[],"categories_nodes":[],"categories_segments":[],"categories_sizes":[],"default_left":[0,0,0,0,0,0,0,0,0,0,1,1,0,0,0,0,0,0,0,0,0,0,0,0,0,0,0,0,0,0,0,0,0,0,0,0,0,0,0,0,0,0,0,0,0,0,0,0,0,0,0,0,0,0,0,0,0,0,0],"id":15,"left_children":[1,3,5,7,9,11,13,15,17,19,21,23,25,27,29,-1,31,33,35,37,39,41,43,45,47,49,51,53,55,-1,57,-1,-1,-1,-1,-1,-1,-1,-1,-1,-1,-1,-1,-1,-1,-1,-1,-1,-1,-1,-1,-1,-1,-1,-1,-1,-1,-1,-1],"loss_changes":[5.817782E2,8.9257935E1,2.9289557E2,2.2290283E1,6.3895264E1,1.0996265E2,1.928125E1,2.6366482E0,1.8799957E1,1.589859E1,1.0230807E1,7.084506E1,2.2228363E1,2.0468414E1,6.183454E1,0E0,2.2568665E0,1.0152908E1,1.6212555E1,1.7644493E1,6.6580048E0,2.1388922E0,2.0699048E0,2.5320894E1,1.1300369E1,7.2070007E0,1.4932144E1,1.24960785E1,6.431291E-1,0E0,6.8122206E0,0E0,0E0,0E0,0E0,0E0,0E0,0E0,0E0,0E0,0E0,0E0,0E0,0E0,0E0,0E0,0E0,0E0,0E0,0E0,0E0,0E0,0E0,0E0,0E0,0E0,0E0,0E0,0E0],"parents":[2147483647,0,0,1,1,2,2,3,3,4,4,5,5,6,6,7,7,8,8,9,9,10,10,11,11,12,12,13,13,14,14,16,16,17,17,18,18,19,19,20,20,21,21,22,22,23,23,24,24,25,25,26,26,27,27,28,28,30,30],"right_children":[2,4,6,8,10,12,14,16,18,20,22,24,26,28,30,-1,32,34,36,38,40,42,44,46,48,50,52,54,56,-1,58,-1,-1,-1,-1,-1,-1,-1,-1,-1,-1,-1,-1,-1,-1,-1,-1,-1,-1,-1,-1,-1,-1,-1,-1,-1,-1,-1,-1],"split_conditions":[6.2E1,1.9E1,3.18E2,3.60925E2,5E0,5E0,3.49E2,3.48E1,3E0,2.087E2,9.48E2,1.67E1,1.2E1,3.44E2,3.57E2,1.4213991E-3,1.6E1,1E0,1.3E1,1.7357E3,3.02E1,5.2E1,4.3E1,7.5E1,6.4E1,6.2E0,1.21E1,1E0,1E0,5.3915385E-2,5E0,2.3373572E-2,3.1124924E-3,2.4019795E-2,-9.002394E-3,5.8553852E-2,2.7921712E-2,1.7257018E-2,-8.076695E-3,1.0028064E-2,2.754071E-2,-8.480429E-3,3.976669E-3,1.0821019E-2,-6.285699E-4,1.4986968E-2,-1.5809714E-3,-7.919196E-3,-1.4501142E-2,-8.848999E-3,-2.6261602E-2,1.4715753E-2,-1.4766372E-2,3.5346612E-2,1.3698447E-2,9.741902E-4,-7.1490775E-3,1.8518591E-2,-1.1520375E-3],"split_indices":[5,5,5,25,1,1,5,13,5,25,7,16,13,5,5,0,5,1,5,7,16,5,5,5,25,13,13,1,1,0,1,0,0,0,0,0,0,0,0,0,0,0,0,0,0,0,0,0,0,0,0,0,0,0,0,0,0,0,0],"split_type":[0,0,0,0,0,0,0,0,0,0,0,0,0,0,0,0,0,0,0,0,0,0,0,0,0,0,0,0,0,0,0,0,0,0,0,0,0,0,0,0,0,0,0,0,0,0,0,0,0,0,0,0,0,0,0,0,0,0,0],"sum_hessian":[4.68E2,8.5E1,3.83E2,2.3E1,6.2E1,3.46E2,3.7E1,6E0,1.7E1,4.5E1,1.7E1,2.41E2,1.05E2,2.6E1,1.1E1,1E0,5E0,2E0,1.5E1,1.3E1,3.2E1,1E1,7E0,1.27E2,1.14E2,3.4E1,7.1E1,2.2E1,4E0,5E0,6E0,4E0,1E0,1E0,1E0,9E0,6E0,1E1,3E0,4E0,2.8E1,9E0,1E0,5E0,2E0,9E0,1.18E2,6E1,5.4E1,4E0,3E1,1E0,7E1,3E0,1.9E1,1E0,3E0,2E0,4E0],"tree_param":{"num_deleted":"0","num_feature":"31","num_nodes":"59","size_leaf_vector":"1"}},{"base_weights":[4.4882108E-2,2.4840958E0,-4.9591306E-1,3.0157895E0,7.519327E-1,-7.9679745E-1,2.1360786E0,1.4649864E0,3.644536E0,1.5840135E0,-7.346916E-2,-4.012208E-1,-1.7423604E0,1.257857E0,3.574472E0,2.8079252E0,4.2256835E-1,5.1546364E0,2.979512E0,7.3818713E-1,2.879663E0,-5.6778866E-1,1.057117E0,1.5705848E-1,-1.0725217E0,-2.4614432E0,-1.4489089E0,1.6440083E0,-8.029069E-2,5.558626E-2,1.6340775E0,1.5058788E-2,4.0590134E-2,8.7835565E-3,1.2240113E-3,2.0124147E-2,5.5430025E-2,1.1453373E-2,3.179233E-2,1.4656329E-2,-3.5566688E-3,3.356995E-2,7.238331E-3,-6.8743923E-3,-3.3458034E-3,2.6149678E-3,1.2351581E-2,2.0988392E-2,3.818495E-4,-4.231922E-3,-1.2865608E-2,-2.5280343E-2,-2.9844332E-3,1.4642174E-2,-1.5065055E-2,2.0507148E-2,-5.9717307E-3,-5.1038587E-3,6.6329814E-3,2.5094237E-2,-8.7460876E-4],"categories":[],"categories_nodes":[],"categories_segments":[],"categories_sizes":[],"default_left":[0,0,0,0,0,0,0,0,0,0,1,1,0,0,0,0,0,0,0,0,0,0,0,0,0,0,0,0,0,0,0,0,0,0,0,0,0,0,0,0,0,0,0,0,0,0,0,0,0,0,0,0,0,0,0,0,0,0,0,0,0],"id":16,"left_children":[1,3,5,7,9,11,13,15,17,19,21,23,25,27,29,31,33,35,37,39,41,43,45,47,49,51,53,55,57,-1,59,-1,-1,-1,-1,-1,-1,-1,-1,-1,-1,-1,-1,-1,-1,-1,-1,-1,-1,-1,-1,-1,-1,-1,-1,-1,-1,-1,-1,-1,-1],"loss_changes":[6.396835E2,7.8778625E1,3.1609637E2,5.998993E1,1.5226001E1,1.3283414E2,4.7296173E1,2.8211437E1,3.1841614E1,9.9291115E0,7.3066683E0,9.49861E1,1.8590271E1,1.4083641E1,4.866739E1,8.548386E0,1.6710496E0,4.709503E0,9.180023E0,6.887033E0,1.6862793E0,2.112794E-2,2.436223E-1,3.2004715E1,1.5438461E1,3.422577E0,1.5125397E1,2.0366192E1,2.5772355E0,0E0,1.3781954E1,0E0,0E0,0E0,0E0,0E0,0E0,0E0,0E0,0E0,0E0,0E0,0E0,0E0,0E0,0E0,0E0,0E0,0E0,0E0,0E0,0E0,0E0,0E0,0E0,0E0,0E0,0E0,0E0,0E0,0E0],"parents":[2147483647,0,0,1,1,2,2,3,3,4,4,5,5,6,6,7,7,8,8,9,9,10,10,11,11,12,12,13,13,14,14,15,15,16,16,17,17,18,18,19,19,20,20,21,21,22,22,23,23,24,24,25,25,26,26,27,27,28,28,30,30],"right_children":[2,4,6,8,10,12,14,16,18,20,22,24,26,28,30,32,34,36,38,40,42,44,46,48,50,52,54,56,58,-1,60,-1,-1,-1,-1,-1,-1,-1,-1,-1,-1,-1,-1,-1,-1,-1,-1,-1,-1,-1,-1,-1,-1,-1,-1,-1,-1,-1,-1,-1,-1],"split_conditions":[1E1,5E0,3.11E2,2.4032E3,3.5E1,5E0,3.49E2,7.7E0,1.2E1,2.8E1,6.69E1,3.6E0,8.078E2,5E0,3.57E2,2E0,3E0,2.8972E3,2.53E1,2.1E1,2E0,6E0,6E0,7.5E1,1.29E2,2.6E2,2.44E1,3.44E2,1.2E1,5.558626E-2,5E0,1.5058788E-2,4.0590134E-2,8.7835565E-3,1.2240113E-3,2.0124147E-2,5.5430025E-2,1.1453373E-2,3.179233E-2,1.4656329E-2,-3.5566688E-3,3.356995E-2,7.238331E-3,-6.8743923E-3,-3.3458034E-3,2.6149678E-3,1.2351581E-2,2.0988392E-2,3.818495E-4,-4.231922E-3,-1.2865608E-2,-2.5280343E-2,-2.9844332E-3,1.4642174E-2,-1.5065055E-2,2.0507148E-2,-5.9717307E-3,-5.1038587E-3,6.6329814E-3,2.5094237E-2,-8.7460876E-4],"split_indices":[6,1,5,7,5,1,5,19,5,5,16,19,7,1,5,1,1,7,16,5,3,1,1,5,5,5,22,5,3,0,1,0,0,0,0,0,0,0,0,0,0,0,0,0,0,0,0,0,0,0,0,0,0,0,0,0,0,0,0,0,0],"split_type":[0,0,0,0,0,0,0,0,0,0,0,0,0,0,0,0,0,0,0,0,0,0,0,0,0,0,0,0,0,0,0,0,0,0,0,0,0,0,0,0,0,0,0,0,0,0,0,0,0,0,0,0,0,0,0,0,0,0,0,0,0],"sum_hessian":[4.83E2,8.7E1,3.96E2,6.6E1,2.1E1,3.56E2,4E1,2E1,4.6E1,1E1,1.1E1,2.52E2,1.04E2,2.6E1,1.4E1,8E0,1.2E1,1.2E1,3.4E1,7E0,3E0,8E0,3E0,1.38E2,1.14E2,2.8E1,7.6E1,2E1,6E0,6E0,8E0,5E0,3E0,4E0,8E0,2E0,1E1,4E0,3E1,4E0,3E0,2E0,1E0,4E0,4E0,1E0,2E0,7E0,1.31E2,2.9E1,8.5E1,2.7E1,1E0,1E0,7.5E1,1.7E1,3E0,4E0,2E0,5E0,3E0],"tree_param":{"num_deleted":"0","num_feature":"31","num_nodes":"61","size_leaf_vector":"1"}},{"base_weights":[1.0894853E-2,2.7952733E0,-4.9788266E-1,4.3110085E0,2.0710967E0,-7.634415E-1,1.8783822E0,5.0002737E0,2.9149365E0,1.7994761E0,3.5601602E0,-1.2331586E0,-3.6975917E-1,9.4601125E-1,3.2760863E0,5.706818E-2,2.587131E-2,2.8757358E-1,3.9998673E-2,2.177561E0,7.797418E-1,4.8382815E-2,1.3919988E0,-5.1079136E-1,-1.5490711E0,5.514064E-1,-5.5508775E-1,1.6900349E0,5.82948E-1,5.3952917E-2,1.0283383E0,-2.0422149E-3,5.195791E-3,2.7859032E-2,1.3570786E-2,-3.426082E-3,2.8684935E-2,1.6512103E-2,3.0718183E-3,5.346135E-3,-7.420299E-3,-2.369132E-2,-1.1296942E-2,-2.769486E-3,7.0377616E-3,-1.3394633E-2,2.4765468E-4,8.510159E-3,2.3162998E-2,-1.4163867E-2,9.014807E-3,-6.0513066E-3,1.3081632E-2],"categories":[],"categories_nodes":[],"categories_segments":[],"categories_sizes":[],"default_left":[0,0,0,1,0,0,0,0,0,0,0,0,0,0,0,0,0,0,0,1,1,0,0,0,0,0,0,0,0,0,0,0,0,0,0,0,0,0,0,0,0,0,0,0,0,0,0,0,0,0,0,0,0],"id":17,"left_children":[1,3,5,7,9,11,13,15,17,19,21,23,25,27,29,-1,-1,31,-1,33,35,-1,37,39,41,43,45,47,49,-1,51,-1,-1,-1,-1,-1,-1,-1,-1,-1,-1,-1,-1,-1,-1,-1,-1,-1,-1,-1,-1,-1,-1],"loss_changes":[6.7854047E2,7.229828E1,2.5700452E2,7.5565796E0,1.4625488E1,6.703958E1,5.0331116E1,9.105591E0,2.7354813E1,1.60372E1,1.266333E1,3.709076E1,3.4449734E1,6.0381145E0,7.0666855E1,0E0,0E0,5.6250596E-1,0E0,1.269072E1,3.3803116E1,0E0,6.1756754E-1,1.2967071E1,3.687375E1,4.4862633E0,7.598856E1,2.232378E0,1.3377062E1,0E0,4.9053793E0,0E0,0E0,0E0,0E0,0E0,0E0,0E0,0E0,0E0,0E0,0E0,0E0,0E0,0E0,0E0,0E0,0E0,0E0,0E0,0E0,0E0,0E0],"parents":[2147483647,0,0,1,1,2,2,3,3,4,4,5,5,6,6,7,7,8,8,9,9,10,10,11,11,12,12,13,13,14,14,17,17,19,19,20,20,22,22,23,23,24,24,25,25,26,26,27,27,28,28,30,30],"right_children":[2,4,6,8,10,12,14,16,18,20,22,24,26,28,30,-1,-1,32,-1,34,36,-1,38,40,42,44,46,48,50,-1,52,-1,-1,-1,-1,-1,-1,-1,-1,-1,-1,-1,-1,-1,-1,-1,-1,-1,-1,-1,-1,-1,-1],"split_conditions":[4.8E1,3E0,3.13E2,2.1496E3,4.4E1,5E-1,3.47E2,1.3E1,2.5902E3,6E0,4.6E1,1.23E2,9.7E1,3.21E2,3.57E2,5.706818E-2,2.587131E-2,2.1896E3,3.9998673E-2,1.7224E3,1.1416E3,4.8382815E-2,2.024E3,6.2E1,1.77E2,5.3E1,1.91E2,3.18E2,4.7E1,5.3952917E-2,2.023E3,-2.0422149E-3,5.195791E-3,2.7859032E-2,1.3570786E-2,-3.426082E-3,2.8684935E-2,1.6512103E-2,3.0718183E-3,5.346135E-3,-7.420299E-3,-2.369132E-2,-1.1296942E-2,-2.769486E-3,7.0377616E-3,-1.3394633E-2,2.4765468E-4,8.510159E-3,2.3162998E-2,-1.4163867E-2,9.014807E-3,-6.0513066E-3,1.3081632E-2],"split_indices":[5,6,5,7,5,10,5,5,7,6,5,5,5,5,5,0,0,7,0,7,7,0,4,5,5,5,5,5,6,0,4,0,0,0,0,0,0,0,0,0,0,0,0,0,0,0,0,0,0,0,0,0,0],"split_type":[0,0,0,0,0,0,0,0,0,0,0,0,0,0,0,0,0,0,0,0,0,0,0,0,0,0,0,0,0,0,0,0,0,0,0,0,0,0,0,0,0,0,0,0,0,0,0,0,0,0,0,0,0],"sum_hessian":[4.77E2,7.3E1,4.04E2,2.2E1,5.1E1,3.64E2,4E1,1.3E1,9E0,4.5E1,6E0,1.65E2,1.99E2,2.5E1,1.5E1,9E0,4E0,3E0,6E0,3.2E1,1.3E1,3E0,3E0,5.1E1,1.14E2,3.3E1,1.66E2,7E0,1.8E1,7E0,8E0,1E0,2E0,1.7E1,1.5E1,9E0,4E0,2E0,1E0,9E0,4.2E1,3.7E1,7.7E1,5E0,2.8E1,7E1,9.6E1,4E0,3E0,2E0,1.6E1,1E0,7E0],"tree_param":{"num_deleted":"0","num_feature":"31","num_nodes":"53","size_leaf_vector":"1"}},{"base_weights":[-1.2473884E-2,2.672907E0,-5.7561654E-1,4.577559E0,1.9421655E0,-8.650613E-1,2.135938E0,4.989579E0,1.4760733E0,2.3482182E0,6.5337884E-1,-4.307217E-1,-1.9339129E0,3.0009706E0,6.094895E-1,5.4243226E-2,2.0032096E0,-4.0299497E-3,3.556639E-2,7.986846E-1,2.560681E0,2.4010473E-1,3.4262452E-2,-1.0148268E0,-2.9439911E-2,-2.5745697E0,-1.4964496E0,2.0981922E0,4.0550413E0,-1.406944E-2,1.0279366E0,2.8064128E-2,-2.0320034E-3,4.2552575E-3,1.1543878E-2,2.9115604E-2,1.0285888E-2,-7.922001E-3,1.5330532E-2,-6.7311255E-3,-1.5816245E-2,-4.651323E-3,5.5417055E-3,-7.2966083E-3,-2.7044363E-2,-1.562129E-2,3.3784914E-3,2.2538511E-2,-4.0515183E-4,5.1369496E-2,2.4776105E-2,1.7723572E-2,3.4112905E-3],"categories":[],"categories_nodes":[],"categories_segments":[],"categories_sizes":[],"default_left":[0,0,0,0,0,0,0,1,0,0,0,0,0,0,0,0,0,0,0,0,1,1,0,0,0,0,0,0,0,0,0,0,0,0,0,0,0,0,0,0,0,0,0,0,0,0,0,0,0,0,0,0,0],"id":18,"left_children":[1,3,5,7,9,11,13,15,17,19,21,23,25,27,29,-1,31,-1,-1,33,35,37,-1,39,41,43,45,47,49,-1,51,-1,-1,-1,-1,-1,-1,-1,-1,-1,-1,-1,-1,-1,-1,-1,-1,-1,-1,-1,-1,-1,-1],"loss_changes":[7.1532184E2,1.05237915E2,3.0872217E2,2.0748291E1,3.038797E1,1.6350961E2,4.8347183E1,1.3801727E1,1.7071407E1,1.3098877E1,1.7512604E1,5.9270985E1,2.4734222E1,1.4329971E1,1.4102808E1,0E0,7.659046E0,0E0,0E0,4.3791485E-1,1.8508362E1,2.123524E1,0E0,1.888472E1,3.8653236E1,7.610321E0,8.117737E0,5.084938E0,4.3389893E0,0E0,6.041954E0,0E0,0E0,0E0,0E0,0E0,0E0,0E0,0E0,0E0,0E0,0E0,0E0,0E0,0E0,0E0,0E0,0E0,0E0,0E0,0E0,0E0,0E0],"parents":[2147483647,0,0,1,1,2,2,3,3,4,4,5,5,6,6,7,7,8,8,9,9,10,10,11,11,12,12,13,13,14,14,16,16,19,19,20,20,21,21,23,23,24,24,25,25,26,26,27,27,28,28,30,30],"right_children":[2,4,6,8,10,12,14,16,18,20,22,24,26,28,30,-1,32,-1,-1,34,36,38,-1,40,42,44,46,48,50,-1,52,-1,-1,-1,-1,-1,-1,-1,-1,-1,-1,-1,-1,-1,-1,-1,-1,-1,-1,-1,-1,-1,-1],"split_conditions":[6.2E1,3E0,4.6E1,1.3E1,5E0,5E0,5E0,3.68E1,1.5E1,1.65E1,2.7E1,1.16E1,7.3E0,3.49E2,3.26E2,5.4243226E-2,6E0,-4.0299497E-3,3.556639E-2,2.2E1,1.6088E3,1.0681E3,3.4262452E-2,3E0,1.87E2,6.2E0,3E1,3E1,2.3E1,-1.406944E-2,1.7E1,2.8064128E-2,-2.0320034E-3,4.2552575E-3,1.1543878E-2,2.9115604E-2,1.0285888E-2,-7.922001E-3,1.5330532E-2,-6.7311255E-3,-1.5816245E-2,-4.651323E-3,5.5417055E-3,-7.2966083E-3,-2.7044363E-2,-1.562129E-2,3.3784914E-3,2.2538511E-2,-4.0515183E-4,5.1369496E-2,2.4776105E-2,1.7723572E-2,3.4112905E-3],"split_indices":[5,6,6,0,1,1,1,28,0,13,0,28,28,5,5,0,0,0,0,0,7,7,0,1,5,13,0,0,0,0,0,0,0,0,0,0,0,0,0,0,0,0,0,0,0,0,0,0,0,0,0,0,0],"split_type":[0,0,0,0,0,0,0,0,0,0,0,0,0,0,0,0,0,0,0,0,0,0,0,0,0,0,0,0,0,0,0,0,0,0,0,0,0,0,0,0,0,0,0,0,0,0,0,0,0,0,0,0,0],"sum_hessian":[4.71E2,8.1E1,3.9E2,2.1E1,6E1,3.53E2,3.7E1,1.8E1,3E0,4.5E1,1.5E1,2.52E2,1.01E2,2.3E1,1.4E1,1.5E1,3E0,2E0,1E0,6E0,3.9E1,1.4E1,1E0,1.02E2,1.5E2,3.9E1,6.2E1,1.4E1,9E0,2E0,1.2E1,2E0,1E0,4E0,2E0,3.1E1,8E0,8E0,6E0,6.5E1,3.7E1,8.6E1,6.4E1,3E0,3.6E1,6E1,2E0,1.3E1,1E0,4E0,5E0,5E0,7E0],"tree_param":{"num_deleted":"0","num_feature":"31","num_nodes":"53","size_leaf_vector":"1"}},{"base_weights":[8.270494E-2,3.500623E0,-3.6040595E-1,2.129313E0,4.334004E0,-6.229559E-1,2.3772075E0,3.0342617E0,1.600316E0,5.1706217E-2,3.2916574E0,-1.9581059E-1,-1.5366218E0,3.2287724E0,4.0501386E-1,1.2577105E-2,3.49334E-2,3.56945E-2,1.2310771E0,3.5455446E0,9.250024E-1,1.566339E0,-4.278312E-1,-2.357525E0,-1.1069624E0,2.581253E0,4.0931115E0,-1.489439E-2,1.2019914E0,1.4287059E-2,3.3042133E-3,3.739094E-2,1.5249824E-2,1.530687E-2,-1.4318347E-3,9.804652E-3,2.165876E-2,-1.0127827E-2,-1.429936E-4,-1.26037E-2,-2.514071E-2,-1.2588366E-2,6.5670335E-3,1.7332513E-2,3.0015292E-2,5.0958537E-2,2.271747E-2,-6.0381056E-3,1.5031929E-2],"categories":[],"categories_nodes":[],"categories_segments":[],"categories_sizes":[],"default_left":[0,0,0,0,0,0,0,0,0,0,0,0,0,0,0,0,0,0,0,0,0,0,0,0,1,0,0,0,0,0,0,0,0,0,0,0,0,0,0,0,0,0,0,0,0,0,0,0,0],"id":19,"left_children":[1,3,5,7,9,11,13,15,17,-1,19,21,23,25,27,-1,-1,-1,29,31,33,35,37,39,41,43,45,-1,47,-1,-1,-1,-1,-1,-1,-1,-1,-1,-1,-1,-1,-1,-1,-1,-1,-1,-1,-1,-1],"loss_changes":[6.994539E2,5.1341187E1,2.9545386E2,5.6759567E0,1.0885559E1,1.4565938E2,5.9152542E1,1.315422E0,7.239029E0,0E0,6.9350433E0,1.0533701E2,3.936267E1,3.4265442E0,1.990833E1,0E0,0E0,0E0,2.197855E0,1.6412354E-1,2.160121E0,8.414017E0,5.489592E1,3.7015686E0,2.2255112E1,8.563156E-1,4.8607483E0,0E0,5.8028374E0,0E0,0E0,0E0,0E0,0E0,0E0,0E0,0E0,0E0,0E0,0E0,0E0,0E0,0E0,0E0,0E0,0E0,0E0,0E0,0E0],"parents":[2147483647,0,0,1,1,2,2,3,3,4,4,5,5,6,6,7,7,8,8,10,10,11,11,12,12,13,13,14,14,18,18,19,19,20,20,21,21,22,22,23,23,24,24,25,25,26,26,28,28],"right_children":[2,4,6,8,10,12,14,16,18,-1,20,22,24,26,28,-1,-1,-1,30,32,34,36,38,40,42,44,46,-1,48,-1,-1,-1,-1,-1,-1,-1,-1,-1,-1,-1,-1,-1,-1,-1,-1,-1,-1,-1,-1],"split_conditions":[6E0,2.432E2,4.6E1,3E0,3E0,5E0,5E0,2E0,1E0,5.1706217E-2,6E0,1E1,8.62E1,5.1E1,1.2E1,1.2577105E-2,3.49334E-2,3.56945E-2,1.14E1,2.024E3,2E0,3E0,1.94E1,5E0,9.64E1,2E0,5.2E1,-1.489439E-2,2.023E3,1.4287059E-2,3.3042133E-3,3.739094E-2,1.5249824E-2,1.530687E-2,-1.4318347E-3,9.804652E-3,2.165876E-2,-1.0127827E-2,-1.429936E-4,-1.26037E-2,-2.514071E-2,-1.2588366E-2,6.5670335E-3,1.7332513E-2,3.0015292E-2,5.0958537E-2,2.271747E-2,-6.0381056E-3,1.5031929E-2],"split_indices":[6,22,6,6,6,1,1,1,1,0,1,6,25,6,3,0,0,0,19,4,3,1,13,3,22,1,6,0,4,0,0,0,0,0,0,0,0,0,0,0,0,0,0,0,0,0,0,0,0],"split_type":[0,0,0,0,0,0,0,0,0,0,0,0,0,0,0,0,0,0,0,0,0,0,0,0,0,0,0,0,0,0,0,0,0,0,0,0,0,0,0,0,0,0,0,0,0,0,0,0,0],"sum_hessian":[4.6E2,5.2E1,4.08E2,2.1E1,3.1E1,3.73E2,3.5E1,6E0,1.5E1,1.5E1,1.6E1,2.55E2,1.18E2,2.4E1,1.1E1,2E0,4E0,1E0,1.4E1,1.4E1,2E0,2.9E1,2.26E2,3.9E1,7.9E1,1.6E1,8E0,3E0,8E0,1.1E1,3E0,1.2E1,2E0,1E0,1E0,1.6E1,1.3E1,9.3E1,1.33E2,6E0,3.3E1,7.3E1,6E0,7E0,9E0,4E0,4E0,1E0,7E0],"tree_param":{"num_deleted":"0","num_feature":"31","num_nodes":"49","size_leaf_vector":"1"}},{"base_weights":[5.7587426E-2,2.6117692E0,-4.1653287E-1,3.8450723E0,1.6905864E0,-6.474818E-1,2.6953206E0,4.021726E0,9.1461104E-1,1.303499E0,2.837625E0,-1.2641836E0,-2.574112E-1,1.1989661E0,3.8124733E0,4.758327E0,2.6430645E0,1.5581588E-2,-1.8624234E-3,3.7452168E0,8.53096E-1,3.6709075E0,6.6997457E-1,1.1150402E0,-1.3423597E0,-6.267991E-1,1.7128068E-1,2.2398875E0,-3.8875675E-1,4.9434904E-2,5.617409E-1,5.67673E-2,3.311221E-2,5.6599625E-3,3.2725323E-2,7.216508E-3,4.3206956E-2,4.4146497E-3,2.4260428E-2,6.507694E-3,4.7488086E-2,8.082199E-4,8.394181E-3,1.2744243E-2,2.3875188E-3,7.696867E-4,-1.4199742E-2,1.0680526E-3,-1.0529227E-2,5.527887E-3,-2.5180376E-3,6.7327213E-3,2.3675079E-2,9.836614E-4,-9.086683E-3,1.2801658E-2,6.209314E-4],"categories":[],"categories_nodes":[],"categories_segments":[],"categories_sizes":[],"default_left":[0,0,0,0,1,0,0,1,0,0,0,0,0,0,0,0,0,0,0,0,0,0,0,0,0,0,0,0,0,0,0,0,0,0,0,0,0,0,0,0,0,0,0,0,0,0,0,0,0,0,0,0,0,0,0,0,0],"id":20,"left_children":[1,3,5,7,9,11,13,15,17,19,21,23,25,27,29,31,33,-1,-1,35,37,39,41,43,45,47,49,51,53,-1,55,-1,-1,-1,-1,-1,-1,-1,-1,-1,-1,-1,-1,-1,-1,-1,-1,-1,-1,-1,-1,-1,-1,-1,-1,-1,-1],"loss_changes":[5.56932E2,7.5298615E1,2.805927E2,1.185202E1,1.5393356E1,8.67563E1,4.056372E1,1.5858063E1,2.415551E0,3.4196705E1,1.5603233E1,2.753653E1,3.5420208E1,2.2355804E1,5.2372543E1,3.7965393E0,1.3837128E1,0E0,0E0,5.581955E0,1.83532E1,1.9697502E1,3.3146894E-1,3.940611E-1,1.50911255E1,3.7625195E1,1.6925846E1,5.4779053E-3,1.6089473E0,0E0,1.7153077E0,0E0,0E0,0E0,0E0,0E0,0E0,0E0,0E0,0E0,0E0,0E0,0E0,0E0,0E0,0E0,0E0,0E0,0E0,0E0,0E0,0E0,0E0,0E0,0E0,0E0,0E0],"parents":[2147483647,0,0,1,1,2,2,3,3,4,4,5,5,6,6,7,7,8,8,9,9,10,10,11,11,12,12,13,13,14,14,15,15,16,16,19,19,20,20,21,21,22,22,23,23,24,24,25,25,26,26,27,27,28,28,30,30],"right_children":[2,4,6,8,10,12,14,16,18,20,22,24,26,28,30,32,34,-1,-1,36,38,40,42,44,46,48,50,52,54,-1,56,-1,-1,-1,-1,-1,-1,-1,-1,-1,-1,-1,-1,-1,-1,-1,-1,-1,-1,-1,-1,-1,-1,-1,-1,-1,-1],"split_conditions":[8E0,4E0,1.2E1,2.1E1,2.176E2,1.92E1,1.4E1,3.41E1,1E-1,5E0,2.3E1,3E0,2.8E1,9E0,2.8E1,1.3E1,2.686E2,1.5581588E-2,-1.8624234E-3,2E0,2.7E1,4E0,2.8E1,1.45E1,3E0,4E0,3.9E1,3E0,1.2E1,4.9434904E-2,2.9E1,5.67673E-2,3.311221E-2,5.6599625E-3,3.2725323E-2,7.216508E-3,4.3206956E-2,4.4146497E-3,2.4260428E-2,6.507694E-3,4.7488086E-2,8.082199E-4,8.394181E-3,1.2744243E-2,2.3875188E-3,7.696867E-4,-1.4199742E-2,1.0680526E-3,-1.0529227E-2,5.527887E-3,-2.5180376E-3,6.7327213E-3,2.3675079E-2,9.836614E-4,-9.086683E-3,1.2801658E-2,6.209314E-4],"split_indices":[6,6,3,0,25,13,0,13,10,0,0,3,6,0,0,0,25,0,0,0,0,0,0,13,0,3,6,0,0,0,0,0,0,0,0,0,0,0,0,0,0,0,0,0,0,0,0,0,0,0,0,0,0,0,0,0,0],"split_type":[0,0,0,0,0,0,0,0,0,0,0,0,0,0,0,0,0,0,0,0,0,0,0,0,0,0,0,0,0,0,0,0,0,0,0,0,0,0,0,0,0,0,0,0,0,0,0,0,0,0,0,0,0,0,0,0,0],"sum_hessian":[4.58E2,7.1E1,3.87E2,2.9E1,4.2E1,3.61E2,2.6E1,2.7E1,2E0,3.3E1,9E0,1.39E2,2.22E2,1.2E1,1.4E1,1.6E1,1.1E1,1E0,1E0,4E0,2.9E1,6E0,3E0,4E0,1.35E2,1.19E2,1.03E2,7E0,5E0,1E1,4E0,8E0,8E0,3E0,8E0,1E0,3E0,2.4E1,5E0,2E0,4E0,1E0,2E0,3E0,1E0,7E0,1.28E2,4.4E1,7.5E1,5.4E1,4.9E1,1E0,6E0,3E0,2E0,1E0,3E0],"tree_param":{"num_deleted":"0","num_feature":"31","num_nodes":"57","size_leaf_vector":"1"}},{"base_weights":[-6.385487E-2,2.3411894E0,-5.601673E-1,4.3037176E0,1.4779286E0,-8.498615E-1,2.3532498E0,2.5871578E-1,4.6766357E0,1.1893141E0,3.0248747E0,-4.831154E-1,-1.7905949E0,1.4885979E0,3.6354876E0,1.261899E-2,-8.738253E-3,1.122803E0,5.2065633E-2,1.4425731E0,-2.5730264E-1,3.616255E-2,8.3382195E-3,-9.984654E-1,-2.2662804E-4,-2.3824823E0,-1.4216334E0,1.7936743E0,9.260301E-2,5.4790553E-2,1.2725645E0,2.7402353E-3,1.3143882E-2,1.7378476E-2,1.9961447E-3,-6.8576876E-3,3.426057E-3,-6.71734E-3,-1.3540428E-2,-5.1500243E-3,5.0663305E-3,-7.882477E-3,-2.5627626E-2,-1.700933E-2,-9.802324E-3,2.01813E-2,8.064637E-3,-7.5321137E-3,1.7379303E-2,2.1520106E-2,7.4977276E-4],"categories":[],"categories_nodes":[],"categories_segments":[],"categories_sizes":[],"default_left":[0,0,0,0,1,0,0,0,0,1,0,0,0,0,0,0,0,0,0,0,0,0,0,0,0,0,0,0,0,0,0,0,0,0,0,0,0,0,0,0,0,0,0,0,0,0,0,0,0,0,0],"id":21,"left_children":[1,3,5,7,9,11,13,15,17,19,21,23,25,27,29,-1,-1,31,-1,33,35,-1,-1,37,39,41,43,45,47,-1,49,-1,-1,-1,-1,-1,-1,-1,-1,-1,-1,-1,-1,-1,-1,-1,-1,-1,-1,-1,-1],"loss_changes":[5.3726184E2,1.2409076E2,3.168119E2,3.348459E1,2.0958366E1,1.16438446E2,3.228366E1,4.5111184E0,3.370279E1,1.7956886E1,7.3506546E0,6.1218533E1,1.7359436E1,9.203377E0,4.965825E1,0E0,0E0,2.902813E-1,0E0,1.4700661E1,2.2912717E0,0E0,0E0,1.2915657E1,3.365856E1,8.03923E0,5.8529663E0,2.3609848E0,8.267237E0,0E0,7.2111406E0,0E0,0E0,0E0,0E0,0E0,0E0,0E0,0E0,0E0,0E0,0E0,0E0,0E0,0E0,0E0,0E0,0E0,0E0,0E0,0E0],"parents":[2147483647,0,0,1,1,2,2,3,3,4,4,5,5,6,6,7,7,8,8,9,9,10,10,11,11,12,12,13,13,14,14,17,17,19,19,20,20,23,23,24,24,25,25,26,26,27,27,28,28,30,30],"right_children":[2,4,6,8,10,12,14,16,18,20,22,24,26,28,30,-1,-1,32,-1,34,36,-1,-1,38,40,42,44,46,48,-1,50,-1,-1,-1,-1,-1,-1,-1,-1,-1,-1,-1,-1,-1,-1,-1,-1,-1,-1,-1,-1],"split_conditions":[6.2E1,1.8E1,3.13E2,2E0,2.47E3,5E0,3.49E2,1E0,2E1,1.7E1,2.9E1,1.8959E3,5.51E1,3.44E2,2.3E1,1.261899E-2,-8.738253E-3,2.64E1,5.2065633E-2,5E0,4E0,3.616255E-2,8.3382195E-3,4.51E1,1.87E2,1.61E1,1.97E2,5E0,1.4E1,5.4790553E-2,5E0,2.7402353E-3,1.3143882E-2,1.7378476E-2,1.9961447E-3,-6.8576876E-3,3.426057E-3,-6.71734E-3,-1.3540428E-2,-5.1500243E-3,5.0663305E-3,-7.882477E-3,-2.5627626E-2,-1.700933E-2,-9.802324E-3,2.01813E-2,8.064637E-3,-7.5321137E-3,1.7379303E-2,2.1520106E-2,7.4977276E-4],"split_indices":[5,5,5,0,7,1,5,1,16,28,0,7,16,5,0,0,0,28,0,1,1,0,0,22,5,16,5,1,0,0,1,0,0,0,0,0,0,0,0,0,0,0,0,0,0,0,0,0,0,0,0],"split_type":[0,0,0,0,0,0,0,0,0,0,0,0,0,0,0,0,0,0,0,0,0,0,0,0,0,0,0,0,0,0,0,0,0,0,0,0,0,0,0,0,0,0,0,0,0,0,0,0,0,0,0],"sum_hessian":[4.48E2,7.6E1,3.72E2,2.2E1,5.4E1,3.39E2,3.3E1,2E0,2E1,4.7E1,7E0,2.45E2,9.4E1,2.1E1,1.2E1,1E0,1E0,3E0,1.7E1,4E1,7E0,5E0,2E0,1.18E2,1.27E2,3.4E1,6E1,1.7E1,4E0,6E0,6E0,1E0,2E0,3.2E1,8E0,4E0,3E0,6.3E1,5.5E1,6.3E1,6.4E1,4E0,3E1,3.5E1,2.5E1,1.3E1,4E0,3E0,1E0,3E0,3E0],"tree_param":{"num_deleted":"0","num_feature":"31","num_nodes":"51","size_leaf_vector":"1"}},{"base_weights":[-3.4000967E-2,3.0076787E0,-4.0011472E-1,4.154622E0,1.9192572E0,-6.6658616E-1,2.2826154E0,2.2310543E0,5.0317883E-2,2.0869372E0,4.3336344E-1,6.488045E-1,-9.074335E-1,1.3423829E0,4.1295676E0,2.628636E-2,5.5967835E-3,2.241725E0,2.561809E-1,6.0287952E-2,7.7629494E-3,-8.767014E-3,1.0508972E0,-1.4001462E0,-5.029512E-1,2.198063E0,1.1352046E0,5.210248E-2,6.656449E-1,2.3623474E-2,-1.456728E-3,7.0266533E-3,-3.1839395E-3,1.17270945E-4,7.870483E-4,3.7668617E-3,-1.1636654E-2,1.7906113E-2,6.9752214E-3,-1.6017286E-2,-9.034765E-3,-9.898097E-3,3.046635E-4,6.658733E-3,2.4868349E-2,4.6822308E-3,1.4597131E-2,-6.0147666E-3,1.2885109E-2],"categories":[],"categories_nodes":[],"categories_segments":[],"categories_sizes":[],"default_left":[0,0,0,0,1,0,0,0,0,0,0,0,0,0,0,0,0,0,0,0,0,1,0,0,0,0,0,0,0,0,0,0,0,0,0,0,0,0,0,0,0,0,0,0,0,0,0,0,0],"id":22,"left_children":[1,3,5,7,9,11,13,15,-1,17,19,21,23,25,27,-1,-1,29,31,33,-1,35,37,39,41,43,45,-1,47,-1,-1,-1,-1,-1,-1,-1,-1,-1,-1,-1,-1,-1,-1,-1,-1,-1,-1,-1,-1],"loss_changes":[5.0789178E2,5.31958E1,2.92474E2,2.758139E1,5.8227615E0,1.18124664E2,5.8709427E1,4.509388E0,0E0,6.2268066E0,4.6495616E-1,1.53446865E1,6.1873962E1,2.113987E0,4.145256E1,0E0,0E0,6.67955E0,9.9334055E-1,1.7600404E-3,0E0,1.0677E1,8.161285E0,1.2669769E1,4.521777E1,1.1389732E-1,4.294676E0,0E0,3.9319975E0,0E0,0E0,0E0,0E0,0E0,0E0,0E0,0E0,0E0,0E0,0E0,0E0,0E0,0E0,0E0,0E0,0E0,0E0,0E0,0E0],"parents":[2147483647,0,0,1,1,2,2,3,3,4,4,5,5,6,6,7,7,9,9,10,10,11,11,12,12,13,13,14,14,17,17,18,18,19,19,21,21,22,22,23,23,24,24,25,25,26,26,28,28],"right_children":[2,4,6,8,10,12,14,16,-1,18,20,22,24,26,28,-1,-1,30,32,34,-1,36,38,40,42,44,46,-1,48,-1,-1,-1,-1,-1,-1,-1,-1,-1,-1,-1,-1,-1,-1,-1,-1,-1,-1,-1,-1],"split_conditions":[6E0,1.8E1,3.13E2,3.60925E2,3.98E1,8E1,3.49E2,3E-1,5.0317883E-2,3.1E1,2.8E1,1.2E1,1.26E1,5E0,2.6E1,2.628636E-2,5.5967835E-3,3.6E1,2.024E3,2E0,7.7629494E-3,1.61E1,1.6E1,2.2E1,1.87E2,3E0,1.4E1,5.210248E-2,2.023E3,2.3623474E-2,-1.456728E-3,7.0266533E-3,-3.1839395E-3,1.17270945E-4,7.870483E-4,3.7668617E-3,-1.1636654E-2,1.7906113E-2,6.9752214E-3,-1.6017286E-2,-9.034765E-3,-9.898097E-3,3.046635E-4,6.658733E-3,2.4868349E-2,4.6822308E-3,1.4597131E-2,-6.0147666E-3,1.2885109E-2],"split_indices":[6,5,5,25,13,5,5,10,0,0,0,0,28,0,0,0,0,5,4,0,0,28,0,0,5,0,0,0,4,0,0,0,0,0,0,0,0,0,0,0,0,0,0,0,0,0,0,0,0],"split_type":[0,0,0,0,0,0,0,0,0,0,0,0,0,0,0,0,0,0,0,0,0,0,0,0,0,0,0,0,0,0,0,0,0,0,0,0,0,0,0,0,0,0,0,0,0,0,0,0,0],"sum_hessian":[4.54E2,4.8E1,4.06E2,2.2E1,2.6E1,3.7E2,3.6E1,8E0,1.4E1,2.3E1,3E0,5.7E1,3.13E2,2.5E1,1.1E1,6E0,2E0,2.1E1,2E0,2E0,1E0,2.2E1,3.5E1,1.4E2,1.73E2,3E0,2.2E1,8E0,3E0,2E1,1E0,1E0,1E0,1E0,1E0,1.7E1,5E0,1E1,2.5E1,9.8E1,4.2E1,9E1,8.3E1,1E0,2E0,8E0,1.4E1,1E0,2E0],"tree_param":{"num_deleted":"0","num_feature":"31","num_nodes":"49","size_leaf_vector":"1"}},{"base_weights":[5.610705E-2,2.669849E0,-3.7857485E-1,3.1808865E0,1.3098663E0,-6.465531E-1,2.645622E0,4.709176E0,2.540646E0,4.0831402E-1,2.3663955E0,-2.7715638E-1,-1.5674303E0,1.397572E0,3.7380474E0,2.1389527E-2,5.266348E-2,5.4218054E-1,2.8454895E0,1.322583E0,-7.2638535E-1,-1.4449899E-1,3.1044364E0,-9.1464156E-1,1.001543E-1,2.6038224E-1,-1.6797028E0,1.668794E0,9.890175E-2,5.3144556E-2,1.3002812E0,-3.077882E-3,1.044112E-2,-2.527175E-3,2.9571868E-2,2.3560366E-2,-8.407009E-3,-1.0780821E-2,5.1604914E-3,-2.6165724E-3,4.4908762E-4,3.310598E-2,9.337329E-3,6.898596E-4,-1.0259366E-2,-2.9088196E-3,5.550792E-3,-1.3055301E-3,1.3029968E-2,-2.2469975E-2,-1.392266E-2,1.7854078E-2,7.640815E-4,-4.6931314E-3,4.4474443E-3,2.2035904E-2,-1.5392565E-3],"categories":[],"categories_nodes":[],"categories_segments":[],"categories_sizes":[],"default_left":[0,0,0,0,1,0,0,0,0,0,0,0,0,0,0,0,0,0,0,0,0,0,0,0,0,1,0,0,0,0,0,0,0,0,0,0,0,0,0,0,0,0,0,0,0,0,0,0,0,0,0,0,0,0,0,0,0],"id":23,"left_children":[1,3,5,7,9,11,13,15,17,19,21,23,25,27,29,-1,-1,31,33,35,37,39,41,43,45,47,49,51,53,-1,55,-1,-1,-1,-1,-1,-1,-1,-1,-1,-1,-1,-1,-1,-1,-1,-1,-1,-1,-1,-1,-1,-1,-1,-1,-1,-1],"loss_changes":[5.3386334E2,4.239859E1,3.2830936E2,3.500235E1,1.8084095E1,1.25768265E2,3.976805E1,7.3522644E0,2.038913E1,1.3409748E1,1.7126877E1,6.407257E1,2.2189941E1,5.82283E0,5.841928E1,0E0,0E0,2.8811216E0,1.1475281E1,1.7630299E1,3.1781042E0,7.8322746E-2,4.1389465E-2,1.0908592E1,3.0047342E1,3.0232737E0,1.3177734E1,2.4632988E0,9.947762E-1,0E0,1.0847976E1,0E0,0E0,0E0,0E0,0E0,0E0,0E0,0E0,0E0,0E0,0E0,0E0,0E0,0E0,0E0,0E0,0E0,0E0,0E0,0E0,0E0,0E0,0E0,0E0,0E0,0E0],"parents":[2147483647,0,0,1,1,2,2,3,3,4,4,5,5,6,6,7,7,8,8,9,9,10,10,11,11,12,12,13,13,14,14,17,17,18,18,19,19,20,20,21,21,22,22,23,23,24,24,25,25,26,26,27,27,28,28,30,30],"right_children":[2,4,6,8,10,12,14,16,18,20,22,24,26,28,30,-1,-1,32,34,36,38,40,42,44,46,48,50,52,54,-1,56,-1,-1,-1,-1,-1,-1,-1,-1,-1,-1,-1,-1,-1,-1,-1,-1,-1,-1,-1,-1,-1,-1,-1,-1,-1,-1],"split_conditions":[4.6E1,5E0,3.23E2,1.3E1,1.1416E3,5E0,3.47E2,3.88E1,2.82E1,6E0,8E0,6.51E1,3E0,6E0,3.57E2,2.1389527E-2,5.266348E-2,2.3098E3,1.4E1,2E0,2.024E3,6E0,3.6E1,8E1,1.87E2,1.689E3,1.2E1,3.44E2,3.26E2,5.3144556E-2,5E0,-3.077882E-3,1.044112E-2,-2.527175E-3,2.9571868E-2,2.3560366E-2,-8.407009E-3,-1.0780821E-2,5.1604914E-3,-2.6165724E-3,4.4908762E-4,3.310598E-2,9.337329E-3,6.898596E-4,-1.0259366E-2,-2.9088196E-3,5.550792E-3,-1.3055301E-3,1.3029968E-2,-2.2469975E-2,-1.392266E-2,1.7854078E-2,7.640815E-4,-4.6931314E-3,4.4474443E-3,2.2035904E-2,-1.5392565E-3],"split_indices":[5,1,5,5,7,1,5,13,16,1,5,16,3,1,5,0,0,7,5,3,4,1,5,5,5,7,13,5,5,0,1,0,0,0,0,0,0,0,0,0,0,0,0,0,0,0,0,0,0,0,0,0,0,0,0,0,0],"split_type":[0,0,0,0,0,0,0,0,0,0,0,0,0,0,0,0,0,0,0,0,0,0,0,0,0,0,0,0,0,0,0,0,0,0,0,0,0,0,0,0,0,0,0,0,0,0,0,0,0,0,0,0,0,0,0,0,0],"sum_hessian":[4.68E2,6.6E1,4.02E2,4.7E1,1.9E1,3.7E2,3.2E1,1.2E1,3.5E1,1.1E1,8E0,2.65E2,1.05E2,1.6E1,1.6E1,3E0,9E0,5E0,3E1,6E0,5E0,2E0,6E0,9.8E1,1.67E2,6E0,9.9E1,1.3E1,3E0,9E0,7E0,2E0,3E0,1E0,2.9E1,4E0,2E0,4E0,1E0,1E0,1E0,5E0,1E0,1E1,8.8E1,9E1,7.7E1,5E0,1E0,3.1E1,6.8E1,1.2E1,1E0,1E0,2E0,4E0,3E0],"tree_param":{"num_deleted":"0","num_feature":"31","num_nodes":"57","size_leaf_vector":"1"}},{"base_weights":[-9.156425E-2,2.4350893E0,-5.023798E-1,3.4442794E0,1.6425492E0,-7.339766E-1,2.5174053E0,1.360658E0,4.313876E0,2.1059232E0,3.8584986E-1,-3.1266254E-1,-1.7107693E0,1.4244324E0,3.515416E0,1.7547388E0,-1.4377658E-1,8.7259275E-1,4.6477637E0,2.315646E0,2.1624362E-1,1.7712265E0,-8.567372E-1,2.904423E-2,-1.007789E0,-7.36297E-1,-1.9286861E0,2.0282524E0,8.002353E-2,5.4753184E-2,1.116086E0,2.2860631E-2,6.5189847E-3,-2.6034904E-3,4.468417E-4,2.1748384E-2,-8.659494E-3,5.236549E-2,2.9744511E-2,2.5380326E-2,4.580108E-3,7.5762747E-3,-2.1676016E-3,1.9200843E-2,5.1346896E-3,6.1758276E-4,-1.0201128E-2,1.3304754E-2,-1.4678724E-3,-2.1056675E-3,-1.3461134E-2,-1.5472738E-3,-9.3245525E-3,-2.2964265E-2,-1.7054461E-2,1.008759E-2,2.2844676E-2,-6.509969E-3,1.0280428E-2,1.9590339E-2,2.1851063E-3],"categories":[],"categories_nodes":[],"categories_segments":[],"categories_sizes":[],"default_left":[0,0,0,0,0,0,0,0,0,1,0,1,0,0,0,0,0,0,0,1,0,0,0,0,0,0,0,0,0,0,0,0,0,0,0,0,0,0,0,0,0,0,0,0,0,0,0,0,0,0,0,0,0,0,0,0,0,0,0,0,0],"id":24,"left_children":[1,3,5,7,9,11,13,15,17,19,21,23,25,27,29,31,33,35,37,39,41,43,45,47,49,51,53,55,57,-1,59,-1,-1,-1,-1,-1,-1,-1,-1,-1,-1,-1,-1,-1,-1,-1,-1,-1,-1,-1,-1,-1,-1,-1,-1,-1,-1,-1,-1,-1,-1],"loss_changes":[5.0464774E2,4.873056E1,2.9418546E2,4.667572E1,2.2480286E1,1.5955281E2,2.7716507E1,6.180977E0,1.8924408E1,1.0992218E1,2.2174889E1,6.487481E1,2.3425323E1,1.2826187E1,6.442586E1,3.1974487E0,7.754147E-2,8.675328E0,2.158142E0,9.578506E0,1.1019084E0,1.374569E-1,1.113419E0,4.2300488E1,2.3991325E1,2.479557E0,3.8825378E0,5.688286E-1,4.827382E0,0E0,5.6248035E0,0E0,0E0,0E0,0E0,0E0,0E0,0E0,0E0,0E0,0E0,0E0,0E0,0E0,0E0,0E0,0E0,0E0,0E0,0E0,0E0,0E0,0E0,0E0,0E0,0E0,0E0,0E0,0E0,0E0,0E0],"parents":[2147483647,0,0,1,1,2,2,3,3,4,4,5,5,6,6,7,7,8,8,9,9,10,10,11,11,12,12,13,13,14,14,15,15,16,16,17,17,18,18,19,19,20,20,21,21,22,22,23,23,24,24,25,25,26,26,27,27,28,28,30,30],"right_children":[2,4,6,8,10,12,14,16,18,20,22,24,26,28,30,32,34,36,38,40,42,44,46,48,50,52,54,56,58,-1,60,-1,-1,-1,-1,-1,-1,-1,-1,-1,-1,-1,-1,-1,-1,-1,-1,-1,-1,-1,-1,-1,-1,-1,-1,-1,-1,-1,-1,-1,-1],"split_conditions":[4.9E1,1.8E1,3.26E2,3.60925E2,5E0,5E0,3.49E2,5E0,3E0,2.54E1,3E-1,1E-1,9.2E1,3.44E2,3.57E2,3E-1,6E0,1E0,1.3E1,7.47E1,1E0,3.6E1,2.47E3,8E1,1.25E2,5.9E1,1.18E1,3.29E2,3E0,5.4753184E-2,5E0,2.2860631E-2,6.5189847E-3,-2.6034904E-3,4.468417E-4,2.1748384E-2,-8.659494E-3,5.236549E-2,2.9744511E-2,2.5380326E-2,4.580108E-3,7.5762747E-3,-2.1676016E-3,1.9200843E-2,5.1346896E-3,6.1758276E-4,-1.0201128E-2,1.3304754E-2,-1.4678724E-3,-2.1056675E-3,-1.3461134E-2,-1.5472738E-3,-9.3245525E-3,-2.2964265E-2,-1.7054461E-2,1.008759E-2,2.2844676E-2,-6.509969E-3,1.0280428E-2,1.9590339E-2,2.1851063E-3],"split_indices":[5,5,5,25,1,1,5,1,5,28,10,10,5,5,5,10,1,1,5,16,1,5,7,5,5,5,13,5,1,0,1,0,0,0,0,0,0,0,0,0,0,0,0,0,0,0,0,0,0,0,0,0,0,0,0,0,0,0,0,0,0],"split_type":[0,0,0,0,0,0,0,0,0,0,0,0,0,0,0,0,0,0,0,0,0,0,0,0,0,0,0,0,0,0,0,0,0,0,0,0,0,0,0,0,0,0,0,0,0,0,0,0,0,0,0,0,0,0,0,0,0,0,0,0,0],"sum_hessian":[4.84E2,6.7E1,4.17E2,2.8E1,3.9E1,3.88E2,2.9E1,9E0,1.9E1,2.8E1,1.1E1,2.72E2,1.16E2,1.5E1,1.4E1,7E0,2E0,2E0,1.7E1,2.5E1,3E0,5E0,6E0,1.83E2,8.9E1,2.2E1,9.4E1,1E1,5E0,7E0,7E0,4E0,3E0,1E0,1E0,1E0,1E0,1.1E1,6E0,2.2E1,3E0,1E0,2E0,4E0,1E0,1E0,5E0,2.1E1,1.62E2,2.7E1,6.2E1,6E0,1.6E1,3.2E1,6.2E1,3E0,7E0,3E0,2E0,3E0,4E0],"tree_param":{"num_deleted":"0","num_feature":"31","num_nodes":"61","size_leaf_vector":"1"}},{"base_weights":[-5.802828E-2,2.0526118E0,-5.078652E-1,3.960635E0,1.3116902E0,-7.203167E-1,1.7628073E0,1.1129315E0,4.501576E0,-5.69392E-1,1.3838828E0,-1.3316725E0,-4.6773818E-1,2.256431E0,3.5246697E-1,1.520688E-2,-2.5904726E-3,5.04345E0,1.9756403E0,-8.616197E-3,7.531643E-5,2.001669E0,9.7354156E-1,-6.17746E-1,-1.622402E0,7.713282E-1,-5.92823E-1,1.2918806E0,5.095527E-2,-5.987923E-3,5.246949E-1,1.4579067E-2,5.1954236E-2,-2.6632617E-3,2.6027136E-2,1.3735521E-2,2.8261228E-2,3.609572E-3,1.35735925E-2,1.4223079E-2,-8.011598E-3,-1.9392844E-2,-1.2138961E-2,2.129486E-2,4.7590155E-3,-1.0551173E-2,-3.0695305E-3,1.6822092E-2,1.0074563E-3,-1.3355946E-3,6.236716E-3],"categories":[],"categories_nodes":[],"categories_segments":[],"categories_sizes":[],"default_left":[0,0,0,0,0,0,0,0,0,0,0,0,0,0,0,0,0,0,0,0,0,0,0,0,0,0,0,0,0,0,0,0,0,0,0,0,0,0,0,0,0,0,0,0,0,0,0,0,0,0,0],"id":25,"left_children":[1,3,5,7,9,11,13,15,17,19,21,23,25,27,29,-1,-1,31,33,-1,-1,35,37,39,41,43,45,47,-1,-1,49,-1,-1,-1,-1,-1,-1,-1,-1,-1,-1,-1,-1,-1,-1,-1,-1,-1,-1,-1,-1],"loss_changes":[4.5392715E2,1.1355536E2,1.9133844E2,3.0420166E1,9.207581E0,5.5121063E1,2.2874725E1,3.1910958E0,1.6041962E1,5.1226866E-1,1.3261482E1,2.0791504E1,4.0289295E1,6.1878464E1,1.9525175E0,0E0,0E0,5.991821E-1,7.722555E0,0E0,0E0,8.028801E0,8.444641E0,1.311307E1,7.2250824E0,8.6162405E0,3.060064E1,9.129208E0,0E0,0E0,6.6966414E-1,0E0,0E0,0E0,0E0,0E0,0E0,0E0,0E0,0E0,0E0,0E0,0E0,0E0,0E0,0E0,0E0,0E0,0E0,0E0,0E0],"parents":[2147483647,0,0,1,1,2,2,3,3,4,4,5,5,6,6,7,7,8,8,9,9,10,10,11,11,12,12,13,13,14,14,17,17,18,18,21,21,22,22,23,23,24,24,25,25,26,26,27,27,30,30],"right_children":[2,4,6,8,10,12,14,16,18,20,22,24,26,28,30,-1,-1,32,34,-1,-1,36,38,40,42,44,46,48,-1,-1,50,-1,-1,-1,-1,-1,-1,-1,-1,-1,-1,-1,-1,-1,-1,-1,-1,-1,-1,-1,-1],"split_conditions":[3E0,3E0,4.6E1,2.5502E3,2E0,7E0,2.3E1,4E0,1.3E1,2E0,1.7E1,1.9E1,1.2E1,5.1E1,2.023E3,1.520688E-2,-2.5904726E-3,2.8972E3,1.4E1,-8.616197E-3,7.531643E-5,1.3E1,2.47E3,2.18E1,1.7E1,3E0,2.6E1,1.7E1,5.095527E-2,-5.987923E-3,7.677E2,1.4579067E-2,5.1954236E-2,-2.6632617E-3,2.6027136E-2,1.3735521E-2,2.8261228E-2,3.609572E-3,1.35735925E-2,1.4223079E-2,-8.011598E-3,-1.9392844E-2,-1.2138961E-2,2.129486E-2,4.7590155E-3,-1.0551173E-2,-3.0695305E-3,1.6822092E-2,1.0074563E-3,-1.3355946E-3,6.236716E-3],"split_indices":[3,6,6,7,0,19,0,0,0,3,0,6,6,6,4,0,0,7,0,0,0,0,7,22,0,0,6,0,0,0,7,0,0,0,0,0,0,0,0,0,0,0,0,0,0,0,0,0,0,0,0],"split_type":[0,0,0,0,0,0,0,0,0,0,0,0,0,0,0,0,0,0,0,0,0,0,0,0,0,0,0,0,0,0,0,0,0,0,0,0,0,0,0,0,0,0,0,0,0,0,0,0,0,0,0],"sum_hessian":[4.76E2,8.3E1,3.93E2,2.2E1,6.1E1,3.6E2,3.3E1,4E0,1.8E1,2E0,5.9E1,1.04E2,2.56E2,2.4E1,9E0,3E0,1E0,1.4E1,4E0,1E0,1E0,2.2E1,3.7E1,3.1E1,7.3E1,2.3E1,2.33E2,1.9E1,5E0,1E0,8E0,1E0,1.3E1,1E0,3E0,1.4E1,8E0,1.5E1,2.2E1,2E0,2.9E1,3.9E1,3.4E1,3E0,2E1,8.8E1,1.45E2,1.4E1,5E0,1E0,7E0],"tree_param":{"num_deleted":"0","num_feature":"31","num_nodes":"51","size_leaf_vector":"1"}},{"base_weights":[3.0915322E-2,2.1656408E0,-4.447474E-1,4.3308167E0,1.5470126E0,-6.80155E-1,1.9960209E0,2.3693752E-1,4.798512E0,1.3487076E0,3.1390848E0,-1.335296E0,-2.1867062E-1,1.4285077E0,2.8465426E0,-8.573117E-3,1.212718E-2,5.147216E-2,1.4554868E0,2.7023263E0,1.1070776E0,4.0201697E-2,6.24248E-1,4.6637297E-2,-1.4244677E0,-6.9304913E-1,4.1277337E-1,1.6120578E0,4.4531593E-1,4.8766628E-2,1.4024155E0,2.4409821E-2,-2.5775193E-3,3.7555423E-2,4.469205E-3,8.460319E-3,2.8135363E-2,-3.5077095E-4,9.714491E-3,5.8624777E-3,-9.093404E-3,-1.1409466E-2,-1.7340543E-2,-8.5630675E-4,-1.242184E-2,6.923112E-3,-2.5089574E-3,1.712163E-2,-9.491801E-4,-2.8426445E-3,1.6818186E-2,-5.9579825E-3,1.7266668E-2],"categories":[],"categories_nodes":[],"categories_segments":[],"categories_sizes":[],"default_left":[0,0,0,0,0,0,0,0,1,0,0,0,0,0,0,0,0,0,0,1,1,0,0,0,0,0,0,0,0,0,0,0,0,0,0,0,0,0,0,0,0,0,0,0,0,0,0,0,0,0,0,0,0],"id":26,"left_children":[1,3,5,7,9,11,13,15,17,19,21,23,25,27,29,-1,-1,-1,31,33,35,-1,37,39,41,43,45,47,49,-1,51,-1,-1,-1,-1,-1,-1,-1,-1,-1,-1,-1,-1,-1,-1,-1,-1,-1,-1,-1,-1,-1,-1],"loss_changes":[4.9039047E2,1.1117084E2,2.283149E2,3.5242157E1,1.786641E1,1.0885181E2,1.2827576E1,4.242919E0,1.2325623E1,1.7941101E1,1.3000908E1,1.8427582E1,6.408882E1,3.4328156E0,3.1273659E1,0E0,0E0,0E0,5.6943345E0,1.970044E1,2.2565628E1,0E0,7.208309E-1,5.6916547E0,1.0309937E1,4.0587307E1,1.72416E1,3.4091835E0,4.9887223E0,0E0,6.8600597E0,0E0,0E0,0E0,0E0,0E0,0E0,0E0,0E0,0E0,0E0,0E0,0E0,0E0,0E0,0E0,0E0,0E0,0E0,0E0,0E0,0E0,0E0],"parents":[2147483647,0,0,1,1,2,2,3,3,4,4,5,5,6,6,7,7,8,8,9,9,10,10,11,11,12,12,13,13,14,14,18,18,19,19,20,20,22,22,23,23,24,24,25,25,26,26,27,27,28,28,30,30],"right_children":[2,4,6,8,10,12,14,16,18,20,22,24,26,28,30,-1,-1,-1,32,34,36,-1,38,40,42,44,46,48,50,-1,52,-1,-1,-1,-1,-1,-1,-1,-1,-1,-1,-1,-1,-1,-1,-1,-1,-1,-1,-1,-1,-1,-1],"split_conditions":[6.2E1,1.3E1,3.23E2,2E0,2.8E1,1.26E1,3.49E2,2.024E3,3.68E1,4E0,2.024E3,8.2E1,1.97E2,3.44E2,2.1E1,-8.573117E-3,1.212718E-2,5.147216E-2,5E0,1.4352E3,2.4834E3,4.0201697E-2,2.9E1,5.28E1,5.32E1,1.1E2,2.78E2,2.9E1,1.4E1,4.8766628E-2,2.023E3,2.4409821E-2,-2.5775193E-3,3.7555423E-2,4.469205E-3,8.460319E-3,2.8135363E-2,-3.5077095E-4,9.714491E-3,5.8624777E-3,-9.093404E-3,-1.1409466E-2,-1.7340543E-2,-8.5630675E-4,-1.242184E-2,6.923112E-3,-2.5089574E-3,1.712163E-2,-9.491801E-4,-2.8426445E-3,1.6818186E-2,-5.9579825E-3,1.7266668E-2],"split_indices":[5,5,5,0,0,28,5,4,28,0,4,5,5,5,0,0,0,0,0,7,7,0,0,22,25,5,5,0,0,0,4,0,0,0,0,0,0,0,0,0,0,0,0,0,0,0,0,0,0,0,0,0,0],"split_type":[0,0,0,0,0,0,0,0,0,0,0,0,0,0,0,0,0,0,0,0,0,0,0,0,0,0,0,0,0,0,0,0,0,0,0,0,0,0,0,0,0,0,0,0,0,0,0,0,0,0,0,0,0],"sum_hessian":[4.81E2,8.7E1,3.94E2,1.8E1,6.9E1,3.6E2,3.4E1,2E0,1.6E1,6.3E1,6E0,1.48E2,2.12E2,2.2E1,1.2E1,1E0,1E0,1.4E1,2E0,8E0,5.5E1,4E0,2E0,9E0,1.39E2,1.21E2,9.1E1,1.8E1,4E0,4E0,8E0,1E0,1E0,5E0,3E0,4.9E1,6E0,1E0,1E0,6E0,3E0,7.5E1,6.4E1,5.8E1,6.3E1,6.4E1,2.7E1,1.7E1,1E0,3E0,1E0,1E0,7E0],"tree_param":{"num_deleted":"0","num_feature":"31","num_nodes":"53","size_leaf_vector":"1"}},{"base_weights":[-1.2548994E-1,2.558173E0,-5.405889E-1,3.3712046E0,1.7655518E0,-7.4768865E-1,1.8291987E0,3.5462823E0,-8.530252E-3,6.5014094E-1,2.0837498E0,-3.6192393E-1,-1.7105205E0,1.0351136E0,3.3232675E0,4.321337E0,2.2599583E0,2.7006788E-2,5.623883E-2,2.6849616E0,1.0198282E0,-1.028961E0,7.141657E-2,-2.300272E0,-1.4396973E0,1.4614838E0,-4.1651607E-1,5.0518613E-2,1.0407959E0,5.159542E-2,3.0029835E-2,2.0762559E-3,3.1490367E-2,1.4165241E-2,-3.4044823E-3,3.4056056E-2,9.1628665E-3,2.9795514E-2,-8.7512017E-4,-1.0167684E-3,-1.23030245E-2,-2.8707848E-3,5.2224025E-3,-2.7441515E-3,-2.426182E-2,-1.73604E-2,-8.37592E-3,2.1293692E-2,9.500938E-3,2.2908568E-3,-5.9145354E-3,1.9267136E-2,-4.873595E-3],"categories":[],"categories_nodes":[],"categories_segments":[],"categories_sizes":[],"default_left":[0,0,0,0,0,0,0,1,0,0,0,0,0,0,0,0,0,0,0,1,0,0,0,0,0,0,0,0,0,0,0,0,0,0,0,0,0,0,0,0,0,0,0,0,0,0,0,0,0,0,0,0,0],"id":27,"left_children":[1,3,5,7,9,11,13,15,-1,17,19,21,23,25,27,29,31,-1,33,35,37,39,41,43,45,47,49,-1,51,-1,-1,-1,-1,-1,-1,-1,-1,-1,-1,-1,-1,-1,-1,-1,-1,-1,-1,-1,-1,-1,-1,-1,-1],"loss_changes":[5.238422E2,3.464682E1,2.0111609E2,2.5212097E1,1.0712593E1,1.3866588E2,3.5711823E1,1.9146149E1,0E0,1.0808486E1,1.3892494E1,7.782905E1,1.3778198E1,1.484416E1,3.8142174E1,3.2918396E0,2.3067085E1,0E0,4.799114E0,1.727285E1,2.4131634E1,1.96652E1,2.6655287E1,7.496628E0,1.2106567E1,4.1248016E0,8.1313324E-1,0E0,9.061922E0,0E0,0E0,0E0,0E0,0E0,0E0,0E0,0E0,0E0,0E0,0E0,0E0,0E0,0E0,0E0,0E0,0E0,0E0,0E0,0E0,0E0,0E0,0E0,0E0],"parents":[2147483647,0,0,1,1,2,2,3,3,4,4,5,5,6,6,7,7,9,9,10,10,11,11,12,12,13,13,14,14,15,15,16,16,18,18,19,19,20,20,21,21,22,22,23,23,24,24,25,25,26,26,28,28],"right_children":[2,4,6,8,10,12,14,16,-1,18,20,22,24,26,28,30,32,-1,34,36,38,40,42,44,46,48,50,-1,52,-1,-1,-1,-1,-1,-1,-1,-1,-1,-1,-1,-1,-1,-1,-1,-1,-1,-1,-1,-1,-1,-1,-1,-1],"split_conditions":[4.6E1,2.3E1,3.16E2,5E0,2.8E1,5E0,3.49E2,1.8292E3,-8.530252E-3,1E0,5E0,1.19E1,5.1E0,3.41E2,3.57E2,1.3E1,2.3365E3,2.7006788E-2,1.5822E3,1.749E3,2E0,1.29E2,1.87E2,6.2E0,1.9E2,3.26E2,3.44E2,5.0518613E-2,5E0,5.159542E-2,3.0029835E-2,2.0762559E-3,3.1490367E-2,1.4165241E-2,-3.4044823E-3,3.4056056E-2,9.1628665E-3,2.9795514E-2,-8.7512017E-4,-1.0167684E-3,-1.23030245E-2,-2.8707848E-3,5.2224025E-3,-2.7441515E-3,-2.426182E-2,-1.73604E-2,-8.37592E-3,2.1293692E-2,9.500938E-3,2.2908568E-3,-5.9145354E-3,1.9267136E-2,-4.873595E-3],"split_indices":[5,5,5,6,5,1,5,7,0,1,1,28,28,5,5,5,7,0,7,7,3,5,5,13,5,5,5,0,1,0,0,0,0,0,0,0,0,0,0,0,0,0,0,0,0,0,0,0,0,0,0,0,0],"split_type":[0,0,0,0,0,0,0,0,0,0,0,0,0,0,0,0,0,0,0,0,0,0,0,0,0,0,0,0,0,0,0,0,0,0,0,0,0,0,0,0,0,0,0,0,0,0,0,0,0,0,0,0,0],"sum_hessian":[4.68E2,6.2E1,4.06E2,2.9E1,3.3E1,3.74E2,3.2E1,2.8E1,1E0,8E0,2.5E1,2.68E2,1.06E2,2.2E1,1E1,1.6E1,1.2E1,1E0,7E0,1.5E1,1E1,1.05E2,1.63E2,3.1E1,7.5E1,1.7E1,5E0,5E0,5E0,8E0,8E0,4E0,8E0,1E0,6E0,1E1,5E0,3E0,7E0,1.9E1,8.6E1,9.1E1,7.2E1,2E0,2.9E1,4.9E1,2.6E1,6E0,1.1E1,1E0,4E0,3E0,2E0],"tree_param":{"num_deleted":"0","num_feature":"31","num_nodes":"53","size_leaf_vector":"1"}},{"base_weights":[-3.8840845E-2,2.2970319E0,-5.617873E-1,3.5017707E0,1.7633771E0,-8.4806734E-1,1.7282085E0,8.85264E-1,4.24246E0,1.5612122E0,2.9581096E0,-4.7035658E-1,-1.7876408E0,1.0650924E0,2.9392266E0,1.571402E-2,-2.2189975E-2,-8.487601E-3,4.55509E0,2.987224E0,1.3303462E0,1.5313387E0,4.002046E-2,-1.880873E-2,-9.8735315E-1,-2.2130752E0,-1.5827017E0,1.341784E0,-5.867218E-1,4.869504E-2,1.4871376E0,-2.5750136E-3,1.4208094E-3,5.098122E-2,2.895875E-2,3.8310204E-2,5.851558E-3,2.1381716E-3,1.5702229E-2,1.7040975E-2,4.2015146E-3,-4.367508E-3,4.247482E-3,1.8553372E-3,-1.0868116E-2,-2.2759981E-2,-1.9415688E-3,1.5470807E-2,-1.649514E-2,1.8572858E-2,1.6169312E-3,-5.815299E-4,-9.197166E-3,2.30554E-2,2.0762682E-3],"categories":[],"categories_nodes":[],"categories_segments":[],"categories_sizes":[],"default_left":[0,0,0,0,1,0,0,0,0,0,0,1,0,0,0,0,0,0,0,0,0,0,0,0,0,0,0,0,0,0,0,0,0,0,0,0,0,0,0,0,0,0,0,0,0,0,0,0,0,0,0,0,0,0,0],"id":28,"left_children":[1,3,5,7,9,11,13,15,17,19,21,23,25,27,29,-1,31,-1,33,35,37,39,-1,41,43,45,47,49,51,-1,53,-1,-1,-1,-1,-1,-1,-1,-1,-1,-1,-1,-1,-1,-1,-1,-1,-1,-1,-1,-1,-1,-1,-1,-1],"loss_changes":[5.8762787E2,5.040158E1,2.5910864E2,4.663272E1,1.0598328E1,1.2336963E2,3.220346E1,4.393339E0,3.5699615E1,1.4462143E1,5.787178E0,5.8577057E1,5.2161865E0,1.4498543E1,3.48024E1,0E0,1.9120531E-1,0E0,2.3555908E0,1.1946247E1,1.3055725E1,2.4385834E-1,0E0,2.5211958E1,1.3850105E1,3.3691711E0,1.7398605E1,1.5516502E1,8.265693E-1,0E0,9.992855E0,0E0,0E0,0E0,0E0,0E0,0E0,0E0,0E0,0E0,0E0,0E0,0E0,0E0,0E0,0E0,0E0,0E0,0E0,0E0,0E0,0E0,0E0,0E0,0E0],"parents":[2147483647,0,0,1,1,2,2,3,3,4,4,5,5,6,6,7,7,8,8,9,9,10,10,11,11,12,12,13,13,14,14,16,16,18,18,19,19,20,20,21,21,23,23,24,24,25,25,26,26,27,27,28,28,30,30],"right_children":[2,4,6,8,10,12,14,16,18,20,22,24,26,28,30,-1,32,-1,34,36,38,40,-1,42,44,46,48,50,52,-1,54,-1,-1,-1,-1,-1,-1,-1,-1,-1,-1,-1,-1,-1,-1,-1,-1,-1,-1,-1,-1,-1,-1,-1,-1],"split_conditions":[6.2E1,1.8E1,3.16E2,2.432E2,2.47E3,5E0,3.49E2,6E0,2E0,4E0,1.11E1,3.6E0,8.078E2,3.44E2,2.3E1,1.571402E-2,7E0,-8.487601E-3,1.3E1,2.024E3,9E0,3E1,4.002046E-2,1.87E2,3E0,2.6E2,2.44E1,5E0,1.2E1,4.869504E-2,5E0,-2.5750136E-3,1.4208094E-3,5.098122E-2,2.895875E-2,3.8310204E-2,5.851558E-3,2.1381716E-3,1.5702229E-2,1.7040975E-2,4.2015146E-3,-4.367508E-3,4.247482E-3,1.8553372E-3,-1.0868116E-2,-2.2759981E-2,-1.9415688E-3,1.5470807E-2,-1.649514E-2,1.8572858E-2,1.6169312E-3,-5.815299E-4,-9.197166E-3,2.30554E-2,2.0762682E-3],"split_indices":[5,5,5,22,7,1,5,0,0,0,19,19,7,5,0,0,0,0,0,4,0,0,0,5,0,5,22,1,0,0,1,0,0,0,0,0,0,0,0,0,0,0,0,0,0,0,0,0,0,0,0,0,0,0,0],"split_type":[0,0,0,0,0,0,0,0,0,0,0,0,0,0,0,0,0,0,0,0,0,0,0,0,0,0,0,0,0,0,0,0,0,0,0,0,0,0,0,0,0,0,0,0,0,0,0,0,0,0,0,0,0,0,0],"sum_hessian":[4.79E2,8.7E1,3.92E2,2.5E1,6.2E1,3.49E2,4.3E1,6E0,1.9E1,5.5E1,7E0,2.5E2,9.9E1,2.9E1,1.4E1,3E0,3E0,1E0,1.8E1,6E0,4.9E1,4E0,3E0,1.34E2,1.16E2,2.9E1,7E1,2.5E1,4E0,5E0,9E0,1E0,2E0,1.2E1,6E0,4E0,2E0,9E0,4E1,3E0,1E0,6.9E1,6.5E1,9E0,1.07E2,2.8E1,1E0,1E0,6.9E1,1.7E1,8E0,2E0,2E0,5E0,4E0],"tree_param":{"num_deleted":"0","num_feature":"31","num_nodes":"55","size_leaf_vector":"1"}},{"base_weights":[-2.6593283E-2,2.2871304E0,-5.367308E-1,3.306008E0,1.4116435E0,-7.687062E-1,2.1744907E0,3.8672466E0,2.2575247E0,1.9216899E0,-1.0938036E-1,-2.3924641E-1,-1.459543E0,2.8165793E0,9.2313504E-1,5.169703E-2,2.7411258E0,6.847119E-2,2.757424E0,2.303314E0,1.163108E-2,-7.0973504E-1,1.4188513E-2,-9.21364E-1,1.3694781E-1,-1.9361836E0,-1.1331087E0,1.9253081E0,3.691988E0,1.6154221E0,1.9786964E-1,1.2258929E-2,3.0177763E-2,-1.8933598E-3,4.2094635E-3,-5.0206185E-5,2.988046E-2,9.8291235E-3,3.0160248E-2,-6.5875803E-3,6.791124E-3,-1.1631349E-2,-2.3708056E-4,-5.6417803E-3,-1.6271112E-2,-3.0976068E-3,5.9511797E-3,-2.5741244E-3,-1.9878523E-2,-1.2393655E-2,1.0273874E-2,2.265211E-2,-9.068127E-3,3.8979374E-2,1.0221965E-2,6.7735976E-3,3.152867E-2,-3.956159E-3,7.418878E-3],"categories":[],"categories_nodes":[],"categories_segments":[],"categories_sizes":[],"default_left":[0,0,0,1,0,0,0,0,0,1,1,0,0,0,0,0,0,0,0,0,0,0,0,0,0,0,0,0,0,0,0,0,0,0,0,0,0,0,0,0,0,0,0,0,0,0,0,0,0,0,0,0,0,0,0,0,0,0,0],"id":29,"left_children":[1,3,5,7,9,11,13,15,17,19,21,23,25,27,29,-1,31,33,35,37,39,41,-1,43,45,47,49,51,53,55,57,-1,-1,-1,-1,-1,-1,-1,-1,-1,-1,-1,-1,-1,-1,-1,-1,-1,-1,-1,-1,-1,-1,-1,-1,-1,-1,-1,-1],"loss_changes":[5.6187823E2,7.2046295E1,2.469568E2,1.4219116E1,3.7448242E1,1.3132816E2,2.230783E1,2.1030518E1,1.7320091E1,2.6214493E1,1.2934262E1,5.2730965E1,2.207843E1,8.496323E0,5.7054596E0,0E0,2.5883865E0,4.4318277E-1,8.29705E0,2.526744E1,3.5796766E0,3.0828695E0,0E0,1.7484085E1,2.7405256E1,4.8661804E0,2.3082214E1,1.3605881E1,9.6411896E-1,6.5176897E0,2.5535712E0,0E0,0E0,0E0,0E0,0E0,0E0,0E0,0E0,0E0,0E0,0E0,0E0,0E0,0E0,0E0,0E0,0E0,0E0,0E0,0E0,0E0,0E0,0E0,0E0,0E0,0E0,0E0,0E0],"parents":[2147483647,0,0,1,1,2,2,3,3,4,4,5,5,6,6,7,7,8,8,9,9,10,10,11,11,12,12,13,13,14,14,16,16,17,17,18,18,19,19,20,20,21,21,23,23,24,24,25,25,26,26,27,27,28,28,29,29,30,30],"right_children":[2,4,6,8,10,12,14,16,18,20,22,24,26,28,30,-1,32,34,36,38,40,42,-1,44,46,48,50,52,54,56,58,-1,-1,-1,-1,-1,-1,-1,-1,-1,-1,-1,-1,-1,-1,-1,-1,-1,-1,-1,-1,-1,-1,-1,-1,-1,-1,-1,-1],"split_conditions":[6.2E1,5E0,3.23E2,2.1496E3,5E0,4E0,5E0,1.3E1,2.3098E3,2.16E1,9.64E1,1.2083E3,1.26E1,3.47E2,1.7E1,5.169703E-2,1.5E1,1.9E1,3.48E1,2E-1,2.4032E3,1.8E1,1.4188513E-2,4.51E1,1.87E2,6.2E0,3E1,3.44E2,2.8E1,1.1E1,6E0,1.2258929E-2,3.0177763E-2,-1.8933598E-3,4.2094635E-3,-5.0206185E-5,2.988046E-2,9.8291235E-3,3.0160248E-2,-6.5875803E-3,6.791124E-3,-1.1631349E-2,-2.3708056E-4,-5.6417803E-3,-1.6271112E-2,-3.0976068E-3,5.9511797E-3,-2.5741244E-3,-1.9878523E-2,-1.2393655E-2,1.0273874E-2,2.265211E-2,-9.068127E-3,3.8979374E-2,1.0221965E-2,6.7735976E-3,3.152867E-2,-3.956159E-3,7.418878E-3],"split_indices":[5,6,5,7,1,1,1,0,7,28,22,7,28,5,0,0,0,0,13,10,7,0,0,22,5,13,0,5,0,0,1,0,0,0,0,0,0,0,0,0,0,0,0,0,0,0,0,0,0,0,0,0,0,0,0,0,0,0,0],"split_type":[0,0,0,0,0,0,0,0,0,0,0,0,0,0,0,0,0,0,0,0,0,0,0,0,0,0,0,0,0,0,0,0,0,0,0,0,0,0,0,0,0,0,0,0,0,0,0,0,0,0,0,0,0,0,0,0,0,0,0],"sum_hessian":[4.74E2,8.5E1,3.89E2,3.8E1,4.7E1,3.59E2,3E1,2.3E1,1.5E1,3.5E1,1.2E1,2.04E2,1.55E2,1.9E1,1.1E1,9E0,1.4E1,3E0,1.2E1,2.9E1,6E0,9E0,3E0,7.2E1,1.32E2,6.1E1,9.4E1,1.1E1,8E0,5E0,6E0,3E0,1.1E1,2E0,1E0,1E0,1.1E1,1.1E1,1.8E1,3E0,3E0,5E0,4E0,4.9E1,2.3E1,6.7E1,6.5E1,2E0,5.9E1,9E1,4E0,1E1,1E0,7E0,1E0,4E0,1E0,3E0,3E0],"tree_param":{"num_deleted":"0","num_feature":"31","num_nodes":"59","size_leaf_vector":"1"}},{"base_weights":[-4.9163353E-2,2.4645386E0,-4.7433728E-1,3.3328352E0,1.965975E0,-7.1960896E-1,1.8553175E0,4.1117406E-1,3.7505257E0,3.8426748E-1,2.1540818E0,-2.8465617E-1,-1.688831E0,1.0535845E0,2.8918514E0,1.1073657E-2,-8.387005E-3,4.7885984E-2,2.4658666E0,-5.3322982E-2,1.2861099E-2,3.3458874E0,1.700142E0,-8.73432E-1,-2.095447E-2,-3.1285086E-1,-1.8681667E0,3.427454E-2,6.6428953E-1,4.98084E-2,1.140374E0,-1.7350848E-3,3.0716728E-2,4.146552E-3,-2.7398132E-3,3.5589397E-2,7.1420786E-3,2.4263965E-2,7.637107E-3,-1.1084876E-2,-9.7552245E-4,-4.632698E-3,4.7555733E-3,-6.1662453E-3,1.0065274E-2,-2.250731E-2,-1.639315E-2,1.4396586E-2,3.3200805E-3,2.1301042E-2,1.2553628E-3],"categories":[],"categories_nodes":[],"categories_segments":[],"categories_sizes":[],"default_left":[0,0,0,0,0,0,0,0,1,0,0,0,0,0,0,0,0,0,0,0,0,0,0,0,0,1,0,0,0,0,0,0,0,0,0,0,0,0,0,0,0,0,0,0,0,0,0,0,0,0,0],"id":30,"left_children":[1,3,5,7,9,11,13,15,17,19,21,23,25,27,29,-1,-1,-1,31,33,-1,35,37,39,41,43,45,-1,47,-1,49,-1,-1,-1,-1,-1,-1,-1,-1,-1,-1,-1,-1,-1,-1,-1,-1,-1,-1,-1,-1],"loss_changes":[4.949364E2,2.2452087E1,2.2760886E2,2.6525955E1,1.2561111E1,1.5086145E2,2.853209E1,4.409358E0,1.4863312E1,2.4364052E0,1.5951843E1,3.864173E1,2.6806152E1,1.8978298E1,5.286104E1,0E0,0E0,0E0,1.8121422E1,6.2992424E-1,0E0,3.065033E0,1.9229645E1,1.3934727E1,3.8213665E1,6.2317424E0,4.8902893E0,0E0,4.932478E0,0E0,9.776753E0,0E0,0E0,0E0,0E0,0E0,0E0,0E0,0E0,0E0,0E0,0E0,0E0,0E0,0E0,0E0,0E0,0E0,0E0,0E0,0E0],"parents":[2147483647,0,0,1,1,2,2,3,3,4,4,5,5,6,6,7,7,8,8,9,9,10,10,11,11,12,12,13,13,14,14,18,18,19,19,21,21,22,22,23,23,24,24,25,25,26,26,28,28,30,30],"right_children":[2,4,6,8,10,12,14,16,18,20,22,24,26,28,30,-1,-1,-1,32,34,-1,36,38,40,42,44,46,-1,48,-1,50,-1,-1,-1,-1,-1,-1,-1,-1,-1,-1,-1,-1,-1,-1,-1,-1,-1,-1,-1,-1],"split_conditions":[4.9E1,1.8E1,3.13E2,3E0,2.82E1,5E0,3.49E2,2E0,2.1496E3,4E0,6.04E1,5.54E1,7.9E1,1E0,3.57E2,1.1073657E-2,-8.387005E-3,4.7885984E-2,2.5902E3,2E0,1.2861099E-2,2.9423625E3,3.6E1,1.3552E3,1.74E2,6.4E0,5.22E1,3.427454E-2,3.21E2,4.98084E-2,5E0,-1.7350848E-3,3.0716728E-2,4.146552E-3,-2.7398132E-3,3.5589397E-2,7.1420786E-3,2.4263965E-2,7.637107E-3,-1.1084876E-2,-9.7552245E-4,-4.632698E-3,4.7555733E-3,-6.1662453E-3,1.0065274E-2,-2.250731E-2,-1.639315E-2,1.4396586E-2,3.3200805E-3,2.1301042E-2,1.2553628E-3],"split_indices":[5,5,5,5,16,1,5,1,7,1,16,16,5,1,5,0,0,0,7,1,0,7,5,7,5,19,16,0,5,0,1,0,0,0,0,0,0,0,0,0,0,0,0,0,0,0,0,0,0,0,0],"split_type":[0,0,0,0,0,0,0,0,0,0,0,0,0,0,0,0,0,0,0,0,0,0,0,0,0,0,0,0,0,0,0,0,0,0,0,0,0,0,0,0,0,0,0,0,0,0,0,0,0,0,0],"sum_hessian":[4.61E2,6.6E1,3.95E2,2.2E1,4.4E1,3.58E2,3.7E1,3E0,1.9E1,5E0,3.9E1,2.48E2,1.1E2,2.2E1,1.5E1,2E0,1E0,9E0,1E1,4E0,1E0,9E0,3E1,7.6E1,1.72E2,1.3E1,9.7E1,2E0,2E1,6E0,9E0,2E0,8E0,1E0,3E0,8E0,1E0,1.6E1,1.4E1,5.8E1,1.8E1,9.1E1,8.1E1,1.1E1,2E0,3.3E1,6.4E1,5E0,1.5E1,4E0,5E0],"tree_param":{"num_deleted":"0","num_feature":"31","num_nodes":"51","size_leaf_vector":"1"}},{"base_weights":[8.767175E-2,2.133807E0,-3.6843005E-1,3.8912086E0,1.5423032E0,-7.1023846E-1,2.1734197E0,4.14961E0,-6.384103E-3,2.468415E0,1.0859847E0,-3.740555E-1,-1.4622872E0,1.5472348E0,3.2508142E0,1.8932387E0,4.5953755E0,-1.1839712E-1,2.9061282E0,1.7158786E0,7.858484E-1,-9.85463E-1,-1.4217372E-1,-1.9708346E0,-9.454954E-1,1.7517067E0,1.3363934E-1,5.0792422E-2,1.2643429E0,2.3686122E-2,-4.1279793E-5,4.7417436E-2,1.1999285E-2,6.8595386E-3,-6.151654E-3,3.7290756E-2,1.0801996E-2,4.1025304E-3,2.643816E-2,1.719292E-2,3.0525138E-3,-1.2868394E-3,-1.2626014E-2,-4.8062555E-3,3.5082223E-3,-1.1994241E-2,-2.197217E-2,-1.3583505E-2,-2.8323568E-3,2.8959595E-2,1.4267949E-2,-6.628587E-3,1.6598158E-2,2.2922408E-2,-1.6423607E-4],"categories":[],"categories_nodes":[],"categories_segments":[],"categories_sizes":[],"default_left":[0,0,0,0,0,0,0,0,0,0,0,0,0,0,0,0,1,0,0,0,0,0,0,0,0,0,0,0,0,0,0,0,0,0,0,0,0,0,0,0,0,0,0,0,0,0,0,0,0,0,0,0,0,0,0],"id":31,"left_children":[1,3,5,7,9,11,13,15,-1,17,19,21,23,25,27,29,31,33,35,37,39,41,43,45,47,49,51,-1,53,-1,-1,-1,-1,-1,-1,-1,-1,-1,-1,-1,-1,-1,-1,-1,-1,-1,-1,-1,-1,-1,-1,-1,-1,-1,-1],"loss_changes":[4.40345E2,8.339639E1,3.369103E2,2.722879E1,2.521106E1,8.566669E1,2.6004013E1,1.1416107E1,0E0,2.4121994E1,7.348072E0,3.3460392E1,2.5731964E1,8.726166E0,5.169203E1,4.5195694E0,2.262024E0,2.0202792E0,2.301944E1,1.5876911E1,1.4279322E1,1.527153E1,2.90346E1,6.4455566E0,1.4379799E1,5.906151E0,7.1782064E0,0E0,1.1886122E1,0E0,0E0,0E0,0E0,0E0,0E0,0E0,0E0,0E0,0E0,0E0,0E0,0E0,0E0,0E0,0E0,0E0,0E0,0E0,0E0,0E0,0E0,0E0,0E0,0E0,0E0],"parents":[2147483647,0,0,1,1,2,2,3,3,4,4,5,5,6,6,7,7,9,9,10,10,11,11,12,12,13,13,14,14,15,15,16,16,17,17,18,18,19,19,20,20,21,21,22,22,23,23,24,24,25,25,26,26,28,28],"right_children":[2,4,6,8,10,12,14,16,-1,18,20,22,24,26,28,30,32,34,36,38,40,42,44,46,48,50,52,-1,54,-1,-1,-1,-1,-1,-1,-1,-1,-1,-1,-1,-1,-1,-1,-1,-1,-1,-1,-1,-1,-1,-1,-1,-1,-1,-1],"split_conditions":[6.2E1,3E0,3.13E2,1.4E1,2E0,5E0,3.49E2,3.72E1,-6.384103E-3,8E0,5E0,5.54E1,2.04E1,3.44E2,2.3E1,2E0,6.26E1,2.88E1,4.6E1,3.27E1,2.54E1,2.53E1,1.9E2,1.4E2,1.97E2,