{"learner":{"attributes":{"scikit_learn":"{\"_estimator_type\": \"regressor\"}"},"feature_names":["daily","weekly","quarterly","monthly","yearly","day of year","week of year","one_year_lag_co","two_year_lag_co","three_year_lag_co","one_year_lag_no","two_year_lag_no","three_year_lag_no","one_year_lag_no2","two_year_lag_no2","three_year_lag_no2","one_year_lag_o3","two_year_lag_o3","three_year_lag_o3","one_year_lag_so2","two_year_lag_so2","three_year_lag_so2","one_year_lag_pm2_5","two_year_lag_pm2_5","three_year_lag_pm2_5","one_year_lag_pm10","two_year_lag_pm10","three_year_lag_pm10","one_year_lag_nh3","two_year_lag_nh3","three_year_lag_nh3"],"feature_types":["int","int","int","int","int","int","int","float","float","float","float","float","float","float","float","float","float","float","float","float","float","float","float","float","float","float","float","float","float","float","float"],"gradient_booster":{"model":{"gbtree_model_param":{"num_parallel_tree":"1","num_trees":"500"},"iteration_indptr":[0,1,2,3,4,5,6,7,8,9,10,11,12,13,14,15,16,17,18,19,20,21,22,23,24,25,26,27,28,29,30,31,32,33,34,35,36,37,38,39,40,41,42,43,44,45,46,47,48,49,50,51,52,53,54,55,56,57,58,59,60,61,62,63,64,65,66,67,68,69,70,71,72,73,74,75,76,77,78,79,80,81,82,83,84,85,86,87,88,89,90,91,92,93,94,95,96,97,98,99,100,101,102,103,104,105,106,107,108,109,110,111,112,113,114,115,116,117,118,119,120,121,122,123,124,125,126,127,128,129,130,131,132,133,134,135,136,137,138,139,140,141,142,143,144,145,146,147,148,149,150,151,152,153,154,155,156,157,158,159,160,161,162,163,164,165,166,167,168,169,170,171,172,173,174,175,176,177,178,179,180,181,182,183,184,185,186,187,188,189,190,191,192,193,194,195,196,197,198,199,200,201,202,203,204,205,206,207,208,209,210,211,212,213,214,215,216,217,218,219,220,221,222,223,224,225,226,227,228,229,230,231,232,233,234,235,236,237,238,239,240,241,242,243,244,245,246,247,248,249,250,251,252,253,254,255,256,257,258,259,260,261,262,263,264,265,266,267,268,269,270,271,272,273,274,275,276,277,278,279,280,281,282,283,284,285,286,287,288,289,290,291,292,293,294,295,296,297,298,299,300,301,302,303,304,305,306,307,308,309,310,311,312,313,314,315,316,317,318,319,320,321,322,323,324,325,326,327,328,329,330,331,332,333,334,335,336,337,338,339,340,341,342,343,344,345,346,347,348,349,350,351,352,353,354,355,356,357,358,359,360,361,362,363,364,365,366,367,368,369,370,371,372,373,374,375,376,377,378,379,380,381,382,383,384,385,386,387,388,389,390,391,392,393,394,395,396,397,398,399,400,401,402,403,404,405,406,407,408,409,410,411,412,413,414,415,416,417,418,419,420,421,422,423,424,425,426,427,428,429,430,431,432,433,434,435,436,437,438,439,440,441,442,443,444,445,446,447,448,449,450,451,452,453,454,455,456,457,458,459,460,461,462,463,464,465,466,467,468,469,470,471,472,473,474,475,476,477,478,479,480,481,482,483,484,485,486,487,488,489,490,491,492,493,494,495,496,497,498,499,500],"tree_info":[0,0,0,0,0,0,0,0,0,0,0,0,0,0,0,0,0,0,0,0,0,0,0,0,0,0,0,0,0,0,0,0,0,0,0,0,0,0,0,0,0,0,0,0,0,0,0,0,0,0,0,0,0,0,0,0,0,0,0,0,0,0,0,0,0,0,0,0,0,0,0,0,0,0,0,0,0,0,0,0,0,0,0,0,0,0,0,0,0,0,0,0,0,0,0,0,0,0,0,0,0,0,0,0,0,0,0,0,0,0,0,0,0,0,0,0,0,0,0,0,0,0,0,0,0,0,0,0,0,0,0,0,0,0,0,0,0,0,0,0,0,0,0,0,0,0,0,0,0,0,0,0,0,0,0,0,0,0,0,0,0,0,0,0,0,0,0,0,0,0,0,0,0,0,0,0,0,0,0,0,0,0,0,0,0,0,0,0,0,0,0,0,0,0,0,0,0,0,0,0,0,0,0,0,0,0,0,0,0,0,0,0,0,0,0,0,0,0,0,0,0,0,0,0,0,0,0,0,0,0,0,0,0,0,0,0,0,0,0,0,0,0,0,0,0,0,0,0,0,0,0,0,0,0,0,0,0,0,0,0,0,0,0,0,0,0,0,0,0,0,0,0,0,0,0,0,0,0,0,0,0,0,0,0,0,0,0,0,0,0,0,0,0,0,0,0,0,0,0,0,0,0,0,0,0,0,0,0,0,0,0,0,0,0,0,0,0,0,0,0,0,0,0,0,0,0,0,0,0,0,0,0,0,0,0,0,0,0,0,0,0,0,0,0,0,0,0,0,0,0,0,0,0,0,0,0,0,0,0,0,0,0,0,0,0,0,0,0,0,0,0,0,0,0,0,0,0,0,0,0,0,0,0,0,0,0,0,0,0,0,0,0,0,0,0,0,0,0,0,0,0,0,0,0,0,0,0,0,0,0,0,0,0,0,0,0,0,0,0,0,0,0,0,0,0,0,0,0,0,0,0,0,0,0,0,0,0,0,0,0,0,0,0,0,0,0,0,0,0,0,0,0,0,0,0,0,0,0,0,0,0,0,0,0,0,0,0,0,0,0,0,0,0,0,0,0,0,0,0,0,0,0,0,0,0,0,0,0,0,0,0,0,0,0,0,0,0,0,0,0],"trees":[{"base_weights":[-2.944987E-1,9.639853E0,-1.120234E1,-9.121705E0,1.4504432E1,-8.439276E0,-1.9648052E1,-1.0708948E0,-1.0012231E1,1.7014166E1,8.908594E0,-5.738558E0,-1.2422842E1,-1.389007E1,-2.2287867E1,3.039406E-1,-3.972536E-2,-5.3185296E0,-1.1606165E1,1.1934687E1,2.5809439E1,4.7432404E0,1.6418383E1,-9.22472E0,2.9944115E0,-1.6329552E1,-1.3147919E0,-1.5198125E1,4.827463E-2,-2.615282E-1,-1.5648736E1,1.6274624E-2,-4.3380545E-3,-1.4116059E-1,1.5993458E-3,-4.538634E-2,-1.3062571E-1,1.6881524E-1,7.975917E-2,1.6793843E-1,3.3373994E-1,6.404428E-2,-5.7375617E-2,2.7239704E-1,4.1044783E-2,-9.888715E-2,1.8627462E-1,5.360299E-2,-1.9296715E-1,-9.775402E-2,-1.8740806E-1,-3.6682487E-2,2.0855602E-2,-1.6777569E-1,-7.736058E-2,-3.4633826E-2,-1.725699E-1],"categories":[],"categories_nodes":[],"categories_segments":[],"categories_sizes":[],"default_left":[0,0,1,0,0,0,0,0,0,0,0,0,0,0,0,0,0,0,0,0,1,1,0,1,1,0,0,0,0,0,0,0,0,0,0,0,0,0,0,0,0,0,0,0,0,0,0,0,0,0,0,0,0,0,0,0,0],"id":0,"left_children":[1,3,5,7,9,11,13,15,17,19,21,23,25,27,29,31,-1,33,35,37,39,41,43,45,47,49,51,53,-1,-1,55,-1,-1,-1,-1,-1,-1,-1,-1,-1,-1,-1,-1,-1,-1,-1,-1,-1,-1,-1,-1,-1,-1,-1,-1,-1,-1],"loss_changes":[4.865431E4,2.1580072E4,4.8280996E3,3.405813E2,2.474664E3,1.6823447E3,4.8081836E2,2.5143091E1,2.6745605E2,5.410426E3,1.798979E3,3.041633E3,2.7992646E3,5.385559E2,4.631797E2,5.588117E0,0E0,6.28818E2,2.700957E2,1.4907764E3,2.5766738E3,7.3316907E2,2.6865024E3,1.4972549E3,1.6328469E3,5.753799E2,1.5169684E2,8.235449E1,0E0,0E0,2.3418994E2,0E0,0E0,0E0,0E0,0E0,0E0,0E0,0E0,0E0,0E0,0E0,0E0,0E0,0E0,0E0,0E0,0E0,0E0,0E0,0E0,0E0,0E0,0E0,0E0,0E0,0E0],"parents":[2147483647,0,0,1,1,2,2,3,3,4,4,5,5,6,6,7,7,8,8,9,9,10,10,11,11,12,12,13,13,14,14,15,15,17,17,18,18,19,19,20,20,21,21,22,22,23,23,24,24,25,25,26,26,27,27,30,30],"right_children":[2,4,6,8,10,12,14,16,18,20,22,24,26,28,30,32,-1,34,36,38,40,42,44,46,48,50,52,54,-1,-1,56,-1,-1,-1,-1,-1,-1,-1,-1,-1,-1,-1,-1,-1,-1,-1,-1,-1,-1,-1,-1,-1,-1,-1,-1,-1,-1],"split_conditions":[1.75E2,3.4E1,1E-1,2.69E1,1.28E2,2.72E2,9E0,1.8024E3,9E0,9.5E1,1.6E2,2.4E2,3.41E2,2.44E2,2.83E2,1.4553E3,-3.972536E-2,5.884725E3,2.8439E3,3E0,3E0,5.8E0,1.67E2,8.678E2,1.0614E3,2.88E2,3.54E2,7.6E0,4.827463E-2,-2.615282E-1,4.5E0,1.6274624E-2,-4.3380545E-3,-1.4116059E-1,1.5993458E-3,-4.538634E-2,-1.3062571E-1,1.6881524E-1,7.975917E-2,1.6793843E-1,3.3373994E-1,6.404428E-2,-5.7375617E-2,2.7239704E-1,4.1044783E-2,-9.888715E-2,1.8627462E-1,5.360299E-2,-1.9296715E-1,-9.775402E-2,-1.8740806E-1,-3.6682487E-2,2.0855602E-2,-1.6777569E-1,-7.736058E-2,-3.4633826E-2,-1.725699E-1],"split_indices":[5,5,10,13,5,5,3,7,5,5,5,5,5,5,5,7,0,7,7,3,19,19,5,7,7,5,5,19,0,0,19,0,0,0,0,0,0,0,0,0,0,0,0,0,0,0,0,0,0,0,0,0,0,0,0,0,0],"split_type":[0,0,0,0,0,0,0,0,0,0,0,0,0,0,0,0,0,0,0,0,0,0,0,0,0,0,0,0,0,0,0,0,0,0,0,0,0,0,0,0,0,0,0,0,0,0,0,0,0,0,0,0,0,0,0,0,0],"sum_hessian":[4.47E2,2.34E2,2.13E2,4.8E1,1.86E2,1.62E2,5.1E1,5E0,4.3E1,1.27E2,5.9E1,9.8E1,6.4E1,1.8E1,3.3E1,4E0,1E0,1.2E1,3.1E1,8.2E1,4.5E1,3.9E1,2E1,7E1,2.8E1,4.7E1,1.7E1,1.7E1,1E0,1.9E1,1.4E1,1E0,3E0,4E0,8E0,6E0,2.5E1,3.5E1,4.7E1,2.2E1,2.3E1,3.4E1,5E0,1E1,1E1,6.9E1,1E0,2.6E1,2E0,1.4E1,3.3E1,1E1,7E0,1.3E1,4E0,2E0,1.2E1],"tree_param":{"num_deleted":"0","num_feature":"31","num_nodes":"57","size_leaf_vector":"1"}},{"base_weights":[-9.3798E-2,9.897132E0,-1.0672005E1,-6.6459274E0,1.4660235E1,-8.449419E0,-1.791495E1,-9.354624E0,8.397442E-1,1.7815615E1,8.109147E0,-6.1545424E0,-1.2285802E1,-2.0528059E1,-1.14811945E1,-3.3434384E0,-1.1596752E1,-3.6037316E0,6.432821E0,1.3116422E1,2.7858135E1,4.3187575E0,1.8499695E1,-6.9726715E0,1.706451E-1,-1.6546522E1,-3.5932546E0,-1.5542792E1,-2.4892296E1,1.3816145E-1,-1.3925787E1,1.969911E-2,-7.420104E-2,-1.2770629E-1,-1.360836E-2,1.5240096E-3,-6.639118E-2,1.3318132E-1,-2.0606956E-2,1.448415E-1,2.5985917E-2,3.6039713E-1,2.3649009E-1,-7.766726E-3,1.3056648E-1,2.9668954E-1,8.8312425E-2,-5.920104E-2,-1.5524834E-1,-1.9145952E-1,-1.3035378E-1,8.567035E-2,-4.5802698E-2,-7.29615E-2,-1.7966866E-1,-5.286253E-2,-2.5787282E-1,-5.1319677E-2,-1.6429396E-1],"categories":[],"categories_nodes":[],"categories_segments":[],"categories_sizes":[],"default_left":[0,0,1,0,0,0,0,0,0,0,0,0,0,0,0,0,0,0,0,1,0,0,0,0,0,0,0,0,0,0,0,0,0,0,0,0,0,0,0,0,0,0,0,0,0,0,0,0,0,0,0,0,0,0,0,0,0,0,0],"id":1,"left_children":[1,3,5,7,9,11,13,15,17,19,21,23,25,27,29,31,33,35,37,39,41,43,45,47,-1,49,51,53,55,-1,57,-1,-1,-1,-1,-1,-1,-1,-1,-1,-1,-1,-1,-1,-1,-1,-1,-1,-1,-1,-1,-1,-1,-1,-1,-1,-1,-1,-1],"loss_changes":[4.8087117E4,1.853577E4,3.4063008E3,1.0825054E3,3.6176836E3,1.429874E3,6.2173047E2,4.8686304E2,3.959727E2,5.391996E3,2.3225417E3,2.1895684E3,2.2738447E3,3.7459473E2,1.2437095E3,2.745459E2,3.1906104E2,1.0362364E2,4.3680814E2,1.1851318E3,4.563125E2,2.0582131E3,1.4658174E3,8.622754E2,0E0,1.3375781E2,3.0329208E2,2.4873047E2,1.619834E2,0E0,2.6794556E2,0E0,0E0,0E0,0E0,0E0,0E0,0E0,0E0,0E0,0E0,0E0,0E0,0E0,0E0,0E0,0E0,0E0,0E0,0E0,0E0,0E0,0E0,0E0,0E0,0E0,0E0,0E0,0E0],"parents":[2147483647,0,0,1,1,2,2,3,3,4,4,5,5,6,6,7,7,8,8,9,9,10,10,11,11,12,12,13,13,14,14,15,15,16,16,17,17,18,18,19,19,20,20,21,21,22,22,23,23,25,25,26,26,27,27,28,28,30,30],"right_children":[2,4,6,8,10,12,14,16,18,20,22,24,26,28,30,32,34,36,38,40,42,44,46,48,-1,50,52,54,56,-1,58,-1,-1,-1,-1,-1,-1,-1,-1,-1,-1,-1,-1,-1,-1,-1,-1,-1,-1,-1,-1,-1,-1,-1,-1,-1,-1,-1,-1],"split_conditions":[1.74E2,3.9E1,1E-1,5E0,1.28E2,2.87E2,3E-1,3.58E1,2.2E1,1.01E2,1.6E2,4.1E1,3.41E2,2E-1,6.609E2,2.7E1,2.7E1,1.4E1,6E0,1.88E1,6.04E1,4E0,1.67E2,2.72E2,1.706451E-1,4E0,2.023E3,3E0,2.024E3,1.3816145E-1,4E-1,1.969911E-2,-7.420104E-2,-1.2770629E-1,-1.360836E-2,1.5240096E-3,-6.639118E-2,1.3318132E-1,-2.0606956E-2,1.448415E-1,2.5985917E-2,3.6039713E-1,2.3649009E-1,-7.766726E-3,1.3056648E-1,2.9668954E-1,8.8312425E-2,-5.920104E-2,-1.5524834E-1,-1.9145952E-1,-1.3035378E-1,8.567035E-2,-4.5802698E-2,-7.29615E-2,-1.7966866E-1,-5.286253E-2,-2.5787282E-1,-5.1319677E-2,-1.6429396E-1],"split_indices":[5,5,10,1,5,5,10,13,5,5,5,6,5,10,7,5,5,5,1,28,16,1,5,5,0,1,4,1,4,0,10,0,0,0,0,0,0,0,0,0,0,0,0,0,0,0,0,0,0,0,0,0,0,0,0,0,0,0,0],"split_type":[0,0,0,0,0,0,0,0,0,0,0,0,0,0,0,0,0,0,0,0,0,0,0,0,0,0,0,0,0,0,0,0,0,0,0,0,0,0,0,0,0,0,0,0,0,0,0,0,0,0,0,0,0,0,0,0,0,0,0],"sum_hessian":[4.53E2,2.33E2,2.2E2,5.2E1,1.81E2,1.7E2,5E1,3.8E1,1.4E1,1.21E2,6E1,1.08E2,6.2E1,3.4E1,1.6E1,1.1E1,2.7E1,8E0,6E0,8.4E1,3.7E1,4.5E1,1.5E1,1.05E2,3E0,4.1E1,2.1E1,1.8E1,1.6E1,1E0,1.5E1,5E0,6E0,2.4E1,3E0,4E0,4E0,3E0,3E0,7.4E1,1E1,1E1,2.7E1,2.9E1,1.6E1,6E0,9E0,9.5E1,1E1,2.1E1,2E1,1E0,2E1,5E0,1.3E1,1E0,1.5E1,4E0,1.1E1],"tree_param":{"num_deleted":"0","num_feature":"31","num_nodes":"59","size_leaf_vector":"1"}},{"base_weights":[2.8455202E-2,9.278919E0,-1.0678232E1,-8.167833E0,1.3681447E1,-8.370543E0,-1.8798E1,-1.2477778E1,-1.4165891E0,1.6049788E1,8.952425E0,-8.915159E0,2.4918216E-1,-4.289497E0,-2.0423073E1,2.673392E-2,-1.3614873E1,-6.106852E0,5.5156336E0,1.052392E1,2.4348742E1,1.3590701E0,1.2024016E1,-6.977875E0,-1.1803419E1,-1.2572967E1,1.8563925E-1,-2.1422684E1,-2.8722382E-1,-4.8836578E-2,-1.4080752E-1,-1.3062026E-1,-1.5643273E-2,-3.417045E-2,1.3345185E-1,1.9367363E-1,5.2195504E-2,3.3900636E-1,2.1561119E-1,2.4256533E-1,-9.986299E-3,1.905338E-1,6.0715154E-2,-1.00299254E-1,2.446656E-2,-1.480172E-1,-2.9856326E-2,-1.4340238E-1,-2.7519379E-2,-7.990709E-2,-2.1919347E-1,4.828985E-2,-5.259821E-2],"categories":[],"categories_nodes":[],"categories_segments":[],"categories_sizes":[],"default_left":[0,0,1,0,0,1,0,0,0,0,0,0,0,0,0,0,0,0,0,0,0,0,0,0,0,0,0,0,0,0,0,0,0,0,0,0,0,0,0,0,0,0,0,0,0,0,0,0,0,0,0,0,0],"id":2,"left_children":[1,3,5,7,9,11,13,15,17,19,21,23,-1,25,27,-1,29,31,33,35,37,39,41,43,45,47,-1,49,51,-1,-1,-1,-1,-1,-1,-1,-1,-1,-1,-1,-1,-1,-1,-1,-1,-1,-1,-1,-1,-1,-1,-1,-1],"loss_changes":[4.6153535E4,1.9314203E4,3.890039E3,1.4662964E3,2.0963008E3,3.3041885E3,1.02053125E3,5.704751E2,7.16476E2,5.797133E3,1.5929937E3,8.576621E2,0E0,1.3692373E3,8.392246E2,0E0,4.9197754E1,3.9028937E2,6.7505096E2,3.6985312E3,6.536719E2,1.1579156E3,1.9345889E3,2.9872466E3,1.7007393E3,4.7318726E1,0E0,9.1697266E1,1.0172214E2,0E0,0E0,0E0,0E0,0E0,0E0,0E0,0E0,0E0,0E0,0E0,0E0,0E0,0E0,0E0,0E0,0E0,0E0,0E0,0E0,0E0,0E0,0E0,0E0],"parents":[2147483647,0,0,1,1,2,2,3,3,4,4,5,5,6,6,7,7,8,8,9,9,10,10,11,11,13,13,14,14,16,16,17,17,18,18,19,19,20,20,21,21,22,22,23,23,24,24,25,25,27,27,28,28],"right_children":[2,4,6,8,10,12,14,16,18,20,22,24,-1,26,28,-1,30,32,34,36,38,40,42,44,46,48,-1,50,52,-1,-1,-1,-1,-1,-1,-1,-1,-1,-1,-1,-1,-1,-1,-1,-1,-1,-1,-1,-1,-1,-1,-1,-1],"split_conditions":[2.6E1,6E0,6.776E2,4E0,1.9E1,2.78E1,2.3E1,8E0,4E0,1.4E1,5.4E0,3.9E1,2.4918216E-1,7.043E2,3.1E1,2.673392E-2,8.8E0,5E0,2.3098E3,3E0,7.443E2,2.52E1,1.5E1,3.5E1,5E1,6E0,1.8563925E-1,3.9E0,6E0,-4.8836578E-2,-1.4080752E-1,-1.3062026E-1,-1.5643273E-2,-3.417045E-2,1.3345185E-1,1.9367363E-1,5.2195504E-2,3.3900636E-1,2.1561119E-1,2.4256533E-1,-9.986299E-3,1.905338E-1,6.0715154E-2,-1.00299254E-1,2.446656E-2,-1.480172E-1,-2.9856326E-2,-1.4340238E-1,-2.7519379E-2,-7.990709E-2,-2.1919347E-1,4.828985E-2,-5.259821E-2],"split_indices":[6,6,7,1,6,22,22,19,6,6,19,6,0,7,0,0,19,1,7,3,7,16,0,6,6,1,0,19,1,0,0,0,0,0,0,0,0,0,0,0,0,0,0,0,0,0,0,0,0,0,0,0,0],"split_type":[0,0,0,0,0,0,0,0,0,0,0,0,0,0,0,0,0,0,0,0,0,0,0,0,0,0,0,0,0,0,0,0,0,0,0,0,0,0,0,0,0,0,0,0,0,0,0,0,0,0,0,0,0],"sum_hessian":[4.64E2,2.49E2,2.15E2,5E1,1.99E2,1.69E2,4.6E1,3E1,2E1,1.31E2,6.8E1,1.67E2,2E0,5E0,4.1E1,2E0,2.8E1,1.2E1,8E0,8E1,5.1E1,2E1,4.8E1,1.02E2,6.5E1,4E0,1E0,3.9E1,2E0,2E0,2.6E1,4E0,8E0,4E0,4E0,2.9E1,5.1E1,9E0,4.2E1,1E0,1.9E1,2.1E1,2.7E1,7.7E1,2.5E1,4.8E1,1.7E1,3E0,1E0,2E0,3.7E1,1E0,1E0],"tree_param":{"num_deleted":"0","num_feature":"31","num_nodes":"53","size_leaf_vector":"1"}},{"base_weights":[-7.4418896E-1,9.063982E0,-1.13593645E1,-8.767725E0,1.3588369E1,-8.8998995E0,-1.9405127E1,-1.1599399E1,-1.8484771E0,9.240902E0,1.7165949E1,-9.158895E0,1.8471105E-1,-2.1948265E1,-1.2152349E1,1.2621841E0,-1.3714562E1,-3.7472873E0,1.3316837E-1,1.0295672E1,-5.037834E0,2.8328854E1,1.0445919E1,-7.340799E0,-1.2956196E1,-2.9020194E-2,-2.2384596E1,-2.5206423E0,-1.4181155E1,-2.0566178E-3,2.0475226E-2,-1.4974305E-1,-8.221016E-2,-2.1490332E-2,-7.605227E-2,1.6617675E-1,6.2415645E-2,-6.373828E-2,1.4890651E-2,5.4728467E-2,2.8774574E-1,1.4146061E-1,6.732661E-3,-7.941146E-2,1.9120035E-1,-1.7083749E-1,-1.569574E-2,-2.2926675E-1,-8.598791E-2,4.80484E-2,-6.564083E-2,-8.0721E-2,-1.6990303E-1],"categories":[],"categories_nodes":[],"categories_segments":[],"categories_sizes":[],"default_left":[0,0,1,0,0,1,0,0,1,1,0,0,0,0,0,0,0,0,0,0,0,0,1,0,0,0,0,0,0,0,0,0,0,0,0,0,0,0,0,0,0,0,0,0,0,0,0,0,0,0,0,0,0],"id":3,"left_children":[1,3,5,7,9,11,13,15,17,19,21,23,-1,25,27,29,31,33,-1,35,37,39,41,43,45,-1,47,49,51,-1,-1,-1,-1,-1,-1,-1,-1,-1,-1,-1,-1,-1,-1,-1,-1,-1,-1,-1,-1,-1,-1,-1,-1],"loss_changes":[4.987015E4,2.020785E4,4.3785996E3,9.7780444E2,2.9365E3,1.4310078E3,7.1085156E2,9.96667E2,5.1063882E2,1.43746E3,7.805707E3,1.126874E3,0E0,2.5083594E2,2.769082E2,7.337631E0,9.1430176E1,7.614563E1,0E0,2.1004678E3,7.053032E1,2.5001758E2,2.4855293E3,2.0898901E3,2.605125E3,0E0,7.936133E1,1.5001997E2,8.594873E1,0E0,0E0,0E0,0E0,0E0,0E0,0E0,0E0,0E0,0E0,0E0,0E0,0E0,0E0,0E0,0E0,0E0,0E0,0E0,0E0,0E0,0E0,0E0,0E0],"parents":[2147483647,0,0,1,1,2,2,3,3,4,4,5,5,6,6,7,7,8,8,9,9,10,10,11,11,13,13,14,14,15,15,16,16,17,17,19,19,20,20,21,21,22,22,23,23,24,24,26,26,27,27,28,28],"right_children":[2,4,6,8,10,12,14,16,18,20,22,24,-1,26,28,30,32,34,-1,36,38,40,42,44,46,-1,48,50,52,-1,-1,-1,-1,-1,-1,-1,-1,-1,-1,-1,-1,-1,-1,-1,-1,-1,-1,-1,-1,-1,-1,-1,-1],"split_conditions":[1.74E2,3.4E1,1.4E0,5E0,9.5E1,8.678E2,3E-1,1.74E2,5E-1,8.66E1,1.27E2,2.87E2,1.8471105E-1,8E0,4E-1,1.8024E3,2.8E1,2.3E1,1.3316837E-1,3E0,3E0,5.708E2,7.91E2,2.84E2,3.39E2,-2.9020194E-2,2.98E2,9E0,2.78E2,-2.0566178E-3,2.0475226E-2,-1.4974305E-1,-8.221016E-2,-2.1490332E-2,-7.605227E-2,1.6617675E-1,6.2415645E-2,-6.373828E-2,1.4890651E-2,5.4728467E-2,2.8774574E-1,1.4146061E-1,6.732661E-3,-7.941146E-2,1.9120035E-1,-1.7083749E-1,-1.569574E-2,-2.2926675E-1,-8.598791E-2,4.80484E-2,-6.564083E-2,-8.0721E-2,-1.6990303E-1],"split_indices":[5,5,28,1,5,7,10,22,10,16,5,5,0,3,10,7,5,5,0,3,3,7,7,5,5,0,5,3,5,0,0,0,0,0,0,0,0,0,0,0,0,0,0,0,0,0,0,0,0,0,0,0,0],"split_type":[0,0,0,0,0,0,0,0,0,0,0,0,0,0,0,0,0,0,0,0,0,0,0,0,0,0,0,0,0,0,0,0,0,0,0,0,0,0,0,0,0,0,0,0,0,0,0,0,0,0,0,0,0],"sum_hessian":[4.77E2,2.48E2,2.29E2,5E1,1.98E2,1.77E2,5.2E1,3.5E1,1.5E1,9.1E1,1.07E2,1.76E2,1E0,3.7E1,1.5E1,5E0,3E1,1.4E1,1E0,8.5E1,6E0,3.9E1,6.8E1,1.21E2,5.5E1,1E0,3.6E1,3E0,1.2E1,2E0,3E0,2.3E1,7E0,1.1E1,3E0,3.2E1,5.3E1,5E0,1E0,1E0,3.8E1,4.9E1,1.9E1,1.19E2,2E0,4E1,1.5E1,3.4E1,2E0,1E0,2E0,5E0,7E0],"tree_param":{"num_deleted":"0","num_feature":"31","num_nodes":"53","size_leaf_vector":"1"}},{"base_weights":[9.827599E-1,1.0242319E1,-9.846409E0,-8.680011E0,1.4458912E1,-7.041128E0,-1.8396585E1,-1.683918E0,-1.1099693E1,1.6908604E1,1.0198919E1,-7.5951815E0,2.4855424E-1,-2.1466063E-2,-1.8673122E1,-4.03262E0,1.3250254E-1,-3.9152038E0,-1.3930097E1,1.2658189E1,2.6283697E1,1.2586439E1,1.6739119E0,-5.0299444E0,-1.1675977E1,-9.364664E0,-1.9266083E1,-1.0917988E-1,-1.5637478E-2,4.640798E-2,-1.5110566E-1,-1.5402195E-1,1.5086618E-2,1.5411682E-1,6.3349225E-2,3.2789913E-1,2.2556615E-1,1.5156774E-1,2.127783E-2,-3.3964437E-2,1.5536126E-1,-1.2920472E-1,-2.7689122E-2,-1.5329036E-1,-1.3192932E-2,-1.2320885E-1,-3.286888E-2,-2.070205E-1,-1.335267E-1],"categories":[],"categories_nodes":[],"categories_segments":[],"categories_sizes":[],"default_left":[0,0,1,0,0,1,0,0,0,0,1,0,0,0,0,0,0,0,1,1,0,0,0,0,0,0,0,0,0,0,0,0,0,0,0,0,0,0,0,0,0,0,0,0,0,0,0,0,0],"id":4,"left_children":[1,3,5,7,9,11,13,15,17,19,21,23,-1,-1,25,27,-1,29,31,33,35,37,39,41,43,45,47,-1,-1,-1,-1,-1,-1,-1,-1,-1,-1,-1,-1,-1,-1,-1,-1,-1,-1,-1,-1,-1,-1],"loss_changes":[4.632686E4,1.9992652E4,4.97941E3,7.600117E2,1.9564258E3,3.0517085E3,1.9358984E2,5.0942023E2,6.368511E2,4.7678477E3,1.5461606E3,1.6161836E3,0E0,0E0,1.0107617E2,1.8691615E2,0E0,1.123788E3,5.6869385E2,1.4693643E3,2.0608789E2,1.5806865E3,1.317922E3,1.7482981E3,2.287624E3,4.9338837E1,1.22671875E2,0E0,0E0,0E0,0E0,0E0,0E0,0E0,0E0,0E0,0E0,0E0,0E0,0E0,0E0,0E0,0E0,0E0,0E0,0E0,0E0,0E0,0E0],"parents":[2147483647,0,0,1,1,2,2,3,3,4,4,5,5,6,6,7,7,8,8,9,9,10,10,11,11,14,14,15,15,17,17,18,18,19,19,20,20,21,21,22,22,23,23,24,24,25,25,26,26],"right_children":[2,4,6,8,10,12,14,16,18,20,22,24,-1,-1,26,28,-1,30,32,34,36,38,40,42,44,46,48,-1,-1,-1,-1,-1,-1,-1,-1,-1,-1,-1,-1,-1,-1,-1,-1,-1,-1,-1,-1,-1,-1],"split_conditions":[1.75E2,3.4E1,6.709E2,2.066E2,1.28E2,2.78E1,1.52E1,3.87E1,9E0,9.7E1,3.3E0,2.72E2,2.4855424E-1,-2.1466063E-2,9.8E0,7E0,1.3250254E-1,2.024E3,2.9E1,6.3E0,9.34E1,1.68E2,6.08E1,9.9E0,3.41E2,9.3E0,1.3952E3,-1.0917988E-1,-1.5637478E-2,4.640798E-2,-1.5110566E-1,-1.5402195E-1,1.5086618E-2,1.5411682E-1,6.3349225E-2,3.2789913E-1,2.2556615E-1,1.5156774E-1,2.127783E-2,-3.3964437E-2,1.5536126E-1,-1.2920472E-1,-2.7689122E-2,-1.5329036E-1,-1.3192932E-2,-1.2320885E-1,-3.286888E-2,-2.070205E-1,-1.335267E-1],"split_indices":[5,5,7,22,5,22,22,13,5,5,28,5,0,0,13,5,0,4,28,19,25,5,22,13,5,13,7,0,0,0,0,0,0,0,0,0,0,0,0,0,0,0,0,0,0,0,0,0,0],"split_type":[0,0,0,0,0,0,0,0,0,0,0,0,0,0,0,0,0,0,0,0,0,0,0,0,0,0,0,0,0,0,0,0,0,0,0,0,0,0,0,0,0,0,0,0,0,0,0,0,0],"sum_hessian":[4.6E2,2.48E2,2.12E2,4.5E1,2.03E2,1.61E2,5.1E1,1.2E1,3.3E1,1.27E2,7.6E1,1.59E2,2E0,1E0,5E1,1.1E1,1E0,1E1,2.3E1,8.9E1,3.8E1,5.9E1,1.7E1,9.9E1,6E1,4E0,4.6E1,2E0,9E0,6E0,4E0,2.1E1,2E0,6.1E1,2.8E1,1.1E1,2.7E1,4.7E1,1.2E1,1.3E1,4E0,2.1E1,7.8E1,4.4E1,1.6E1,2E0,2E0,3.5E1,1.1E1],"tree_param":{"num_deleted":"0","num_feature":"31","num_nodes":"49","size_leaf_vector":"1"}},{"base_weights":[-1.2039595E0,7.925164E0,-1.1088563E1,-7.443504E0,1.2366416E1,-8.585078E0,-1.8278345E1,-1.0684077E1,-3.2934546E0,-1.8086932E0,1.2912548E1,-8.952602E0,8.9972105E0,-1.1784105E0,-1.9189644E1,-1.4293964E1,-1.6739184E0,4.8641083E-1,-5.6862717E0,3.3260982E0,-1.14753775E-1,2.6156149E1,1.1590136E1,-7.2056837E0,-1.2317766E1,2.970576E-2,1.3538557E-1,-4.8029326E-2,4.847578E-2,-2.0244024E1,-1.0464654E1,-6.0615537E-5,-1.4974052E-1,1.1874039E-2,-3.779367E-2,-1.52273495E-2,6.351711E-2,-7.948395E-2,8.800796E-3,-2.3833046E-2,6.776626E-2,8.166767E-2,3.359071E-1,4.5746144E-2,1.3310377E-1,-7.85159E-2,1.9094762E-1,-1.6273697E-1,-3.0622648E-2,-1.0703738E-1,-2.1611786E-1,-1.7620383E-2,-1.5333815E-1],"categories":[],"categories_nodes":[],"categories_segments":[],"categories_sizes":[],"default_left":[0,0,1,0,0,1,0,0,0,0,0,0,0,0,0,0,0,0,0,0,0,0,0,0,0,0,0,0,0,0,0,0,0,0,0,0,0,0,0,0,0,0,0,0,0,0,0,0,0,0,0,0,0],"id":5,"left_children":[1,3,5,7,9,11,13,15,17,19,21,23,25,27,29,31,33,35,37,39,-1,41,43,45,47,-1,-1,-1,-1,49,51,-1,-1,-1,-1,-1,-1,-1,-1,-1,-1,-1,-1,-1,-1,-1,-1,-1,-1,-1,-1,-1,-1],"loss_changes":[4.2860582E4,1.695131E4,3.9469688E3,7.179302E2,1.5097207E3,1.1855352E3,8.81209E2,9.843684E2,2.3792352E2,4.352595E2,2.9368477E3,8.988584E2,6.925882E1,1.1064791E2,2.9412305E2,2.136836E2,6.47313E1,1.3929865E2,2.4465753E2,1.3435345E2,0E0,1.8655635E3,1.9907402E3,2.0695273E3,2.0005557E3,0E0,0E0,0E0,0E0,3.9501953E2,3.1197675E2,0E0,0E0,0E0,0E0,0E0,0E0,0E0,0E0,0E0,0E0,0E0,0E0,0E0,0E0,0E0,0E0,0E0,0E0,0E0,0E0,0E0,0E0],"parents":[2147483647,0,0,1,1,2,2,3,3,4,4,5,5,6,6,7,7,8,8,9,9,10,10,11,11,12,12,13,13,14,14,15,15,16,16,17,17,18,18,19,19,21,21,22,22,23,23,24,24,29,29,30,30],"right_children":[2,4,6,8,10,12,14,16,18,20,22,24,26,28,30,32,34,36,38,40,-1,42,44,46,48,-1,-1,-1,-1,50,52,-1,-1,-1,-1,-1,-1,-1,-1,-1,-1,-1,-1,-1,-1,-1,-1,-1,-1,-1,-1,-1,-1],"split_conditions":[1.74E2,3.7E1,6.709E2,2.1E1,2.4E0,2.38E1,1.02E1,5E0,2.7E1,2.2E0,1E1,2.87E2,3E0,2E0,5E-1,1.8024E3,6E0,6E0,3.4E1,3.3E0,-1.14753775E-1,7.3E0,1.03E1,2.85E2,3.41E2,2.970576E-2,1.3538557E-1,-4.8029326E-2,4.847578E-2,2.31E2,1.82E1,-6.0615537E-5,-1.4974052E-1,1.1874039E-2,-3.779367E-2,-1.52273495E-2,6.351711E-2,-7.948395E-2,8.800796E-3,-2.3833046E-2,6.776626E-2,8.166767E-2,3.359071E-1,4.5746144E-2,1.3310377E-1,-7.85159E-2,1.9094762E-1,-1.6273697E-1,-3.0622648E-2,-1.0703738E-1,-2.1611786E-1,-1.7620383E-2,-1.5333815E-1],"split_indices":[5,5,7,5,28,22,16,1,5,28,13,5,1,1,10,7,1,1,5,19,0,13,28,5,5,0,0,0,0,5,13,0,0,0,0,0,0,0,0,0,0,0,0,0,0,0,0,0,0,0,0,0,0],"split_type":[0,0,0,0,0,0,0,0,0,0,0,0,0,0,0,0,0,0,0,0,0,0,0,0,0,0,0,0,0,0,0,0,0,0,0,0,0,0,0,0,0,0,0,0,0,0,0,0,0,0,0,0,0],"sum_hessian":[4.73E2,2.46E2,2.27E2,5.5E1,1.91E2,1.7E2,5.7E1,3E1,2.5E1,7E0,1.84E2,1.67E2,3E0,3E0,5.4E1,2.1E1,9E0,1E1,1.5E1,5E0,2E0,1.5E1,1.69E2,1.12E2,5.5E1,2E0,1E0,2E0,1E0,4.7E1,7E0,1E0,2E1,4E0,5E0,8E0,2E0,1.1E1,4E0,2E0,3E0,5E0,1E1,3.4E1,1.35E2,1.1E2,2E0,3.8E1,1.7E1,7E0,4E1,3E0,4E0],"tree_param":{"num_deleted":"0","num_feature":"31","num_nodes":"53","size_leaf_vector":"1"}},{"base_weights":[2.5730092E-2,8.763902E0,-8.982014E0,-8.81089E0,1.3228211E1,-6.5682325E0,-1.6979004E1,1.3909487E0,-1.0301414E1,9.113764E0,1.6153467E1,-4.2277036E0,-1.1380429E1,-8.022765E0,-1.9758703E1,-3.3780923E-1,2.1500137E0,-6.5931582E0,-1.3695708E1,5.255579E0,1.6492586E1,2.6382952E1,8.98038E0,-7.4817643E0,2.2247987E0,-1.5103539E1,-1.7317286E0,-1.3464796E1,8.948511E0,-2.081833E1,-1.0374705E-1,-6.031036E-5,-5.0068283E-3,9.133492E-3,2.670007E-2,-1.7777759E-1,-3.120038E-2,-1.6654733E-1,-9.491618E-2,1.3938698E-1,2.1624262E-2,2.3719962E-1,3.8236767E-2,2.6930863E-1,1.411335E-2,1.2689191E-1,-6.6670156E-3,-3.9323643E-2,-1.0296447E-1,4.5888092E-2,-1.5713839E-1,-1.2643322E-1,-1.8945146E-1,-2.9110722E-2,8.568886E-2,-1.4177069E-1,-3.1710356E-2,2.9507725E-2,1.3470863E-1,-2.3371832E-1,-1.5515071E-1,4.8233394E-2,-4.97896E-2],"categories":[],"categories_nodes":[],"categories_segments":[],"categories_sizes":[],"default_left":[0,0,1,0,0,0,0,0,0,0,0,0,0,0,0,0,0,0,0,0,0,1,1,0,1,0,0,0,0,0,0,0,0,0,0,0,0,0,0,0,0,0,0,0,0,0,0,0,0,0,0,0,0,0,0,0,0,0,0,0,0,0,0],"id":6,"left_children":[1,3,5,7,9,11,13,15,17,19,21,23,25,27,29,31,33,35,37,39,41,43,45,47,49,51,53,55,57,59,61,-1,-1,-1,-1,-1,-1,-1,-1,-1,-1,-1,-1,-1,-1,-1,-1,-1,-1,-1,-1,-1,-1,-1,-1,-1,-1,-1,-1,-1,-1,-1,-1],"loss_changes":[3.628587E4,1.8476033E4,4.270256E3,7.4422E2,2.1034766E3,1.9341904E3,1.1360557E3,9.911975E0,4.3835254E2,2.19083E3,7.687787E3,2.5362654E3,2.0214663E3,1.4135049E3,8.100879E2,1.590941E-1,7.766361E-1,7.991329E2,1.0316016E2,1.4202023E3,2.3815024E3,5.640137E2,2.334109E3,7.587456E2,1.8108003E3,1.4796875E2,2.3146007E2,3.569568E1,6.874609E1,1.3843555E2,9.6077E1,0E0,0E0,0E0,0E0,0E0,0E0,0E0,0E0,0E0,0E0,0E0,0E0,0E0,0E0,0E0,0E0,0E0,0E0,0E0,0E0,0E0,0E0,0E0,0E0,0E0,0E0,0E0,0E0,0E0,0E0,0E0,0E0],"parents":[2147483647,0,0,1,1,2,2,3,3,4,4,5,5,6,6,7,7,8,8,9,9,10,10,11,11,12,12,13,13,14,14,15,15,16,16,17,17,18,18,19,19,20,20,21,21,22,22,23,23,24,24,25,25,26,26,27,27,28,28,29,29,30,30],"right_children":[2,4,6,8,10,12,14,16,18,20,22,24,26,28,30,32,34,36,38,40,42,44,46,48,50,52,54,56,58,60,62,-1,-1,-1,-1,-1,-1,-1,-1,-1,-1,-1,-1,-1,-1,-1,-1,-1,-1,-1,-1,-1,-1,-1,-1,-1,-1,-1,-1,-1,-1,-1,-1],"split_conditions":[1.75E2,3.4E1,1E-1,8E0,9.5E1,2.87E2,2.29E2,1.4E1,1.6E1,2E1,1.28E2,2.4E2,3.47E2,7.3E0,3E1,1.3E1,2.4E1,2.88E1,2.1E1,4.4E1,8.3E1,2E1,1E1,2.04E2,1.8E0,3.31E2,3.1E1,2.7E1,2.22E2,2.83E2,9E0,-6.031036E-5,-5.0068283E-3,9.133492E-3,2.670007E-2,-1.7777759E-1,-3.120038E-2,-1.6654733E-1,-9.491618E-2,1.3938698E-1,2.1624262E-2,2.3719962E-1,3.8236767E-2,2.6930863E-1,1.411335E-2,1.2689191E-1,-6.6670156E-3,-3.9323643E-2,-1.0296447E-1,4.5888092E-2,-1.5713839E-1,-1.2643322E-1,-1.8945146E-1,-2.9110722E-2,8.568886E-2,-1.4177069E-1,-3.1710356E-2,2.9507725E-2,1.3470863E-1,-2.3371832E-1,-1.5515071E-1,4.8233394E-2,-4.97896E-2],"split_indices":[5,5,10,19,5,5,5,0,5,0,5,5,5,19,0,0,0,28,0,5,5,28,13,5,28,5,0,0,5,5,3,0,0,0,0,0,0,0,0,0,0,0,0,0,0,0,0,0,0,0,0,0,0,0,0,0,0,0,0,0,0,0,0],"split_type":[0,0,0,0,0,0,0,0,0,0,0,0,0,0,0,0,0,0,0,0,0,0,0,0,0,0,0,0,0,0,0,0,0,0,0,0,0,0,0,0,0,0,0,0,0,0,0,0,0,0,0,0,0,0,0,0,0,0,0,0,0,0,0],"sum_hessian":[4.59E2,2.33E2,2.26E2,4.7E1,1.86E2,1.75E2,5.1E1,6E0,4.1E1,7.9E1,1.07E2,1.19E2,5.6E1,1.3E1,3.8E1,2E0,4E0,2.1E1,2E1,5.3E1,2.6E1,4.3E1,6.4E1,7.9E1,4E1,4E1,1.6E1,1E1,3E0,3.6E1,2E0,1E0,1E0,2E0,2E0,4E0,1.7E1,1E1,1E1,1.3E1,4E1,1.6E1,1E1,4.2E1,1E0,4.6E1,1.8E1,3.6E1,4.3E1,3.6E1,4E0,2.7E1,1.3E1,1.5E1,1E0,9E0,1E0,2E0,1E0,2.2E1,1.4E1,1E0,1E0],"tree_param":{"num_deleted":"0","num_feature":"31","num_nodes":"63","size_leaf_vector":"1"}},{"base_weights":[-3.607722E-1,9.797504E0,-1.0310265E1,-8.390443E0,1.3586933E1,-8.152794E0,-1.761511E1,-1.3772125E0,-1.2235674E1,3.177292E1,1.2250009E1,-8.758485E0,2.5547326E0,-4.078632E0,-1.8317627E1,-6.588434E0,6.2641344E0,-1.2784189E-1,1.0128669E-2,-1.2402598E-2,3.7888068E-1,1.4550318E1,7.377607E0,-9.351478E0,-1.0169652E0,-2.0563173E0,1.5536304E-1,4.799223E-2,-8.637658E0,-9.498468E0,-1.9478418E1,-1.18024945E-1,-3.809607E-2,2.884423E-2,1.3271202E-1,1.0315701E-1,2.71946E-1,4.5138527E-2,2.3740397E-1,-7.3033825E-2,-1.446884E-1,-2.1623911E-2,2.3871975E-2,4.2447653E-2,-7.9461366E-2,-2.5152836E-2,-1.0441203E-1,-2.0308724E-2,-1.0275143E-1,-2.0915778E-1,-1.0216156E-1],"categories":[],"categories_nodes":[],"categories_segments":[],"categories_sizes":[],"default_left":[0,0,1,0,0,1,0,0,0,0,0,0,0,0,0,0,0,0,0,0,0,0,0,0,0,0,0,0,0,0,0,0,0,0,0,0,0,0,0,0,0,0,0,0,0,0,0,0,0,0,0],"id":7,"left_children":[1,3,5,7,9,11,13,15,17,19,21,23,25,27,29,31,33,-1,-1,-1,-1,35,37,39,41,43,-1,-1,45,47,49,-1,-1,-1,-1,-1,-1,-1,-1,-1,-1,-1,-1,-1,-1,-1,-1,-1,-1,-1,-1],"loss_changes":[4.9018746E4,1.6655262E4,3.717586E3,1.1157834E3,4.449125E3,1.2610957E3,4.483164E2,6.7840295E2,2.0915894E2,2.6714375E3,1.9885547E3,8.2140137E2,6.9039307E2,2.0335153E2,3.473203E2,9.992688E1,1.27493286E2,0E0,0E0,0E0,0E0,6.4659746E3,2.798098E3,1.6551084E3,5.9751083E1,3.6773962E2,0E0,0E0,6.8633575E0,2.5531677E1,3.8541406E2,0E0,0E0,0E0,0E0,0E0,0E0,0E0,0E0,0E0,0E0,0E0,0E0,0E0,0E0,0E0,0E0,0E0,0E0,0E0,0E0],"parents":[2147483647,0,0,1,1,2,2,3,3,4,4,5,5,6,6,7,7,8,8,9,9,10,10,11,11,12,12,13,13,14,14,15,15,16,16,21,21,22,22,23,23,24,24,25,25,28,28,29,29,30,30],"right_children":[2,4,6,8,10,12,14,16,18,20,22,24,26,28,30,32,34,-1,-1,-1,-1,36,38,40,42,44,-1,-1,46,48,50,-1,-1,-1,-1,-1,-1,-1,-1,-1,-1,-1,-1,-1,-1,-1,-1,-1,-1,-1,-1],"split_conditions":[1.67E2,3.4E1,6.709E2,2.258E2,3.08E1,6.042E2,9.4E0,3E-1,6E0,2E0,1.8E1,3.49E2,2.22E2,2.45E2,2.31E2,1.39E1,2.7E1,-1.2784189E-1,1.0128669E-2,-1.2402598E-2,3.7888068E-1,1.5E1,1.6E2,2.87E2,3.62E2,2.1E1,1.5536304E-1,4.799223E-2,4E0,2.52E1,5E-1,-1.18024945E-1,-3.809607E-2,2.884423E-2,1.3271202E-1,1.0315701E-1,2.71946E-1,4.5138527E-2,2.3740397E-1,-7.3033825E-2,-1.446884E-1,-2.1623911E-2,2.3871975E-2,4.2447653E-2,-7.9461366E-2,-2.5152836E-2,-1.0441203E-1,-2.0308724E-2,-1.0275143E-1,-2.0915778E-1,-1.0216156E-1],"split_indices":[5,5,7,22,22,7,16,10,6,2,6,5,5,5,5,28,5,0,0,0,0,6,5,5,5,22,0,0,2,16,10,0,0,0,0,0,0,0,0,0,0,0,0,0,0,0,0,0,0,0,0],"split_type":[0,0,0,0,0,0,0,0,0,0,0,0,0,0,0,0,0,0,0,0,0,0,0,0,0,0,0,0,0,0,0,0,0,0,0,0,0,0,0,0,0,0,0,0,0,0,0,0,0,0,0],"sum_hessian":[4.83E2,2.39E2,2.44E2,4.1E1,1.98E2,1.9E2,5.4E1,1.5E1,2.6E1,1.2E1,1.86E2,1.8E2,1E1,3E0,5.1E1,9E0,6E0,2.5E1,1E0,2E0,1E1,1.25E2,6.1E1,1.67E2,1.3E1,8E0,2E0,1E0,2E0,7E0,4.4E1,2E0,7E0,5E0,1E0,9.5E1,3E1,5.3E1,8E0,1.21E2,4.6E1,1E1,3E0,4E0,4E0,1E0,1E0,1E0,6E0,3.7E1,7E0],"tree_param":{"num_deleted":"0","num_feature":"31","num_nodes":"51","size_leaf_vector":"1"}},{"base_weights":[8.571264E-1,9.40717E0,-8.850165E0,-8.862512E0,1.3926595E1,-7.0115747E0,-1.9145496E1,-1.0149117E1,3.0699566E-1,1.444087E1,-4.765613E0,-4.608531E0,-1.0859266E1,-2.794181E-1,-1.38770895E1,-3.4330642E0,-1.1825924E1,-4.7616143E0,5.2988567E0,1.638993E1,1.0501137E1,-8.08669E0,5.9198856E-2,-6.6260066E0,1.0719184E0,-1.4275704E1,-9.374737E-1,-3.9688568E0,-1.5232659E1,-6.145833E-2,2.1725472E-2,-1.4204966E-1,-9.676757E-2,-7.9069E-2,2.337122E-2,1.7796224E-2,7.92828E-2,1.166354E-1,2.663435E-1,6.4566605E-2,1.7781825E-1,-1.02577105E-1,-3.2201067E-2,-5.4157723E-2,-1.6244009E-1,6.593173E-2,-1.3157058E-1,-1.10832654E-1,-1.7280208E-1,-1.9355671E-2,8.514105E-2,-5.4055378E-2,1.7059325E-3,-3.8533274E-2,-1.6344738E-1],"categories":[],"categories_nodes":[],"categories_segments":[],"categories_sizes":[],"default_left":[0,0,1,0,0,0,0,0,0,0,0,0,0,0,0,0,0,0,0,0,0,0,0,0,0,0,0,0,0,0,0,0,0,0,0,0,0,0,0,0,0,0,0,0,0,0,0,0,0,0,0,0,0,0,0],"id":8,"left_children":[1,3,5,7,9,11,13,15,17,19,21,23,25,-1,27,29,31,33,35,37,39,41,-1,43,45,47,49,51,53,-1,-1,-1,-1,-1,-1,-1,-1,-1,-1,-1,-1,-1,-1,-1,-1,-1,-1,-1,-1,-1,-1,-1,-1,-1,-1],"loss_changes":[3.8096234E4,2.0270127E4,3.9354746E3,5.811953E2,1.952957E3,1.65125E3,1.0952109E3,4.4364648E2,2.0234369E2,1.2945273E3,2.6079645E2,1.3250217E3,2.359421E3,0E0,2.3503271E2,1.6541942E2,3.6382324E1,1.0778962E2,2.290487E1,5.790164E3,1.8286626E3,1.9796326E1,0E0,9.0142896E2,2.5221626E3,3.0724707E2,1.9571724E2,2.471043E1,1.7745801E2,0E0,0E0,0E0,0E0,0E0,0E0,0E0,0E0,0E0,0E0,0E0,0E0,0E0,0E0,0E0,0E0,0E0,0E0,0E0,0E0,0E0,0E0,0E0,0E0,0E0,0E0],"parents":[2147483647,0,0,1,1,2,2,3,3,4,4,5,5,6,6,7,7,8,8,9,9,10,10,11,11,12,12,14,14,15,15,16,16,17,17,18,18,19,19,20,20,21,21,23,23,24,24,25,25,26,26,27,27,28,28],"right_children":[2,4,6,8,10,12,14,16,18,20,22,24,26,-1,28,30,32,34,36,38,40,42,-1,44,46,48,50,52,54,-1,-1,-1,-1,-1,-1,-1,-1,-1,-1,-1,-1,-1,-1,-1,-1,-1,-1,-1,-1,-1,-1,-1,-1,-1,-1],"split_conditions":[1.74E2,3.4E1,2E0,6E0,3E1,2.72E2,2.65E2,2.51E1,3E0,1.28E2,1.51E2,2.4E2,3.41E2,-2.794181E-1,2.71E2,3E-1,2E0,2.024E3,2.2E1,1.5E1,1.6E2,4E0,5.9198856E-2,2.33E2,5E0,1.7E1,3E1,2.5E1,3E0,-6.145833E-2,2.1725472E-2,-1.4204966E-1,-9.676757E-2,-7.9069E-2,2.337122E-2,1.7796224E-2,7.92828E-2,1.166354E-1,2.663435E-1,6.4566605E-2,1.7781825E-1,-1.02577105E-1,-3.2201067E-2,-5.4157723E-2,-1.6244009E-1,6.593173E-2,-1.3157058E-1,-1.10832654E-1,-1.7280208E-1,-1.9355671E-2,8.514105E-2,-5.4055378E-2,1.7059325E-3,-3.8533274E-2,-1.6344738E-1],"split_indices":[5,5,28,1,0,5,5,28,6,5,5,5,5,0,5,10,1,4,0,6,5,1,0,5,1,0,0,0,0,0,0,0,0,0,0,0,0,0,0,0,0,0,0,0,0,0,0,0,0,0,0,0,0,0,0],"split_type":[0,0,0,0,0,0,0,0,0,0,0,0,0,0,0,0,0,0,0,0,0,0,0,0,0,0,0,0,0,0,0,0,0,0,0,0,0,0,0,0,0,0,0,0,0,0,0,0,0,0,0,0,0,0,0],"sum_hessian":[4.57E2,2.43E2,2.14E2,4.8E1,1.95E2,1.83E2,3.1E1,4.2E1,6E0,1.9E2,5E0,1.14E2,6.9E1,1E1,2.1E1,9E0,3.3E1,3E0,3E0,1.25E2,6.5E1,4E0,1E0,8.4E1,3E1,5.1E1,1.8E1,3E0,1.8E1,6E0,3E0,1.3E1,2E1,2E0,1E0,2E0,1E0,8.7E1,3.8E1,4.3E1,2.2E1,2E0,2E0,7.6E1,8E0,2.2E1,8E0,2.7E1,2.4E1,1.7E1,1E0,2E0,1E0,2E0,1.6E1],"tree_param":{"num_deleted":"0","num_feature":"31","num_nodes":"55","size_leaf_vector":"1"}},{"base_weights":[3.7156227E-1,1.0130076E1,-8.900575E0,-8.773511E0,1.4698182E1,-7.296709E0,-1.7502953E1,-3.0288377E-1,-1.15051E1,3.3302164E-1,1.3663329E1,-4.489815E0,-1.1681164E1,-1.851153E1,9.811529E-2,-9.23584E0,3.7009726E0,-1.2897159E1,-2.8593028E0,1.0331517E1,1.8222853E1,-6.6904097E0,4.6682034E0,-1.4288669E1,-2.6949024E0,3.2279454E-2,-1.9245867E1,4.914936E-2,-4.767763E-2,-1.0624802E-1,-2.5344752E-2,1.3253228E-1,8.50287E-3,-8.105167E-2,-1.499267E-1,2.2162272E-2,-5.9511244E-2,6.643003E-2,1.6831176E-1,1.9263496E-1,-4.544155E-2,-5.2501604E-2,-1.9415684E-1,9.404718E-2,-1.1898214E-1,-1.7503834E-1,-1.1730079E-1,-3.785901E-2,8.4715344E-2,-2.0819312E-1,-1.15297474E-1],"categories":[],"categories_nodes":[],"categories_segments":[],"categories_sizes":[],"default_left":[0,0,1,0,0,0,0,0,0,0,0,0,0,0,0,0,0,0,0,0,0,0,0,0,0,0,0,0,0,0,0,0,0,0,0,0,0,0,0,0,0,0,0,0,0,0,0,0,0,0,0],"id":9,"left_children":[1,3,5,7,9,11,13,15,17,-1,19,21,23,25,27,29,31,33,35,37,39,41,43,45,47,-1,49,-1,-1,-1,-1,-1,-1,-1,-1,-1,-1,-1,-1,-1,-1,-1,-1,-1,-1,-1,-1,-1,-1,-1,-1],"loss_changes":[4.2345387E4,1.9817572E4,3.18358E3,1.0377378E3,3.087418E3,2.45812E3,6.5864355E2,4.6337686E2,3.723286E2,0E0,2.4854297E3,2.5705212E3,1.8125986E3,6.208662E2,9.3747444E1,1.0303497E1,2.3380528E2,1.6969092E2,1.0734485E2,2.3814941E3,1.8170801E3,1.7674756E3,2.0735767E3,2.9648242E2,2.6354114E2,0E0,1.7275E2,0E0,0E0,0E0,0E0,0E0,0E0,0E0,0E0,0E0,0E0,0E0,0E0,0E0,0E0,0E0,0E0,0E0,0E0,0E0,0E0,0E0,0E0,0E0,0E0],"parents":[2147483647,0,0,1,1,2,2,3,3,4,4,5,5,6,6,7,7,8,8,10,10,11,11,12,12,13,13,14,14,15,15,16,16,17,17,18,18,19,19,20,20,21,21,22,22,23,23,24,24,26,26],"right_children":[2,4,6,8,10,12,14,16,18,-1,20,22,24,26,28,30,32,34,36,38,40,42,44,46,48,-1,50,-1,-1,-1,-1,-1,-1,-1,-1,-1,-1,-1,-1,-1,-1,-1,-1,-1,-1,-1,-1,-1,-1,-1,-1],"split_conditions":[1.67E2,3.4E1,2E0,2.066E2,3.08E1,2.63E2,3.1E1,8E0,6E0,3.3302164E-1,4E0,2.4E2,3.41E2,1.72E1,6E0,7E0,2.25E1,9E0,1.5E1,1.8E1,3E1,2.33E2,5E0,3E0,2.9E1,3.2279454E-2,5E-1,4.914936E-2,-4.767763E-2,-1.0624802E-1,-2.5344752E-2,1.3253228E-1,8.50287E-3,-8.105167E-2,-1.499267E-1,2.2162272E-2,-5.9511244E-2,6.643003E-2,1.6831176E-1,1.9263496E-1,-4.544155E-2,-5.2501604E-2,-1.9415684E-1,9.404718E-2,-1.1898214E-1,-1.7503834E-1,-1.1730079E-1,-3.785901E-2,8.4715344E-2,-2.0819312E-1,-1.15297474E-1],"split_indices":[5,5,28,22,22,5,0,0,1,0,1,5,5,22,1,0,16,0,0,0,0,5,1,1,0,0,10,0,0,0,0,0,0,0,0,0,0,0,0,0,0,0,0,0,0,0,0,0,0,0,0],"split_type":[0,0,0,0,0,0,0,0,0,0,0,0,0,0,0,0,0,0,0,0,0,0,0,0,0,0,0,0,0,0,0,0,0,0,0,0,0,0,0,0,0,0,0,0,0,0,0,0,0,0,0],"sum_hessian":[4.66E2,2.27E2,2.39E2,4.4E1,1.83E2,2.03E2,3.6E1,1.1E1,3.3E1,8E0,1.75E2,1.25E2,7.8E1,3.4E1,2E0,3E0,8E0,2.8E1,5E0,1.03E2,7.2E1,1.01E2,2.4E1,6E1,1.8E1,1E0,3.3E1,1E0,1E0,2E0,1E0,1E0,7E0,1E1,1.8E1,2E0,3E0,6.7E1,3.6E1,6.9E1,3E0,9.2E1,9E0,1.9E1,5E0,2.4E1,3.6E1,1.7E1,1E0,2.6E1,7E0],"tree_param":{"num_deleted":"0","num_feature":"31","num_nodes":"51","size_leaf_vector":"1"}},{"base_weights":[1.2417458E0,1.0610754E1,-9.737887E0,-6.96975E0,1.4867687E1,-6.2958946E0,-1.4578754E1,-8.422551E0,3.1578243E0,9.831408E0,1.860356E1,-1.8842388E0,-1.2707464E1,-9.654297E0,-1.8972178E1,-1.596141E1,-6.5648913E0,-1.022653E0,5.034546E0,1.8679512E1,3.4689312E0,2.8703995E1,1.2909858E1,-5.650381E0,2.7965715E0,-1.7451376E1,-4.244635E0,-1.1874696E1,6.3873487E0,-1.961113E1,4.8903618E-2,-1.722326E-1,-3.564222E-2,-7.9383925E-2,-5.9364983E-3,9.878235E-3,-2.5218029E-2,7.9183936E-2,2.3339853E-2,-2.5137717E-2,2.662198E-1,-1.7057607E-2,1.1435403E-1,1.0724424E-1,2.984121E-1,5.3355914E-2,1.6096132E-1,-7.3896544E-3,-9.889048E-2,8.310382E-2,-1.405559E-1,-2.0685428E-1,-1.2191485E-1,8.429176E-2,-5.3553183E-2,-4.433266E-2,-1.3363968E-1,9.894937E-2,-5.5752963E-2,-1.1950233E-1,-2.0707868E-1],"categories":[],"categories_nodes":[],"categories_segments":[],"categories_sizes":[],"default_left":[0,0,0,0,0,0,0,0,0,0,0,0,0,0,0,0,1,0,0,0,1,0,0,0,0,0,0,0,0,0,0,0,0,0,0,0,0,0,0,0,0,0,0,0,0,0,0,0,0,0,0,0,0,0,0,0,0,0,0,0,0],"id":10,"left_children":[1,3,5,7,9,11,13,15,17,19,21,23,25,27,29,31,33,35,37,39,41,43,45,47,49,51,53,55,57,59,-1,-1,-1,-1,-1,-1,-1,-1,-1,-1,-1,-1,-1,-1,-1,-1,-1,-1,-1,-1,-1,-1,-1,-1,-1,-1,-1,-1,-1,-1,-1],"loss_changes":[4.824568E4,1.9037902E4,3.5072559E3,7.6226465E2,3.6553398E3,3.5966172E3,1.7423711E3,5.1141895E2,6.0067726E1,4.945532E3,6.300461E3,1.3732037E3,2.0135654E3,1.6430776E3,7.972715E2,6.3759888E1,2.987433E2,1.15331135E1,2.0458618E1,6.2950186E3,2.20438E3,5.1828906E2,1.7482783E3,8.8786035E2,3.3689941E3,3.0916895E2,3.2667285E2,3.7296484E2,3.0692743E2,1.30625E2,0E0,0E0,0E0,0E0,0E0,0E0,0E0,0E0,0E0,0E0,0E0,0E0,0E0,0E0,0E0,0E0,0E0,0E0,0E0,0E0,0E0,0E0,0E0,0E0,0E0,0E0,0E0,0E0,0E0,0E0,0E0],"parents":[2147483647,0,0,1,1,2,2,3,3,4,4,5,5,6,6,7,7,8,8,9,9,10,10,11,11,12,12,13,13,14,14,15,15,16,16,17,17,18,18,19,19,20,20,21,21,22,22,23,23,24,24,25,25,26,26,27,27,28,28,29,29],"right_children":[2,4,6,8,10,12,14,16,18,20,22,24,26,28,30,32,34,36,38,40,42,44,46,48,50,52,54,56,58,60,-1,-1,-1,-1,-1,-1,-1,-1,-1,-1,-1,-1,-1,-1,-1,-1,-1,-1,-1,-1,-1,-1,-1,-1,-1,-1,-1,-1,-1,-1,-1],"split_conditions":[1.74E2,3.4E1,2.024E3,6E0,9.6E1,2.87E2,2.33E2,4E0,8E0,3E0,5E0,2.41E2,3.39E2,2.27E2,3.1E1,4E0,3E-1,2E0,2.024E3,1.03E1,7.3E0,7E0,2E0,2.04E2,5E0,4E0,2.023E3,1E0,3.78E1,1.91E1,4.8903618E-2,-1.722326E-1,-3.564222E-2,-7.9383925E-2,-5.9364983E-3,9.878235E-3,-2.5218029E-2,7.9183936E-2,2.3339853E-2,-2.5137717E-2,2.662198E-1,-1.7057607E-2,1.1435403E-1,1.0724424E-1,2.984121E-1,5.3355914E-2,1.6096132E-1,-7.3896544E-3,-9.889048E-2,8.310382E-2,-1.405559E-1,-2.0685428E-1,-1.2191485E-1,8.429176E-2,-5.3553183E-2,-4.433266E-2,-1.3363968E-1,9.894937E-2,-5.5752963E-2,-1.1950233E-1,-2.0707868E-1],"split_indices":[5,5,4,1,5,5,5,0,0,3,3,5,5,5,0,1,10,0,4,28,28,0,1,5,1,1,4,1,16,16,0,0,0,0,0,0,0,0,0,0,0,0,0,0,0,0,0,0,0,0,0,0,0,0,0,0,0,0,0,0,0],"split_type":[0,0,0,0,0,0,0,0,0,0,0,0,0,0,0,0,0,0,0,0,0,0,0,0,0,0,0,0,0,0,0,0,0,0,0,0,0,0,0,0,0,0,0,0,0,0,0,0,0,0,0,0,0,0,0,0,0,0,0,0,0],"sum_hessian":[4.67E2,2.52E2,2.15E2,4.9E1,2.03E2,1.27E2,8.8E1,4.3E1,6E0,8.8E1,1.15E2,7.6E1,5.1E1,4.3E1,4.5E1,7E0,3.6E1,2E0,4E0,3.6E1,5.2E1,4E1,7.5E1,4.2E1,3.4E1,3.2E1,1.9E1,3.8E1,5E0,4.4E1,1E0,6E0,1E0,2.9E1,7E0,1E0,1E0,1E0,3E0,1E1,2.6E1,3.2E1,2E1,3E0,3.7E1,2.3E1,5.2E1,2E1,2.2E1,2.6E1,8E0,1.8E1,1.4E1,1E0,1.8E1,7E0,3.1E1,4E0,1E0,7E0,3.7E1],"tree_param":{"num_deleted":"0","num_feature":"31","num_nodes":"61","size_leaf_vector":"1"}},{"base_weights":[-1.5301098E-1,8.8319025E0,-9.565115E0,-9.761035E0,1.3012964E1,-8.091259E0,-1.8477806E1,-5.577807E0,-1.351987E1,1.54024E1,8.3225355E0,-1.6894314E1,-6.6787663E0,-3.980712E0,-1.9840239E1,-2.0663538E0,-1.1903488E1,-1.7927713E0,-1.8538427E-1,2.3661106E1,1.1987777E1,5.3132815E0,1.4947818E1,-5.714181E0,-1.8590242E-1,-7.002473E0,1.4106677E1,-4.754625E-2,-8.294868E-3,-2.1598782E1,-1.122785E1,-1.0346981E-1,1.5561038E-2,-1.5812859E-1,-4.040902E-2,-4.9098525E-2,6.4564386E-4,1.909403E-1,3.5748225E-1,2.4984801E-2,1.4202367E-1,-2.1589588E-2,8.6733565E-2,2.7881926E-1,6.5481737E-3,-6.2740594E-2,-1.7373333E-2,-3.987208E-2,-8.752377E-2,-2.3582783E-2,2.3518293E-1,-2.5212783E-1,-1.6184881E-1,3.309288E-3,-1.3209468E-1],"categories":[],"categories_nodes":[],"categories_segments":[],"categories_sizes":[],"default_left":[0,0,1,0,0,0,0,1,0,0,0,0,1,0,0,0,0,0,0,0,0,0,0,0,0,0,0,0,0,0,0,0,0,0,0,0,0,0,0,0,0,0,0,0,0,0,0,0,0,0,0,0,0,0,0],"id":11,"left_children":[1,3,5,7,9,11,13,15,17,19,21,23,25,27,29,31,33,35,-1,37,39,41,43,45,-1,47,49,-1,-1,51,53,-1,-1,-1,-1,-1,-1,-1,-1,-1,-1,-1,-1,-1,-1,-1,-1,-1,-1,-1,-1,-1,-1,-1,-1],"loss_changes":[4.0000074E4,1.8939668E4,2.8849102E3,6.321714E2,2.0908945E3,2.3740176E3,5.530635E2,4.8628693E2,1.3203867E3,3.3824023E3,1.2962422E3,4.0571143E2,1.2695215E3,5.8111954E0,1.967041E2,4.9604053E2,1.820039E2,4.663273E1,0E0,1.3599258E3,1.939917E3,1.2489827E3,3.863954E3,2.3262024E-1,0E0,8.7264746E2,5.2034814E2,0E0,0E0,4.1948242E1,1.6470697E2,0E0,0E0,0E0,0E0,0E0,0E0,0E0,0E0,0E0,0E0,0E0,0E0,0E0,0E0,0E0,0E0,0E0,0E0,0E0,0E0,0E0,0E0,0E0,0E0],"parents":[2147483647,0,0,1,1,2,2,3,3,4,4,5,5,6,6,7,7,8,8,9,9,10,10,11,11,12,12,13,13,14,14,15,15,16,16,17,17,19,19,20,20,21,21,22,22,23,23,25,25,26,26,29,29,30,30],"right_children":[2,4,6,8,10,12,14,16,18,20,22,24,26,28,30,32,34,36,-1,38,40,42,44,46,-1,48,50,-1,-1,52,54,-1,-1,-1,-1,-1,-1,-1,-1,-1,-1,-1,-1,-1,-1,-1,-1,-1,-1,-1,-1,-1,-1,-1,-1],"split_conditions":[1.74E2,3.4E1,5.54E1,1.6E1,1.28E2,5E0,4E0,3.65E1,2.918E2,1.176E2,1.6E2,1.86E2,4.88E1,2E0,2.4E1,2E0,5E0,2.1E1,-1.8538427E-1,1.13E2,2.02E1,2E0,1.6E1,3E0,-1.8590242E-1,1.6E1,2.4E1,-4.754625E-2,-8.294868E-3,2.83E2,2.6E1,-1.0346981E-1,1.5561038E-2,-1.5812859E-1,-4.040902E-2,-4.9098525E-2,6.4564386E-4,1.909403E-1,3.5748225E-1,2.4984801E-2,1.4202367E-1,-2.1589588E-2,8.6733565E-2,2.7881926E-1,6.5481737E-3,-6.2740594E-2,-1.7373333E-2,-3.987208E-2,-8.752377E-2,-2.3582783E-2,2.3518293E-1,-2.5212783E-1,-1.6184881E-1,3.309288E-3,-1.3209468E-1],"split_indices":[5,5,25,5,5,0,0,16,25,25,5,5,25,1,0,1,1,0,0,5,28,1,0,0,0,0,0,0,0,5,0,0,0,0,0,0,0,0,0,0,0,0,0,0,0,0,0,0,0,0,0,0,0,0,0],"split_type":[0,0,0,0,0,0,0,0,0,0,0,0,0,0,0,0,0,0,0,0,0,0,0,0,0,0,0,0,0,0,0,0,0,0,0,0,0,0,0,0,0,0,0,0,0,0,0,0,0,0,0,0,0,0,0],"sum_hessian":[4.71E2,2.41E2,2.3E2,4.4E1,1.97E2,1.99E2,3.1E1,2.2E1,2.2E1,1.29E2,6.8E1,2.6E1,1.73E2,3E0,2.8E1,1.5E1,7E0,7E0,1.5E1,3.6E1,9.3E1,4.8E1,2E1,4E0,2.2E1,1.71E2,2E0,2E0,1E0,2.2E1,6E0,4E0,1.1E1,4E0,3E0,2E0,5E0,2.8E1,8E0,1.8E1,7.5E1,1.5E1,3.3E1,1E1,1E1,3E0,1E0,6.4E1,1.07E2,1E0,1E0,1.1E1,1.1E1,1E0,5E0],"tree_param":{"num_deleted":"0","num_feature":"31","num_nodes":"55","size_leaf_vector":"1"}},{"base_weights":[3.500505E-1,8.002365E0,-9.2891865E0,-6.229544E0,1.0686675E1,-6.930377E0,-1.2944244E1,7.0771754E-1,-8.086694E0,-7.9682226E0,1.1682807E1,-5.4363976E0,-1.9027464E1,-1.7109348E1,-9.637518E0,2.253634E0,-6.98499E-1,-9.866429E0,-1.069246E0,-6.277458E-1,-1.1559993E1,3.0790583E1,1.0495732E1,-1.1282706E1,-3.6615415E0,-4.323495E-2,-2.1117834E1,-3.5923347E0,-1.7819702E1,8.430792E-2,-1.0201329E1,-1.9679451E-3,2.9154396E-2,1.1386184E-2,-1.9017125E-2,-1.0318735E-1,-4.6859927E-2,-2.4216775E-2,1.9920323E-2,3.1818524E-2,-2.3756083E-2,-1.3309656E-1,3.4382818E-3,4.309915E-2,3.5655722E-1,8.739027E-2,1.8970558E-1,-1.17419854E-1,3.2927322E-3,-4.7519404E-2,3.330264E-2,-2.257923E-1,-2.5212288E-2,-4.5631617E-2,-8.253402E-3,-1.3327417E-1,-1.9752084E-1,-1.6567157E-1,-8.67313E-2],"categories":[],"categories_nodes":[],"categories_segments":[],"categories_sizes":[],"default_left":[0,0,0,0,0,1,0,0,0,0,0,0,0,0,0,0,0,0,0,0,0,0,1,0,1,0,0,0,0,0,0,0,0,0,0,0,0,0,0,0,0,0,0,0,0,0,0,0,0,0,0,0,0,0,0,0,0,0,0],"id":12,"left_children":[1,3,5,7,9,11,13,15,17,19,21,23,25,27,29,31,33,35,37,39,41,43,45,47,49,-1,51,53,55,-1,57,-1,-1,-1,-1,-1,-1,-1,-1,-1,-1,-1,-1,-1,-1,-1,-1,-1,-1,-1,-1,-1,-1,-1,-1,-1,-1,-1,-1],"loss_changes":[3.53328E4,1.0266736E4,1.7380664E3,5.597146E2,4.274205E3,2.2640957E3,9.644834E2,2.3313095E1,4.140835E2,3.0912695E2,4.5308535E3,1.1830979E3,3.3901123E2,2.7205176E2,5.749868E2,8.6822815E0,1.5427991E1,1.4911377E1,3.7945415E1,4.0852108E1,1.7119763E2,1.3923135E3,2.8564316E3,1.4786084E2,7.172202E2,0E0,2.6919727E2,4.2926598E0,2.3222656E1,0E0,3.1353857E2,0E0,0E0,0E0,0E0,0E0,0E0,0E0,0E0,0E0,0E0,0E0,0E0,0E0,0E0,0E0,0E0,0E0,0E0,0E0,0E0,0E0,0E0,0E0,0E0,0E0,0E0,0E0,0E0],"parents":[2147483647,0,0,1,1,2,2,3,3,4,4,5,5,6,6,7,7,8,8,9,9,10,10,11,11,12,12,13,13,14,14,15,15,16,16,17,17,18,18,19,19,20,20,21,21,22,22,23,23,24,24,26,26,27,27,28,28,30,30],"right_children":[2,4,6,8,10,12,14,16,18,20,22,24,26,28,30,32,34,36,38,40,42,44,46,48,50,-1,52,54,56,-1,58,-1,-1,-1,-1,-1,-1,-1,-1,-1,-1,-1,-1,-1,-1,-1,-1,-1,-1,-1,-1,-1,-1,-1,-1,-1,-1,-1,-1],"split_conditions":[3E0,2E0,4E0,1.74E2,2.04E1,8.6E0,3E0,4E0,6E0,2E0,2.78E1,6.7E0,1.1E0,6.78E1,2.023E3,1.042E2,1.98E1,5E0,2.024E3,3.7E0,1.91E1,2.44E1,1.03E1,4.98E1,1.2E0,-4.323495E-2,7.58E1,2E0,1E0,8.430792E-2,3E0,-1.9679451E-3,2.9154396E-2,1.1386184E-2,-1.9017125E-2,-1.0318735E-1,-4.6859927E-2,-2.4216775E-2,1.9920323E-2,3.1818524E-2,-2.3756083E-2,-1.3309656E-1,3.4382818E-3,4.309915E-2,3.5655722E-1,8.739027E-2,1.8970558E-1,-1.17419854E-1,3.2927322E-3,-4.7519404E-2,3.330264E-2,-2.257923E-1,-2.5212288E-2,-4.5631617E-2,-8.253402E-3,-1.3327417E-1,-1.9752084E-1,-1.6567157E-1,-8.67313E-2],"split_indices":[2,3,2,22,22,19,1,1,1,1,22,19,28,22,4,22,28,1,4,19,22,25,28,22,28,0,22,1,1,0,28,0,0,0,0,0,0,0,0,0,0,0,0,0,0,0,0,0,0,0,0,0,0,0,0,0,0,0,0],"split_type":[0,0,0,0,0,0,0,0,0,0,0,0,0,0,0,0,0,0,0,0,0,0,0,0,0,0,0,0,0,0,0,0,0,0,0,0,0,0,0,0,0,0,0,0,0,0,0,0,0,0,0,0,0,0,0,0,0,0,0],"sum_hessian":[4.77E2,2.66E2,2.11E2,4.2E1,2.24E2,1.3E2,8.1E1,9E0,3.3E1,1.1E1,2.13E2,1.17E2,1.3E1,3.4E1,4.7E1,4E0,5E0,2.6E1,7E0,4E0,7E0,1.1E1,2.02E2,2.6E1,9.1E1,2E0,1.1E1,2E0,3.2E1,1E0,4.6E1,1E0,3E0,2E0,3E0,2.3E1,3E0,5E0,2E0,1E0,3E0,6E0,1E0,2E0,9E0,1.69E2,3.3E1,2.5E1,1E0,7.9E1,1.2E1,1E1,1E0,1E0,1E0,1.2E1,2E1,7E0,3.9E1],"tree_param":{"num_deleted":"0","num_feature":"31","num_nodes":"59","size_leaf_vector":"1"}},{"base_weights":[-1.9325788E-1,8.691026E0,-9.514914E0,-8.297584E0,1.289195E1,-7.5500336E0,-1.5993527E1,-9.982552E0,-2.551214E0,1.3621859E1,-3.1386728E0,-4.3731008E0,-1.2634256E1,1.7516861E0,-1.675357E1,-5.8097496E0,-1.5437158E1,-6.4957147E0,2.4759057E0,1.030728E1,1.8230482E1,-7.7132382E0,2.0636268E0,-3.0474985E0,-1.7059252E1,-1.5007225E1,-3.5656812E0,-2.287777E-2,4.915306E-2,-1.7320168E1,-6.0493235E-2,-2.1393614E-2,-1.0000278E-1,-1.7705789E-1,-9.0832435E-2,-7.806061E-2,6.8318364E-3,2.8935727E-2,1.0937143E-2,5.0919674E-2,1.3344897E-1,2.1622905E-1,8.638988E-2,-3.342528E-2,-9.5128685E-2,6.548515E-2,-6.947241E-3,-5.701703E-2,3.5558134E-2,-8.9361854E-2,-2.339508E-1,-9.895219E-2,-1.700436E-1,-5.0187495E-2,8.388637E-2,-1.9005282E-1,-1.1580619E-1],"categories":[],"categories_nodes":[],"categories_segments":[],"categories_sizes":[],"default_left":[0,0,1,0,0,0,0,0,1,0,0,1,0,0,0,1,1,1,0,0,0,0,0,0,0,0,0,0,0,0,0,0,0,0,0,0,0,0,0,0,0,0,0,0,0,0,0,0,0,0,0,0,0,0,0,0,0],"id":13,"left_children":[1,3,5,7,9,11,13,15,17,19,21,23,25,27,29,31,33,35,37,39,41,43,45,47,49,51,53,-1,-1,55,-1,-1,-1,-1,-1,-1,-1,-1,-1,-1,-1,-1,-1,-1,-1,-1,-1,-1,-1,-1,-1,-1,-1,-1,-1,-1,-1],"loss_changes":[3.78469E4,1.6807049E4,2.7179727E3,4.2960742E2,2.2425215E3,2.739085E3,7.1718945E2,7.297092E2,2.540365E2,2.561711E3,2.301016E2,1.7642253E3,1.3667734E3,4.9583103E1,1.924082E2,3.1698492E2,5.539453E1,7.118091E1,2.9903412E-1,1.6271572E3,2.221045E3,7.531311E0,6.640389E1,1.7554019E3,3.0560083E2,3.6262402E2,3.026571E2,0E0,0E0,2.2481055E2,0E0,0E0,0E0,0E0,0E0,0E0,0E0,0E0,0E0,0E0,0E0,0E0,0E0,0E0,0E0,0E0,0E0,0E0,0E0,0E0,0E0,0E0,0E0,0E0,0E0,0E0,0E0],"parents":[2147483647,0,0,1,1,2,2,3,3,4,4,5,5,6,6,7,7,8,8,9,9,10,10,11,11,12,12,13,13,14,14,15,15,16,16,17,17,18,18,19,19,20,20,21,21,22,22,23,23,24,24,25,25,26,26,29,29],"right_children":[2,4,6,8,10,12,14,16,18,20,22,24,26,28,30,32,34,36,38,40,42,44,46,48,50,52,54,-1,-1,56,-1,-1,-1,-1,-1,-1,-1,-1,-1,-1,-1,-1,-1,-1,-1,-1,-1,-1,-1,-1,-1,-1,-1,-1,-1,-1,-1],"split_conditions":[1.74E2,3.6E1,1E-1,2.2E1,3E1,2.72E2,9.4E0,1.6E1,3E-1,1.8E1,2E0,8.7E0,3.41E2,2.4E1,2.9E1,2.1496E3,1.7E1,1.01E1,2.6E1,1.4E1,1.4E2,1.3952E3,5E0,2.4E2,2.19E2,2.88E2,3.1E1,-2.287777E-2,4.915306E-2,3E-1,-6.0493235E-2,-2.1393614E-2,-1.0000278E-1,-1.7705789E-1,-9.0832435E-2,-7.806061E-2,6.8318364E-3,2.8935727E-2,1.0937143E-2,5.0919674E-2,1.3344897E-1,2.1622905E-1,8.638988E-2,-3.342528E-2,-9.5128685E-2,6.548515E-2,-6.947241E-3,-5.701703E-2,3.5558134E-2,-8.9361854E-2,-2.339508E-1,-9.895219E-2,-1.700436E-1,-5.0187495E-2,8.388637E-2,-1.9005282E-1,-1.1580619E-1],"split_indices":[5,5,10,0,0,5,16,5,10,0,2,19,5,0,0,7,16,19,0,6,5,7,3,5,5,5,0,0,0,10,0,0,0,0,0,0,0,0,0,0,0,0,0,0,0,0,0,0,0,0,0,0,0,0,0,0,0],"split_type":[0,0,0,0,0,0,0,0,0,0,0,0,0,0,0,0,0,0,0,0,0,0,0,0,0,0,0,0,0,0,0,0,0,0,0,0,0,0,0,0,0,0,0,0,0,0,0,0,0,0,0,0,0,0,0,0,0],"sum_hessian":[4.55E2,2.33E2,2.22E2,4.6E1,1.87E2,1.72E2,5E1,3.5E1,1.1E1,1.79E2,8E0,1.07E2,6.5E1,2E0,4.8E1,2.1E1,1.4E1,6E0,5E0,1.06E2,7.3E1,4E0,4E0,9.8E1,9E0,5.1E1,1.4E1,1E0,1E0,4.5E1,3E0,1.2E1,9E0,9E0,5E0,5E0,1E0,3E0,2E0,4E1,6.6E1,5.3E1,2E1,2E0,2E0,1E0,3E0,7E1,2.8E1,5E0,4E0,1.6E1,3.5E1,1.3E1,1E0,3.3E1,1.2E1],"tree_param":{"num_deleted":"0","num_feature":"31","num_nodes":"57","size_leaf_vector":"1"}},{"base_weights":[-1.9436985E-1,7.7170157E0,-9.32754E0,-8.699677E0,1.15844965E1,-6.55487E0,-1.4600638E1,4.1058642E-1,-1.1665455E1,1.3237452E1,3.92834E0,-2.9020476E0,-1.2373656E1,-9.248427E0,-1.6937983E1,-1.7564596E0,1.3207568E-1,-1.3548638E1,-3.145337E0,8.5667986E-1,1.4988394E1,-6.9858823E0,7.556405E0,-6.3955054E0,3.7388744E0,-1.5005716E1,-2.513323E0,-1.1867421E1,7.4681425E0,-1.7642115E1,2.0882797E-1,-7.251811E-2,8.81081E-3,-1.4016399E-1,8.2149505E-5,5.021618E-2,-6.704592E-2,1.796921E-1,-3.9443944E-2,1.9380474E-1,8.22367E-2,-8.295274E-2,-2.947977E-2,1.7557997E-1,4.1839026E-2,-1.0633118E-1,-2.35531E-2,1.1690296E-1,-8.781687E-2,-1.8304159E-1,-1.14943415E-1,-4.1138824E-2,8.346695E-2,-1.3536324E-1,-9.732809E-3,1.0302759E-2,1.339087E-1,-1.0242602E-1,-1.8631496E-1,4.89073E-2,-4.5774877E-2],"categories":[],"categories_nodes":[],"categories_segments":[],"categories_sizes":[],"default_left":[0,0,1,0,1,0,0,0,0,0,0,0,0,0,0,0,0,0,0,0,0,0,0,0,0,0,0,0,0,0,0,0,0,0,0,0,0,0,0,0,0,0,0,0,0,0,0,0,0,0,0,0,0,0,0,0,0,0,0,0,0],"id":14,"left_children":[1,3,5,7,9,11,13,15,17,19,21,23,25,27,29,31,-1,33,35,37,39,41,43,45,47,49,51,53,55,57,59,-1,-1,-1,-1,-1,-1,-1,-1,-1,-1,-1,-1,-1,-1,-1,-1,-1,-1,-1,-1,-1,-1,-1,-1,-1,-1,-1,-1,-1,-1],"loss_changes":[3.4249086E4,1.6227556E4,3.1208164E3,1.328721E3,2.5549883E3,3.0673208E3,7.8159766E2,3.8371E2,5.5104785E2,3.6507422E3,1.5574933E3,2.1350918E3,1.4156533E3,1.1831423E3,6.194385E2,1.8031999E2,0E0,1.9035596E2,2.6621408E2,1.8783654E3,4.237879E3,2.8417694E1,9.0472046E2,1.0022029E3,3.2884612E3,2.9921582E2,2.603047E2,3.8681274E2,1.3872267E2,1.6789062E2,8.961444E1,0E0,0E0,0E0,0E0,0E0,0E0,0E0,0E0,0E0,0E0,0E0,0E0,0E0,0E0,0E0,0E0,0E0,0E0,0E0,0E0,0E0,0E0,0E0,0E0,0E0,0E0,0E0,0E0,0E0,0E0],"parents":[2147483647,0,0,1,1,2,2,3,3,4,4,5,5,6,6,7,7,8,8,9,9,10,10,11,11,12,12,13,13,14,14,15,15,17,17,18,18,19,19,20,20,21,21,22,22,23,23,24,24,25,25,26,26,27,27,28,28,29,29,30,30],"right_children":[2,4,6,8,10,12,14,16,18,20,22,24,26,28,30,32,-1,34,36,38,40,42,44,46,48,50,52,54,56,58,60,-1,-1,-1,-1,-1,-1,-1,-1,-1,-1,-1,-1,-1,-1,-1,-1,-1,-1,-1,-1,-1,-1,-1,-1,-1,-1,-1,-1,-1,-1],"split_conditions":[1.74E2,3.4E1,1E0,2.13E2,6.2E0,2.87E2,2.33E2,1.3E1,5E0,5E0,5.3E1,2.41E2,3.47E2,2.26E2,3.1E1,2.1E1,1.3207568E-1,2.8E1,1.5E1,6.2E0,1.29E2,1.6E1,6.2E1,3E0,4E0,3E0,3E1,2.38E1,3E0,2.24E1,6E0,-7.251811E-2,8.81081E-3,-1.4016399E-1,8.2149505E-5,5.021618E-2,-6.704592E-2,1.796921E-1,-3.9443944E-2,1.9380474E-1,8.22367E-2,-8.295274E-2,-2.947977E-2,1.7557997E-1,4.1839026E-2,-1.0633118E-1,-2.35531E-2,1.1690296E-1,-8.781687E-2,-1.8304159E-1,-1.14943415E-1,-4.1138824E-2,8.346695E-2,-1.3536324E-1,-9.732809E-3,1.0302759E-2,1.339087E-1,-1.0242602E-1,-1.8631496E-1,4.89073E-2,-4.5774877E-2],"split_indices":[5,5,28,22,19,5,5,19,1,0,5,5,5,5,0,0,0,0,0,28,5,0,5,1,1,1,0,22,1,16,1,0,0,0,0,0,0,0,0,0,0,0,0,0,0,0,0,0,0,0,0,0,0,0,0,0,0,0,0,0,0],"split_type":[0,0,0,0,0,0,0,0,0,0,0,0,0,0,0,0,0,0,0,0,0,0,0,0,0,0,0,0,0,0,0,0,0,0,0,0,0,0,0,0,0,0,0,0,0,0,0,0,0,0,0,0,0,0,0,0,0,0,0,0,0],"sum_hessian":[4.72E2,2.53E2,2.19E2,4.8E1,2.05E2,1.45E2,7.4E1,1.2E1,3.6E1,1.68E2,3.7E1,9E1,5.5E1,2.4E1,5E1,1.1E1,1E0,2.9E1,7E0,2.1E1,1.47E2,9E0,2.8E1,5.9E1,3.1E1,4.3E1,1.2E1,2.1E1,3E0,4.8E1,2E0,3E0,8E0,2.8E1,1E0,2E0,5E0,4E0,1.7E1,8.8E1,5.9E1,6E0,3E0,6E0,2.2E1,2.8E1,3.1E1,1.9E1,1.2E1,2E1,2.3E1,1.1E1,1E0,1.8E1,3E0,2E0,1E0,7E0,4.1E1,1E0,1E0],"tree_param":{"num_deleted":"0","num_feature":"31","num_nodes":"61","size_leaf_vector":"1"}},{"base_weights":[5.1558393E-1,9.391892E0,-9.234806E0,-6.618661E0,1.3107412E1,-7.029131E0,-1.51465E1,-9.466702E0,2.4770205E0,9.553534E0,1.7707281E1,-4.2106743E0,-1.2021432E1,-6.9645314E0,-1.7261415E1,-1.8212946E-1,-1.1317547E1,-1.5579832E0,1.0936523E1,2.686103E1,7.276339E0,1.8583508E1,-4.9012218E0,4.0893695E-1,-8.585742E0,-1.6452303E1,-1.0148736E0,-1.359358E1,4.1397967E0,-3.653193E0,-1.8106222E1,2.445327E-2,-4.5005135E-2,-1.2543759E-1,-2.6777366E-2,5.4284637E-3,-5.940591E-2,1.413179E-1,6.753616E-3,4.3513235E-2,3.055813E-1,1.3610497E-2,9.688636E-2,1.4166003E-1,2.2763242E-1,-1.1303252E-1,1.0005391E-2,-6.849365E-2,1.0174085E-1,-9.414683E-2,8.920807E-2,-1.9508329E-1,-1.12938076E-1,-5.2141502E-2,2.1314071E-2,-7.252977E-2,-1.9706088E-1,-4.8511505E-2,1.4747794E-1,-8.1151076E-2,4.8662756E-2,-2.2833759E-1,-1.3599944E-1],"categories":[],"categories_nodes":[],"categories_segments":[],"categories_sizes":[],"default_left":[0,0,1,0,0,0,0,0,0,0,0,0,0,0,0,0,1,0,0,0,0,0,0,0,1,0,0,0,0,0,0,0,0,0,0,0,0,0,0,0,0,0,0,0,0,0,0,0,0,0,0,0,0,0,0,0,0,0,0,0,0,0,0],"id":15,"left_children":[1,3,5,7,9,11,13,15,17,19,21,23,25,27,29,31,33,35,37,39,41,43,45,47,49,51,53,55,57,59,61,-1,-1,-1,-1,-1,-1,-1,-1,-1,-1,-1,-1,-1,-1,-1,-1,-1,-1,-1,-1,-1,-1,-1,-1,-1,-1,-1,-1,-1,-1,-1,-1],"loss_changes":[4.06775E4,1.4720686E4,2.81433E3,1.2409788E3,3.1003125E3,2.2710273E3,9.180332E2,6.1657324E2,4.266484E2,4.336991E3,1.7947539E3,2.1661E3,2.8606533E3,1.0868304E3,4.7418066E2,9.042979E1,2.8423804E2,8.608884E1,1.2160455E2,9.488994E2,1.4565645E3,1.2100469E3,1.6244238E2,3.8262407E3,8.8214136E2,4.4178516E2,2.4893137E2,2.0588513E2,6.437994E2,1.9154294E2,6.268203E2,0E0,0E0,0E0,0E0,0E0,0E0,0E0,0E0,0E0,0E0,0E0,0E0,0E0,0E0,0E0,0E0,0E0,0E0,0E0,0E0,0E0,0E0,0E0,0E0,0E0,0E0,0E0,0E0,0E0,0E0,0E0,0E0],"parents":[2147483647,0,0,1,1,2,2,3,3,4,4,5,5,6,6,7,7,8,8,9,9,10,10,11,11,12,12,13,13,14,14,15,15,16,16,17,17,18,18,19,19,20,20,21,21,22,22,23,23,24,24,25,25,26,26,27,27,28,28,29,29,30,30],"right_children":[2,4,6,8,10,12,14,16,18,20,22,24,26,28,30,32,34,36,38,40,42,44,46,48,50,52,54,56,58,60,62,-1,-1,-1,-1,-1,-1,-1,-1,-1,-1,-1,-1,-1,-1,-1,-1,-1,-1,-1,-1,-1,-1,-1,-1,-1,-1,-1,-1,-1,-1,-1,-1],"split_conditions":[1.74E2,3.4E1,6.108E2,5E0,4E0,2.87E2,2.31E2,3.58E1,2.2E1,7.21E2,1.68E2,4E0,3.41E2,2.23E1,9.4E0,2.7E1,3.60925E2,1.6E1,2.8E1,6E0,1.98E1,1.04E2,1.69E2,2.35E2,5.774E2,4E0,3.49E2,2.04E1,2E0,2E0,2.62E2,2.445327E-2,-4.5005135E-2,-1.2543759E-1,-2.6777366E-2,5.4284637E-3,-5.940591E-2,1.413179E-1,6.753616E-3,4.3513235E-2,3.055813E-1,1.3610497E-2,9.688636E-2,1.4166003E-1,2.2763242E-1,-1.1303252E-1,1.0005391E-2,-6.849365E-2,1.0174085E-1,-9.414683E-2,8.920807E-2,-1.9508329E-1,-1.12938076E-1,-5.2141502E-2,2.1314071E-2,-7.252977E-2,-1.9706088E-1,-4.8511505E-2,1.4747794E-1,-8.1151076E-2,4.8662756E-2,-2.2833759E-1,-1.3599944E-1],"split_indices":[5,5,7,1,1,5,5,13,5,7,5,1,5,25,16,5,25,5,5,13,13,5,5,5,7,1,5,25,1,1,5,0,0,0,0,0,0,0,0,0,0,0,0,0,0,0,0,0,0,0,0,0,0,0,0,0,0,0,0,0,0,0,0],"split_type":[0,0,0,0,0,0,0,0,0,0,0,0,0,0,0,0,0,0,0,0,0,0,0,0,0,0,0,0,0,0,0,0,0,0,0,0,0,0,0,0,0,0,0,0,0,0,0,0,0,0,0,0,0,0,0,0,0,0,0,0,0,0,0],"sum_hessian":[4.68E2,2.45E2,2.23E2,4.6E1,1.99E2,1.64E2,5.9E1,3.5E1,1.1E1,1.14E2,8.5E1,1.06E2,5.8E1,1.3E1,4.6E1,6E0,2.9E1,8E0,3E0,1.2E1,1.02E2,8.2E1,3E0,5.2E1,5.4E1,4.1E1,1.7E1,8E0,5E0,3E0,4.3E1,4E0,2E0,2.5E1,4E0,6E0,2E0,2E0,1E0,2E0,1E1,3E1,7.2E1,4.2E1,4E1,1E0,2E0,3E1,2.2E1,5.2E1,2E0,2.4E1,1.7E1,7E0,1E1,5E0,3E0,3E0,2E0,2E0,1E0,1.9E1,2.4E1],"tree_param":{"num_deleted":"0","num_feature":"31","num_nodes":"63","size_leaf_vector":"1"}},{"base_weights":[1.9031611E-1,9.199414E0,-8.931718E0,-6.871519E0,1.2868074E1,-7.0952296E0,-1.6772972E1,2.8380513E0,-8.990325E0,1.3736168E1,4.4118357E0,-7.4431334E0,1.7883568E1,-3.5339024E0,-1.871914E1,-7.4910164E-2,1.3070871E-1,-7.373329E0,-1.5097973E1,1.6581972E1,9.623725E0,-5.0428505E0,8.824047E0,-1.289255E1,-6.2122464E0,2.3408557E-1,3.4167938E-2,-1.0308693E1,1.855742E-1,3.9093018E-1,-1.9762682E1,1.9636668E-2,-4.127094E-2,5.2083783E-2,-9.896178E-2,-1.6454732E-1,-3.4787044E-2,1.122019E-1,2.7448627E-1,6.1965294E-2,1.8910047E-1,-6.737619E-2,2.5628814E-2,2.308969E-1,5.95056E-2,-1.9075865E-2,-1.4659792E-1,-4.0789552E-2,-9.735303E-2,-2.5028838E-2,-1.3585876E-1,-4.2555485E-2,4.8419435E-2,-1.4197512E-1,-2.2532892E-1],"categories":[],"categories_nodes":[],"categories_segments":[],"categories_sizes":[],"default_left":[0,0,1,0,1,1,0,0,1,0,0,0,0,0,0,0,0,0,0,0,0,0,0,0,0,0,0,0,0,0,0,0,0,0,0,0,0,0,0,0,0,0,0,0,0,0,0,0,0,0,0,0,0,0,0],"id":16,"left_children":[1,3,5,7,9,11,13,15,17,19,21,23,25,27,29,31,-1,33,35,37,39,41,43,45,47,-1,-1,49,-1,51,53,-1,-1,-1,-1,-1,-1,-1,-1,-1,-1,-1,-1,-1,-1,-1,-1,-1,-1,-1,-1,-1,-1,-1,-1],"loss_changes":[3.9857914E4,1.4474369E4,3.3514844E3,9.718589E2,1.4002148E3,1.8450801E3,1.093292E3,2.6924942E2,2.639673E2,1.947E3,8.788199E2,1.2278945E3,1.5980414E2,1.2389513E3,7.854697E2,7.418976E1,0E0,1.0672788E3,5.3110718E1,5.8098086E3,2.3016025E3,1.0749742E2,4.3649353E2,6.514927E2,1.1703188E3,0E0,0E0,1.1948248E2,0E0,8.264975E1,2.5050684E2,0E0,0E0,0E0,0E0,0E0,0E0,0E0,0E0,0E0,0E0,0E0,0E0,0E0,0E0,0E0,0E0,0E0,0E0,0E0,0E0,0E0,0E0,0E0,0E0],"parents":[2147483647,0,0,1,1,2,2,3,3,4,4,5,5,6,6,7,7,8,8,9,9,10,10,11,11,12,12,13,13,14,14,15,15,17,17,18,18,19,19,20,20,21,21,22,22,23,23,24,24,27,27,29,29,30,30],"right_children":[2,4,6,8,10,12,14,16,18,20,22,24,26,28,30,32,-1,34,36,38,40,42,44,46,48,-1,-1,50,-1,52,54,-1,-1,-1,-1,-1,-1,-1,-1,-1,-1,-1,-1,-1,-1,-1,-1,-1,-1,-1,-1,-1,-1,-1,-1],"split_conditions":[1.74E2,3.4E1,6.542E2,2.025E2,7.7E0,2.74E1,2.3E1,2.7E1,3.65E1,5E0,4.8E1,5.874E2,2E0,7.811E2,1.02E1,5E0,1.3070871E-1,7E0,2E0,9.5E1,1.6E2,4E0,5.4E1,1E0,2.87E2,2.3408557E-1,3.4167938E-2,5.3E0,1.855742E-1,2E0,5.5E0,1.9636668E-2,-4.127094E-2,5.2083783E-2,-9.896178E-2,-1.6454732E-1,-3.4787044E-2,1.122019E-1,2.7448627E-1,6.1965294E-2,1.8910047E-1,-6.737619E-2,2.5628814E-2,2.308969E-1,5.95056E-2,-1.9075865E-2,-1.4659792E-1,-4.0789552E-2,-9.735303E-2,-2.5028838E-2,-1.3585876E-1,-4.2555485E-2,4.8419435E-2,-1.4197512E-1,-2.2532892E-1],"split_indices":[5,5,7,22,19,22,22,5,16,3,5,7,1,7,16,1,0,5,3,5,5,1,5,1,5,0,0,19,0,1,19,0,0,0,0,0,0,0,0,0,0,0,0,0,0,0,0,0,0,0,0,0,0,0,0],"split_type":[0,0,0,0,0,0,0,0,0,0,0,0,0,0,0,0,0,0,0,0,0,0,0,0,0,0,0,0,0,0,0,0,0,0,0,0,0,0,0,0,0,0,0,0,0,0,0,0,0,0,0,0,0,0,0],"sum_hessian":[4.83E2,2.43E2,2.4E2,4.5E1,1.98E2,1.96E2,4.4E1,8E0,3.7E1,1.79E2,1.9E1,1.94E2,2E0,6E0,3.8E1,7E0,1E0,3.1E1,6E0,1.04E2,7.5E1,6E0,1.3E1,3.4E1,1.6E2,1E0,1E0,5E0,1E0,2E0,3.6E1,5E0,2E0,5E0,2.6E1,5E0,1E0,7.1E1,3.3E1,5.6E1,1.9E1,5E0,1E0,1E0,1.2E1,5E0,2.9E1,1.01E2,5.9E1,2E0,3E0,1E0,1E0,1.4E1,2.2E1],"tree_param":{"num_deleted":"0","num_feature":"31","num_nodes":"55","size_leaf_vector":"1"}},{"base_weights":[-1.18983954E-1,8.72966E0,-9.778556E0,-6.1703386E0,1.2673955E1,-7.9183135E0,-1.6813576E1,1.1313683E0,-8.109628E0,1.3710313E1,2.1887748E0,-8.410829E0,2.4436238E-1,-8.980523E0,-1.7740839E1,-1.1304193E0,1.3005516E-1,-6.9457564E0,-1.218786E-1,1.6181854E1,9.40157E0,-8.518417E0,1.267709E1,-9.1439905E0,-8.000935E-1,-1.354022E-1,-4.4485997E-2,-1.3032031E1,-1.9461641E1,-2.9704241E-2,2.8321952E-2,-7.954175E-2,6.9559095E-3,1.1565748E-1,2.4006096E-1,1.2802832E-1,5.984009E-3,-9.905096E-2,-1.9811349E-2,2.2289398E-1,7.487837E-2,-6.95576E-2,-1.5808316E-1,8.342983E-2,-1.8929722E-2,-1.7494106E-1,-6.0707964E-2,-2.0129947E-1,-7.182443E-2],"categories":[],"categories_nodes":[],"categories_segments":[],"categories_sizes":[],"default_left":[0,0,1,0,1,1,0,0,1,0,0,0,0,0,0,0,0,1,0,0,1,0,0,0,0,0,0,0,0,0,0,0,0,0,0,0,0,0,0,0,0,0,0,0,0,0,0,0,0],"id":17,"left_children":[1,3,5,7,9,11,13,15,17,19,21,23,-1,25,27,29,-1,31,-1,33,35,37,39,41,43,-1,-1,45,47,-1,-1,-1,-1,-1,-1,-1,-1,-1,-1,-1,-1,-1,-1,-1,-1,-1,-1,-1,-1],"loss_changes":[4.0941992E4,1.4770695E4,2.863752E3,7.596614E2,2.121539E3,3.1216572E3,1.8205273E2,3.369833E2,1.1470068E2,1.7647266E3,2.2416963E3,1.0026455E3,0E0,8.441437E1,7.859668E1,8.861635E1,0E0,2.7523145E2,0E0,3.8036309E3,2.0283867E3,7.102777E1,3.3190747E2,2.29625E3,1.8566171E2,0E0,0E0,3.286587E2,8.519238E1,0E0,0E0,0E0,0E0,0E0,0E0,0E0,0E0,0E0,0E0,0E0,0E0,0E0,0E0,0E0,0E0,0E0,0E0,0E0,0E0],"parents":[2147483647,0,0,1,1,2,2,3,3,4,4,5,5,6,6,7,7,8,8,9,9,10,10,11,11,13,13,14,14,15,15,17,17,19,19,20,20,21,21,22,22,23,23,24,24,27,27,28,28],"right_children":[2,4,6,8,10,12,14,16,18,20,22,24,-1,26,28,30,-1,32,-1,34,36,38,40,42,44,-1,-1,46,48,-1,-1,-1,-1,-1,-1,-1,-1,-1,-1,-1,-1,-1,-1,-1,-1,-1,-1,-1,-1],"split_conditions":[1.74E2,3.4E1,6.709E2,2.58E2,1.164E2,2.78E1,2.23E2,3.78E1,4E-1,1.28E2,5.2E1,3.41E2,2.4436238E-1,1.87E2,1.22E1,3E-1,1.3005516E-1,1E-1,-1.218786E-1,9.7E1,1E1,4.5E1,3E0,2.88E2,2.023E3,-1.354022E-1,-4.4485997E-2,1.06E1,1.1E1,-2.9704241E-2,2.8321952E-2,-7.954175E-2,6.9559095E-3,1.1565748E-1,2.4006096E-1,1.2802832E-1,5.984009E-3,-9.905096E-2,-1.9811349E-2,2.2289398E-1,7.487837E-2,-6.95576E-2,-1.5808316E-1,8.342983E-2,-1.8929722E-2,-1.7494106E-1,-6.0707964E-2,-2.0129947E-1,-7.182443E-2],"split_indices":[5,5,7,25,22,22,5,13,10,5,5,5,0,5,13,10,0,10,0,5,13,5,3,5,4,0,0,13,3,0,0,0,0,0,0,0,0,0,0,0,0,0,0,0,0,0,0,0,0],"split_type":[0,0,0,0,0,0,0,0,0,0,0,0,0,0,0,0,0,0,0,0,0,0,0,0,0,0,0,0,0,0,0,0,0,0,0,0,0,0,0,0,0,0,0,0,0,0,0,0,0],"sum_hessian":[4.77E2,2.49E2,2.28E2,5.2E1,1.97E2,1.82E2,4.6E1,1.1E1,4.1E1,1.79E2,1.8E1,1.8E2,2E0,6E0,4E1,1E1,1E0,3.4E1,7E0,1.12E2,6.7E1,9E0,9E0,1.64E2,1.6E1,2E0,4E0,1.3E1,2.7E1,7E0,3E0,3E1,4E0,7.2E1,4E1,4.8E1,1.9E1,7E0,2E0,2E0,7E0,1.25E2,3.9E1,1E0,1.5E1,7E0,6E0,2.5E1,2E0],"tree_param":{"num_deleted":"0","num_feature":"31","num_nodes":"49","size_leaf_vector":"1"}},{"base_weights":[5.203452E-1,8.394294E0,-8.384525E0,-8.995105E0,1.2032463E1,-6.3107305E0,-1.5577501E1,-1.1022196E1,-1.9118142E0,1.4635797E1,7.22074E0,-6.807483E0,2.4273331E-1,-1.819689E1,-5.984646E0,-9.3024445E-1,-1.1968828E1,-3.5636712E-2,-1.0336795E-1,1.0151066E1,2.2721338E1,1.1027933E1,1.7602003E0,-4.6390486E0,-1.0136537E1,-1.3765599E1,-2.2355791E1,-7.422956E0,4.9183827E-2,3.013954E-3,-2.312582E-2,-9.4734564E-2,-1.3716148E-1,-2.4974816E-2,6.541162E-2,1.2358817E-1,2.9660482E-2,5.936041E-2,2.4144714E-1,1.6156198E-1,6.081204E-2,-5.9367437E-2,4.5732126E-2,-6.9037214E-2,4.32169E-2,-1.3055068E-1,-1.4663626E-2,-6.732015E-2,-1.6130231E-1,-2.4063997E-1,-5.7934266E-2,-3.4764989E-3,-8.956618E-2],"categories":[],"categories_nodes":[],"categories_segments":[],"categories_sizes":[],"default_left":[0,0,1,0,0,1,0,0,0,0,1,0,0,0,0,0,0,0,0,1,0,0,0,0,0,0,0,0,0,0,0,0,0,0,0,0,0,0,0,0,0,0,0,0,0,0,0,0,0,0,0,0,0],"id":18,"left_children":[1,3,5,7,9,11,13,15,17,19,21,23,-1,25,27,29,31,33,-1,35,37,39,41,43,45,47,49,51,-1,-1,-1,-1,-1,-1,-1,-1,-1,-1,-1,-1,-1,-1,-1,-1,-1,-1,-1,-1,-1,-1,-1,-1,-1],"loss_changes":[3.3165367E4,1.5987895E4,3.2132148E3,6.107007E2,2.499836E3,2.8087734E3,1.1223418E3,3.1368066E2,1.7350598E2,4.6283926E3,1.5397886E3,1.1946157E3,0E0,3.9257227E2,2.2469217E2,7.5071697E0,5.227051E0,1.7824701E2,0E0,1.3592637E3,9.7959375E2,1.0179487E3,7.200011E2,2.1809087E3,1.6762363E3,2.4067969E2,3.698418E2,1.1624866E2,0E0,0E0,0E0,0E0,0E0,0E0,0E0,0E0,0E0,0E0,0E0,0E0,0E0,0E0,0E0,0E0,0E0,0E0,0E0,0E0,0E0,0E0,0E0,0E0,0E0],"parents":[2147483647,0,0,1,1,2,2,3,3,4,4,5,5,6,6,7,7,8,8,9,9,10,10,11,11,13,13,14,14,15,15,16,16,17,17,19,19,20,20,21,21,22,22,23,23,24,24,25,25,26,26,27,27],"right_children":[2,4,6,8,10,12,14,16,18,20,22,24,-1,26,28,30,32,34,-1,36,38,40,42,44,46,48,50,52,-1,-1,-1,-1,-1,-1,-1,-1,-1,-1,-1,-1,-1,-1,-1,-1,-1,-1,-1,-1,-1,-1,-1,-1,-1],"split_conditions":[1.74E2,3.4E1,6.709E2,5E0,1.27E2,2.78E1,3E-1,2.066E2,2.3E1,9.6E1,1E-1,2.72E2,2.4273331E-1,2E-1,3.1E1,2.7E1,1.4E1,2.1E1,-1.0336795E-1,1.032E2,4E0,1.6E1,3.52E1,2.41E2,3.39E2,1.1E1,2.98E2,1.09E1,4.9183827E-2,3.013954E-3,-2.312582E-2,-9.4734564E-2,-1.3716148E-1,-2.4974816E-2,6.541162E-2,1.2358817E-1,2.9660482E-2,5.936041E-2,2.4144714E-1,1.6156198E-1,6.081204E-2,-5.9367437E-2,4.5732126E-2,-6.9037214E-2,4.32169E-2,-1.3055068E-1,-1.4663626E-2,-6.732015E-2,-1.6130231E-1,-2.4063997E-1,-5.7934266E-2,-3.4764989E-3,-8.956618E-2],"split_indices":[5,5,7,1,5,22,10,22,0,5,10,5,0,10,0,0,5,0,0,22,0,0,22,5,5,0,5,13,0,0,0,0,0,0,0,0,0,0,0,0,0,0,0,0,0,0,0,0,0,0,0,0,0],"split_type":[0,0,0,0,0,0,0,0,0,0,0,0,0,0,0,0,0,0,0,0,0,0,0,0,0,0,0,0,0,0,0,0,0,0,0,0,0,0,0,0,0,0,0,0,0,0,0,0,0,0,0,0,0],"sum_hessian":[4.71E2,2.5E2,2.21E2,4.3E1,2.07E2,1.73E2,4.8E1,3.3E1,1E1,1.33E2,7.4E1,1.71E2,2E0,3.7E1,1.1E1,3E0,3E1,9E0,1E0,8.7E1,4.6E1,4.3E1,3.1E1,1.05E2,6.6E1,2E1,1.7E1,1E1,1E0,2E0,1E0,1.5E1,1.5E1,7E0,2E0,6.6E1,2.1E1,4E0,4.2E1,2E1,2.3E1,8E0,2.3E1,8.4E1,2.1E1,4.9E1,1.7E1,6E0,1.4E1,1.5E1,2E0,2E0,8E0],"tree_param":{"num_deleted":"0","num_feature":"31","num_nodes":"53","size_leaf_vector":"1"}},{"base_weights":[-1.9273818E-1,7.989432E0,-9.037459E0,-6.283227E0,1.197061E1,-7.3792953E0,-1.7128838E1,-9.878358E0,-1.1644315E0,3.0124153E1,1.0996429E1,-7.6200013E0,1.8575637E-1,-1.8700512E1,-5.891765E0,-1.54687395E1,-6.479665E0,-3.2055967E0,6.8248825E0,-1.434122E-2,3.4248203E-1,-6.4538713E0,1.1531889E1,-1.7922598E1,-7.0530896E0,-1.1360257E1,-1.9957485E1,5.704805E-2,-1.3116251E-1,-1.885103E-1,-4.836974E-2,-3.1954892E-2,-1.1417014E-1,-6.57583E-2,4.8519666E-3,1.2992172E-1,2.035017E-2,8.664839E-2,-1.1210581E-1,2.0089038E-1,1.0604099E-1,-1.9257247E-1,-3.6226995E-2,-5.670589E-2,-1.00166254E-1,-1.4294522E-1,-2.6830634E-2,-2.4727766E-1,-1.5430573E-1],"categories":[],"categories_nodes":[],"categories_segments":[],"categories_sizes":[],"default_left":[0,0,1,0,0,1,0,0,1,0,0,0,0,0,0,1,1,0,0,0,0,0,0,0,0,0,0,0,0,0,0,0,0,0,0,0,0,0,0,0,0,0,0,0,0,0,0,0,0],"id":19,"left_children":[1,3,5,7,9,11,13,15,17,19,21,23,-1,25,27,29,31,33,35,-1,-1,37,39,41,43,45,47,-1,-1,-1,-1,-1,-1,-1,-1,-1,-1,-1,-1,-1,-1,-1,-1,-1,-1,-1,-1,-1,-1],"loss_changes":[3.3434316E4,1.3712493E4,2.8521367E3,9.638428E2,2.9934902E3,1.303582E3,5.432793E2,4.8876758E2,3.9695056E2,1.2204473E3,1.7563301E3,9.541133E2,0E0,6.8524414E1,5.775012E2,3.04375E2,3.040346E2,2.3952844E2,1.2126315E2,0E0,0E0,5.2862976E2,1.1763398E3,1.0200488E2,6.6838477E2,1.3987512E2,1.7989844E2,0E0,0E0,0E0,0E0,0E0,0E0,0E0,0E0,0E0,0E0,0E0,0E0,0E0,0E0,0E0,0E0,0E0,0E0,0E0,0E0,0E0,0E0],"parents":[2147483647,0,0,1,1,2,2,3,3,4,4,5,5,6,6,7,7,8,8,9,9,10,10,11,11,13,13,14,14,15,15,16,16,17,17,18,18,21,21,22,22,23,23,24,24,25,25,26,26],"right_children":[2,4,6,8,10,12,14,16,18,20,22,24,-1,26,28,30,32,34,36,-1,-1,38,40,42,44,46,48,-1,-1,-1,-1,-1,-1,-1,-1,-1,-1,-1,-1,-1,-1,-1,-1,-1,-1,-1,-1,-1,-1],"split_conditions":[2.5E1,6E0,1.2E1,4E0,2.78E1,1.18E1,5E0,2E0,3.54E1,2E0,3.52E1,4.3E0,1.8575637E-1,3.3E1,4E0,2.9423625E3,2.258E2,5E0,2.47E3,-1.434122E-2,3.4248203E-1,5E0,4.6E1,6E0,4.2E1,3.2E1,3.9E1,5.704805E-2,-1.3116251E-1,-1.885103E-1,-4.836974E-2,-3.1954892E-2,-1.1417014E-1,-6.57583E-2,4.8519666E-3,1.2992172E-1,2.035017E-2,8.664839E-2,-1.1210581E-1,2.0089038E-1,1.0604099E-1,-1.9257247E-1,-3.6226995E-2,-5.670589E-2,-1.00166254E-1,-1.4294522E-1,-2.6830634E-2,-2.4727766E-1,-1.5430573E-1],"split_indices":[6,6,13,6,22,13,1,1,13,2,22,19,0,6,2,7,22,6,7,0,0,3,22,1,6,6,6,0,0,0,0,0,0,0,0,0,0,0,0,0,0,0,0,0,0,0,0,0,0],"split_type":[0,0,0,0,0,0,0,0,0,0,0,0,0,0,0,0,0,0,0,0,0,0,0,0,0,0,0,0,0,0,0,0,0,0,0,0,0,0,0,0,0,0,0,0,0,0,0,0,0],"sum_hessian":[4.6E2,2.39E2,2.21E2,5.2E1,1.87E2,1.85E2,3.6E1,3E1,2.2E1,8E0,1.79E2,1.84E2,1E0,3.1E1,5E0,1E1,2E1,1.8E1,4E0,1E0,7E0,5E0,1.74E2,8E0,1.76E2,6E0,2.5E1,2E0,3E0,7E0,3E0,1.3E1,7E0,9E0,9E0,1E0,3E0,1E0,4E0,1.5E1,1.59E2,7E0,1E0,1.22E2,5.4E1,4E0,2E0,1E1,1.5E1],"tree_param":{"num_deleted":"0","num_feature":"31","num_nodes":"49","size_leaf_vector":"1"}},{"base_weights":[2.8232053E-1,8.173398E0,-8.555532E0,-5.9973593E0,1.1968741E1,-5.8327003E0,-1.3632993E1,-7.6027637E0,2.5176573E0,5.573929E0,1.3408737E1,-3.448605E0,-9.698179E0,-1.5249278E1,-4.7515345E0,-3.9907734E0,-1.2598373E1,7.0153975E0,-4.8583674E0,2.6491701E1,1.4776611E0,-2.5900712E0,1.4177743E1,-7.0152946E0,1.6167408E0,-1.3486212E1,-6.603317E-1,-1.064308E1,-1.7298971E1,2.307632E-1,-8.993549E0,3.1386947E-3,-9.3977325E-2,-3.600912E-3,-1.5022025E-1,3.2475922E-2,1.2927212E-1,-7.4064806E-2,1.39298625E-2,3.1614178E-1,4.396553E-3,-6.829525E-2,5.5640873E-2,9.468097E-3,-8.800476E-2,1.5970248E-1,7.645141E-2,-2.7025588E-2,-1.1068205E-1,6.7162424E-2,-7.095834E-3,-1.7820396E-1,-1.1736415E-1,-3.7766665E-2,3.3176284E-2,-1.3909955E-1,-3.1873032E-2,-1.9035557E-1,-8.816428E-2,-1.164529E-1,-7.787428E-3],"categories":[],"categories_nodes":[],"categories_segments":[],"categories_sizes":[],"default_left":[0,0,1,1,0,0,0,0,0,0,0,0,0,0,0,1,0,0,0,0,0,0,1,0,0,0,0,0,0,0,0,0,0,0,0,0,0,0,0,0,0,0,0,0,0,0,0,0,0,0,0,0,0,0,0,0,0,0,0,0,0],"id":20,"left_children":[1,3,5,7,9,11,13,15,17,19,21,23,25,27,29,31,33,35,37,39,41,43,45,47,49,51,53,55,57,-1,59,-1,-1,-1,-1,-1,-1,-1,-1,-1,-1,-1,-1,-1,-1,-1,-1,-1,-1,-1,-1,-1,-1,-1,-1,-1,-1,-1,-1,-1,-1],"loss_changes":[3.2080674E4,1.3141025E4,2.9205225E3,7.299835E2,1.693291E3,1.284396E3,1.004166E3,7.4366284E2,3.3266235E2,3.131192E3,1.9560156E3,1.6373284E3,1.8398198E3,4.1068555E2,1.7421382E3,6.313754E2,5.2849414E2,9.16651E1,7.403376E1,7.868071E2,1.1242946E3,1.8405608E2,1.6226562E3,8.9648145E2,4.555633E2,7.904199E1,2.2327274E2,4.91521E2,4.5086328E2,0E0,2.5233392E2,0E0,0E0,0E0,0E0,0E0,0E0,0E0,0E0,0E0,0E0,0E0,0E0,0E0,0E0,0E0,0E0,0E0,0E0,0E0,0E0,0E0,0E0,0E0,0E0,0E0,0E0,0E0,0E0,0E0,0E0],"parents":[2147483647,0,0,1,1,2,2,3,3,4,4,5,5,6,6,7,7,8,8,9,9,10,10,11,11,12,12,13,13,14,14,15,15,16,16,17,17,18,18,19,19,20,20,21,21,22,22,23,23,24,24,25,25,26,26,27,27,28,28,30,30],"right_children":[2,4,6,8,10,12,14,16,18,20,22,24,26,28,30,32,34,36,38,40,42,44,46,48,50,52,54,56,58,-1,60,-1,-1,-1,-1,-1,-1,-1,-1,-1,-1,-1,-1,-1,-1,-1,-1,-1,-1,-1,-1,-1,-1,-1,-1,-1,-1,-1,-1,-1,-1],"split_conditions":[2.6E1,6E0,1E0,3E-1,7E0,4.2E1,2.7E1,1.5E1,3.08E2,4.7E0,2.7E1,3.5E1,5E1,3.4E1,2.8E1,6.4E0,2.32E1,2.6E1,2E1,6E0,1.4E1,2.1E1,1.012E2,3E1,3.7E1,7E0,2E1,7.6E0,3E-1,2.307632E-1,3.1E1,3.1386947E-3,-9.3977325E-2,-3.600912E-3,-1.5022025E-1,3.2475922E-2,1.2927212E-1,-7.4064806E-2,1.39298625E-2,3.1614178E-1,4.396553E-3,-6.829525E-2,5.5640873E-2,9.468097E-3,-8.800476E-2,1.5970248E-1,7.645141E-2,-2.7025588E-2,-1.1068205E-1,6.7162424E-2,-7.095834E-3,-1.7820396E-1,-1.1736415E-1,-3.7766665E-2,3.3176284E-2,-1.3909955E-1,-3.1873032E-2,-1.9035557E-1,-8.816428E-2,-1.164529E-1,-7.787428E-3],"split_indices":[6,6,28,10,0,6,0,0,25,19,25,6,6,6,0,19,28,0,0,3,6,0,25,6,6,0,0,19,10,0,0,0,0,0,0,0,0,0,0,0,0,0,0,0,0,0,0,0,0,0,0,0,0,0,0,0,0,0,0,0,0],"split_type":[0,0,0,0,0,0,0,0,0,0,0,0,0,0,0,0,0,0,0,0,0,0,0,0,0,0,0,0,0,0,0,0,0,0,0,0,0,0,0,0,0,0,0,0,0,0,0,0,0,0,0,0,0,0,0,0,0,0,0,0,0],"sum_hessian":[4.58E2,2.42E2,2.16E2,5.1E1,1.91E2,1.42E2,7.4E1,4.3E1,8E0,3.6E1,1.55E2,8.9E1,5.3E1,6.2E1,1.2E1,2.6E1,1.7E1,5E0,3E0,5E0,3.1E1,7E0,1.48E2,5.2E1,3.7E1,3.7E1,1.6E1,2.1E1,4.1E1,1E0,1.1E1,1.5E1,1.1E1,3E0,1.4E1,4E0,1E0,2E0,1E0,4E0,1E0,1E1,2.1E1,5E0,2E0,1.15E2,3.3E1,2.6E1,2.6E1,1.1E1,2.6E1,8E0,2.9E1,9E0,7E0,1.4E1,7E0,3.3E1,8E0,8E0,3E0],"tree_param":{"num_deleted":"0","num_feature":"31","num_nodes":"61","size_leaf_vector":"1"}},{"base_weights":[-2.4032123E-1,7.728865E0,-8.13792E0,-7.0073895E0,1.1268458E1,-6.5387983E0,-1.63961E1,-9.5878935E0,2.7251115E0,1.437952E1,5.356367E0,-1.4374232E1,-5.217007E0,-1.7395157E1,3.9193216E-1,-2.201294E-1,-1.07895355E1,1.2862575E-1,1.6955164E-1,9.947705E0,2.134785E1,1.0526904E1,-1.6674279E0,-1.6289518E1,-2.6890724E0,-2.9194372E0,-1.0153661E1,-2.273156E-1,-1.4224507E1,4.8691597E-2,-4.2812612E-2,1.8815564E-2,-4.3134365E-2,-1.1947259E-1,-2.3799194E-2,3.7057437E-2,-2.2161683E-2,-1.1829181E-2,1.13147944E-1,-4.149536E-2,2.3936608E-1,2.6748112E-1,8.8357456E-2,1.15999304E-1,-4.3619845E-2,-4.894892E-3,-1.7770973E-1,2.6910208E-2,-7.172808E-2,-1.7128969E-2,-1.5296166E-1,-1.352426E-1,-3.0356262E-2,-1.0273952E-2,-1.4753625E-1],"categories":[],"categories_nodes":[],"categories_segments":[],"categories_sizes":[],"default_left":[0,0,1,0,0,0,0,0,0,0,1,0,0,0,0,0,0,0,0,0,0,0,0,0,0,1,0,0,0,0,0,0,0,0,0,0,0,0,0,0,0,0,0,0,0,0,0,0,0,0,0,0,0,0,0],"id":21,"left_children":[1,3,5,7,9,11,13,15,17,19,21,23,25,27,29,31,33,-1,35,37,39,41,43,45,47,49,51,-1,53,-1,-1,-1,-1,-1,-1,-1,-1,-1,-1,-1,-1,-1,-1,-1,-1,-1,-1,-1,-1,-1,-1,-1,-1,-1,-1],"loss_changes":[2.8321807E4,1.176288E4,2.8773086E3,1.1311775E3,3.2520898E3,1.9031597E3,6.1061816E2,3.9160938E2,2.568881E2,3.4317578E3,2.3418276E3,5.604678E2,1.8418374E3,2.5192969E2,8.3615E1,5.1130203E1,2.7338306E2,0E0,8.413983E1,1.1394092E3,3.069621E3,7.7866797E2,1.0515889E3,5.296631E2,1.3991676E2,1.6761637E3,1.2065317E3,0E0,1.5243018E2,0E0,0E0,0E0,0E0,0E0,0E0,0E0,0E0,0E0,0E0,0E0,0E0,0E0,0E0,0E0,0E0,0E0,0E0,0E0,0E0,0E0,0E0,0E0,0E0,0E0,0E0],"parents":[2147483647,0,0,1,1,2,2,3,3,4,4,5,5,6,6,7,7,8,8,9,9,10,10,11,11,12,12,13,13,14,14,15,15,16,16,18,18,19,19,20,20,21,21,22,22,23,23,24,24,25,25,26,26,28,28],"right_children":[2,4,6,8,10,12,14,16,18,20,22,24,26,28,30,32,34,-1,36,38,40,42,44,46,48,50,52,-1,54,-1,-1,-1,-1,-1,-1,-1,-1,-1,-1,-1,-1,-1,-1,-1,-1,-1,-1,-1,-1,-1,-1,-1,-1,-1,-1],"split_conditions":[1.75E2,3.4E1,1.9E0,5E0,1.28E2,1.64E1,3.1E1,1.74E2,2.25E1,9.8E1,3.38E1,2.8E1,2.87E2,2.62E2,6E0,2.6E1,2.8E1,1.2862575E-1,1.5E1,8.946E2,4E0,8.078E2,1.7E0,1E0,7E0,8.6E0,3.39E2,-2.273156E-1,3.9E0,4.8691597E-2,-4.2812612E-2,1.8815564E-2,-4.3134365E-2,-1.1947259E-1,-2.3799194E-2,3.7057437E-2,-2.2161683E-2,-1.1829181E-2,1.13147944E-1,-4.149536E-2,2.3936608E-1,2.6748112E-1,8.8357456E-2,1.15999304E-1,-4.3619845E-2,-4.894892E-3,-1.7770973E-1,2.6910208E-2,-7.172808E-2,-1.7128969E-2,-1.5296166E-1,-1.352426E-1,-3.0356262E-2,-1.0273952E-2,-1.4753625E-1],"split_indices":[5,5,28,1,5,22,0,22,16,5,16,0,5,5,1,0,5,0,0,7,0,7,28,1,3,19,5,0,19,0,0,0,0,0,0,0,0,0,0,0,0,0,0,0,0,0,0,0,0,0,0,0,0,0,0],"split_type":[0,0,0,0,0,0,0,0,0,0,0,0,0,0,0,0,0,0,0,0,0,0,0,0,0,0,0,0,0,0,0,0,0,0,0,0,0,0,0,0,0,0,0,0,0,0,0,0,0,0,0,0,0,0,0],"sum_hessian":[4.48E2,2.23E2,2.25E2,4.3E1,1.8E2,1.9E2,3.5E1,3.4E1,9E0,1.17E2,6.3E1,2.6E1,1.64E2,3.3E1,2E0,4E0,3E1,1E0,8E0,7.3E1,4.4E1,3.6E1,2.7E1,2.2E1,4E0,1.13E2,5.1E1,1E1,2.3E1,1E0,1E0,3E0,1E0,2.6E1,4E0,3E0,5E0,8E0,6.5E1,4E0,4E1,2E0,3.4E1,4E0,2.3E1,2E0,2E1,2E0,2E0,1.04E2,9E0,3.4E1,1.7E1,1E0,2.2E1],"tree_param":{"num_deleted":"0","num_feature":"31","num_nodes":"55","size_leaf_vector":"1"}},{"base_weights":[1.2865473E-1,8.507519E0,-9.181789E0,-7.6535354E0,1.2587645E1,-7.541169E0,-1.745068E1,-1.0362545E1,-1.944661E0,1.4767919E1,7.9963474E0,-1.3067405E1,-6.320105E0,-1.8543749E1,3.899727E-1,-7.8815207E0,-1.6102886E1,-5.1322403E0,6.731977E0,9.668025E0,2.145381E1,1.254146E1,4.0431252E-1,-9.056347E0,-1.5335162E1,1.2212367E1,-7.038425E0,-1.3782558E-2,-1.90371E1,4.844814E-2,-4.2598553E-2,-3.5816193E-2,-1.3973211E-1,-1.9316898E-1,-7.2561435E-2,-1.7098498E-3,-1.08918734E-1,1.2798263E-1,2.0158395E-2,3.703273E-2,1.4266443E-1,-3.0871207E-2,2.3439121E-1,1.7769462E-1,5.164487E-2,-4.7361832E-2,4.147055E-2,-1.2980624E-1,-5.433901E-2,-1.9194986E-1,-1.0783019E-1,1.8501263E-2,2.1957898E-1,-4.7950856E-2,-1.1001478E-1,-2.070072E-1,-1.0138354E-1],"categories":[],"categories_nodes":[],"categories_segments":[],"categories_sizes":[],"default_left":[0,0,1,0,0,0,0,0,1,0,1,0,0,0,0,1,0,0,0,0,0,0,0,0,0,0,0,0,0,0,0,0,0,0,0,0,0,0,0,0,0,0,0,0,0,0,0,0,0,0,0,0,0,0,0,0,0],"id":22,"left_children":[1,3,5,7,9,11,13,15,17,19,21,23,25,27,29,31,33,35,37,39,41,43,45,47,49,51,53,-1,55,-1,-1,-1,-1,-1,-1,-1,-1,-1,-1,-1,-1,-1,-1,-1,-1,-1,-1,-1,-1,-1,-1,-1,-1,-1,-1,-1,-1],"loss_changes":[3.5573094E4,1.5921729E4,2.7986816E3,7.376531E2,1.8038867E3,1.1455283E3,6.8976855E2,3.430681E2,5.0472717E2,4.1911387E3,2.2033557E3,1.5219482E2,2.096105E3,2.5322559E2,8.2780945E1,6.047948E2,1.15735596E2,3.6961273E2,1.1724794E2,2.0042993E3,2.7520352E3,1.4509028E3,5.0063007E2,1.284812E2,1.26859375E2,5.652884E2,1.2452568E3,0E0,2.6386133E2,0E0,0E0,0E0,0E0,0E0,0E0,0E0,0E0,0E0,0E0,0E0,0E0,0E0,0E0,0E0,0E0,0E0,0E0,0E0,0E0,0E0,0E0,0E0,0E0,0E0,0E0,0E0,0E0],"parents":[2147483647,0,0,1,1,2,2,3,3,4,4,5,5,6,6,7,7,8,8,9,9,10,10,11,11,12,12,13,13,14,14,15,15,16,16,17,17,18,18,19,19,20,20,21,21,22,22,23,23,24,24,25,25,26,26,28,28],"right_children":[2,4,6,8,10,12,14,16,18,20,22,24,26,28,30,32,34,36,38,40,42,44,46,48,50,52,54,-1,56,-1,-1,-1,-1,-1,-1,-1,-1,-1,-1,-1,-1,-1,-1,-1,-1,-1,-1,-1,-1,-1,-1,-1,-1,-1,-1,-1,-1],"split_conditions":[1.75E2,3.6E1,1.8E0,2.1E1,1.28E2,5.874E2,3.1E1,1.5E1,2.4567E3,1.4E1,1E-1,1.93E2,6.275E2,2.02E1,4E0,3.58E1,2.024E3,2.6E1,2.47E3,1.6E1,3E0,1.5E1,5.26E1,1.14E1,9.1E0,8E0,2.87E2,-1.3782558E-2,5E-1,4.844814E-2,-4.2598553E-2,-3.5816193E-2,-1.3973211E-1,-1.9316898E-1,-7.2561435E-2,-1.7098498E-3,-1.08918734E-1,1.2798263E-1,2.0158395E-2,3.703273E-2,1.4266443E-1,-3.0871207E-2,2.3439121E-1,1.7769462E-1,5.164487E-2,-4.7361832E-2,4.147055E-2,-1.2980624E-1,-5.433901E-2,-1.9194986E-1,-1.0783019E-1,1.8501263E-2,2.1957898E-1,-4.7950856E-2,-1.1001478E-1,-2.070072E-1,-1.0138354E-1],"split_indices":[5,5,28,0,5,7,0,0,7,6,10,5,7,22,2,13,4,0,7,0,0,0,25,22,13,3,5,0,10,0,0,0,0,0,0,0,0,0,0,0,0,0,0,0,0,0,0,0,0,0,0,0,0,0,0,0,0],"split_type":[0,0,0,0,0,0,0,0,0,0,0,0,0,0,0,0,0,0,0,0,0,0,0,0,0,0,0,0,0,0,0,0,0,0,0,0,0,0,0,0,0,0,0,0,0,0,0,0,0,0,0,0,0,0,0,0,0],"sum_hessian":[4.54E2,2.39E2,2.15E2,4.8E1,1.91E2,1.81E2,3.4E1,3.2E1,1.6E1,1.28E2,6.3E1,3.1E1,1.5E2,3.2E1,2E0,2.4E1,8E0,1.2E1,4E0,7.4E1,5.4E1,3.9E1,2.4E1,1.3E1,1.8E1,5E0,1.45E2,1E0,3.1E1,1E0,1E0,1.5E1,9E0,5E0,3E0,7E0,5E0,1E0,3E0,3.3E1,4.1E1,4E0,5E1,2.2E1,1.7E1,1E1,1.4E1,5E0,8E0,8E0,1E1,3E0,2E0,9.4E1,5.1E1,2.5E1,6E0],"tree_param":{"num_deleted":"0","num_feature":"31","num_nodes":"57","size_leaf_vector":"1"}},{"base_weights":[9.58124E-1,8.841955E0,-7.7042894E0,-6.578238E0,1.2421491E1,-6.170028E0,-1.5813012E1,-8.116745E0,3.3727624E0,1.5025445E1,7.0281863E0,-3.9777E0,-1.1617785E1,-1.8674497E-1,-9.533999E0,1.3261467E0,-9.173439E0,-8.785413E-1,5.248992E0,9.540963E0,2.5310085E1,2.3761203E0,1.643577E1,-1.2968435E1,-2.4201374E0,-1.6937914E1,-1.7266713E0,4.820591E-2,-1.1131931E1,-2.8066763E-3,2.4909122E-2,-5.3117912E-2,-1.1862705E-1,1.0646476E-2,-2.3824597E-2,1.6642049E-2,7.0841156E-2,1.1726615E-1,-3.0055048E-2,3.027072E-1,2.1040007E-1,-2.143401E-2,6.988833E-2,2.6513204E-1,3.9480448E-2,-1.5891443E-1,-3.4995075E-2,-3.0878626E-2,1.7382002E-1,-1.874291E-1,-1.2891643E-1,-4.9166735E-2,1.9549983E-2,-4.806264E-4,-1.3343899E-1],"categories":[],"categories_nodes":[],"categories_segments":[],"categories_sizes":[],"default_left":[0,0,1,0,0,0,0,0,0,0,0,0,0,0,0,0,0,0,0,1,0,0,0,0,1,0,0,0,0,0,0,0,0,0,0,0,0,0,0,0,0,0,0,0,0,0,0,0,0,0,0,0,0,0,0],"id":23,"left_children":[1,3,5,7,9,11,13,15,17,19,21,23,25,-1,27,29,31,33,35,37,39,41,43,45,47,49,51,-1,53,-1,-1,-1,-1,-1,-1,-1,-1,-1,-1,-1,-1,-1,-1,-1,-1,-1,-1,-1,-1,-1,-1,-1,-1,-1,-1],"loss_changes":[3.2097537E4,1.3660207E4,2.6891943E3,7.469309E2,2.7031816E3,2.2230098E3,4.5081348E2,4.2127368E2,6.0446426E1,7.316912E3,2.8931814E3,1.8871125E3,2.8123423E3,0E0,3.5185217E2,1.0056927E1,3.2123267E2,1.1303673E1,2.1103195E1,2.4758213E3,3.3749023E2,9.739534E2,2.6638975E3,4.9794287E2,1.6139154E3,1.3995117E1,2.445028E2,0E0,2.9356445E2,0E0,0E0,0E0,0E0,0E0,0E0,0E0,0E0,0E0,0E0,0E0,0E0,0E0,0E0,0E0,0E0,0E0,0E0,0E0,0E0,0E0,0E0,0E0,0E0,0E0,0E0],"parents":[2147483647,0,0,1,1,2,2,3,3,4,4,5,5,6,6,7,7,8,8,9,9,10,10,11,11,12,12,14,14,15,15,16,16,17,17,18,18,19,19,20,20,21,21,22,22,23,23,24,24,25,25,26,26,28,28],"right_children":[2,4,6,8,10,12,14,16,18,20,22,24,26,-1,28,30,32,34,36,38,40,42,44,46,48,50,52,-1,54,-1,-1,-1,-1,-1,-1,-1,-1,-1,-1,-1,-1,-1,-1,-1,-1,-1,-1,-1,-1,-1,-1,-1,-1,-1,-1],"split_conditions":[1.74E2,3.4E1,1.9E0,6E0,1.28E2,2.87E2,3E-1,1.87E2,8E0,9.7E1,1.6E2,8.8E0,3.41E2,-1.8674497E-1,9E0,1.6088E3,1.6E1,2.024E3,2.6036E3,7.54E1,1.25E1,2E-1,1.67E2,1.75E1,1.7E0,4E0,3.54E2,4.820591E-2,1.09E1,-2.8066763E-3,2.4909122E-2,-5.3117912E-2,-1.1862705E-1,1.0646476E-2,-2.3824597E-2,1.6642049E-2,7.0841156E-2,1.1726615E-1,-3.0055048E-2,3.027072E-1,2.1040007E-1,-2.143401E-2,6.988833E-2,2.6513204E-1,3.9480448E-2,-1.5891443E-1,-3.4995075E-2,-3.0878626E-2,1.7382002E-1,-1.874291E-1,-1.2891643E-1,-4.9166735E-2,1.9549983E-2,-4.806264E-4,-1.3343899E-1],"split_indices":[5,5,28,1,5,5,10,25,5,5,5,13,5,0,3,7,5,4,7,16,28,10,5,25,28,1,5,0,13,0,0,0,0,0,0,0,0,0,0,0,0,0,0,0,0,0,0,0,0,0,0,0,0,0,0],"split_type":[0,0,0,0,0,0,0,0,0,0,0,0,0,0,0,0,0,0,0,0,0,0,0,0,0,0,0,0,0,0,0,0,0,0,0,0,0,0,0,0,0,0,0,0,0,0,0,0,0,0,0,0,0,0,0],"sum_hessian":[4.68E2,2.45E2,2.23E2,4.6E1,1.99E2,1.89E2,3.4E1,4E1,6E0,1.33E2,6.6E1,1.36E2,5.3E1,2.2E1,1.2E1,4E0,3.6E1,2E0,4E0,8.8E1,4.5E1,4.5E1,2.1E1,1.9E1,1.17E2,3.4E1,1.9E1,1E0,1.1E1,2E0,2E0,1.6E1,2E1,1E0,1E0,2E0,2E0,7.5E1,1.3E1,1.8E1,2.7E1,2.3E1,2.2E1,1.1E1,1E1,1.4E1,5E0,1.14E2,3E0,2.1E1,1.3E1,1E1,9E0,2E0,9E0],"tree_param":{"num_deleted":"0","num_feature":"31","num_nodes":"55","size_leaf_vector":"1"}},{"base_weights":[-3.0632317E-1,7.8665957E0,-9.179465E0,-7.346229E0,1.1282712E1,-7.167343E0,-1.5877855E1,-1.0433192E1,2.5268462E0,7.183869E0,1.407958E1,-7.732241E0,1.976244E1,2.060707E0,-1.6621735E1,1.2431679E0,-1.1156601E1,-1.4435842E0,1.0828603E1,1.348613E1,2.5943542E0,2.0914143E1,8.703702E0,-6.069083E0,-1.098388E1,3.5633333E-2,2.3974365E-1,-1.7054271E-2,4.796488E-2,-7.7024207E0,-1.763981E1,-1.4235496E-3,2.0071067E-2,-1.2366716E-1,-4.722338E-2,2.2764968E-2,-3.6830407E-2,1.3935484E-1,7.5397873E-3,-4.888899E-2,2.074148E-1,-1.6242316E-2,1.04186624E-1,2.9347727E-1,1.7439535E-1,-3.760766E-2,1.03726774E-1,-6.6673934E-2,1.9487497E-1,-1.4173E-1,-1.5273095E-2,-2.2383556E-2,-8.240039E-2,-2.0187113E-1,-1.3446327E-1],"categories":[],"categories_nodes":[],"categories_segments":[],"categories_sizes":[],"default_left":[0,0,1,0,0,1,0,0,0,0,0,0,0,0,0,0,0,0,0,0,1,0,0,0,0,0,0,0,0,0,0,0,0,0,0,0,0,0,0,0,0,0,0,0,0,0,0,0,0,0,0,0,0,0,0],"id":24,"left_children":[1,3,5,7,9,11,13,15,17,19,21,23,25,27,29,31,33,35,37,39,41,43,45,47,49,-1,-1,-1,-1,51,53,-1,-1,-1,-1,-1,-1,-1,-1,-1,-1,-1,-1,-1,-1,-1,-1,-1,-1,-1,-1,-1,-1,-1,-1],"loss_changes":[3.5244156E4,1.3230988E4,3.0265684E3,1.4588206E3,2.2718848E3,2.9062822E3,7.414912E2,3.1795337E2,4.1117056E2,2.4525034E3,4.300467E3,8.9596094E2,1.8748901E2,3.9090015E1,3.2723926E2,3.4610863E0,2.0633105E2,8.3363075E1,1.1469562E2,4.9008267E3,1.7003058E3,1.0412695E3,1.4952119E3,1.9648232E3,1.7576841E3,0E0,0E0,0E0,0E0,2.118927E0,2.0924902E2,0E0,0E0,0E0,0E0,0E0,0E0,0E0,0E0,0E0,0E0,0E0,0E0,0E0,0E0,0E0,0E0,0E0,0E0,0E0,0E0,0E0,0E0,0E0,0E0],"parents":[2147483647,0,0,1,1,2,2,3,3,4,4,5,5,6,6,7,7,8,8,9,9,10,10,11,11,12,12,13,13,14,14,15,15,16,16,17,17,18,18,19,19,20,20,21,21,22,22,23,23,24,24,29,29,30,30],"right_children":[2,4,6,8,10,12,14,16,18,20,22,24,26,28,30,32,34,36,38,40,42,44,46,48,50,-1,-1,-1,-1,52,54,-1,-1,-1,-1,-1,-1,-1,-1,-1,-1,-1,-1,-1,-1,-1,-1,-1,-1,-1,-1,-1,-1,-1,-1],"split_conditions":[1.74E2,3.4E1,6.709E2,5E0,9.5E1,2.99E1,9.4E0,1.7357E3,2.2E1,6E1,1.28E2,2.87E2,2.22E2,1E0,2.31E2,2E0,2.7E1,6E0,2.8E1,1.03E1,5.2E0,1.16E1,4.22E1,2.85E2,3.47E2,3.5633333E-2,2.3974365E-1,-1.7054271E-2,4.796488E-2,1E0,2.73E2,-1.4235496E-3,2.0071067E-2,-1.2366716E-1,-4.722338E-2,2.2764968E-2,-3.6830407E-2,1.3935484E-1,7.5397873E-3,-4.888899E-2,2.074148E-1,-1.6242316E-2,1.04186624E-1,2.9347727E-1,1.7439535E-1,-3.760766E-2,1.03726774E-1,-6.6673934E-2,1.9487497E-1,-1.4173E-1,-1.5273095E-2,-2.2383556E-2,-8.240039E-2,-2.0187113E-1,-1.3446327E-1],"split_indices":[5,5,7,1,5,25,16,7,5,5,5,5,5,1,5,1,5,1,5,28,19,28,25,5,5,0,0,0,0,1,5,0,0,0,0,0,0,0,0,0,0,0,0,0,0,0,0,0,0,0,0,0,0,0,0],"split_type":[0,0,0,0,0,0,0,0,0,0,0,0,0,0,0,0,0,0,0,0,0,0,0,0,0,0,0,0,0,0,0,0,0,0,0,0,0,0,0,0,0,0,0,0,0,0,0,0,0,0,0,0,0,0,0],"sum_hessian":[4.84E2,2.52E2,2.32E2,4.6E1,2.06E2,1.8E2,5.2E1,3.5E1,1.1E1,8.5E1,1.21E2,1.77E2,3E0,2E0,5E1,2E0,3.3E1,8E0,3E0,3.5E1,5E1,5.2E1,6.9E1,1.19E2,5.8E1,1E0,2E0,1E0,1E0,6E0,4.4E1,1E0,1E0,2.7E1,6E0,3E0,5E0,2E0,1E0,1E1,2.5E1,3.3E1,1.7E1,1.3E1,3.9E1,8E0,6.1E1,1.17E2,2E0,4.3E1,1.5E1,1E0,5E0,2.5E1,1.9E1],"tree_param":{"num_deleted":"0","num_feature":"31","num_nodes":"55","size_leaf_vector":"1"}},{"base_weights":[-3.9997634E-1,7.537289E0,-9.474428E0,-8.006674E0,1.0639886E1,-7.7997913E0,-1.3697278E1,-1.1127557E0,-9.550633E0,1.1859942E1,4.5506105E-2,-8.129641E0,2.2652933E-1,-6.626244E0,-1.5261802E1,-9.987689E-2,2.8497522E0,-6.3855414E0,-1.384216E1,1.4507909E1,6.1164665E0,-7.7392826E0,7.8265023E0,-8.647854E0,5.6016463E-1,-1.027641E1,1.8587875E-1,-1.592665E1,4.6303558E-1,-9.165917E-3,1.2723908E-1,-1.3778654E-1,-3.977147E-2,7.502079E-3,-1.5022358E-1,1.017133E-1,2.1025914E-1,-3.7192388E-3,9.2150316E-2,-9.6130215E-2,1.08627565E-2,2.1746914E-1,2.8677287E-2,-6.420488E-2,-1.2049963E-1,-1.2465155E-2,8.410142E-2,-1.5008667E-1,-3.0427085E-2,-1.3573398E-2,-1.6207756E-1,4.7725048E-2,-4.0779512E-2],"categories":[],"categories_nodes":[],"categories_segments":[],"categories_sizes":[],"default_left":[0,0,1,0,1,1,0,0,0,0,0,0,0,0,0,0,0,0,0,0,0,0,0,0,0,0,0,0,0,0,0,0,0,0,0,0,0,0,0,0,0,0,0,0,0,0,0,0,0,0,0,0,0],"id":25,"left_children":[1,3,5,7,9,11,13,15,17,19,21,23,-1,25,27,-1,29,31,33,35,37,39,41,43,45,47,-1,49,51,-1,-1,-1,-1,-1,-1,-1,-1,-1,-1,-1,-1,-1,-1,-1,-1,-1,-1,-1,-1,-1,-1,-1,-1],"loss_changes":[3.442797E4,1.2382985E4,1.4701621E3,4.4706152E2,2.7526426E3,1.811417E3,5.8476465E2,3.449654E2,3.8701758E2,2.8160938E3,1.45376E3,7.298545E2,0E0,1.387481E3,5.301074E2,0E0,2.7198886E2,3.36922E2,2.5237646E2,3.4606992E3,1.2499185E3,2.0888397E2,7.659737E2,1.0744502E3,1.5230737E2,3.6511377E2,0E0,1.7458496E2,7.816978E1,0E0,0E0,0E0,0E0,0E0,0E0,0E0,0E0,0E0,0E0,0E0,0E0,0E0,0E0,0E0,0E0,0E0,0E0,0E0,0E0,0E0,0E0,0E0,0E0],"parents":[2147483647,0,0,1,1,2,2,3,3,4,4,5,5,6,6,7,7,8,8,9,9,10,10,11,11,13,13,14,14,16,16,17,17,18,18,19,19,20,20,21,21,22,22,23,23,24,24,25,25,27,27,28,28],"right_children":[2,4,6,8,10,12,14,16,18,20,22,24,-1,26,28,-1,30,32,34,36,38,40,42,44,46,48,-1,50,52,-1,-1,-1,-1,-1,-1,-1,-1,-1,-1,-1,-1,-1,-1,-1,-1,-1,-1,-1,-1,-1,-1,-1,-1],"split_conditions":[2.6E1,2E0,6.108E2,2.066E2,1.13E2,4.46E1,3.4E1,7E0,1.6E1,2E1,8E0,5.1E1,2.2652933E-1,3.3E1,3.1E1,-9.987689E-2,8.8E0,4E0,2.13E2,1.5E1,5.7E0,1.4E1,9E0,3.9E1,2.5E1,2.3E1,1.8587875E-1,2.02E1,4E0,-9.165917E-3,1.2723908E-1,-1.3778654E-1,-3.977147E-2,7.502079E-3,-1.5022358E-1,1.017133E-1,2.1025914E-1,-3.7192388E-3,9.2150316E-2,-9.6130215E-2,1.08627565E-2,2.1746914E-1,2.8677287E-2,-6.420488E-2,-1.2049963E-1,-1.2465155E-2,8.410142E-2,-1.5008667E-1,-3.0427085E-2,-1.3573398E-2,-1.6207756E-1,4.7725048E-2,-4.0779512E-2],"split_indices":[6,3,7,22,22,22,6,0,0,6,6,6,0,6,0,0,19,0,22,6,19,0,6,6,0,22,0,22,2,0,0,0,0,0,0,0,0,0,0,0,0,0,0,0,0,0,0,0,0,0,0,0,0],"split_type":[0,0,0,0,0,0,0,0,0,0,0,0,0,0,0,0,0,0,0,0,0,0,0,0,0,0,0,0,0,0,0,0,0,0,0,0,0,0,0,0,0,0,0,0,0,0,0,0,0,0,0,0,0],"sum_hessian":[4.76E2,2.54E2,2.22E2,4.2E1,2.12E2,1.61E2,6.1E1,8E0,3.4E1,1.9E2,2.2E1,1.6E2,1E0,1.2E1,4.9E1,2E0,6E0,2.1E1,1.3E1,1.29E2,6.1E1,1.1E1,1.1E1,1.51E2,9E0,1.1E1,1E0,4.7E1,2E0,5E0,1E0,4E0,1.7E1,1E0,1.2E1,7.9E1,5E1,2E1,4.1E1,9E0,2E0,2E0,9E0,9.3E1,5.8E1,8E0,1E0,6E0,5E0,1E0,4.6E1,1E0,1E0],"tree_param":{"num_deleted":"0","num_feature":"31","num_nodes":"53","size_leaf_vector":"1"}},{"base_weights":[9.1748893E-1,8.759664E0,-8.004442E0,-5.373587E0,1.1704436E1,-6.7208447E0,-1.5576226E1,-7.7044334E0,3.3788967E-1,1.2345314E1,-4.19381E0,-4.7119274E0,-1.0163011E1,-1.6660713E1,4.6072006E-1,-2.764825E0,-1.0529957E1,-1.5838554E0,1.2660287E-1,1.3782034E1,4.4393167E0,-9.375121E0,4.626609E0,-7.3394575E0,3.4921794E0,-1.2722736E1,-2.4878283E0,-1.8946438E-1,-1.1653256E1,4.7486417E-2,-4.0575616E-2,1.4330932E-2,-9.768113E-2,2.6844596E-3,-1.11124225E-1,1.984359E-2,-7.6898694E-2,1.6286312E-1,9.035887E-2,-5.78034E-2,9.811888E-2,-1.0916403E-1,-4.195038E-2,-1.5778465E-2,7.220709E-2,-3.635446E-2,-1.0463791E-1,-8.607718E-2,6.1501488E-2,-9.569887E-2,-1.6419065E-1,-3.555829E-2,8.368091E-2,-7.7024265E-3,-1.2572598E-1],"categories":[],"categories_nodes":[],"categories_segments":[],"categories_sizes":[],"default_left":[0,0,1,0,0,0,0,0,1,1,0,0,0,0,0,0,0,0,0,0,0,0,0,0,0,0,0,0,0,0,0,0,0,0,0,0,0,0,0,0,0,0,0,0,0,0,0,0,0,0,0,0,0,0,0],"id":26,"left_children":[1,3,5,7,9,11,13,15,17,19,21,23,25,27,29,31,33,35,-1,37,39,41,43,45,47,49,51,-1,53,-1,-1,-1,-1,-1,-1,-1,-1,-1,-1,-1,-1,-1,-1,-1,-1,-1,-1,-1,-1,-1,-1,-1,-1,-1,-1],"loss_changes":[3.3794375E4,1.0759031E4,2.091837E3,6.016692E2,2.2219941E3,1.300543E3,5.6421484E2,4.175099E2,3.515792E2,2.2673496E3,4.5468698E2,2.7201982E3,1.3632393E3,1.2258301E2,7.739003E1,3.961886E2,1.2877686E2,2.9849783E2,0E0,1.9090625E3,1.8686086E3,2.1091309E0,7.57731E1,1.0613535E3,1.0499347E3,4.6053223E2,2.5004395E2,0E0,1.1037866E2,0E0,0E0,0E0,0E0,0E0,0E0,0E0,0E0,0E0,0E0,0E0,0E0,0E0,0E0,0E0,0E0,0E0,0E0,0E0,0E0,0E0,0E0,0E0,0E0,0E0,0E0],"parents":[2147483647,0,0,1,1,2,2,3,3,4,4,5,5,6,6,7,7,8,8,9,9,10,10,11,11,12,12,13,13,14,14,15,15,16,16,17,17,19,19,20,20,21,21,22,22,23,23,24,24,25,25,26,26,28,28],"right_children":[2,4,6,8,10,12,14,16,18,20,22,24,26,28,30,32,34,36,-1,38,40,42,44,46,48,50,52,-1,54,-1,-1,-1,-1,-1,-1,-1,-1,-1,-1,-1,-1,-1,-1,-1,-1,-1,-1,-1,-1,-1,-1,-1,-1,-1,-1],"split_conditions":[1.74E2,3.4E1,2E0,2.1E1,3E1,2.72E2,3.1E1,9E0,3.98E1,1.233E2,1.51E2,2.4E2,3.41E2,2.85E2,9E0,2.024E3,1.8024E3,2.7E1,1.2660287E-1,1.28E2,5.2E1,2.024E3,3.1E1,2.04E2,4.84E1,1.7E1,3E1,-1.8946438E-1,9.8E0,4.7486417E-2,-4.0575616E-2,1.4330932E-2,-9.768113E-2,2.6844596E-3,-1.11124225E-1,1.984359E-2,-7.6898694E-2,1.6286312E-1,9.035887E-2,-5.78034E-2,9.811888E-2,-1.0916403E-1,-4.195038E-2,-1.5778465E-2,7.220709E-2,-3.635446E-2,-1.0463791E-1,-8.607718E-2,6.1501488E-2,-9.569887E-2,-1.6419065E-1,-3.555829E-2,8.368091E-2,-7.7024265E-3,-1.2572598E-1],"split_indices":[5,5,28,0,0,5,0,5,13,25,5,5,5,5,3,4,7,0,0,5,5,4,0,5,25,0,0,0,13,0,0,0,0,0,0,0,0,0,0,0,0,0,0,0,0,0,0,0,0,0,0,0,0,0,0],"split_type":[0,0,0,0,0,0,0,0,0,0,0,0,0,0,0,0,0,0,0,0,0,0,0,0,0,0,0,0,0,0,0,0,0,0,0,0,0,0,0,0,0,0,0,0,0,0,0,0,0,0,0,0,0,0,0],"sum_hessian":[4.81E2,2.56E2,2.25E2,4.4E1,2.12E2,1.94E2,3.1E1,3.1E1,1.3E1,2.04E2,8E0,1.24E2,7E1,2.9E1,2E0,1.2E1,1.9E1,1.2E1,1E0,1.72E2,3.2E1,5E0,3E0,9.4E1,3E1,5.2E1,1.8E1,1.8E1,1.1E1,1E0,1E0,8E0,4E0,1E0,1.8E1,8E0,4E0,1.11E2,6.1E1,1.1E1,2.1E1,3E0,2E0,1E0,2E0,4.4E1,5E1,5E0,2.5E1,3E1,2.2E1,1.7E1,1E0,1E0,1E1],"tree_param":{"num_deleted":"0","num_feature":"31","num_nodes":"55","size_leaf_vector":"1"}},{"base_weights":[8.066904E-1,9.341844E0,-8.256089E0,-6.0794425E0,1.3188756E1,-6.652534E0,-1.4629378E1,9.721568E-1,-8.146277E0,1.5851981E1,8.655798E0,-4.4702992E0,-1.0062706E1,-1.7503103E1,-8.86659E0,-1.2298265E0,1.2596987E-1,-3.7814927E0,-1.1148781E1,1.0354571E1,2.459005E1,1.0717609E1,5.1188207E-1,-6.2733374E0,2.1994488E0,-1.2206094E1,-1.931929E0,-5.034491E0,-1.8240242E1,-2.9689064E0,-1.0452884E1,-2.7151879E-2,2.0483531E-2,-1.5119728E-1,-2.718901E-3,-1.3700648E-1,-3.7232596E-2,1.6683519E-1,5.3725284E-2,3.0305767E-1,2.1142367E-1,3.773949E-2,1.3921499E-1,-5.1968057E-2,6.870171E-2,-7.5804226E-2,3.8030453E-2,8.1228636E-2,-1.4192599E-1,-1.0794853E-1,-2.0542657E-1,-8.478162E-2,9.566622E-3,-1.3874626E-3,-7.41299E-2,-2.3615226E-2,-1.8760133E-1,4.7248993E-2,-6.0735825E-2,-1.1163151E-1,-9.648361E-3],"categories":[],"categories_nodes":[],"categories_segments":[],"categories_sizes":[],"default_left":[0,0,1,0,0,0,0,0,0,0,1,0,0,0,0,0,0,0,1,0,0,0,0,1,0,0,0,0,0,0,0,0,0,0,0,0,0,0,0,0,0,0,0,0,0,0,0,0,0,0,0,0,0,0,0,0,0,0,0,0,0],"id":27,"left_children":[1,3,5,7,9,11,13,15,17,19,21,23,25,27,29,31,-1,33,35,37,39,41,43,45,47,49,51,53,55,57,59,-1,-1,-1,-1,-1,-1,-1,-1,-1,-1,-1,-1,-1,-1,-1,-1,-1,-1,-1,-1,-1,-1,-1,-1,-1,-1,-1,-1,-1,-1],"loss_changes":[3.6355312E4,1.443667E4,2.2328203E3,7.220697E2,2.2048125E3,1.3243066E3,5.900371E2,3.226643E2,4.558418E2,5.557826E3,1.237064E3,1.3847402E3,1.2137651E3,1.7471191E2,1.2800916E2,5.9123764E1,0E0,6.72365E2,3.6586548E2,2.30673E3,2.6573828E2,1.2600176E3,6.164627E2,1.2141912E3,2.542707E3,4.370791E2,3.1066098E2,3.3905052E1,1.7858789E2,1.4813095E2,7.683716E1,0E0,0E0,0E0,0E0,0E0,0E0,0E0,0E0,0E0,0E0,0E0,0E0,0E0,0E0,0E0,0E0,0E0,0E0,0E0,0E0,0E0,0E0,0E0,0E0,0E0,0E0,0E0,0E0,0E0,0E0],"parents":[2147483647,0,0,1,1,2,2,3,3,4,4,5,5,6,6,7,7,8,8,9,9,10,10,11,11,12,12,13,13,14,14,15,15,17,17,18,18,19,19,20,20,21,21,22,22,23,23,24,24,25,25,26,26,27,27,28,28,29,29,30,30],"right_children":[2,4,6,8,10,12,14,16,18,20,22,24,26,28,30,32,-1,34,36,38,40,42,44,46,48,50,52,54,56,58,60,-1,-1,-1,-1,-1,-1,-1,-1,-1,-1,-1,-1,-1,-1,-1,-1,-1,-1,-1,-1,-1,-1,-1,-1,-1,-1,-1,-1,-1,-1],"split_conditions":[1.74E2,3.4E1,3.27E1,2.58E2,1.28E2,2.72E2,3E-1,3.78E1,1.6E1,9.7E1,4.2E0,2.41E2,3.41E2,7.01E2,4E-1,3E-1,1.2596987E-1,2.8972E3,1.7E1,6E1,3E0,2E0,1.34E1,6.175E2,5E0,3.31E2,2E0,2E0,8E0,9E0,6E0,-2.7151879E-2,2.0483531E-2,-1.5119728E-1,-2.718901E-3,-1.3700648E-1,-3.7232596E-2,1.6683519E-1,5.3725284E-2,3.0305767E-1,2.1142367E-1,3.773949E-2,1.3921499E-1,-5.1968057E-2,6.870171E-2,-7.5804226E-2,3.8030453E-2,8.1228636E-2,-1.4192599E-1,-1.0794853E-1,-2.0542657E-1,-8.478162E-2,9.566622E-3,-1.3874626E-3,-7.41299E-2,-2.3615226E-2,-1.8760133E-1,4.7248993E-2,-6.0735825E-2,-1.1163151E-1,-9.648361E-3],"split_indices":[5,5,25,25,5,5,10,13,5,5,28,5,5,7,10,10,0,7,28,5,1,1,13,7,1,5,1,1,3,3,1,0,0,0,0,0,0,0,0,0,0,0,0,0,0,0,0,0,0,0,0,0,0,0,0,0,0,0,0,0,0],"split_type":[0,0,0,0,0,0,0,0,0,0,0,0,0,0,0,0,0,0,0,0,0,0,0,0,0,0,0,0,0,0,0,0,0,0,0,0,0,0,0,0,0,0,0,0,0,0,0,0,0,0,0,0,0,0,0,0,0,0,0,0,0],"sum_hessian":[4.68E2,2.41E2,2.27E2,4.8E1,1.93E2,1.83E2,4.4E1,1.1E1,3.7E1,1.2E2,7.3E1,1.13E2,7E1,2.8E1,1.6E1,1E1,1E0,1.6E1,2.1E1,7.5E1,4.5E1,5.8E1,1.5E1,8.9E1,2.4E1,5.5E1,1.5E1,2E0,2.6E1,4E0,1.2E1,7E0,3E0,3E0,1.3E1,1.5E1,6E0,3.2E1,4.3E1,1.4E1,3.1E1,1.9E1,3.9E1,8E0,7E0,7.9E1,1E1,1.8E1,6E0,4.9E1,6E0,4E0,1.1E1,1E0,1E0,1E0,2.5E1,1E0,3E0,1.1E1,1E0],"tree_param":{"num_deleted":"0","num_feature":"31","num_nodes":"61","size_leaf_vector":"1"}},{"base_weights":[4.0346566E-1,8.657229E0,-8.530926E0,-5.494525E0,1.1875245E1,-6.719124E0,-1.5870394E1,-1.1792916E1,-2.7394657E0,1.2805765E1,-7.0302355E-1,-7.39068E0,3.6902912E0,-1.8413488E1,-8.194048E0,-1.5399147E1,-2.2218723E0,-8.654691E-1,-8.72177E0,1.6065191E1,7.2408023E0,-5.5953293E0,1.0200654E1,-1.5242568E1,-6.399689E0,1.0264085E1,-1.2023317E1,-1.9465816E1,-5.917645E-2,-9.660431E0,4.7012746E-2,-1.991244E-1,-6.903366E-2,1.8886643E-2,-3.7216723E-2,9.4913505E-3,-9.039555E-2,-1.01973146E-1,8.035221E-3,1.0964605E-1,2.3921235E-1,3.6649983E-2,1.4239702E-1,-8.895634E-2,2.4041137E-2,-3.957055E-2,2.0958145E-1,-1.6989212E-1,-2.6406606E-3,-3.991529E-2,-1.0266492E-1,4.1859727E-2,2.1024984E-1,-3.377714E-2,-1.377928E-1,-1.0851835E-1,-2.0373666E-1,2.2523308E-3,-1.0579603E-1],"categories":[],"categories_nodes":[],"categories_segments":[],"categories_sizes":[],"default_left":[0,0,1,0,1,1,0,0,0,0,0,0,0,0,0,1,0,1,1,0,0,0,0,0,0,0,0,0,0,0,0,0,0,0,0,0,0,0,0,0,0,0,0,0,0,0,0,0,0,0,0,0,0,0,0,0,0,0,0],"id":28,"left_children":[1,3,5,7,9,11,13,15,17,19,21,23,25,27,29,31,33,35,37,39,41,43,45,47,49,51,53,55,-1,57,-1,-1,-1,-1,-1,-1,-1,-1,-1,-1,-1,-1,-1,-1,-1,-1,-1,-1,-1,-1,-1,-1,-1,-1,-1,-1,-1,-1,-1],"loss_changes":[3.5470188E4,1.1450391E4,2.965125E3,7.8325854E2,2.3966875E3,1.334499E3,7.2759375E2,4.490006E2,3.7361945E2,3.3300059E3,8.5723785E2,1.2719346E3,1.3629845E3,3.1875E2,2.9123956E2,2.4597632E2,3.785391E1,4.0906345E2,1.2063373E2,4.506092E3,1.7497332E3,3.1179282E2,8.444397E2,4.9259375E2,1.4302983E3,5.006438E2,1.4182983E1,1.3514648E1,0E0,1.11422485E2,0E0,0E0,0E0,0E0,0E0,0E0,0E0,0E0,0E0,0E0,0E0,0E0,0E0,0E0,0E0,0E0,0E0,0E0,0E0,0E0,0E0,0E0,0E0,0E0,0E0,0E0,0E0,0E0,0E0],"parents":[2147483647,0,0,1,1,2,2,3,3,4,4,5,5,6,6,7,7,8,8,9,9,10,10,11,11,12,12,13,13,14,14,15,15,16,16,17,17,18,18,19,19,20,20,21,21,22,22,23,23,24,24,25,25,26,26,27,27,29,29],"right_children":[2,4,6,8,10,12,14,16,18,20,22,24,26,28,30,32,34,36,38,40,42,44,46,48,50,52,54,56,-1,58,-1,-1,-1,-1,-1,-1,-1,-1,-1,-1,-1,-1,-1,-1,-1,-1,-1,-1,-1,-1,-1,-1,-1,-1,-1,-1,-1,-1,-1],"split_conditions":[1.74E2,3.4E1,2.82E1,2E0,1.164E2,7.6E0,3E-1,1.8E1,2.8E1,1.29E2,4E0,1.75E1,8.3E0,3E1,3.1E1,2.9423625E3,2.3E1,1.43E1,2.5902E3,1E2,1.6E2,2.1E1,5E0,9.9E0,2.87E2,2.22E2,1.9E1,4E0,-5.917645E-2,3E0,4.7012746E-2,-1.991244E-1,-6.903366E-2,1.8886643E-2,-3.7216723E-2,9.4913505E-3,-9.039555E-2,-1.01973146E-1,8.035221E-3,1.0964605E-1,2.3921235E-1,3.6649983E-2,1.4239702E-1,-8.895634E-2,2.4041137E-2,-3.957055E-2,2.0958145E-1,-1.6989212E-1,-2.6406606E-3,-3.991529E-2,-1.0266492E-1,4.1859727E-2,2.1024984E-1,-3.377714E-2,-1.377928E-1,-1.0851835E-1,-2.0373666E-1,2.2523308E-3,-1.0579603E-1],"split_indices":[5,5,22,1,22,19,10,0,5,5,1,25,19,0,0,7,0,19,7,5,5,0,0,13,5,5,0,0,0,0,0,0,0,0,0,0,0,0,0,0,0,0,0,0,0,0,0,0,0,0,0,0,0,0,0,0,0,0,0],"split_type":[0,0,0,0,0,0,0,0,0,0,0,0,0,0,0,0,0,0,0,0,0,0,0,0,0,0,0,0,0,0,0,0,0,0,0,0,0,0,0,0,0,0,0,0,0,0,0,0,0,0,0,0,0,0,0,0,0,0,0],"sum_hessian":[4.79E2,2.49E2,2.3E2,4.6E1,2.03E2,1.86E2,4.4E1,1.3E1,3.3E1,1.89E2,1.4E1,1.75E2,1.1E1,3.2E1,1.2E1,9E0,4E0,2.6E1,7E0,1.18E2,7.1E1,1E1,4E0,1.8E1,1.57E2,8E0,3E0,2.9E1,3E0,1.1E1,1E0,5E0,4E0,1E0,3E0,2.2E1,4E0,6E0,1E0,7.3E1,4.5E1,4.8E1,2.3E1,7E0,3E0,2E0,2E0,1.6E1,2E0,9.8E1,5.9E1,6E0,2E0,1E0,2E0,4E0,2.5E1,1E0,1E1],"tree_param":{"num_deleted":"0","num_feature":"31","num_nodes":"59","size_leaf_vector":"1"}},{"base_weights":[-5.7410395E-1,7.440876E0,-8.722498E0,-7.1070848E0,1.0927027E1,-7.066572E0,-1.417272E1,-8.86333E0,-1.8320333E0,7.2415147E0,1.3918381E1,-4.977409E0,-1.0446097E1,-1.5965567E1,-7.9099054E0,1.6899109E-1,-1.037435E1,3.053528E-1,-9.058438E-2,2.4482025E1,5.471203E0,2.3968754E1,7.210165E0,-6.392138E0,2.5071263E0,-1.2975633E1,-1.2560313E0,1.9811839E-2,-1.6463764E1,-9.238016E0,4.6777684E-2,1.8215453E-2,-4.04689E-2,-4.9531374E-2,-1.2120557E-1,-5.3280972E-2,3.0839087E-2,3.6031288E-1,3.92494E-2,1.15143925E-1,4.914367E-3,1.1986809E-2,2.4494883E-1,4.4554923E-2,2.1915315E-1,-4.2577185E-2,-1.618601E-1,-1.4705339E-2,1.13704786E-1,-1.2000166E-1,-1.8779346E-1,-3.906631E-2,3.8127404E-2,-1.2945125E-1,-2.0045151E-1,2.2410774E-3,-1.0045202E-1],"categories":[],"categories_nodes":[],"categories_segments":[],"categories_sizes":[],"default_left":[0,0,1,0,0,0,0,0,0,0,0,0,0,0,0,0,0,0,0,0,0,0,0,0,0,0,0,0,0,0,0,0,0,0,0,0,0,0,0,0,0,0,0,0,0,0,0,0,0,0,0,0,0,0,0,0,0],"id":29,"left_children":[1,3,5,7,9,11,13,15,17,19,21,23,25,27,29,31,33,35,-1,37,39,41,43,45,47,49,51,-1,53,55,-1,-1,-1,-1,-1,-1,-1,-1,-1,-1,-1,-1,-1,-1,-1,-1,-1,-1,-1,-1,-1,-1,-1,-1,-1,-1,-1],"loss_changes":[3.1086777E4,1.2249591E4,2.0297871E3,4.1918335E2,2.0379961E3,1.2400547E3,4.8004102E2,4.794336E2,2.0355905E2,2.5824302E3,6.973709E3,1.2337139E3,1.5877183E3,3.992002E2,2.77263E2,4.917343E1,2.2396216E2,1.8861278E2,0E0,1.7579326E3,2.4620225E3,4.7380078E2,2.535369E3,1.9587954E3,6.8657336E2,8.0356445E1,2.2985954E2,0E0,2.4457715E2,1.0154114E2,0E0,0E0,0E0,0E0,0E0,0E0,0E0,0E0,0E0,0E0,0E0,0E0,0E0,0E0,0E0,0E0,0E0,0E0,0E0,0E0,0E0,0E0,0E0,0E0,0E0,0E0,0E0],"parents":[2147483647,0,0,1,1,2,2,3,3,4,4,5,5,6,6,7,7,8,8,9,9,10,10,11,11,12,12,13,13,14,14,15,15,16,16,17,17,19,19,20,20,21,21,22,22,23,23,24,24,25,25,26,26,28,28,29,29],"right_children":[2,4,6,8,10,12,14,16,18,20,22,24,26,28,30,32,34,36,-1,38,40,42,44,46,48,50,52,-1,54,56,-1,-1,-1,-1,-1,-1,-1,-1,-1,-1,-1,-1,-1,-1,-1,-1,-1,-1,-1,-1,-1,-1,-1,-1,-1,-1,-1],"split_conditions":[1.67E2,3.4E1,6.709E2,5E0,9.3E1,2.72E2,3E-1,1.74E2,2.3E1,6E1,1.22E2,2.7E1,3.39E2,1.74E2,3.1E1,2.7E1,9E0,2E0,-9.058438E-2,5.3E0,6E1,3E0,1.6E2,2.3E1,2.41E2,2.9E1,5E0,1.9811839E-2,2E-1,3E0,4.6777684E-2,1.8215453E-2,-4.04689E-2,-4.9531374E-2,-1.2120557E-1,-5.3280972E-2,3.0839087E-2,3.6031288E-1,3.92494E-2,1.15143925E-1,4.914367E-3,1.1986809E-2,2.4494883E-1,4.4554923E-2,2.1915315E-1,-4.2577185E-2,-1.618601E-1,-1.4705339E-2,1.13704786E-1,-1.2000166E-1,-1.8779346E-1,-3.906631E-2,3.8127404E-2,-1.2945125E-1,-2.0045151E-1,2.2410774E-3,-1.0045202E-1],"split_indices":[5,5,7,1,5,5,10,22,0,22,5,0,5,5,0,0,5,6,0,19,5,0,5,0,5,0,1,0,10,0,0,0,0,0,0,0,0,0,0,0,0,0,0,0,0,0,0,0,0,0,0,0,0,0,0,0,0],"split_type":[0,0,0,0,0,0,0,0,0,0,0,0,0,0,0,0,0,0,0,0,0,0,0,0,0,0,0,0,0,0,0,0,0,0,0,0,0,0,0,0,0,0,0,0,0,0,0,0,0,0,0,0,0,0,0,0,0],"sum_hessian":[4.74E2,2.39E2,2.35E2,4.6E1,1.93E2,1.82E2,5.3E1,3.4E1,1.2E1,8.8E1,1.05E2,1.14E2,6.8E1,4E1,1.3E1,5E0,2.9E1,1E1,2E0,7E0,8.1E1,4.1E1,6.4E1,9.6E1,1.8E1,5.3E1,1.5E1,1E0,3.9E1,1.2E1,1E0,4E0,1E0,8E0,2.1E1,3E0,7E0,4E0,3E0,3.6E1,4.5E1,1E0,4E1,5.5E1,9E0,8E1,1.6E1,1.3E1,5E0,4.8E1,5E0,1E1,5E0,2.2E1,1.7E1,1E0,1.1E1],"tree_param":{"num_deleted":"0","num_feature":"31","num_nodes":"57","size_leaf_vector":"1"}},{"base_weights":[2.9385582E-1,8.988119E0,-8.364199E0,-6.2546754E0,1.2709519E1,-6.591467E0,-1.4226982E1,-8.376763E0,4.559711E-1,2.4043085E1,1.142719E1,-6.8810153E0,2.2618833E-1,-1.1398265E1,-1.7421036E1,1.7414799E0,-9.379769E0,-3.0750496E0,2.6058626E0,-2.6903126E-2,2.7552904E1,1.2566777E1,2.3089242E0,-5.1572533E0,-1.0575042E1,3.2515793E0,-1.2520722E1,-8.218023E0,-1.8390587E1,-1.2390518E-3,2.4045765E-2,-1.0146608E-1,-5.1915444E-2,-4.5407484E-3,-4.6710074E-2,4.4326764E-2,-1.9163856E-2,2.083318E-2,3.104261E-1,1.5301932E-1,7.835698E-2,-8.0579594E-2,7.3274426E-2,-5.72574E-2,1.9680291E-1,-1.3757855E-1,-1.758141E-2,2.2298812E-3,4.6543807E-2,-1.3394141E-1,-3.7133183E-2,2.8541565E-4,-1.0976393E-1,-2.0851845E-1,-1.08408466E-1],"categories":[],"categories_nodes":[],"categories_segments":[],"categories_sizes":[],"default_left":[0,0,1,0,0,1,0,0,0,0,1,0,0,0,0,0,1,0,0,0,0,0,0,0,0,0,0,0,0,0,0,0,0,0,0,0,0,0,0,0,0,0,0,0,0,0,0,0,0,0,0,0,0,0,0],"id":30,"left_children":[1,3,5,7,9,11,13,15,17,19,21,23,-1,25,27,29,31,33,35,-1,37,39,41,43,45,47,49,51,53,-1,-1,-1,-1,-1,-1,-1,-1,-1,-1,-1,-1,-1,-1,-1,-1,-1,-1,-1,-1,-1,-1,-1,-1,-1,-1],"loss_changes":[3.4852418E4,