{"learner":{"attributes":{"best_iteration":"199","best_score":"135.80825942291003","scikit_learn":"{\"_estimator_type\": \"regressor\"}"},"feature_names":["daily","weekly","quarterly","monthly","yearly","day of year","week of year","one_year_lag_co","two_year_lag_co","three_year_lag_co","one_year_lag_no","two_year_lag_no","three_year_lag_no","one_year_lag_no2","two_year_lag_no2","three_year_lag_no2","one_year_lag_o3","two_year_lag_o3","three_year_lag_o3","one_year_lag_so2","two_year_lag_so2","three_year_lag_so2","one_year_lag_pm2_5","two_year_lag_pm2_5","three_year_lag_pm2_5","one_year_lag_pm10","two_year_lag_pm10","three_year_lag_pm10","one_year_lag_nh3","two_year_lag_nh3","three_year_lag_nh3"],"feature_types":["int","int","int","int","int","int","int","float","float","float","float","float","float","float","float","float","float","float","float","float","float","float","float","float","float","float","float","float","float","float","float"],"gradient_booster":{"model":{"gbtree_model_param":{"num_parallel_tree":"1","num_trees":"1600"},"iteration_indptr":[0,8,16,24,32,40,48,56,64,72,80,88,96,104,112,120,128,136,144,152,160,168,176,184,192,200,208,216,224,232,240,248,256,264,272,280,288,296,304,312,320,328,336,344,352,360,368,376,384,392,400,408,416,424,432,440,448,456,464,472,480,488,496,504,512,520,528,536,544,552,560,568,576,584,592,600,608,616,624,632,640,648,656,664,672,680,688,696,704,712,720,728,736,744,752,760,768,776,784,792,800,808,816,824,832,840,848,856,864,872,880,888,896,904,912,920,928,936,944,952,960,968,976,984,992,1000,1008,1016,1024,1032,1040,1048,1056,1064,1072,1080,1088,1096,1104,1112,1120,1128,1136,1144,1152,1160,1168,1176,1184,1192,1200,1208,1216,1224,1232,1240,1248,1256,1264,1272,1280,1288,1296,1304,1312,1320,1328,1336,1344,1352,1360,1368,1376,1384,1392,1400,1408,1416,1424,1432,1440,1448,1456,1464,1472,1480,1488,1496,1504,1512,1520,1528,1536,1544,1552,1560,1568,1576,1584,1592,1600],"tree_info":[0,1,2,3,4,5,6,7,0,1,2,3,4,5,6,7,0,1,2,3,4,5,6,7,0,1,2,3,4,5,6,7,0,1,2,3,4,5,6,7,0,1,2,3,4,5,6,7,0,1,2,3,4,5,6,7,0,1,2,3,4,5,6,7,0,1,2,3,4,5,6,7,0,1,2,3,4,5,6,7,0,1,2,3,4,5,6,7,0,1,2,3,4,5,6,7,0,1,2,3,4,5,6,7,0,1,2,3,4,5,6,7,0,1,2,3,4,5,6,7,0,1,2,3,4,5,6,7,0,1,2,3,4,5,6,7,0,1,2,3,4,5,6,7,0,1,2,3,4,5,6,7,0,1,2,3,4,5,6,7,0,1,2,3,4,5,6,7,0,1,2,3,4,5,6,7,0,1,2,3,4,5,6,7,0,1,2,3,4,5,6,7,0,1,2,3,4,5,6,7,0,1,2,3,4,5,6,7,0,1,2,3,4,5,6,7,0,1,2,3,4,5,6,7,0,1,2,3,4,5,6,7,0,1,2,3,4,5,6,7,0,1,2,3,4,5,6,7,0,1,2,3,4,5,6,7,0,1,2,3,4,5,6,7,0,1,2,3,4,5,6,7,0,1,2,3,4,5,6,7,0,1,2,3,4,5,6,7,0,1,2,3,4,5,6,7,0,1,2,3,4,5,6,7,0,1,2,3,4,5,6,7,0,1,2,3,4,5,6,7,0,1,2,3,4,5,6,7,0,1,2,3,4,5,6,7,0,1,2,3,4,5,6,7,0,1,2,3,4,5,6,7,0,1,2,3,4,5,6,7,0,1,2,3,4,5,6,7,0,1,2,3,4,5,6,7,0,1,2,3,4,5,6,7,0,1,2,3,4,5,6,7,0,1,2,3,4,5,6,7,0,1,2,3,4,5,6,7,0,1,2,3,4,5,6,7,0,1,2,3,4,5,6,7,0,1,2,3,4,5,6,7,0,1,2,3,4,5,6,7,0,1,2,3,4,5,6,7,0,1,2,3,4,5,6,7,0,1,2,3,4,5,6,7,0,1,2,3,4,5,6,7,0,1,2,3,4,5,6,7,0,1,2,3,4,5,6,7,0,1,2,3,4,5,6,7,0,1,2,3,4,5,6,7,0,1,2,3,4,5,6,7,0,1,2,3,4,5,6,7,0,1,2,3,4,5,6,7,0,1,2,3,4,5,6,7,0,1,2,3,4,5,6,7,0,1,2,3,4,5,6,7,0,1,2,3,4,5,6,7,0,1,2,3,4,5,6,7,0,1,2,3,4,5,6,7,0,1,2,3,4,5,6,7,0,1,2,3,4,5,6,7,0,1,2,3,4,5,6,7,0,1,2,3,4,5,6,7,0,1,2,3,4,5,6,7,0,1,2,3,4,5,6,7,0,1,2,3,4,5,6,7,0,1,2,3,4,5,6,7,0,1,2,3,4,5,6,7,0,1,2,3,4,5,6,7,0,1,2,3,4,5,6,7,0,1,2,3,4,5,6,7,0,1,2,3,4,5,6,7,0,1,2,3,4,5,6,7,0,1,2,3,4,5,6,7,0,1,2,3,4,5,6,7,0,1,2,3,4,5,6,7,0,1,2,3,4,5,6,7,0,1,2,3,4,5,6,7,0,1,2,3,4,5,6,7,0,1,2,3,4,5,6,7,0,1,2,3,4,5,6,7,0,1,2,3,4,5,6,7,0,1,2,3,4,5,6,7,0,1,2,3,4,5,6,7,0,1,2,3,4,5,6,7,0,1,2,3,4,5,6,7,0,1,2,3,4,5,6,7,0,1,2,3,4,5,6,7,0,1,2,3,4,5,6,7,0,1,2,3,4,5,6,7,0,1,2,3,4,5,6,7,0,1,2,3,4,5,6,7,0,1,2,3,4,5,6,7,0,1,2,3,4,5,6,7,0,1,2,3,4,5,6,7,0,1,2,3,4,5,6,7,0,1,2,3,4,5,6,7,0,1,2,3,4,5,6,7,0,1,2,3,4,5,6,7,0,1,2,3,4,5,6,7,0,1,2,3,4,5,6,7,0,1,2,3,4,5,6,7,0,1,2,3,4,5,6,7,0,1,2,3,4,5,6,7,0,1,2,3,4,5,6,7,0,1,2,3,4,5,6,7,0,1,2,3,4,5,6,7,0,1,2,3,4,5,6,7,0,1,2,3,4,5,6,7,0,1,2,3,4,5,6,7,0,1,2,3,4,5,6,7,0,1,2,3,4,5,6,7,0,1,2,3,4,5,6,7,0,1,2,3,4,5,6,7,0,1,2,3,4,5,6,7,0,1,2,3,4,5,6,7,0,1,2,3,4,5,6,7,0,1,2,3,4,5,6,7,0,1,2,3,4,5,6,7,0,1,2,3,4,5,6,7,0,1,2,3,4,5,6,7,0,1,2,3,4,5,6,7,0,1,2,3,4,5,6,7,0,1,2,3,4,5,6,7,0,1,2,3,4,5,6,7,0,1,2,3,4,5,6,7,0,1,2,3,4,5,6,7,0,1,2,3,4,5,6,7,0,1,2,3,4,5,6,7,0,1,2,3,4,5,6,7,0,1,2,3,4,5,6,7,0,1,2,3,4,5,6,7,0,1,2,3,4,5,6,7,0,1,2,3,4,5,6,7,0,1,2,3,4,5,6,7,0,1,2,3,4,5,6,7,0,1,2,3,4,5,6,7,0,1,2,3,4,5,6,7,0,1,2,3,4,5,6,7,0,1,2,3,4,5,6,7,0,1,2,3,4,5,6,7,0,1,2,3,4,5,6,7,0,1,2,3,4,5,6,7,0,1,2,3,4,5,6,7,0,1,2,3,4,5,6,7,0,1,2,3,4,5,6,7,0,1,2,3,4,5,6,7,0,1,2,3,4,5,6,7,0,1,2,3,4,5,6,7,0,1,2,3,4,5,6,7,0,1,2,3,4,5,6,7,0,1,2,3,4,5,6,7,0,1,2,3,4,5,6,7,0,1,2,3,4,5,6,7,0,1,2,3,4,5,6,7,0,1,2,3,4,5,6,7,0,1,2,3,4,5,6,7,0,1,2,3,4,5,6,7,0,1,2,3,4,5,6,7,0,1,2,3,4,5,6,7,0,1,2,3,4,5,6,7,0,1,2,3,4,5,6,7,0,1,2,3,4,5,6,7,0,1,2,3,4,5,6,7,0,1,2,3,4,5,6,7,0,1,2,3,4,5,6,7,0,1,2,3,4,5,6,7,0,1,2,3,4,5,6,7,0,1,2,3,4,5,6,7,0,1,2,3,4,5,6,7,0,1,2,3,4,5,6,7,0,1,2,3,4,5,6,7,0,1,2,3,4,5,6,7,0,1,2,3,4,5,6,7,0,1,2,3,4,5,6,7,0,1,2,3,4,5,6,7,0,1,2,3,4,5,6,7,0,1,2,3,4,5,6,7,0,1,2,3,4,5,6,7,0,1,2,3,4,5,6,7,0,1,2,3,4,5,6,7,0,1,2,3,4,5,6,7,0,1,2,3,4,5,6,7,0,1,2,3,4,5,6,7,0,1,2,3,4,5,6,7,0,1,2,3,4,5,6,7,0,1,2,3,4,5,6,7],"trees":[{"base_weights":[1.2679506E3,1.9652543E3,1.1184937E3,2.2145117E3,1.747913E1,9.3960394E2,1.6822216E3,2.2347385E1,5.0045E0,1.2295651E1,8.539237E0,1.5084161E1,1.945349E1],"categories":[],"categories_nodes":[],"categories_segments":[],"categories_sizes":[],"default_left":[0,0,0,0,0,0,0,0,0,0,0,0,0],"id":0,"left_children":[1,3,5,7,-1,9,11,-1,-1,-1,-1,-1,-1],"loss_changes":[8.065421E7,3.659456E6,6.467456E7,9.9648E5,0E0,1.1396864E7,4.245664E6,0E0,0E0,0E0,0E0,0E0,0E0],"parents":[2147483647,0,0,1,1,2,2,3,3,5,5,6,6],"right_children":[2,4,6,8,-1,10,12,-1,-1,-1,-1,-1,-1],"split_conditions":[4.7E1,2.1E1,2.89E2,5E0,1.747913E1,9.4E1,3.38E2,2.2347385E1,5.0045E0,1.2295651E1,8.539237E0,1.5084161E1,1.945349E1],"split_indices":[5,5,5,6,0,5,5,0,0,0,0,0,0],"split_type":[0,0,0,0,0,0,0,0,0,0,0,0,0],"sum_hessian":[7.94E2,1.38E2,6.56E2,6E1,7.8E1,5E2,1.56E2,5.9E1,1E0,1.11E2,3.89E2,9.8E1,5.8E1],"tree_param":{"num_deleted":"0","num_feature":"31","num_nodes":"13","size_leaf_vector":"1"}},{"base_weights":[-3.8691825E-1,-4.1723484E-1,-3.2574627E-1,-4.5163636E-3,-3.7834647E-1,-2.6393443E-1,-3.7482995E-1,-2.7924527E-3,-4.0247524E-3,-2.9052633E-3,-1.6428572E-3,-2.7878787E-3,-3.9913044E-3],"categories":[],"categories_nodes":[],"categories_segments":[],"categories_sizes":[],"default_left":[0,0,0,0,0,1,0,0,0,0,0,0,0],"id":1,"left_children":[1,3,5,-1,7,9,11,-1,-1,-1,-1,-1,-1],"loss_changes":[1.3384476E0,5.3549194E-1,7.1417046E-1,0E0,4.9497604E-1,2.7555084E-1,2.318058E-1,0E0,0E0,0E0,0E0,0E0,0E0],"parents":[2147483647,0,0,1,1,2,2,4,4,5,5,6,6],"right_children":[2,4,6,-1,8,10,12,-1,-1,-1,-1,-1,-1],"split_conditions":[3.4E1,2.066E2,2.93E2,-4.5163636E-3,3.4E1,3.9E1,9E0,-2.7924527E-3,-4.0247524E-3,-2.9052633E-3,-1.6428572E-3,-2.7878787E-3,-3.9913044E-3],"split_indices":[6,22,5,0,5,16,0,0,0,0,0,0,0],"split_type":[0,0,0,0,0,0,0,0,0,0,0,0,0],"sum_hessian":[7.94E2,5.27E2,2.67E2,2.74E2,2.53E2,1.21E2,1.46E2,5.2E1,2.01E2,9.4E1,2.7E1,3.2E1,1.14E2],"tree_param":{"num_deleted":"0","num_feature":"31","num_nodes":"13","size_leaf_vector":"1"}},{"base_weights":[1.8540583E1,3.0213602E1,1.610714E1,3.0324074E1,7.65E-2,1.3806846E1,2.688848E1,3.3295622E-1,2.757911E-1,1.9382127E-1,1.2190845E-1,2.461625E-1,3.119097E-1],"categories":[],"categories_nodes":[],"categories_segments":[],"categories_sizes":[],"default_left":[0,0,0,0,0,0,1,0,0,0,0,0,0],"id":2,"left_children":[1,3,5,7,-1,9,11,-1,-1,-1,-1,-1,-1],"loss_changes":[2.2095812E4,1.0702344E2,1.5996922E4,1.8289844E2,0E0,4.6829844E3,3.5646875E2,0E0,0E0,0E0,0E0,0E0,0E0],"parents":[2147483647,0,0,1,1,2,2,3,3,5,5,6,6],"right_children":[2,4,6,8,-1,10,12,-1,-1,-1,-1,-1,-1],"split_conditions":[4.6E1,8E0,3.1E2,2.1E1,7.65E-2,9.7E1,1.5754E3,3.3295622E-1,2.757911E-1,1.9382127E-1,1.2190845E-1,2.461625E-1,3.119097E-1],"split_indices":[5,6,5,5,0,5,7,0,0,0,0,0,0],"split_type":[0,0,0,0,0,0,0,0,0,0,0,0,0],"sum_hessian":[7.94E2,1.35E2,6.59E2,1.34E2,1E0,5.45E2,1.14E2,5.9E1,7.5E1,1.2E2,4.25E2,7.9E1,3.5E1],"tree_param":{"num_deleted":"0","num_feature":"31","num_nodes":"13","size_leaf_vector":"1"}},{"base_weights":[4.3446053E1,5.3001495E1,3.3183937E1,3.9096523E1,5.8224705E1,2.951006E1,3.5879818E1,3.6386904E-1,4.49875E-1,5.832377E-1,1.45E-1,3.3976665E-1,2.6805454E-1,3.8729823E-1,3.244381E-1],"categories":[],"categories_nodes":[],"categories_segments":[],"categories_sizes":[],"default_left":[0,0,0,0,1,0,0,0,0,0,0,0,0,0,0],"id":3,"left_children":[1,3,5,7,9,11,13,-1,-1,-1,-1,-1,-1,-1,-1],"loss_changes":[7.6198125E4,2.7501375E4,2.76425E3,1.9871875E2,4.365E2,1.1308438E3,8.7828125E2,0E0,0E0,0E0,0E0,0E0,0E0,0E0,0E0],"parents":[2147483647,0,0,1,1,2,2,3,3,4,4,5,5,6,6],"right_children":[2,4,6,8,10,12,14,-1,-1,-1,-1,-1,-1,-1,-1],"split_conditions":[1.74E2,3.9E1,1.26E1,5E0,2.8572E3,2.33E2,2.87E2,3.6386904E-1,4.49875E-1,5.832377E-1,1.45E-1,3.3976665E-1,2.6805454E-1,3.8729823E-1,3.244381E-1],"split_indices":[5,5,28,1,7,5,5,0,0,0,0,0,0,0,0],"split_type":[0,0,0,0,0,0,0,0,0,0,0,0,0,0,0],"sum_hessian":[7.94E2,4.09E2,3.85E2,1.14E2,2.95E2,1.68E2,2.17E2,8.3E1,3.1E1,2.94E2,1E0,5.9E1,1.09E2,1.13E2,1.04E2],"tree_param":{"num_deleted":"0","num_feature":"31","num_nodes":"15","size_leaf_vector":"1"}},{"base_weights":[6.6997485E0,1.0196063E1,6.026009E0,1.1322727E-1,8.832258E-2,5.3602095E0,9.896907E0,5.8248173E-2,4.155828E-2,8.705882E-2,1.22666664E-1],"categories":[],"categories_nodes":[],"categories_segments":[],"categories_sizes":[],"default_left":[0,0,0,0,0,0,1,0,0,0,0],"id":4,"left_children":[1,3,5,-1,-1,7,9,-1,-1,-1,-1],"loss_changes":[1.8112617E3,9.5137695E1,1.671127E3,0E0,0E0,2.9642383E2,1.6698438E2,0E0,0E0,0E0,0E0],"parents":[2147483647,0,0,1,1,2,2,5,5,6,6],"right_children":[2,4,6,-1,-1,8,10,-1,-1,-1,-1],"split_conditions":[7E0,2.3E1,3.18E2,1.1322727E-1,8.832258E-2,5E0,1.14E1,5.8248173E-2,4.155828E-2,8.705882E-2,1.22666664E-1],"split_indices":[6,5,5,0,0,1,28,0,0,0,0],"split_type":[0,0,0,0,0,0,0,0,0,0,0],"sum_hessian":[7.94E2,1.26E2,6.68E2,6.5E1,6.1E1,5.72E2,9.6E1,4.1E2,1.62E2,6.7E1,2.9E1],"tree_param":{"num_deleted":"0","num_feature":"31","num_nodes":"11","size_leaf_vector":"1"}},{"base_weights":[8.4871025E1,1.606919E2,6.7422935E1,1.8398459E2,1.4318342E0,5.1183327E1,1.3702008E2,2.0103462E0,1.4539659E0,8.985352E-1,4.5063484E-1,1.1821713E0,1.5926887E0],"categories":[],"categories_nodes":[],"categories_segments":[],"categories_sizes":[],"default_left":[0,0,0,1,0,0,0,0,0,0,0,0,0],"id":5,"left_children":[1,3,5,7,-1,9,11,-1,-1,-1,-1,-1,-1],"loss_changes":[1.0408945E6,3.40135E4,7.2537625E5,1.0245875E4,0E0,1.20668375E5,3.22095E4,0E0,0E0,0E0,0E0,0E0,0E0],"parents":[2147483647,0,0,1,1,2,2,3,3,5,5,6,6],"right_children":[2,4,6,8,-1,10,12,-1,-1,-1,-1,-1,-1],"split_conditions":[8E0,2.1E1,1.1E1,3.17E1,1.4318342E0,7.7E1,3.4E2,2.0103462E0,1.4539659E0,8.985352E-1,4.5063484E-1,1.1821713E0,1.5926887E0],"split_indices":[6,5,3,13,0,5,5,0,0,0,0,0,0],"split_type":[0,0,0,0,0,0,0,0,0,0,0,0,0],"sum_hessian":[7.94E2,1.47E2,6.47E2,5.9E1,8.8E1,5.26E2,1.21E2,3.8E1,2.1E1,7E1,4.56E2,6.9E1,5.2E1],"tree_param":{"num_deleted":"0","num_feature":"31","num_nodes":"13","size_leaf_vector":"1"}},{"base_weights":[1.1580777E2,2.2670792E2,9.216861E1,2.5366475E2,2.030234E0,6.944326E1,1.8929092E2,2.5597749E0,5.745E-1,1.0890512E0,5.301715E-1,1.6320857E0,2.19045E0],"categories":[],"categories_nodes":[],"categories_segments":[],"categories_sizes":[],"default_left":[0,0,0,0,0,0,0,0,0,0,0,0,0],"id":6,"left_children":[1,3,5,7,-1,9,11,-1,-1,-1,-1,-1,-1],"loss_changes":[2.063266E6,3.72455E4,1.436945E6,1.29755E4,0E0,3.4036775E5,6.04805E4,0E0,0E0,0E0,0E0,0E0,0E0],"parents":[2147483647,0,0,1,1,2,2,3,3,5,5,6,6],"right_children":[2,4,6,8,-1,10,12,-1,-1,-1,-1,-1,-1],"split_conditions":[4.7E1,2.1E1,1.1E1,5E0,2.030234E0,1.16E2,3.4E2,2.5597749E0,5.745E-1,1.0890512E0,5.301715E-1,1.6320857E0,2.19045E0],"split_indices":[5,5,3,6,0,5,5,0,0,0,0,0,0],"split_type":[0,0,0,0,0,0,0,0,0,0,0,0,0],"sum_hessian":[7.94E2,1.38E2,6.56E2,6E1,7.8E1,5.33E2,1.23E2,5.9E1,1E0,1.55E2,3.78E2,6.9E1,5.4E1],"tree_param":{"num_deleted":"0","num_feature":"31","num_nodes":"13","size_leaf_vector":"1"}},{"base_weights":[1.0212437E1,1.7666637E1,5.920084E0,2.358116E1,1.5748761E1,3.695475E0,2.0956347E1,2.5805584E-1,1.8010326E-1,1.6992006E-1,1.3136841E-1,2.9738579E-2,9.422449E-2,1.6387771E-1,3.041625E-1],"categories":[],"categories_nodes":[],"categories_segments":[],"categories_sizes":[],"default_left":[0,0,0,1,0,0,1,0,0,0,0,0,0,0,0],"id":7,"left_children":[1,3,5,7,9,11,13,-1,-1,-1,-1,-1,-1,-1,-1],"loss_changes":[2.5332281E4,2.9181875E3,1.6848154E4,3.9027344E2,4.9767188E2,1.798625E3,2.3107363E3,0E0,0E0,0E0,0E0,0E0,0E0,0E0,0E0],"parents":[2147483647,0,0,1,1,2,2,3,3,4,4,5,5,6,6],"right_children":[2,4,6,8,10,12,14,-1,-1,-1,-1,-1,-1,-1,-1],"split_conditions":[1.7E1,2.4E1,3.34E2,3.2E1,7.7E1,3.1E2,9E0,2.5805584E-1,1.8010326E-1,1.6992006E-1,1.3136841E-1,2.9738579E-2,9.422449E-2,1.6387771E-1,3.041625E-1],"split_indices":[6,5,5,13,5,5,19,0,0,0,0,0,0,0,0],"split_type":[0,0,0,0,0,0,0,0,0,0,0,0,0,0,0],"sum_hessian":[7.94E2,2.89E2,5.05E2,6.8E1,2.21E2,4.41E2,6.4E1,4.6E1,2.2E1,1.46E2,7.5E1,3.93E2,4.8E1,4.5E1,1.9E1],"tree_param":{"num_deleted":"0","num_feature":"31","num_nodes":"15","size_leaf_vector":"1"}},{"base_weights":[1.2553971E3,1.9459242E3,1.1073931E3,2.192815E3,1.730655E1,9.3024945E2,1.6656194E3,2.2127636E1,4.9794774E0,1.2173793E1,8.454064E0,1.4934843E1,1.926225E1],"categories":[],"categories_nodes":[],"categories_segments":[],"categories_sizes":[],"default_left":[0,0,0,0,0,0,0,0,0,0,0,0,0],"id":8,"left_children":[1,3,5,7,-1,9,11,-1,-1,-1,-1,-1,-1],"loss_changes":[7.909466E7,3.592576E6,6.3418816E7,9.60576E5,0E0,1.117568E7,4.166144E6,0E0,0E0,0E0,0E0,0E0,0E0],"parents":[2147483647,0,0,1,1,2,2,3,3,5,5,6,6],"right_children":[2,4,6,8,-1,10,12,-1,-1,-1,-1,-1,-1],"split_conditions":[4.7E1,2.1E1,2.89E2,5E0,1.730655E1,9.4E1,3.38E2,2.2127636E1,4.9794774E0,1.2173793E1,8.454064E0,1.4934843E1,1.926225E1],"split_indices":[5,5,5,6,0,5,5,0,0,0,0,0,0],"split_type":[0,0,0,0,0,0,0,0,0,0,0,0,0],"sum_hessian":[7.94E2,1.38E2,6.56E2,6E1,7.8E1,5E2,1.56E2,5.9E1,1E0,1.11E2,3.89E2,9.8E1,5.8E1],"tree_param":{"num_deleted":"0","num_feature":"31","num_nodes":"13","size_leaf_vector":"1"}},{"base_weights":[-3.8307756E-1,-4.1308397E-1,-3.2253107E-1,-4.4713644E-3,-3.7458983E-1,-2.6133236E-1,-3.7112775E-1,-2.7650553E-3,-3.984704E-3,-2.8765164E-3,-1.6270153E-3,-2.7608448E-3,-3.9517386E-3],"categories":[],"categories_nodes":[],"categories_segments":[],"categories_sizes":[],"default_left":[0,0,0,0,0,1,0,0,0,0,0,0,0],"id":9,"left_children":[1,3,5,-1,7,9,11,-1,-1,-1,-1,-1,-1],"loss_changes":[1.3111115E0,5.2462006E-1,7.00058E-1,0E0,4.8477173E-1,2.6989746E-1,2.2685432E-1,0E0,0E0,0E0,0E0,0E0,0E0],"parents":[2147483647,0,0,1,1,2,2,4,4,5,5,6,6],"right_children":[2,4,6,-1,8,10,12,-1,-1,-1,-1,-1,-1],"split_conditions":[3.4E1,2.066E2,2.93E2,-4.4713644E-3,3.4E1,3.9E1,9E0,-2.7650553E-3,-3.984704E-3,-2.8765164E-3,-1.6270153E-3,-2.7608448E-3,-3.9517386E-3],"split_indices":[6,22,5,0,5,16,0,0,0,0,0,0,0],"split_type":[0,0,0,0,0,0,0,0,0,0,0,0,0],"sum_hessian":[7.94E2,5.27E2,2.67E2,2.74E2,2.53E2,1.21E2,1.46E2,5.2E1,2.01E2,9.4E1,2.7E1,3.2E1,1.14E2],"tree_param":{"num_deleted":"0","num_feature":"31","num_nodes":"13","size_leaf_vector":"1"}},{"base_weights":[1.8357138E1,2.9916506E1,1.5947393E1,3.0025343E1,7.61175E-2,1.3669355E1,2.6624447E1,3.296822E-1,2.730695E-1,1.9373406E-1,1.2119273E-1,2.1160154E-1,2.8139848E-1],"categories":[],"categories_nodes":[],"categories_segments":[],"categories_sizes":[],"default_left":[0,0,0,0,0,0,0,0,0,0,0,0,0],"id":10,"left_children":[1,3,5,7,-1,9,11,-1,-1,-1,-1,-1,-1],"loss_changes":[2.166775E4,1.0160156E2,1.56890625E4,1.7973438E2,0E0,4.592797E3,3.5682812E2,0E0,0E0,0E0,0E0,0E0,0E0],"parents":[2147483647,0,0,1,1,2,2,3,3,5,5,6,6],"right_children":[2,4,6,8,-1,10,12,-1,-1,-1,-1,-1,-1],"split_conditions":[4.6E1,8E0,3.1E2,2.1E1,7.61175E-2,9.4E1,3.24E2,3.296822E-1,2.730695E-1,1.9373406E-1,1.2119273E-1,2.1160154E-1,2.8139848E-1],"split_indices":[5,6,5,5,0,5,5,0,0,0,0,0,0],"split_type":[0,0,0,0,0,0,0,0,0,0,0,0,0],"sum_hessian":[7.94E2,1.35E2,6.59E2,1.34E2,1E0,5.45E2,1.14E2,5.9E1,7.5E1,1.14E2,4.31E2,2.8E1,8.6E1],"tree_param":{"num_deleted":"0","num_feature":"31","num_nodes":"13","size_leaf_vector":"1"}},{"base_weights":[4.3015194E1,5.247524E1,3.285552E1,3.871263E1,5.764492E1,2.9218555E1,3.5524284E1,3.6027366E-1,4.455168E-1,5.774251E-1,1.44275E-1,3.3642563E-1,2.6539835E-1,3.8345924E-1,3.212246E-1],"categories":[],"categories_nodes":[],"categories_segments":[],"categories_sizes":[],"default_left":[0,0,0,0,1,0,0,0,0,0,0,0,0,0,0],"id":11,"left_children":[1,3,5,7,9,11,13,-1,-1,-1,-1,-1,-1,-1,-1],"loss_changes":[7.4684125E4,2.693925E4,2.708625E3,1.980625E2,4.153125E2,1.1099062E3,8.6078125E2,0E0,0E0,0E0,0E0,0E0,0E0,0E0,0E0],"parents":[2147483647,0,0,1,1,2,2,3,3,4,4,5,5,6,6],"right_children":[2,4,6,8,10,12,14,-1,-1,-1,-1,-1,-1,-1,-1],"split_conditions":[1.74E2,3.9E1,1.26E1,5E0,2.8572E3,2.33E2,2.87E2,3.6027366E-1,4.455168E-1,5.774251E-1,1.44275E-1,3.3642563E-1,2.6539835E-1,3.8345924E-1,3.212246E-1],"split_indices":[5,5,28,1,7,5,5,0,0,0,0,0,0,0,0],"split_type":[0,0,0,0,0,0,0,0,0,0,0,0,0,0,0],"sum_hessian":[7.94E2,4.09E2,3.85E2,1.14E2,2.95E2,1.68E2,2.17E2,8.3E1,3.1E1,2.94E2,1E0,5.9E1,1.09E2,1.13E2,1.04E2],"tree_param":{"num_deleted":"0","num_feature":"31","num_nodes":"15","size_leaf_vector":"1"}},{"base_weights":[6.633394E0,1.009569E1,5.966212E0,1.1211216E-1,8.7453604E-2,5.306782E0,9.8001E0,5.766711E-2,4.1145246E-2,8.6201034E-2,1.2148089E-1],"categories":[],"categories_nodes":[],"categories_segments":[],"categories_sizes":[],"default_left":[0,0,0,0,0,0,1,0,0,0,0],"id":12,"left_children":[1,3,5,-1,-1,7,9,-1,-1,-1,-1],"loss_changes":[1.7762031E3,9.3256836E1,1.6393477E3,0E0,0E0,2.9047852E2,1.6403223E2,0E0,0E0,0E0,0E0],"parents":[2147483647,0,0,1,1,2,2,5,5,6,6],"right_children":[2,4,6,-1,-1,8,10,-1,-1,-1,-1],"split_conditions":[7E0,2.3E1,3.18E2,1.1211216E-1,8.7453604E-2,5E0,1.14E1,5.766711E-2,4.1145246E-2,8.6201034E-2,1.2148089E-1],"split_indices":[6,5,5,0,0,1,28,0,0,0,0],"split_type":[0,0,0,0,0,0,0,0,0,0,0],"sum_hessian":[7.94E2,1.26E2,6.68E2,6.5E1,6.1E1,5.72E2,9.6E1,4.1E2,1.62E2,6.7E1,2.9E1],"tree_param":{"num_deleted":"0","num_feature":"31","num_nodes":"11","size_leaf_vector":"1"}},{"base_weights":[8.403366E1,1.5911806E2,6.675507E1,1.8220248E2,1.4176768E0,5.0674053E1,1.3567262E2,1.9907582E0,1.4400871E0,8.896764E-1,4.4613832E-1,1.1705185E0,1.5770624E0],"categories":[],"categories_nodes":[],"categories_segments":[],"categories_sizes":[],"default_left":[0,0,0,1,0,0,0,0,0,0,0,0,0],"id":13,"left_children":[1,3,5,7,-1,9,11,-1,-1,-1,-1,-1,-1],"loss_changes":[1.020773E6,3.3447E4,7.1128025E5,9.99875E3,0E0,1.18330375E5,3.159475E4,0E0,0E0,0E0,0E0,0E0,0E0],"parents":[2147483647,0,0,1,1,2,2,3,3,5,5,6,6],"right_children":[2,4,6,8,-1,10,12,-1,-1,-1,-1,-1,-1],"split_conditions":[8E0,2.1E1,1.1E1,3.17E1,1.4176768E0,7.7E1,3.4E2,1.9907582E0,1.4400871E0,8.896764E-1,4.4613832E-1,1.1705185E0,1.5770624E0],"split_indices":[6,5,3,13,0,5,5,0,0,0,0,0,0],"split_type":[0,0,0,0,0,0,0,0,0,0,0,0,0],"sum_hessian":[7.94E2,1.47E2,6.47E2,5.9E1,8.8E1,5.26E2,1.21E2,3.8E1,2.1E1,7E1,4.56E2,6.9E1,5.2E1],"tree_param":{"num_deleted":"0","num_feature":"31","num_nodes":"13","size_leaf_vector":"1"}},{"base_weights":[1.1466303E2,2.24478E2,9.12552E1,2.5117949E2,2.0101888E0,6.875186E1,1.8742885E2,2.5346038E0,5.716275E-1,1.0782306E0,5.2488375E-1,1.615998E0,2.1689436E0],"categories":[],"categories_nodes":[],"categories_segments":[],"categories_sizes":[],"default_left":[0,0,0,0,0,0,0,0,0,0,0,0,0],"id":14,"left_children":[1,3,5,7,-1,9,11,-1,-1,-1,-1,-1,-1],"loss_changes":[2.023086E6,3.65765E4,1.4090125E6,1.250625E4,0E0,3.3366225E5,5.9322E4,0E0,0E0,0E0,0E0,0E0,0E0],"parents":[2147483647,0,0,1,1,2,2,3,3,5,5,6,6],"right_children":[2,4,6,8,-1,10,12,-1,-1,-1,-1,-1,-1],"split_conditions":[4.7E1,2.1E1,1.1E1,5E0,2.0101888E0,1.16E2,3.4E2,2.5346038E0,5.716275E-1,1.0782306E0,5.2488375E-1,1.615998E0,2.1689436E0],"split_indices":[5,5,3,6,0,5,5,0,0,0,0,0,0],"split_type":[0,0,0,0,0,0,0,0,0,0,0,0,0],"sum_hessian":[7.94E2,1.38E2,6.56E2,6E1,7.8E1,5.33E2,1.23E2,5.9E1,1E0,1.55E2,3.78E2,6.9E1,5.4E1],"tree_param":{"num_deleted":"0","num_feature":"31","num_nodes":"13","size_leaf_vector":"1"}},{"base_weights":[1.0111987E1,1.7492521E1,5.862053E0,2.3351698E1,1.559263E1,3.6588008E0,2.0753983E1,2.5553018E-1,1.7838052E-1,1.6823241E-1,1.3007201E-1,2.9441947E-2,9.330147E-2,1.6227457E-1,3.0127296E-1],"categories":[],"categories_nodes":[],"categories_segments":[],"categories_sizes":[],"default_left":[0,0,0,1,0,0,1,0,0,0,0,0,0,0,0],"id":15,"left_children":[1,3,5,7,9,11,13,-1,-1,-1,-1,-1,-1,-1,-1],"loss_changes":[2.4834055E4,2.8641016E3,1.652627E4,3.8165625E2,4.875078E2,1.7638584E3,2.2689648E3,0E0,0E0,0E0,0E0,0E0,0E0,0E0,0E0],"parents":[2147483647,0,0,1,1,2,2,3,3,4,4,5,5,6,6],"right_children":[2,4,6,8,10,12,14,-1,-1,-1,-1,-1,-1,-1,-1],"split_conditions":[1.7E1,2.4E1,3.34E2,3.2E1,7.7E1,3.1E2,9E0,2.5553018E-1,1.7838052E-1,1.6823241E-1,1.3007201E-1,2.9441947E-2,9.330147E-2,1.6227457E-1,3.0127296E-1],"split_indices":[6,5,5,13,5,5,19,0,0,0,0,0,0,0,0],"split_type":[0,0,0,0,0,0,0,0,0,0,0,0,0,0,0],"sum_hessian":[7.94E2,2.89E2,5.05E2,6.8E1,2.21E2,4.41E2,6.4E1,4.6E1,2.2E1,1.46E2,7.5E1,3.93E2,4.8E1,4.5E1,1.9E1],"tree_param":{"num_deleted":"0","num_feature":"31","num_nodes":"15","size_leaf_vector":"1"}},{"base_weights":[1.2429679E3,1.9267845E3,1.0964026E3,2.1713313E3,1.7135675E1,9.2098816E2,1.6491809E3,2.1910048E1,4.9545803E0,1.2053142E1,8.3697405E0,1.4787003E1,1.9072893E1],"categories":[],"categories_nodes":[],"categories_segments":[],"categories_sizes":[],"default_left":[0,0,0,0,0,0,0,0,0,0,0,0,0],"id":16,"left_children":[1,3,5,7,-1,9,11,-1,-1,-1,-1,-1,-1],"loss_changes":[7.756544E7,3.526912E6,6.218733E7,9.25632E5,0E0,1.0958816E7,4.088064E6,0E0,0E0,0E0,0E0,0E0,0E0],"parents":[2147483647,0,0,1,1,2,2,3,3,5,5,6,6],"right_children":[2,4,6,8,-1,10,12,-1,-1,-1,-1,-1,-1],"split_conditions":[4.7E1,2.1E1,2.89E2,5E0,1.7135675E1,9.4E1,3.38E2,2.1910048E1,4.9545803E0,1.2053142E1,8.3697405E0,1.4787003E1,1.9072893E1],"split_indices":[5,5,5,6,0,5,5,0,0,0,0,0,0],"split_type":[0,0,0,0,0,0,0,0,0,0,0,0,0],"sum_hessian":[7.94E2,1.38E2,6.56E2,6E1,7.8E1,5E2,1.56E2,5.9E1,1E0,1.11E2,3.89E2,9.8E1,5.8E1],"tree_param":{"num_deleted":"0","num_feature":"31","num_nodes":"13","size_leaf_vector":"1"}},{"base_weights":[-3.7927502E-1,-4.0897438E-1,-3.1934762E-1,-4.426813E-3,-3.7087053E-1,-2.5875595E-1,-3.6746213E-1,-2.737926E-3,-3.9450545E-3,-2.848054E-3,-1.611326E-3,-2.7340727E-3,-3.912565E-3],"categories":[],"categories_nodes":[],"categories_segments":[],"categories_sizes":[],"default_left":[0,0,0,0,0,1,0,0,0,0,0,0,0],"id":17,"left_children":[1,3,5,-1,7,9,11,-1,-1,-1,-1,-1,-1],"loss_changes":[1.2843399E0,5.139618E-1,6.862278E-1,0E0,4.747734E-1,2.6435947E-1,2.2200966E-1,0E0,0E0,0E0,0E0,0E0,0E0],"parents":[2147483647,0,0,1,1,2,2,4,4,5,5,6,6],"right_children":[2,4,6,-1,8,10,12,-1,-1,-1,-1,-1,-1],"split_conditions":[3.4E1,2.066E2,2.93E2,-4.426813E-3,3.4E1,3.9E1,9E0,-2.737926E-3,-3.9450545E-3,-2.848054E-3,-1.611326E-3,-2.7340727E-3,-3.912565E-3],"split_indices":[6,22,5,0,5,16,0,0,0,0,0,0,0],"split_type":[0,0,0,0,0,0,0,0,0,0,0,0,0],"sum_hessian":[7.94E2,5.27E2,2.67E2,2.74E2,2.53E2,1.21E2,1.46E2,5.2E1,2.01E2,9.4E1,2.7E1,3.2E1,1.14E2],"tree_param":{"num_deleted":"0","num_feature":"31","num_nodes":"13","size_leaf_vector":"1"}},{"base_weights":[1.8175436E1,2.9622332E1,1.5789143E1,3.1054094E1,2.5112677E-1,1.3533238E1,2.636249E1,3.385467E-1,2.750545E-1,1.9001372E-1,1.1948314E-1,2.4116223E-1,3.06219E-1],"categories":[],"categories_nodes":[],"categories_segments":[],"categories_sizes":[],"default_left":[0,0,0,0,0,0,1,0,0,0,0,0,0],"id":18,"left_children":[1,3,5,7,-1,9,11,-1,-1,-1,-1,-1,-1],"loss_changes":[2.124825E4,9.8265625E1,1.5385844E4,5.2703125E1,0E0,4.504914E3,3.618203E2,0E0,0E0,0E0,0E0,0E0,0E0],"parents":[2147483647,0,0,1,1,2,2,3,3,5,5,6,6],"right_children":[2,4,6,8,-1,10,12,-1,-1,-1,-1,-1,-1],"split_conditions":[4.6E1,5E0,3.1E2,2.4E1,2.5112677E-1,9.7E1,1.5754E3,3.385467E-1,2.750545E-1,1.9001372E-1,1.1948314E-1,2.4116223E-1,3.06219E-1],"split_indices":[5,1,5,5,0,5,7,0,0,0,0,0,0],"split_type":[0,0,0,0,0,0,0,0,0,0,0,0,0],"sum_hessian":[7.94E2,1.35E2,6.59E2,9.8E1,3.7E1,5.45E2,1.14E2,5E1,4.8E1,1.2E2,4.25E2,7.9E1,3.5E1],"tree_param":{"num_deleted":"0","num_feature":"31","num_nodes":"13","size_leaf_vector":"1"}},{"base_weights":[4.2588604E1,5.1954212E1,3.2530346E1,3.833251E1,5.7070908E1,2.8929932E1,3.517227E1,3.5671383E-1,4.4120085E-1,5.716704E-1,1.4355363E-1,3.3311743E-1,2.627685E-1,3.7965828E-1,3.1804296E-1],"categories":[],"categories_nodes":[],"categories_segments":[],"categories_sizes":[],"default_left":[0,0,0,0,1,0,0,0,0,0,0,0,0,0,0],"id":19,"left_children":[1,3,5,7,9,11,13,-1,-1,-1,-1,-1,-1,-1,-1],"loss_changes":[7.320025E4,2.63885E4,2.6540938E3,1.9734375E2,3.94875E2,1.0893594E3,8.4359375E2,0E0,0E0,0E0,0E0,0E0,0E0,0E0,0E0],"parents":[2147483647,0,0,1,1,2,2,3,3,4,4,5,5,6,6],"right_children":[2,4,6,8,10,12,14,-1,-1,-1,-1,-1,-1,-1,-1],"split_conditions":[1.74E2,3.9E1,1.26E1,5E0,2.8572E3,2.33E2,2.87E2,3.5671383E-1,4.4120085E-1,5.716704E-1,1.4355363E-1,3.3311743E-1,2.627685E-1,3.7965828E-1,3.1804296E-1],"split_indices":[5,5,28,1,7,5,5,0,0,0,0,0,0,0,0],"split_type":[0,0,0,0,0,0,0,0,0,0,0,0,0,0,0],"sum_hessian":[7.94E2,4.09E2,3.85E2,1.14E2,2.95E2,1.68E2,2.17E2,8.3E1,3.1E1,2.94E2,1E0,5.9E1,1.09E2,1.13E2,1.04E2],"tree_param":{"num_deleted":"0","num_feature":"31","num_nodes":"15","size_leaf_vector":"1"}},{"base_weights":[6.5676966E0,9.996304E0,5.9070077E0,9.1379E0,1.1837342E1,5.253886E0,9.704241E0,1.07048176E-1,8.061812E-2,5.016149E-2,1.2083806E-1,5.709184E-2,4.073632E-2,8.5351706E-2,1.20306574E-1],"categories":[],"categories_nodes":[],"categories_segments":[],"categories_sizes":[],"default_left":[0,1,0,0,0,0,1,0,0,0,0,0,0,0,0],"id":20,"left_children":[1,3,5,7,9,11,13,-1,-1,-1,-1,-1,-1,-1,-1],"loss_changes":[1.7418203E3,9.253613E1,1.6081699E3,6.713867E1,1.5893555E0,2.846543E2,1.6113281E2,0E0,0E0,0E0,0E0,0E0,0E0,0E0,0E0],"parents":[2147483647,0,0,1,1,2,2,3,3,4,4,5,5,6,6],"right_children":[2,4,6,8,10,12,14,-1,-1,-1,-1,-1,-1,-1,-1],"split_conditions":[7E0,1E1,3.18E2,1.8E1,6.3E0,5E0,1.14E1,1.07048176E-1,8.061812E-2,5.016149E-2,1.2083806E-1,5.709184E-2,4.073632E-2,8.5351706E-2,1.20306574E-1],"split_indices":[6,29,5,5,19,1,28,0,0,0,0,0,0,0,0],"split_type":[0,0,0,0,0,0,0,0,0,0,0,0,0,0,0],"sum_hessian":[7.94E2,1.26E2,6.68E2,9E1,3.6E1,5.72E2,9.6E1,3.3E1,5.7E1,2E0,3.4E1,4.1E2,1.62E2,6.7E1,2.9E1],"tree_param":{"num_deleted":"0","num_feature":"31","num_nodes":"15","size_leaf_vector":"1"}},{"base_weights":[8.320456E1,1.5755963E2,6.609382E1,1.8043764E2,1.4036593E0,5.0169846E1,1.3433842E2,1.971361E0,1.4263407E0,8.80905E-1,4.4168675E-1,1.1589806E0,1.5615891E0],"categories":[],"categories_nodes":[],"categories_segments":[],"categories_sizes":[],"default_left":[0,0,0,1,0,0,0,0,0,0,0,0,0],"id":21,"left_children":[1,3,5,7,-1,9,11,-1,-1,-1,-1,-1,-1],"loss_changes":[1.0010405E6,3.28895E4,6.9745825E5,9.757375E3,0E0,1.16037625E5,3.09915E4,0E0,0E0,0E0,0E0,0E0,0E0],"parents":[2147483647,0,0,1,1,2,2,3,3,5,5,6,6],"right_children":[2,4,6,8,-1,10,12,-1,-1,-1,-1,-1,-1],"split_conditions":[8E0,2.1E1,1.1E1,3.17E1,1.4036593E0,7.7E1,3.4E2,1.971361E0,1.4263407E0,8.80905E-1,4.4168675E-1,1.1589806E0,1.5615891E0],"split_indices":[6,5,3,13,0,5,5,0,0,0,0,0,0],"split_type":[0,0,0,0,0,0,0,0,0,0,0,0,0],"sum_hessian":[7.94E2,1.47E2,6.47E2,5.9E1,8.8E1,5.26E2,1.21E2,3.8E1,2.1E1,7E1,4.56E2,6.9E1,5.2E1],"tree_param":{"num_deleted":"0","num_feature":"31","num_nodes":"13","size_leaf_vector":"1"}},{"base_weights":[1.1352962E2,2.2227002E2,9.035085E1,2.4871861E2,1.9903413E0,6.8067345E1,1.8558508E2,2.50968E0,5.687694E-1,1.0675174E0,5.196488E-1,1.6000689E0,2.1476486E0],"categories":[],"categories_nodes":[],"categories_segments":[],"categories_sizes":[],"default_left":[0,0,0,0,0,0,0,0,0,0,0,0,0],"id":22,"left_children":[1,3,5,7,-1,9,11,-1,-1,-1,-1,-1,-1],"loss_changes":[1.98369E6,3.59195E4,1.381622E6,1.2049E4,0E0,3.27089E5,5.81855E4,0E0,0E0,0E0,0E0,0E0,0E0],"parents":[2147483647,0,0,1,1,2,2,3,3,5,5,6,6],"right_children":[2,4,6,8,-1,10,12,-1,-1,-1,-1,-1,-1],"split_conditions":[4.7E1,2.1E1,1.1E1,5E0,1.9903413E0,1.16E2,3.4E2,2.50968E0,5.687694E-1,1.0675174E0,5.196488E-1,1.6000689E0,2.1476486E0],"split_indices":[5,5,3,6,0,5,5,0,0,0,0,0,0],"split_type":[0,0,0,0,0,0,0,0,0,0,0,0,0],"sum_hessian":[7.94E2,1.38E2,6.56E2,6E1,7.8E1,5.33E2,1.23E2,5.9E1,1E0,1.55E2,3.78E2,6.9E1,5.4E1],"tree_param":{"num_deleted":"0","num_feature":"31","num_nodes":"13","size_leaf_vector":"1"}},{"base_weights":[1.00125265E1,1.7320122E1,5.804591E0,2.312447E1,1.5438048E1,3.6224904E0,2.0553576E1,2.5302926E-1,1.7667429E-1,1.6656154E-1,1.2878841E-1,2.9148275E-2,9.2387505E-2,1.606871E-1,2.9841083E-1],"categories":[],"categories_nodes":[],"categories_segments":[],"categories_sizes":[],"default_left":[0,0,0,1,0,0,1,0,0,0,0,0,0,0,0],"id":23,"left_children":[1,3,5,7,9,11,13,-1,-1,-1,-1,-1,-1,-1,-1],"loss_changes":[2.4345617E4,2.8110234E3,1.6210529E4,3.7323047E2,4.7754688E2,1.7297646E3,2.2279531E3,0E0,0E0,0E0,0E0,0E0,0E0,0E0,0E0],"parents":[2147483647,0,0,1,1,2,2,3,3,4,4,5,5,6,6],"right_children":[2,4,6,8,10,12,14,-1,-1,-1,-1,-1,-1,-1,-1],"split_conditions":[1.7E1,2.4E1,3.34E2,3.2E1,7.7E1,3.1E2,9E0,2.5302926E-1,1.7667429E-1,1.6656154E-1,1.2878841E-1,2.9148275E-2,9.2387505E-2,1.606871E-1,2.9841083E-1],"split_indices":[6,5,5,13,5,5,19,0,0,0,0,0,0,0,0],"split_type":[0,0,0,0,0,0,0,0,0,0,0,0,0,0,0],"sum_hessian":[7.94E2,2.89E2,5.05E2,6.8E1,2.21E2,4.41E2,6.4E1,4.6E1,2.2E1,1.46E2,7.5E1,3.93E2,4.8E1,4.5E1,1.9E1],"tree_param":{"num_deleted":"0","num_feature":"31","num_nodes":"15","size_leaf_vector":"1"}},{"base_weights":[1.2306619E3,1.9078333E3,1.0855211E3,2.1500583E3,1.6966488E1,9.1181903E2,1.6329048E3,2.16946E1,4.929807E0,1.1933686E1,8.286257E0,1.4640627E1,1.8885397E1],"categories":[],"categories_nodes":[],"categories_segments":[],"categories_sizes":[],"default_left":[0,0,0,0,0,0,0,0,0,0,0,0,0],"id":24,"left_children":[1,3,5,7,-1,9,11,-1,-1,-1,-1,-1,-1],"loss_changes":[7.606579E7,3.462528E6,6.097971E7,8.91648E5,0E0,1.0746112E7,4.011488E6,0E0,0E0,0E0,0E0,0E0,0E0],"parents":[2147483647,0,0,1,1,2,2,3,3,5,5,6,6],"right_children":[2,4,6,8,-1,10,12,-1,-1,-1,-1,-1,-1],"split_conditions":[4.7E1,2.1E1,2.89E2,5E0,1.6966488E1,9.4E1,3.38E2,2.16946E1,4.929807E0,1.1933686E1,8.286257E0,1.4640627E1,1.8885397E1],"split_indices":[5,5,5,6,0,5,5,0,0,0,0,0,0],"split_type":[0,0,0,0,0,0,0,0,0,0,0,0,0],"sum_hessian":[7.94E2,1.38E2,6.56E2,6E1,7.8E1,5E2,1.56E2,5.9E1,1E0,1.11E2,3.89E2,9.8E1,5.8E1],"tree_param":{"num_deleted":"0","num_feature":"31","num_nodes":"13","size_leaf_vector":"1"}},{"base_weights":[-3.7551022E-1,-4.0490568E-1,-3.1619558E-1,-4.382706E-3,-3.6718813E-1,-2.5620493E-1,-3.6383274E-1,-2.7110635E-3,-3.9057992E-3,-2.819873E-3,-1.5957884E-3,-2.7075605E-3,-3.8737792E-3],"categories":[],"categories_nodes":[],"categories_segments":[],"categories_sizes":[],"default_left":[0,0,0,0,0,1,0,0,0,0,0,0,0],"id":25,"left_children":[1,3,5,-1,7,9,11,-1,-1,-1,-1,-1,-1],"loss_changes":[1.25811E0,5.0354004E-1,6.726723E-1,0E0,4.649849E-1,2.5893402E-1,2.1726608E-1,0E0,0E0,0E0,0E0,0E0,0E0],"parents":[2147483647,0,0,1,1,2,2,4,4,5,5,6,6],"right_children":[2,4,6,-1,8,10,12,-1,-1,-1,-1,-1,-1],"split_conditions":[3.4E1,2.066E2,2.93E2,-4.382706E-3,3.4E1,3.9E1,9E0,-2.7110635E-3,-3.9057992E-3,-2.819873E-3,-1.5957884E-3,-2.7075605E-3,-3.8737792E-3],"split_indices":[6,22,5,0,5,16,0,0,0,0,0,0,0],"split_type":[0,0,0,0,0,0,0,0,0,0,0,0,0],"sum_hessian":[7.94E2,5.27E2,2.67E2,2.74E2,2.53E2,1.21E2,1.46E2,5.2E1,2.01E2,9.4E1,2.7E1,3.2E1,1.14E2],"tree_param":{"num_deleted":"0","num_feature":"31","num_nodes":"13","size_leaf_vector":"1"}},{"base_weights":[1.7995848E1,2.9332466E1,1.563255E1,2.9439402E1,7.448128E-2,1.3398473E1,2.6103624E1,3.233298E-1,2.6767635E-1,1.8992996E-1,1.18781745E-1,2.3878074E-1,3.0324185E-1],"categories":[],"categories_nodes":[],"categories_segments":[],"categories_sizes":[],"default_left":[0,0,0,0,0,0,1,0,0,0,0,0,0],"id":26,"left_children":[1,3,5,7,-1,9,11,-1,-1,-1,-1,-1,-1],"loss_changes":[2.0840938E4,9.899219E1,1.508975E4,1.7820312E2,0E0,4.4183203E3,3.561172E2,0E0,0E0,0E0,0E0,0E0,0E0],"parents":[2147483647,0,0,1,1,2,2,3,3,5,5,6,6],"right_children":[2,4,6,8,-1,10,12,-1,-1,-1,-1,-1,-1],"split_conditions":[4.6E1,8E0,3.1E2,2.1E1,7.448128E-2,9.4E1,1.5754E3,3.233298E-1,2.6767635E-1,1.8992996E-1,1.18781745E-1,2.3878074E-1,3.0324185E-1],"split_indices":[5,6,5,5,0,5,7,0,0,0,0,0,0],"split_type":[0,0,0,0,0,0,0,0,0,0,0,0,0],"sum_hessian":[7.94E2,1.35E2,6.59E2,1.34E2,1E0,5.45E2,1.14E2,5.9E1,7.5E1,1.14E2,4.31E2,7.9E1,3.5E1],"tree_param":{"num_deleted":"0","num_feature":"31","num_nodes":"13","size_leaf_vector":"1"}},{"base_weights":[4.216625E1,5.1438362E1,3.2208393E1,3.7956127E1,5.6502613E1,2.8644157E1,3.482375E1,3.5318914E-1,4.3692675E-1,5.659731E-1,1.4283586E-1,3.298418E-1,2.601647E-1,3.75895E-1,3.1489283E-1],"categories":[],"categories_nodes":[],"categories_segments":[],"categories_sizes":[],"default_left":[0,0,0,0,1,0,0,0,0,0,0,0,0,0,0],"id":27,"left_children":[1,3,5,7,9,11,13,-1,-1,-1,-1,-1,-1,-1,-1],"loss_changes":[7.1745875E4,2.5849E4,2.6006875E3,1.9659375E2,3.75125E2,1.0691875E3,8.268125E2,0E0,0E0,0E0,0E0,0E0,0E0,0E0,0E0],"parents":[2147483647,0,0,1,1,2,2,3,3,4,4,5,5,6,6],"right_children":[2,4,6,8,10,12,14,-1,-1,-1,-1,-1,-1,-1,-1],"split_conditions":[1.74E2,3.9E1,1.26E1,5E0,2.8572E3,2.33E2,2.87E2,3.5318914E-1,4.3692675E-1,5.659731E-1,1.4283586E-1,3.298418E-1,2.601647E-1,3.75895E-1,3.1489283E-1],"split_indices":[5,5,28,1,7,5,5,0,0,0,0,0,0,0,0],"split_type":[0,0,0,0,0,0,0,0,0,0,0,0,0,0,0],"sum_hessian":[7.94E2,4.09E2,3.85E2,1.14E2,2.95E2,1.68E2,2.17E2,8.3E1,3.1E1,2.94E2,1E0,5.9E1,1.09E2,1.13E2,1.04E2],"tree_param":{"num_deleted":"0","num_feature":"31","num_nodes":"15","size_leaf_vector":"1"}},{"base_weights":[6.5028524E0,9.899165E0,5.848391E0,9.048583E0,1.1723591E1,5.201518E0,9.609318E0,1.0600918E-1,7.982584E-2,4.9759615E-2,1.1966999E-1,5.652231E-2,4.0331457E-2,8.4510736E-2,1.19143605E-1],"categories":[],"categories_nodes":[],"categories_segments":[],"categories_sizes":[],"default_left":[0,1,0,0,0,0,1,0,0,0,0,0,0,0,0],"id":28,"left_children":[1,3,5,7,9,11,13,-1,-1,-1,-1,-1,-1,-1,-1],"loss_changes":[1.7091914E3,9.1E1,1.5775898E3,6.596338E1,1.2226562E0,2.789463E2,1.5828223E2,0E0,0E0,0E0,0E0,0E0,0E0,0E0,0E0],"parents":[2147483647,0,0,1,1,2,2,3,3,4,4,5,5,6,6],"right_children":[2,4,6,8,10,12,14,-1,-1,-1,-1,-1,-1,-1,-1],"split_conditions":[7E0,1E1,3.18E2,1.8E1,1.16E1,5E0,1.14E1,1.0600918E-1,7.982584E-2,4.9759615E-2,1.1966999E-1,5.652231E-2,4.0331457E-2,8.4510736E-2,1.19143605E-1],"split_indices":[6,29,5,5,17,1,28,0,0,0,0,0,0,0,0],"split_type":[0,0,0,0,0,0,0,0,0,0,0,0,0,0,0],"sum_hessian":[7.94E2,1.26E2,6.68E2,9E1,3.6E1,5.72E2,9.6E1,3.3E1,5.7E1,2E0,3.4E1,4.1E2,1.62E2,6.7E1,2.9E1],"tree_param":{"num_deleted":"0","num_feature":"31","num_nodes":"15","size_leaf_vector":"1"}},{"base_weights":[8.238364E1,1.5890721E2,6.606832E1,1.771545E2,1.4280604E0,5.033592E1,1.3328636E2,1.8454798E0,1.1393118E0,8.8406485E-1,4.3727955E-1,1.1475563E0,1.5444752E0],"categories":[],"categories_nodes":[],"categories_segments":[],"categories_sizes":[],"default_left":[0,0,0,1,0,0,0,0,0,0,0,0,0],"id":29,"left_children":[1,3,5,7,-1,9,11,-1,-1,-1,-1,-1,-1],"loss_changes":[9.820635E5,1.553975E4,6.88069E5,7.48825E3,0E0,1.30471875E5,3.090075E4,0E0,0E0,0E0,0E0,0E0,0E0],"parents":[2147483647,0,0,1,1,2,2,3,3,5,5,6,6],"right_children":[2,4,6,8,-1,10,12,-1,-1,-1,-1,-1,-1],"split_conditions":[4.7E1,2.1E1,1.1E1,4.72E1,1.4280604E0,7.7E1,3.4E2,1.8454798E0,1.1393118E0,8.8406485E-1,4.3727955E-1,1.1475563E0,1.5444752E0],"split_indices":[5,5,3,16,0,5,5,0,0,0,0,0,0],"split_type":[0,0,0,0,0,0,0,0,0,0,0,0,0],"sum_hessian":[7.94E2,1.38E2,6.56E2,6E1,7.8E1,5.33E2,1.23E2,5.2E1,8E0,7.7E1,4.56E2,6.9E1,5.4E1],"tree_param":{"num_deleted":"0","num_feature":"31","num_nodes":"13","size_leaf_vector":"1"}},{"base_weights":[1.124074E2,2.2008379E2,8.945546E1,2.4628189E2,1.97069E0,6.738964E1,1.8375945E2,2.4850016E0,5.6592554E-1,1.0569106E0,5.14466E-1,1.5842967E0,2.1265626E0],"categories":[],"categories_nodes":[],"categories_segments":[],"categories_sizes":[],"default_left":[0,0,0,0,0,0,0,0,0,0,0,0,0],"id":30,"left_children":[1,3,5,7,-1,9,11,-1,-1,-1,-1,-1,-1],"loss_changes":[1.94506E6,3.5275E4,1.354765E6,1.16045E4,0E0,3.20645E5,5.70705E4,0E0,0E0,0E0,0E0,0E0,0E0],"parents":[2147483647,0,0,1,1,2,2,3,3,5,5,6,6],"right_children":[2,4,6,8,-1,10,12,-1,-1,-1,-1,-1,-1],"split_conditions":[4.7E1,2.1E1,1.1E1,5E0,1.97069E0,1.16E2,3.4E2,2.4850016E0,5.6592554E-1,1.0569106E0,5.14466E-1,1.5842967E0,2.1265626E0],"split_indices":[5,5,3,6,0,5,5,0,0,0,0,0,0],"split_type":[0,0,0,0,0,0,0,0,0,0,0,0,0],"sum_hessian":[7.94E2,1.38E2,6.56E2,6E1,7.8E1,5.33E2,1.23E2,5.9E1,1E0,1.55E2,3.78E2,6.9E1,5.4E1],"tree_param":{"num_deleted":"0","num_feature":"31","num_nodes":"13","size_leaf_vector":"1"}},{"base_weights":[9.914043E0,1.714942E1,5.7476926E0,2.2899452E1,1.5284998E1,3.5865405E0,2.0355103E1,2.505528E-1,1.7498435E-1,1.6490726E-1,1.2751748E-1,2.8857531E-2,9.1482475E-2,1.5911517E-1,2.9557595E-1],"categories":[],"categories_nodes":[],"categories_segments":[],"categories_sizes":[],"default_left":[0,0,0,1,0,0,1,0,0,0,0,0,0,0,0],"id":31,"left_children":[1,3,5,7,9,11,13,-1,-1,-1,-1,-1,-1,-1,-1],"loss_changes":[2.3866797E4,2.7589219E3,1.5900826E4,3.6498438E2,4.6779688E2,1.6963276E3,2.1876777E3,0E0,0E0,0E0,0E0,0E0,0E0,0E0,0E0],"parents":[2147483647,0,0,1,1,2,2,3,3,4,4,5,5,6,6],"right_children":[2,4,6,8,10,12,14,-1,-1,-1,-1,-1,-1,-1,-1],"split_conditions":[1.7E1,2.4E1,3.34E2,3.2E1,7.7E1,3.1E2,9E0,2.505528E-1,1.7498435E-1,1.6490726E-1,1.2751748E-1,2.8857531E-2,9.1482475E-2,1.5911517E-1,2.9557595E-1],"split_indices":[6,5,5,13,5,5,19,0,0,0,0,0,0,0,0],"split_type":[0,0,0,0,0,0,0,0,0,0,0,0,0,0,0],"sum_hessian":[7.94E2,2.89E2,5.05E2,6.8E1,2.21E2,4.41E2,6.4E1,4.6E1,2.2E1,1.46E2,7.5E1,3.93E2,4.8E1,4.5E1,1.9E1],"tree_param":{"num_deleted":"0","num_feature":"31","num_nodes":"15","size_leaf_vector":"1"}},{"base_weights":[1.2184777E3,1.8890685E3,1.0747477E3,2.1289941E3,1.6798971E1,9.027412E2,1.6167893E3,2.148127E1,4.905158E0,1.1815414E1,8.203607E0,1.4495699E1,1.8699745E1],"categories":[],"categories_nodes":[],"categories_segments":[],"categories_sizes":[],"default_left":[0,0,0,0,0,0,0,0,0,0,0,0,0],"id":32,"left_children":[1,3,5,7,-1,9,11,-1,-1,-1,-1,-1,-1],"loss_changes":[7.459494E7,3.39936E6,5.979565E7,8.5856E5,0E0,1.0537504E7,3.93632E6,0E0,0E0,0E0,0E0,0E0,0E0],"parents":[2147483647,0,0,1,1,2,2,3,3,5,5,6,6],"right_children":[2,4,6,8,-1,10,12,-1,-1,-1,-1,-1,-1],"split_conditions":[4.7E1,2.1E1,2.89E2,5E0,1.6798971E1,9.4E1,3.38E2,2.148127E1,4.905158E0,1.1815414E1,8.203607E0,1.4495699E1,1.8699745E1],"split_indices":[5,5,5,6,0,5,5,0,0,0,0,0,0],"split_type":[0,0,0,0,0,0,0,0,0,0,0,0,0],"sum_hessian":[7.94E2,1.38E2,6.56E2,6E1,7.8E1,5E2,1.56E2,5.9E1,1E0,1.11E2,3.89E2,9.8E1,5.8E1],"tree_param":{"num_deleted":"0","num_feature":"31","num_nodes":"13","size_leaf_vector":"1"}},{"base_weights":[-3.7178278E-1,-4.0087748E-1,-3.1307468E-1,-4.3390384E-1,-3.635423E-1,-2.874902E-1,-4.272593E-3,-4.5077777E-3,-3.9543966E-3,-2.6844644E-3,-3.8669347E-3,-3.0084914E-3,-1.5882576E-3],"categories":[],"categories_nodes":[],"categories_segments":[],"categories_sizes":[],"default_left":[0,0,0,0,0,1,0,0,0,0,0,0,0],"id":33,"left_children":[1,3,5,7,9,11,-1,-1,-1,-1,-1,-1,-1],"loss_changes":[1.2324295E0,4.933014E-1,6.600914E-1,2.3269653E-4,4.5539856E-1,3.3379745E-1,0E0,0E0,0E0,0E0,0E0,0E0,0E0],"parents":[2147483647,0,0,1,1,2,2,3,3,4,4,5,5],"right_children":[2,4,6,8,10,12,-1,-1,-1,-1,-1,-1,-1],"split_conditions":[3.4E1,2.066E2,3.43E2,2.1E1,3.4E1,4.92E1,-4.272593E-3,-4.5077777E-3,-3.9543966E-3,-2.6844644E-3,-3.8669347E-3,-3.0084914E-3,-1.5882576E-3],"split_indices":[6,22,5,6,5,16,0,0,0,0,0,0,0],"split_type":[0,0,0,0,0,0,0,0,0,0,0,0,0],"sum_hessian":[7.94E2,5.27E2,2.67E2,2.74E2,2.53E2,2.21E2,4.6E1,1.83E2,9.1E1,5.2E1,2.01E2,1.99E2,2.2E1],"tree_param":{"num_deleted":"0","num_feature":"31","num_nodes":"13","size_leaf_vector":"1"}},{"base_weights":[1.7817797E1,2.9044035E1,1.5477513E1,3.0460045E1,2.4590643E-1,1.3265054E1,2.5847301E1,3.321232E-1,2.69738E-1,1.8210933E-1,1.1580052E-1,2.047459E-1,2.7341107E-1],"categories":[],"categories_nodes":[],"categories_segments":[],"categories_sizes":[],"default_left":[0,0,0,0,0,0,0,0,0,0,0,0,0],"id":34,"left_children":[1,3,5,7,-1,9,11,-1,-1,-1,-1,-1,-1],"loss_changes":[2.0437172E4,1.0858594E2,1.4799328E4,5.4054688E1,0E0,4.339383E3,3.6316406E2,0E0,0E0,0E0,0E0,0E0,0E0],"parents":[2147483647,0,0,1,1,2,2,3,3,5,5,6,6],"right_children":[2,4,6,8,-1,10,12,-1,-1,-1,-1,-1,-1],"split_conditions":[4.6E1,5E0,3.1E2,2.4E1,2.4590643E-1,1.05E2,3.24E2,3.321232E-1,2.69738E-1,1.8210933E-1,1.1580052E-1,2.047459E-1,2.7341107E-1],"split_indices":[5,1,5,5,0,5,5,0,0,0,0,0,0],"split_type":[0,0,0,0,0,0,0,0,0,0,0,0,0],"sum_hessian":[7.94E2,1.35E2,6.59E2,9.8E1,3.7E1,5.45E2,1.14E2,5E1,4.8E1,1.36E2,4.09E2,2.8E1,8.6E1],"tree_param":{"num_deleted":"0","num_feature":"31","num_nodes":"13","size_leaf_vector":"1"}},{"base_weights":[4.1748085E1,5.0927635E1,3.188963E1,3.7583435E1,5.5939983E1,2.8361206E1,3.4478683E1,3.4969932E-1,4.3269402E-1,5.6033254E-1,1.4212167E-1,3.2659832E-1,2.575867E-1,3.7216902E-1,3.1177387E-1],"categories":[],"categories_nodes":[],"categories_segments":[],"categories_sizes":[],"default_left":[0,0,0,0,1,0,0,0,0,0,0,0,0,0,0],"id":35,"left_children":[1,3,5,7,9,11,13,-1,-1,-1,-1,-1,-1,-1,-1],"loss_changes":[7.03205E4,2.532075E4,2.5483438E3,1.9579688E2,3.556875E2,1.049375E3,8.103281E2,0E0,0E0,0E0,0E0,0E0,0E0,0E0,0E0],"parents":[2147483647,0,0,1,1,2,2,3,3,4,4,5,5,6,6],"right_children":[2,4,6,8,10,12,14,-1,-1,-1,-1,-1,-1,-1,-1],"split_conditions":[1.74E2,3.9E1,1.26E1,5E0,2.8572E3,2.33E2,2.87E2,3.4969932E-1,4.3269402E-1,5.6033254E-1,1.4212167E-1,3.2659832E-1,2.575867E-1,3.7216902E-1,3.1177387E-1],"split_indices":[5,5,28,1,7,5,5,0,0,0,0,0,0,0,0],"split_type":[0,0,0,0,0,0,0,0,0,0,0,0,0,0,0],"sum_hessian":[7.94E2,4.09E2,3.85E2,1.14E2,2.95E2,1.68E2,2.17E2,8.3E1,3.1E1,2.94E2,1E0,5.9E1,1.09E2,1.13E2,1.04E2],"tree_param":{"num_deleted":"0","num_feature":"31","num_nodes":"15","size_leaf_vector":"1"}},{"base_weights":[6.4386487E0,9.802971E0,5.7903566E0,8.96014E0,1.1610934E1,5.149672E0,9.515325E0,1.0498027E-1,7.904135E-2,4.926231E-2,1.1852167E-1,5.5958465E-2,3.9930616E-2,8.367805E-2,1.1799189E-1],"categories":[],"categories_nodes":[],"categories_segments":[],"categories_sizes":[],"default_left":[0,1,0,0,0,0,1,0,0,0,0,0,0,0,0],"id":36,"left_children":[1,3,5,7,9,11,13,-1,-1,-1,-1,-1,-1,-1,-1],"loss_changes":[1.6771797E3,8.9487305E1,1.5475859E3,6.480859E1,1.2788086E0,2.7335254E2,1.5548242E2,0E0,0E0,0E0,0E0,0E0,0E0,0E0,0E0],"parents":[2147483647,0,0,1,1,2,2,3,3,4,4,5,5,6,6],"right_children":[2,4,6,8,10,12,14,-1,-1,-1,-1,-1,-1,-1,-1],"split_conditions":[7E0,1E1,3.18E2,1.8E1,6.3E0,5E0,1.14E1,1.0498027E-1,7.904135E-2,4.926231E-2,1.1852167E-1,5.5958465E-2,3.9930616E-2,8.367805E-2,1.1799189E-1],"split_indices":[6,29,5,5,19,1,28,0,0,0,0,0,0,0,0],"split_type":[0,0,0,0,0,0,0,0,0,0,0,0,0,0,0],"sum_hessian":[7.94E2,1.26E2,6.68E2,9E1,3.6E1,5.72E2,9.6E1,3.3E1,5.7E1,2E0,3.4E1,4.1E2,1.62E2,6.7E1,2.9E1],"tree_param":{"num_deleted":"0","num_feature":"31","num_nodes":"15","size_leaf_vector":"1"}},{"base_weights":[8.15704E1,1.5734988E2,6.541375E1,1.7543187E2,1.4139607E0,4.9835033E1,1.319752E2,1.8273731E0,1.1291846E0,8.753375E-1,4.3291628E-1,1.1362448E0,1.5293113E0],"categories":[],"categories_nodes":[],"categories_segments":[],"categories_sizes":[],"default_left":[0,0,0,1,0,0,0,0,0,0,0,0,0],"id":37,"left_children":[1,3,5,7,-1,9,11,-1,-1,-1,-1,-1,-1],"loss_changes":[9.630595E5,1.529275E4,6.74694E5,7.223625E3,0E0,1.279365E5,3.0308E4,0E0,0E0,0E0,0E0,0E0,0E0],"parents":[2147483647,0,0,1,1,2,2,3,3,5,5,6,6],"right_children":[2,4,6,8,-1,10,12,-1,-1,-1,-1,-1,-1],"split_conditions":[4.7E1,2.1E1,1.1E1,4.72E1,1.4139607E0,7.7E1,3.4E2,1.8273731E0,1.1291846E0,8.753375E-1,4.3291628E-1,1.1362448E0,1.5293113E0],"split_indices":[5,5,3,16,0,5,5,0,0,0,0,0,0],"split_type":[0,0,0,0,0,0,0,0,0,0,0,0,0],"sum_hessian":[7.94E2,1.38E2,6.56E2,6E1,7.8E1,5.33E2,1.23E2,5.2E1,8E0,7.7E1,4.56E2,6.9E1,5.4E1],"tree_param":{"num_deleted":"0","num_feature":"31","num_nodes":"13","size_leaf_vector":"1"}},{"base_weights":[1.1129629E2,2.1791907E2,8.856895E1,2.438691E2,1.9512324E0,6.769169E1,1.8637576E2,2.4605658E0,5.6309587E-1,1.2557356E0,5.7858044E-1,1.6150743E0,2.1056836E0],"categories":[],"categories_nodes":[],"categories_segments":[],"categories_sizes":[],"default_left":[0,0,0,0,0,0,0,0,0,0,0,0,0],"id":38,"left_children":[1,3,5,7,-1,9,11,-1,-1,-1,-1,-1,-1],"loss_changes":[1.907185E6,3.46415E4,1.3289375E6,1.1172E4,0E0,3.018045E5,3.5179E4,0E0,0E0,0E0,0E0,0E0,0E0],"parents":[2147483647,0,0,1,1,2,2,3,3,5,5,6,6],"right_children":[2,4,6,8,-1,10,12,-1,-1,-1,-1,-1,-1],"split_conditions":[4.7E1,2.1E1,3.1E2,5E0,1.9512324E0,7.7E1,3.4E2,2.4605658E0,5.6309587E-1,1.2557356E0,5.7858044E-1,1.6150743E0,2.1056836E0],"split_indices":[5,5,5,6,0,5,5,0,0,0,0,0,0],"split_type":[0,0,0,0,0,0,0,0,0,0,0,0,0],"sum_hessian":[7.94E2,1.38E2,6.56E2,6E1,7.8E1,5.42E2,1.14E2,5.9E1,1E0,7.7E1,4.65E2,6E1,5.4E1],"tree_param":{"num_deleted":"0","num_feature":"31","num_nodes":"13","size_leaf_vector":"1"}},{"base_weights":[9.816529E0,1.6716698E1,5.5330586E0,2.0790878E1,1.4092251E1,3.2989705E0,2.0158546E1,2.8822285E-1,1.8939665E-1,1.5774354E-1,1.2519355E-1,2.5475956E-2,9.058633E-2,1.575586E-1,2.9276797E-1],"categories":[],"categories_nodes":[],"categories_segments":[],"categories_sizes":[],"default_left":[0,0,0,0,0,0,1,0,0,0,0,0,0,0,0],"id":39,"left_children":[1,3,5,7,9,11,13,-1,-1,-1,-1,-1,-1,-1,-1],"loss_changes":[2.3405055E4,2.9575234E3,1.6009416E4,1.1936523E3,2.9992188E2,1.8291626E3,2.1481328E3,0E0,0E0,0E0,0E0,0E0,0E0,0E0,0E0],"parents":[2147483647,0,0,1,1,2,2,3,3,4,4,5,5,6,6],"right_children":[2,4,6,8,10,12,14,-1,-1,-1,-1,-1,-1,-1,-1],"split_conditions":[1.8E1,4E1,3.34E2,2E-1,1.6E1,3.1E2,9E0,2.8822285E-1,1.8939665E-1,1.5774354E-1,1.2519355E-1,2.5475956E-2,9.058633E-2,1.575586E-1,2.9276797E-1],"split_indices":[6,5,5,11,0,5,19,0,0,0,0,0,0,0,0],"split_type":[0,0,0,0,0,0,0,0,0,0,0,0,0,0,0],"sum_hessian":[7.94E2,3.03E2,4.91E2,1.16E2,1.87E2,4.27E2,6.4E1,1.9E1,9.7E1,8.6E1,1.01E2,3.79E2,4.8E1,4.5E1,1.9E1],"tree_param":{"num_deleted":"0","num_feature":"31","num_nodes":"15","size_leaf_vector":"1"}},{"base_weights":[1.2064142E3,1.8704885E3,1.0640813E3,2.1081367E3,1.6633108E1,8.937537E2,1.6008329E3,2.1270037E1,4.8806324E0,1.1698317E1,8.121781E0,1.3674273E1,1.7729128E1],"categories":[],"categories_nodes":[],"categories_segments":[],"categories_sizes":[],"default_left":[0,0,0,0,0,0,0,0,0,0,0,0,0],"id":40,"left_children":[1,3,5,7,-1,9,11,-1,-1,-1,-1,-1,-1],"loss_changes":[7.315277E7,3.337248E6,5.8634496E7,8.264E5,0E0,1.0332992E7,3.881472E6,0E0,0E0,0E0,0E0,0E0,0E0],"parents":[2147483647,0,0,1,1,2,2,3,3,5,5,6,6],"right_children":[2,4,6,8,-1,10,12,-1,-1,-1,-1,-1,-1],"split_conditions":[4.7E1,2.1E1,2.89E2,5E0,1.6633108E1,9.4E1,3.24E2,2.1270037E1,4.8806324E0,1.1698317E1,8.121781E0,1.3674273E1,1.7729128E1],"split_indices":[5,5,5,6,0,5,5,0,0,0,0,0,0],"split_type":[0,0,0,0,0,0,0,0,0,0,0,0,0],"sum_hessian":[7.94E2,1.38E2,6.56E2,6E1,7.8E1,5E2,1.56E2,5.9E1,1E0,1.11E2,3.89E2,7E1,8.6E1],"tree_param":{"num_deleted":"0","num_feature":"31","num_nodes":"13","size_leaf_vector":"1"}},{"base_weights":[-3.68095E-1,-3.968971E-1,-3.0997702E-1,-4.295956E-1,-3.5993266E-1,-2.5093973E-1,-3.5686526E-1,-4.462945E-3,-3.915283E-3,-2.658126E-3,-3.8284566E-3,-2.762203E-3,-1.5620416E-3,-2.6521794E-3,-3.8006087E-3],"categories":[],"categories_nodes":[],"categories_segments":[],"categories_sizes":[],"default_left":[0,0,0,0,0,1,0,0,0,0,0,0,0,0,0],"id":41,"left_children":[1,3,5,7,9,11,13,-1,-1,-1,-1,-1,-1,-1,-1],"loss_changes":[1.2077484E0,4.8355865E-1,6.5231323E-1,7.6293945E-5,4.4600677E-1,2.4903917E-1,2.1169662E-1,0E0,0E0,0E0,0E0,0E0,0E0,0E0,0E0],"parents":[2147483647,0,0,1,1,2,2,3,3,4,4,5,5,6,6],"right_children":[2,4,6,8,10,12,14,-1,-1,-1,-1,-1,-1,-1,-1],"split_conditions":[3.4E1,2.066E2,2.93E2,2.1E1,3.4E1,3.9E1,9E0,-4.462945E-3,-3.915283E-3,-2.658126E-3,-3.8284566E-3,-2.762203E-3,-1.5620416E-3,-2.6521794E-3,-3.8006087E-3],"split_indices":[6,22,5,6,5,16,0,0,0,0,0,0,0,0,0],"split_type":[0,0,0,0,0,0,0,0,0,0,0,0,0,0,0],"sum_hessian":[7.94E2,5.27E2,2.67E2,2.74E2,2.53E2,1.21E2,1.46E2,1.83E2,9.1E1,5.2E1,2.01E2,9.4E1,2.7E1,3.2E1,1.14E2],"tree_param":{"num_deleted":"0","num_feature":"31","num_nodes":"15","size_leaf_vector":"1"}},{"base_weights":[1.764166E1,2.8759829E1,1.5323914E1,3.0161524E1,2.4351205E-1,1.3132949E1,2.5592985E1,3.2886708E-1,2.6709563E-1,1.8624192E-1,1.1640758E-1,2.3392884E-1,2.977118E-1],"categories":[],"categories_nodes":[],"categories_segments":[],"categories_sizes":[],"default_left":[0,0,0,0,0,0,1,0,0,0,0,0,0],"id":42,"left_children":[1,3,5,7,-1,9,11,-1,-1,-1,-1,-1,-1],"loss_changes":[2.0045734E4,1.0594531E2,1.4513359E4,5.2921875E1,0E0,4.2571016E3,3.6070312E2,0E0,0E0,0E0,0E0,0E0,0E0],"parents":[2147483647,0,0,1,1,2,2,3,3,5,5,6,6],"right_children":[2,4,6,8,-1,10,12,-1,-1,-1,-1,-1,-1],"split_conditions":[4.6E1,5E0,3.1E2,2.4E1,2.4351205E-1,9.4E1,1.5754E3,3.2886708E-1,2.6709563E-1,1.8624192E-1,1.1640758E-1,2.3392884E-1,2.977118E-1],"split_indices":[5,1,5,5,0,5,7,0,0,0,0,0,0],"split_type":[0,0,0,0,0,0,0,0,0,0,0,0,0],"sum_hessian":[7.94E2,1.35E2,6.59E2,9.8E1,3.7E1,5.45E2,1.14E2,5E1,4.8E1,1.14E2,4.31E2,7.9E1,3.5E1],"tree_param":{"num_deleted":"0","num_feature":"31","num_nodes":"13","size_leaf_vector":"1"}},{"base_weights":[4.1334064E1,5.0421978E1,3.1574018E1,3.7214405E1,5.5382954E1,2.8081053E1,3.413703E1,3.4624392E-1,4.285023E-1,5.5474824E-1,1.4141107E-1,3.233868E-1,2.5503427E-1,3.6848E-1,3.0868584E-1],"categories":[],"categories_nodes":[],"categories_segments":[],"categories_sizes":[],"default_left":[0,0,0,0,1,0,0,0,0,0,0,0,0,0,0],"id":43,"left_children":[1,3,5,7,9,11,13,-1,-1,-1,-1,-1,-1,-1,-1],"loss_changes":[6.892325E4,2.4803062E4,2.4970938E3,1.9496875E2,3.37E2,1.0299531E3,7.9415625E2,0E0,0E0,0E0,0E0,0E0,0E0,0E0,0E0],"parents":[2147483647,0,0,1,1,2,2,3,3,4,4,5,5,6,6],"right_children":[2,4,6,8,10,12,14,-1,-1,-1,-1,-1,-1,-1,-1],"split_conditions":[1.74E2,3.9E1,1.26E1,5E0,2.8572E3,2.33E2,2.87E2,3.4624392E-1,4.285023E-1,5.5474824E-1,1.4141107E-1,3.233868E-1,2.5503427E-1,3.6848E-1,3.0868584E-1],"split_indices":[5,5,28,1,7,5,5,0,0,0,0,0,0,0,0],"split_type":[0,0,0,0,0,0,0,0,0,0,0,0,0,0,0],"sum_hessian":[7.94E2,4.09E2,3.85E2,1.14E2,2.95E2,1.68E2,2.17E2,8.3E1,3.1E1,2.94E2,1E0,5.9E1,1.09E2,1.13E2,1.04E2],"tree_param":{"num_deleted":"0","num_feature":"31","num_nodes":"15","size_leaf_vector":"1"}},{"base_weights":[6.375079E0,9.414019E0,5.671162E0,1.07868806E-1,8.208924E-2,5.0017295E0,9.422251E0,5.424324E-2,3.903965E-2,8.2853585E-2,1.168513E-1],"categories":[],"categories_nodes":[],"categories_segments":[],"categories_sizes":[],"default_left":[0,0,0,0,0,0,1,0,0,0,0],"id":44,"left_children":[1,3,5,-1,-1,7,9,-1,-1,-1,-1],"loss_changes":[1.6472461E3,1.5630664E2,1.5800664E3,0E0,0E0,2.3490137E2,1.5273145E2,0E0,0E0,0E0,0E0],"parents":[2147483647,0,0,1,1,2,2,5,5,6,6],"right_children":[2,4,6,-1,-1,8,10,-1,-1,-1,-1],"split_conditions":[8E0,2.3E1,3.18E2,1.07868806E-1,8.208924E-2,5E0,1.14E1,5.424324E-2,3.903965E-2,8.2853585E-2,1.168513E-1],"split_indices":[6,5,5,0,0,1,28,0,0,0,0],"split_type":[0,0,0,0,0,0,0,0,0,0,0],"sum_hessian":[7.94E2,1.47E2,6.47E2,6.5E1,8.2E1,5.51E2,9.6E1,3.95E2,1.56E2,6.7E1,2.9E1],"tree_param":{"num_deleted":"0","num_feature":"31","num_nodes":"11","size_leaf_vector":"1"}},{"base_weights":[8.076519E1,1.5299374E2,6.4143906E1,1.7526549E2,1.3626006E0,4.868037E1,1.3041554E2,1.9174463E0,1.3808584E0,8.5460424E-1,4.2859662E-1,1.1250446E0,1.5161101E0],"categories":[],"categories_nodes":[],"categories_segments":[],"categories_sizes":[],"default_left":[0,0,0,1,0,0,0,0,0,0,0,0,0],"id":45,"left_children":[1,3,5,7,-1,9,11,-1,-1,-1,-1,-1,-1],"loss_changes":[9.446085E5,3.127625E4,6.577175E5,1.0284E4,0E0,1.091605E5,2.925825E4,0E0,0E0,0E0,0E0,0E0,0E0],"parents":[2147483647,0,0,1,1,2,2,3,3,5,5,6,6],"right_children":[2,4,6,8,-1,10,12,-1,-1,-1,-1,-1,-1],"split_conditions":[8E0,2.1E1,1.1E1,3.17E1,1.3626006E0,7.7E1,3.4E2,1.9174463E0,1.3808584E0,8.5460424E-1,4.2859662E-1,1.1250446E0,1.5161101E0],"split_indices":[6,5,3,13,0,5,5,0,0,0,0,0,0],"split_type":[0,0,0,0,0,0,0,0,0,0,0,0,0],"sum_hessian":[7.94E2,1.47E2,6.47E2,5.9E1,8.8E1,5.26E2,1.21E2,3.8E1,2.1E1,7E1,4.56E2,6.9E1,5.2E1],"tree_param":{"num_deleted":"0","num_feature":"31","num_nodes":"13","size_leaf_vector":"1"}},{"base_weights":[1.1019657E2,2.1577568E2,8.769172E1,2.4147997E2,1.9319671E0,6.604355E1,1.8021132E2,2.4363704E0,5.602804E-1,1.051522E0,5.091661E-1,1.5540926E0,2.0850098E0],"categories":[],"categories_nodes":[],"categories_segments":[],"categories_sizes":[],"default_left":[0,0,0,0,0,0,0,0,0,0,0,0,0],"id":46,"left_children":[1,3,5,7,-1,9,11,-1,-1,-1,-1,-1,-1],"loss_changes":[1.870033E6,3.4019E4,1.3039905E6,1.075125E4,0E0,3.105575E5,5.46005E4,0E0,0E0,0E0,0E0,0E0,0E0],"parents":[2147483647,0,0,1,1,2,2,3,3,5,5,6,6],"right_children":[2,4,6,8,-1,10,12,-1,-1,-1,-1,-1,-1],"split_conditions":[4.7E1,2.1E1,1.1E1,5E0,1.9319671E0,1.12E2,3.4E2,2.4363704E0,5.602804E-1,1.051522E0,5.091661E-1,1.5540926E0,2.0850098E0],"split_indices":[5,5,3,6,0,5,5,0,0,0,0,0,0],"split_type":[0,0,0,0,0,0,0,0,0,0,0,0,0],"sum_hessian":[7.94E2,1.38E2,6.56E2,6E1,7.8E1,5.33E2,1.23E2,5.9E1,1E0,1.47E2,3.86E2,6.9E1,5.4E1],"tree_param":{"num_deleted":"0","num_feature":"31","num_nodes":"13","size_leaf_vector":"1"}},{"base_weights":[9.720033E0,1.6552032E1,5.4788795E0,2.2472786E1,1.4750828E1,3.2662518E0,1.9963888E1,2.4603663E-1,1.7141303E-1,1.6164528E-1,1.22778855E-1,2.5221867E-2,8.969894E-2,1.5601726E-1,2.8998667E-1],"categories":[],"categories_nodes":[],"categories_segments":[],"categories_sizes":[],"default_left":[0,0,0,1,0,0,1,0,0,0,0,0,0,0,0],"id":47,"left_children":[1,3,5,7,9,11,13,-1,-1,-1,-1,-1,-1,-1,-1],"loss_changes":[2.2944883E4,2.9105078E3,1.5703357E4,3.6215234E2,6.2658984E2,1.7937578E3,2.1093008E3,0E0,0E0,0E0,0E0,0E0,0E0,0E0,0E0],"parents":[2147483647,0,0,1,1,2,2,3,3,4,4,5,5,6,6],"right_children":[2,4,6,8,10,12,14,-1,-1,-1,-1,-1,-1,-1,-1],"split_conditions":[1.8E1,2.4E1,3.34E2,3.2E1,7.7E1,3.1E2,9E0,2.4603663E-1,1.7141303E-1,1.6164528E-1,1.22778855E-1,2.5221867E-2,8.969894E-2,1.5601726E-1,2.8998667E-1],"split_indices":[6,5,5,13,5,5,19,0,0,0,0,0,0,0,0],"split_type":[0,0,0,0,0,0,0,0,0,0,0,0,0,0,0],"sum_hessian":[7.94E2,3.03E2,4.91E2,6.8E1,2.35E2,4.27E2,6.4E1,4.6E1,2.2E1,1.46E2,8.9E1,3.79E2,4.8E1,4.5E1,1.9E1],"tree_param":{"num_deleted":"0","num_feature":"31","num_nodes":"15","size_leaf_vector":"1"}},{"base_weights":[1.1944683E3,1.8520914E3,1.0535184E3,2.0874841E3,1.6468882E1,8.848558E2,1.5850245E3,2.106088E1,4.8562293E0,1.1582377E1,8.0407715E0,1.4205377E1,1.834163E1],"categories":[],"categories_nodes":[],"categories_segments":[],"categories_sizes":[],"default_left":[0,0,0,0,0,0,0,0,0,0,0,0,0],"id":48,"left_children":[1,3,5,7,-1,9,11,-1,-1,-1,-1,-1,-1],"loss_changes":[7.173888E7,3.27632E6,5.74944E7,7.95088E5,0E0,1.013248E7,3.828384E6,0E0,0E0,0E0,0E0,0E0,0E0],"parents":[2147483647,0,0,1,1,2,2,3,3,5,5,6,6],"right_children":[2,4,6,8,-1,10,12,-1,-1,-1,-1,-1,-1],"split_conditions":[4.7E1,2.1E1,2.89E2,5E0,1.6468882E1,9.4E1,3.38E2,2.106088E1,4.8562293E0,1.1582377E1,8.0407715E0,1.4205377E1,1.834163E1],"split_indices":[5,5,5,6,0,5,5,0,0,0,0,0,0],"split_type":[0,0,0,0,0,0,0,0,0,0,0,0,0],"sum_hessian":[7.94E2,1.38E2,6.56E2,6E1,7.8E1,5E2,1.56E2,5.9E1,1E0,1.11E2,3.89E2,9.8E1,5.8E1],"tree_param":{"num_deleted":"0","num_feature":"31","num_nodes":"13","size_leaf_vector":"1"}},{"base_weights":[-3.6444628E-1,-3.929563E-1,-3.0691746E-1,-4.253301E-3,-3.5635886E-1,-2.8172484E-1,-4.1938233E-3,-2.6320464E-3,-3.7903616E-3,-2.9480155E-3,-1.5576505E-3],"categories":[],"categories_nodes":[],"categories_segments":[],"categories_sizes":[],"default_left":[0,0,0,0,0,1,0,0,0,0,0],"id":49,"left_children":[1,3,5,-1,7,9,-1,-1,-1,-1,-1],"loss_changes":[1.1833115E0,4.7401428E-1,6.411686E-1,0E0,4.3680573E-1,3.1974602E-1,0E0,0E0,0E0,0E0,0E0],"parents":[2147483647,0,0,1,1,2,2,4,4,5,5],"right_children":[2,4,6,-1,8,10,-1,-1,-1,-1,-1],"split_conditions":[3.4E1,2.066E2,3.43E2,-4.253301E-3,3.4E1,4.92E1,-4.1938233E-3,-2.6320464E-3,-3.7903616E-3,-2.9480155E-3,-1.5576505E-3],"split_indices":[6,22,5,0,5,16,0,0,0,0,0],"split_type":[0,0,0,0,0,0,0,0,0,0,0],"sum_hessian":[7.94E2,5.27E2,2.67E2,2.74E2,2.53E2,2.21E2,4.6E1,5.2E1,2.01E2,1.99E2,2.2E1],"tree_param":{"num_deleted":"0","num_feature":"31","num_nodes":"11","size_leaf_vector":"1"}},{"base_weights":[1.746735E1,2.8478403E1,1.5171939E1,2.9865929E1,2.4114102E-1,1.2900016E1,2.4888475E1,3.256429E-1,2.644792E-1,1.7856485E-1,1.1174489E-1,1.98185E-1,2.6816872E-1],"categories":[],"categories_nodes":[],"categories_segments":[],"categories_sizes":[],"default_left":[0,0,0,0,0,0,0,0,0,0,0,0,0],"id":50,"left_children":[1,3,5,7,-1,9,11,-1,-1,-1,-1,-1,-1],"loss_changes":[1.9661469E4,1.03359375E2,1.4248578E4,5.1828125E1,0E0,4.393164E3,6.808828E2,0E0,0E0,0E0,0E0,0E0,0E0],"parents":[2147483647,0,0,1,1,2,2,3,3,5,5,6,6],"right_children":[2,4,6,8,-1,10,12,-1,-1,-1,-1,-1,-1],"split_conditions":[4.6E1,5E0,1.1E1,2.4E1,2.4114102E-1,1.05E2,3.24E2,3.256429E-1,2.644792E-1,1.7856485E-1,1.1174489E-1,1.98185E-1,2.6816872E-1],"split_indices":[5,1,3,5,0,5,5,0,0,0,0,0,0],"split_type":[0,0,0,0,0,0,0,0,0,0,0,0,0],"sum_hessian":[7.94E2,1.35E2,6.59E2,9.8E1,3.7E1,5.36E2,1.23E2,5E1,4.8E1,1.36E2,4E2,3.7E1,8.6E1],"tree_param":{"num_deleted":"0","num_feature":"31","num_nodes":"13","size_leaf_vector":"1"}},{"base_weights":[4.0924156E1,4.992135E1,3.126153E1,3.6848995E1,5.483148E1,2.7803663E1,3.3798767E1,3.4282273E-1,4.243512E-1,5.4921955E-1,1.40704E-1,3.2020682E-1,2.5250712E-1,3.6482748E-1,3.0562836E-1],"categories":[],"categories_nodes":[],"categories_segments":[],"categories_sizes":[],"default_left":[0,0,0,0,1,0,0,0,0,0,0,0,0,0,0],"id":51,"left_children":[1,3,5,7,9,11,13,-1,-1,-1,-1,-1,-1,-1,-1],"loss_changes":[6.7553875E4,2.4296188E4,2.4468125E3,1.9409375E2,3.18875E2,1.010875E3,7.783594E2,0E0,0E0,0E0,0E0,0E0,0E0,0E0,0E0],"parents":[2147483647,0,0,1,1,2,2,3,3,4,4,5,5,6,6],"right_children":[2,4,6,8,10,12,14,-1,-1,-1,-1,-1,-1,-1,-1],"split_conditions":[1.74E2,3.9E1,1.26E1,5E0,2.8572E3,2.33E2,2.87E2,3.4282273E-1,4.243512E-1,5.4921955E-1,1.40704E-1,3.2020682E-1,2.5250712E-1,3.6482748E-1,3.0562836E-1],"split_indices":[5,5,28,1,7,5,5,0,0,0,0,0,0,0,0],"split_type":[0,0,0,0,0,0,0,0,0,0,0,0,0,0,0],"sum_hessian":[7.94E2,4.09E2,3.85E2,1.14E2,2.95E2,1.68E2,2.17E2,8.3E1,3.1E1,2.94E2,1E0,5.9E1,1.09E2,1.13E2,1.04E2],"tree_param":{"num_deleted":"0","num_feature":"31","num_nodes":"15","size_leaf_vector":"1"}},{"base_weights":[6.311936E0,9.321162E0,5.6149025E0,1.0680646E-1,8.1278235E-2,4.9518814E0,9.330087E0,5.3702176E-2,3.865174E-2,8.2037225E-2,1.1572174E-1],"categories":[],"categories_nodes":[],"categories_segments":[],"categories_sizes":[],"default_left":[0,0,0,0,0,0,1,0,0,0,0],"id":52,"left_children":[1,3,5,-1,-1,7,9,-1,-1,-1,-1],"loss_changes":[1.6151992E3,1.5329395E2,1.5499824E3,0E0,0E0,2.3018848E2,1.5002832E2,0E0,0E0,0E0,0E0],"parents":[2147483647,0,0,1,1,2,2,5,5,6,6],"right_children":[2,4,6,-1,-1,8,10,-1,-1,-1,-1],"split_conditions":[8E0,2.3E1,3.18E2,1.0680646E-1,8.1278235E-2,5E0,1.14E1,5.3702176E-2,3.865174E-2,8.2037225E-2,1.1572174E-1],"split_indices":[6,5,5,0,0,1,28,0,0,0,0],"split_type":[0,0,0,0,0,0,0,0,0,0,0],"sum_hessian":[7.94E2,1.47E2,6.47E2,6.5E1,8.2E1,5.51E2,9.6E1,3.95E2,1.56E2,6.7E1,2.9E1],"tree_param":{"num_deleted":"0","num_feature":"31","num_nodes":"11","size_leaf_vector":"1"}},{"base_weights":[7.996834E1,1.5430424E2,6.4119545E1,1.7204216E2,1.3865465E0,4.88423E1,1.2939316E2,1.7924521E0,1.1050845E0,8.5773885E-1,4.2432E-1,1.1139549E0,1.4994665E0],"categories":[],"categories_nodes":[],"categories_segments":[],"categories_sizes":[],"default_left":[0,0,0,1,0,0,0,0,0,0,0,0,0],"id":53,"left_children":[1,3,5,7,-1,9,11,-1,-1,-1,-1,-1,-1],"loss_changes":[9.26723E5,1.473075E4,6.4884125E5,7.229E3,0E0,1.22781E5,2.9166125E4,0E0,0E0,0E0,0E0,0E0,0E0],"parents":[2147483647,0,0,1,1,2,2,3,3,5,5,6,6],"right_children":[2,4,6,8,-1,10,12,-1,-1,-1,-1,-1,-1],"split_conditions":[4.7E1,2.1E1,1.1E1,4.72E1,1.3865465E0,7.7E1,3.4E2,1.7924521E0,1.1050845E0,8.5773885E-1,4.2432E-1,1.1139549E0,1.4994665E0],"split_indices":[5,5,3,16,0,5,5,0,0,0,0,0,0],"split_type":[0,0,0,0,0,0,0,0,0,0,0,0,0],"sum_hessian":[7.94E2,1.38E2,6.56E2,6E1,7.8E1,5.33E2,1.23E2,5.2E1,8E0,7.7E1,4.56E2,6.9E1,5.4E1],"tree_param":{"num_deleted":"0","num_feature":"31","num_nodes":"13","size_leaf_vector":"1"}},{"base_weights":[1.09107346E2,2.1365337E2,8.6822716E1,2.391143E2,1.912892E0,6.538603E1,1.7843855E2,2.4124126E0,5.57479E-1,1.0271485E0,4.9848616E-1,1.5387738E0,2.0645387E0],"categories":[],"categories_nodes":[],"categories_segments":[],"categories_sizes":[],"default_left":[0,0,0,0,0,0,0,0,0,0,0,0,0],"id":54,"left_children":[1,3,5,7,-1,9,11,-1,-1,-1,-1,-1,-1],"loss_changes":[1.833618E6,3.34085E4,1.2786405E6,1.03425E4,0E0,3.0459625E5,5.35545E4,0E0,0E0,0E0,0E0,0E0,0E0],"parents":[2147483647,0,0,1,1,2,2,3,3,5,5,6,6],"right_children":[2,4,6,8,-1,10,12,-1,-1,-1,-1,-1,-1],"split_conditions":[4.7E1,2.1E1,1.1E1,5E0,1.912892E0,1.16E2,3.4E2,2.4124126E0,5.57479E-1,1.0271485E0,4.9848616E-1,1.5387738E0,2.0645387E0],"split_indices":[5,5,3,6,0,5,5,0,0,0,0,0,0],"split_type":[0,0,0,0,0,0,0,0,0,0,0,0,0],"sum_hessian":[7.94E2,1.38E2,6.56E2,6E1,7.8E1,5.33E2,1.23E2,5.9E1,1E0,1.55E2,3.78E2,6.9E1,5.4E1],"tree_param":{"num_deleted":"0","num_feature":"31","num_nodes":"13","size_leaf_vector":"1"}},{"base_weights":[9.624421E0,1.6648668E1,5.5796466E0,2.2254108E1,1.4831442E1,3.480043E0,1.9771112E1,2.4362864E-1,1.6977344E-1,1.6003983E-1,1.236835E-1,2.79939E-2,8.8820264E-2,1.54491E-1,2.872318E-1],"categories":[],"categories_nodes":[],"categories_segments":[],"categories_sizes":[],"default_left":[0,0,0,1,0,0,1,0,0,0,0,0,0,0,0],"id":55,"left_children":[1,3,5,7,9,11,13,-1,-1,-1,-1,-1,-1,-1,-1],"loss_changes":[2.2494242E4,2.6239844E3,1.5008204E4,3.5417578E2,4.4321094E2,1.6003145E3,2.071164E3,0E0,0E0,0E0,0E0,0E0,0E0,0E0,0E0],"parents":[2147483647,0,0,1,1,2,2,3,3,4,4,5,5,6,6],"right_children":[2,4,6,8,10,12,14,-1,-1,-1,-1,-1,-1,-1,-1],"split_conditions":[1.7E1,2.4E1,3.34E2,3.2E1,7.7E1,3.1E2,9E0,2.4362864E-1,1.6977344E-1,1.6003983E-1,1.236835E-1,2.79939E-2,8.8820264E-2,1.54491E-1,2.872318E-1],"split_indices":[6,5,5,13,5,5,19,0,0,0,0,0,0,0,0],"split_type":[0,0,0,0,0,0,0,0,0,0,0,0,0,0,0],"sum_hessian":[7.94E2,2.89E2,5.05E2,6.8E1,2.21E2,4.41E2,6.4E1,4.6E1,2.2E1,1.46E2,7.5E1,3.93E2,4.8E1,4.5E1,1.9E1],"tree_param":{"num_deleted":"0","num_feature":"31","num_nodes":"15","size_leaf_vector":"1"}},{"base_weights":[1.1826426E3,1.8338754E3,1.0430626E3,2.0670342E3,1.6306278E1,8.760464E2,1.5693816E3,2.085378E1,4.8319483E0,1.1467587E1,7.9605703E0,1.3399403E1,1.7385878E1],"categories":[],"categories_nodes":[],"categories_segments":[],"categories_sizes":[],"default_left":[0,0,0,0,0,0,0,0,0,0,0,0,0],"id":56,"left_children":[1,3,5,7,-1,9,11,-1,-1,-1,-1,-1,-1],"loss_changes":[7.035187E7,3.216512E6,5.6377984E7,7.64672E5,0E0,9.935808E6,3.765568E6,0E0,0E0,0E0,0E0,0E0,0E0],"parents":[2147483647,0,0,1,1,2,2,3,3,5,5,6,6],"right_children":[2,4,6,8,-1,10,12,-1,-1,-1,-1,-1,-1],"split_conditions":[4.7E1,2.1E1,2.89E2,5E0,1.6306278E1,9.4E1,3.24E2,2.085378E1,4.8319483E0,1.1467587E1,7.9605703E0,1.3399403E1,1.7385878E1],"split_indices":[5,5,5,6,0,5,5,0,0,0,0,0,0],"split_type":[0,0,0,0,0,0,0,0,0,0,0,0,0],"sum_hessian":[7.94E2,1.38E2,6.56E2,6E1,7.8E1,5E2,1.56E2,5.9E1,1E0,1.11E2,3.89E2,7E1,8.6E1],"tree_param":{"num_deleted":"0","num_feature":"31","num_nodes":"13","size_leaf_vector":"1"}},{"base_weights":[-3.608262E-1,-3.8904697E-1,-3.0388075E-1,-4.2109224E-1,-3.5282058E-1,-2.4578126E-1,-3.5003218E-1,-4.376256E-3,-3.8344848E-3,-2.6062226E-3,-3.7526458E-3,-2.705702E-3,-1.5289796E-3,-2.5979185E-3,-3.7288347E-3],"categories":[],"categories_nodes":[],"categories_segments":[],"categories_sizes":[],"default_left":[0,0,0,0,0,1,0,0,0,0,0,0,0,0,0],"id":57,"left_children":[1,3,5,7,9,11,13,-1,-1,-1,-1,-1,-1,-1,-1],"loss_changes":[1.159378E0,4.6437836E-1,6.32576E-1,3.3454895E-3,4.2780113E-1,2.3953247E-1,2.0625687E-1,0E0,0E0,0E0,0E0,0E0,0E0,0E0,0E0],"parents":[2147483647,0,0,1,1,2,2,3,3,4,4,5,5,6,6],"right_children":[2,4,6,8,10,12,14,-1,-1,-1,-1,-1,-1,-1,-1],"split_conditions":[3.4E1,2.066E2,2.93E2,2.1E1,3.4E1,3.9E1,9E0,-4.376256E-3,-3.8344848E-3,-2.6062226E-3,-3.7526458E-3,-2.705702E-3,-1.5289796E-3,-2.5979185E-3,-3.7288347E-3],"split_indices":[6,22,5,6,5,16,0,0,0,0,0,0,0,0,0],"split_type":[0,0,0,0,0,0,0,0,0,0,0,0,0,0,0],"sum_hessian":[7.94E2,5.27E2,2.67E2,2.74E2,2.53E2,1.21E2,1.46E2,1.83E2,9.1E1,5.2E1,2.01E2,9.4E1,2.7E1,3.2E1,1.14E2],"tree_param":{"num_deleted":"0","num_feature":"31","num_nodes":"15","size_leaf_vector":"1"}},{"base_weights":[1.7294672E1,2.8199732E1,1.5021366E1,2.830424E1,7.045607E-2,1.2771557E1,2.464335E1,3.1108868E-1,2.571763E-1,1.7679223E-1,1.1063024E-1,1.962553E-1,2.6551786E-1],"categories":[],"categories_nodes":[],"categories_segments":[],"categories_sizes":[],"default_left":[0,0,0,0,0,0,0,0,0,0,0,0,0],"id":58,"left_children":[1,3,5,7,-1,9,11,-1,-1,-1,-1,-1,-1],"loss_changes":[1.9284875E4,1.0124219E2,1.3972703E4,1.7930469E2,0E0,4.3071094E3,6.663594E2,0E0,0E0,0E0,0E0,0E0,0E0],"parents":[2147483647,0,0,1,1,2,2,3,3,5,5,6,6],"right_children":[2,4,6,8,-1,10,12,-1,-1,-1,-1,-1,-1],"split_conditions":[4.6E1,8E0,1.1E1,2.1E1,7.045607E-2,1.05E2,3.24E2,3.1108868E-1,2.571763E-1,1.7679223E-1,1.1063024E-1,1.962553E-1,2.6551786E-1],"split_indices":[5,6,3,5,0,5,5,0,0,0,0,0,0],"split_type":[0,0,0,0,0,0,0,0,0,0,0,0,0],"sum_hessian":[7.94E2,1.35E2,6.59E2,1.34E2,1E0,5.36E2,1.23E2,5.9E1,7.5E1,1.36E2,4E2,3.7E1,8.6E1],"tree_param":{"num_deleted":"0","num_feature":"31","num_nodes":"13","size_leaf_vector":"1"}},{"base_weights":[4.051831E1,4.9425686E1,3.0952135E1,3.648718E1,5.4285492E1,2.7529016E1,3.3463856E1,3.7569752E-1,2.6765373E-1,5.4374593E-1,1.4000049E-1,3.1705812E-1,2.5000498E-1,3.650753E-1,3.0624935E-1],"categories":[],"categories_nodes":[],"categories_segments":[],"categories_sizes":[],"default_left":[0,0,0,1,1,0,0,0,0,0,0,0,0,0,0],"id":59,"left_children":[1,3,5,7,9,11,13,-1,-1,-1,-1,-1,-1,-1,-1],"loss_changes":[6.6211625E4,2.3799562E4,2.3975625E3,2.0476562E2,3.0125E2,9.9216406E2,7.656406E2,0E0,0E0,0E0,0E0,0E0,0E0,0E0,0E0],"parents":[2147483647,0,0,1,1,2,2,3,3,4,4,5,5,6,6],"right_children":[2,4,6,8,10,12,14,-1,-1,-1,-1,-1,-1,-1,-1],"split_conditions":[1.74E2,3.9E1,1.26E1,2.258E2,2.8572E3,2.33E2,2.73E2,3.7569752E-1,2.6765373E-1,5.4374593E-1,1.4000049E-1,3.1705812E-1,2.5000498E-1,3.650753E-1,3.0624935E-1],"split_indices":[5,5,28,22,7,5,5,0,0,0,0,0,0,0,0],"split_type":[0,0,0,0,0,0,0,0,0,0,0,0,0,0,0],"sum_hessian":[7.94E2,4.09E2,3.85E2,1.14E2,2.95E2,1.68E2,2.17E2,1E2,1.4E1,2.94E2,1E0,5.9E1,1.09E2,9.9E1,1.18E2],"tree_param":{"num_deleted":"0","num_feature":"31","num_nodes":"15","size_leaf_vector":"1"}},{"base_weights":[6.249418E0,9.51937E0,5.6193233E0,8.686744E0,1.1309899E1,4.996791E0,9.238825E0,1.0187773E-1,7.657059E-2,4.760846E-2,1.1548107E-1,6.559353E-2,4.6645895E-2,8.122892E-2,1.14603095E-1],"categories":[],"categories_nodes":[],"categories_segments":[],"categories_sizes":[],"default_left":[0,1,0,0,0,0,1,0,0,0,0,0,0,0,0],"id":60,"left_children":[1,3,5,7,9,11,13,-1,-1,-1,-1,-1,-1,-1,-1],"loss_changes":[1.5845098E3,9.109082E1,1.4612637E3,6.2640625E1,2.7426758E0,2.6683984E2,1.47375E2,0E0,0E0,0E0,0E0,0E0,0E0,0E0,0E0],"parents":[2147483647,0,0,1,1,2,2,3,3,4,4,5,5,6,6],"right_children":[2,4,6,8,10,12,14,-1,-1,-1,-1,-1,-1,-1,-1],"split_conditions":[7E0,1E1,3.18E2,1.8E1,1.16E1,8E1,1.14E1,1.0187773E-1,7.657059E-2,4.760846E-2,1.1548107E-1,6.559353E-2,4.6645895E-2,8.122892E-2,1.14603095E-1],"split_indices":[6,29,5,5,17,5,28,0,0,0,0,0,0,0,0],"split_type":[0,0,0,0,0,0,0,0,0,0,0,0,0,0,0],"sum_hessian":[7.94E2,1.26E2,6.68E2,9E1,3.6E1,5.72E2,9.6E1,3.3E1,5.7E1,2E0,3.4E1,9.7E1,4.75E2,6.7E1,2.9E1],"tree_param":{"num_deleted":"0","num_feature":"31","num_nodes":"15","size_leaf_vector":"1"}},{"base_weights":[7.917894E1,1.5279202E2,6.3484276E1,1.7036925E2,1.3728564E0,4.8356277E1,1.281203E2,1.8544595E0,1.3521299E0,8.492715E-1,4.2008612E-1,1.1029745E0,1.4847445E0],"categories":[],"categories_nodes":[],"categories_segments":[],"categories_sizes":[],"default_left":[0,0,0,1,0,0,0,0,0,0,0,0,0],"id":61,"left_children":[1,3,5,7,-1,9,11,-1,-1,-1,-1,-1,-1],"loss_changes":[9.087895E5,1.449625E4,6.36228E5,7.257875E3,0E0,1.20395E5,2.8607E4,0E0,0E0,0E0,0E0,0E0,0E0],"parents":[2147483647,0,0,1,1,2,2,3,3,5,5,6,6],"right_children":[2,4,6,8,-1,10,12,-1,-1,-1,-1,-1,-1],"split_conditions":[4.7E1,2.1E1,1.1E1,3.17E1,1.3728564E0,7.7E1,3.4E2,1.8544595E0,1.3521299E0,8.492715E-1,4.2008612E-1,1.1029745E0,1.4847445E0],"split_indices":[5,5,3,13,0,5,5,0,0,0,0,0,0],"split_type":[0,0,0,0,0,0,0,0,0,0,0,0,0],"sum_hessian":[7.94E2,1.38E2,6.56E2,6E1,7.8E1,5.33E2,1.23E2,3.9E1,2.1E1,7.7E1,4.56E2,6.9E1,5.4E1],"tree_param":{"num_deleted":"0","num_feature":"31","num_nodes":"13","size_leaf_vector":"1"}},{"base_weights":[1.0802887E2,2.1155197E2,8.5962296E1,2.3677184E2,1.8940052E0,6.568006E1,1.8098221E2,2.3886905E0,5.546916E-1,1.2228191E0,5.606498E-1,1.5687666E0,2.0442686E0],"categories":[],"categories_nodes":[],"categories_segments":[],"categories_sizes":[],"default_left":[0,0,0,0,0,0,0,0,0,0,0,0,0],"id":62,"left_children":[1,3,5,7,-1,9,11,-1,-1,-1,-1,-1,-1],"loss_changes":[1.797912E6,3.2809E4,1.254294E6,9.94425E3,0E0,2.8866175E5,3.2922E4,0E0,0E0,0E0,0E0,0E0,0E0],"parents":[2147483647,0,0,1,1,2,2,3,3,5,5,6,6],"right_children":[2,4,6,8,-1,10,12,-1,-1,-1,-1,-1,-1],"split_conditions":[4.7E1,2.1E1,3.1E2,5E0,1.8940052E0,7.7E1,3.4E2,2.3886905E0,5.546916E-1,1.2228191E0,5.606498E-1,1.5687666E0,2.0442686E0],"split_indices":[5,5,5,6,0,5,5,0,0,0,0,0,0],"split_type":[0,0,0,0,0,0,0,0,0,0,0,0,0],"sum_hessian":[7.94E2,1.38E2,6.56E2,6E1,7.8E1,5.42E2,1.14E2,5.9E1,1E0,7.7E1,4.65E2,6E1,5.4E1],"tree_param":{"num_deleted":"0","num_feature":"31","num_nodes":"13","size_leaf_vector":"1"}},{"base_weights":[9.529757E0,1.6231005E1,5.369778E0,2.0198406E1,1.3675595E1,3.199108E0,1.9580196E1,2.815693E-1,1.836811E-1,1.5013255E-1,1.1763335E-1,2.4691109E-2,8.795019E-2,1.5297967E-1,2.845031E-1],"categories":[],"categories_nodes":[],"categories_segments":[],"categories_sizes":[],"default_left":[0,0,0,0,0,0,1,0,0,0,0,0,0,0,0],"id":63,"left_children":[1,3,5,7,9,11,13,-1,-1,-1,-1,-1,-1,-1,-1],"loss_changes":[2.2075102E4,2.8058281E3,1.5113659E4,1.187082E3,3.0428906E2,1.7266631E3,2.0337188E3,0E0,0E0,0E0,0E0,0E0,0E0,0E0,0E0],"parents":[2147483647,0,0,1,1,2,2,3,3,4,4,5,5,6,6],"right_children":[2,4,6,8,10,12,14,-1,-1,-1,-1,-1,-1,-1,-1],"split_conditions":[1.8E1,4E1,3.34E2,2E-1,4E0,3.1E2,9E0,2.815693E-1,1.836811E-1,1.5013255E-1,1.1763335E-1,2.4691109E-2,8.795019E-2,1.5297967E-1,2.845031E-1],"split_indices":[6,5,5,11,1,5,19,0,0,0,0,0,0,0,0],"split_type":[0,0,0,0,0,0,0,0,0,0,0,0,0,0,0],"sum_hessian":[7.94E2,3.03E2,4.91E2,1.16E2,1.87E2,4.27E2,6.4E1,1.9E1,9.7E1,1.06E2,8.1E1,3.79E2,4.8E1,4.5E1,1.9E1],"tree_param":{"num_deleted":"0","num_feature":"31","num_nodes":"15","size_leaf_vector":"1"}},{"base_weights":[1.1709321E3,1.8158387E3,1.0327084E3,2.0467849E3,1.6145279E1,8.673247E2,1.5538839E3,2.064872E1,4.8077884E0,1.1353935E1,7.881169E0,1.3920843E1,1.7990412E1],"categories":[],"categories_nodes":[],"categories_segments":[],"categories_sizes":[],"default_left":[0,0,0,0,0,0,0,0,0,0,0,0,0],"id":64,"left_children":[1,3,5,7,-1,9,11,-1,-1,-1,-1,-1,-1],"loss_changes":[6.899226E7,3.157792E6,5.5281664E7,7.35056E5,0E0,9.742976E6,3.723232E6,0E0,0E0,0E0,0E0,0E0,0E0],"parents":[2147483647,0,0,1,1,2,2,3,3,5,5,6,6],"right_children":[2,4,6,8,-1,10,12,-1,-1,-1,-1,-1,-1],"split_conditions":[4.7E1,2.1E1,2.89E2,5E0,1.6145279E1,9.4E1,3.38E2,2.064872E1,4.8077884E0,1.1353935E1,7.881169E0,1.3920843E1,1.7990412E1],"split_indices":[5,5,5,6,0,5,5,0,0,0,0,0,0],"split_type":[0,0,0,0,0,0,0,0,0,0,0,0,0],"sum_hessian":[7.94E2,1.38E2,6.56E2,6E1,7.8E1,5E2,1.56E2,5.9E1,1E0,1.11E2,3.89E2,9.8E1,5.8E1],"tree_param":{"num_deleted":"0","num_feature":"31","num_nodes":"13","size_leaf_vector":"1"}},{"base_weights":[-3.5724956E-1,-3.8518408E-1,-3.0088136E-1,-4.1691118E-1,-3.493174E-1,-2.7607453E-1,-4.116523E-3,-4.332731E-3,-3.7965567E-3,-2.5806522E-3,-3.715305E-3,-2.888746E-3,-1.5276615E-3],"categories":[],"categories_nodes":[],"categories_segments":[],"categories_sizes":[],"default_left":[0,0,0,0,0,1,0,0,0,0,0,0,0],"id":65,"left_children":[1,3,5,7,9,11,-1,-1,-1,-1,-1,-1,-1],"loss_changes":[1.1359253E0,4.5520782E-1,6.2278366E-1,3.1356812E-3,4.1897964E-1,3.0626488E-1,0E0,0E0,0E0,0E0,0E0,0E0,0E0],"parents":[2147483647,0,0,1,1,2,2,3,3,4,4,5,5],"right_children":[2,4,6,8,10,12,-1,-1,-1,-1,-1,-1,-1],"split_conditions":[3.4E1,2.066E2,3.43E2,2.1E1,3.4E1,4.92E1,-4.116523E-3,-4.332731E-3,-3.7965567E-3,-2.5806522E-3,-3.715305E-3,-2.888746E-3,-1.5276615E-3],"split_indices":[6,22,5,6,5,16,0,0,0,0,0,0,0],"split_type":[0,0,0,0,0,0,0,0,0,0,0,0,0],"sum_hessian":[7.94E2,5.27E2,2.67E2,2.74E2,2.53E2,2.21E2,4.6E1,1.83E2,9.1E1,5.2E1,2.01E2,1.99E2,2.2E1],"tree_param":{"num_deleted":"0","num_feature":"31","num_nodes":"13","size_leaf_vector":"1"}},{"base_weights":[1.7123472E1,2.792243E1,1.4872288E1,2.9294691E1,2.3612532E1,1.2644377E1,2.440064E1,3.1946385E-1,2.593691E-1,2.3879232E-1,6.872299E-2,1.750372E-1,1.0952669E-1,1.9434439E-1,2.628932E-1],"categories":[],"categories_nodes":[],"categories_segments":[],"categories_sizes":[],"default_left":[0,0,0,0,0,0,0,0,0,0,0,0,0,0,0],"id":66,"left_children":[1,3,5,7,9,11,13,-1,-1,-1,-1,-1,-1,-1,-1],"loss_changes":[1.8911562E4,1.1261719E2,1.3702156E4,5.2882812E1,5.5507812E0,4.2227344E3,6.5214844E2,0E0,0E0,0E0,0E0,0E0,0E0,0E0,0E0],"parents":[2147483647,0,0,1,1,2,2,3,3,4,4,5,5,6,6],"right_children":[2,4,6,8,10,12,14,-1,-1,-1,-1,-1,-1,-1,-1],"split_conditions":[4.6E1,5E0,1.1E1,2.4E1,4.3E1,1.05E2,3.24E2,3.1946385E-1,2.593691E-1,2.3879232E-1,6.872299E-2,1.750372E-1,1.0952669E-1,1.9434439E-1,2.628932E-1],"split_indices":[5,1,3,5,5,5,5,0,0,0,0,0,0,0,0],"split_type":[0,0,0,0,0,0,0,0,0,0,0,0,0,0,0],"sum_hessian":[7.94E2,1.35E2,6.59E2,9.8E1,3.7E1,5.36E2,1.23E2,5E1,4.8E1,3.6E1,1E0,1.36E2,4E2,3.7E1,8.6E1],"tree_param":{"num_deleted":"0","num_feature":"31","num_nodes":"15","size_leaf_vector":"1"}},{"base_weights":[4.0116352E1,4.8934666E1,3.0645823E1,3.61279E1,5.374495E1,2.7257082E1,3.3132298E1,3.359031E-1,4.166007E-1,5.383269E-1,1.3930048E-1,3.1394038E-1,2.4752767E-1,3.24873E-1,5.050755E-1],"categories":[],"categories_nodes":[],"categories_segments":[],"categories_sizes":[],"default_left":[0,0,0,0,1,0,1,0,0,0,0,0,0,0,0],"id":67,"left_children":[1,3,5,7,9,11,13,-1,-1,-1,-1,-1,-1,-1,-1],"loss_changes":[6.4894125E4,2.3316062E4,2.3493438E3,2.1503125E2,2.84125E2,9.7378906E2,8.022656E2,0E0,0E0,0E0,0E0,0E0,0E0,0E0,0E0],"parents":[2147483647,0,0,1,1,2,2,3,3,4,4,5,5,6,6],"right_children":[2,4,6,8,10,12,14,-1,-1,-1,-1,-1,-1,-1,-1],"split_conditions":[1.74E2,3.9E1,1.26E1,5E0,2.8572E3,2.33E2,2.76E1,3.359031E-1,4.166007E-1,5.383269E-1,1.3930048E-1,3.1394038E-1,2.4752767E-1,3.24873E-1,5.050755E-1],"split_indices":[5,5,28,1,7,5,28,0,0,0,0,0,0,0,0],"split_type":[0,0,0,0,0,0,0,0,0,0,0,0,0,0,0],"sum_hessian":[7.94E2,4.09E2,3.85E2,1.14E2,2.95E2,1.68E2,2.17E2,8.3E1,3.1E1,2.94E2,1E0,5.9E1,1.09E2,2.12E2,5E0],"tree_param":{"num_deleted":"0","num_feature":"31","num_nodes":"15","size_leaf_vector":"1"}},{"base_weights":[6.187741E0,9.140535E0,5.503788E0,1.0475452E-1,7.9689083E0,4.8533597E0,9.148455E0,2.3224004E-2,8.009446E-2,5.2674912E-2,3.777885E-2,8.042858E-2,1.1349526E-1],"categories":[],"categories_nodes":[],"categories_segments":[],"categories_sizes":[],"default_left":[0,0,0,0,0,0,1,0,0,0,0,0,0],"id":68,"left_children":[1,3,5,-1,7,9,11,-1,-1,-1,-1,-1,-1],"loss_changes":[1.555252E3,1.4799707E2,1.4917441E3,0E0,3.9746094E-1,2.259541E2,1.4476709E2,0E0,0E0,0E0,0E0,0E0,0E0],"parents":[2147483647,0,0,1,1,2,2,4,4,5,5,6,6],"right_children":[2,4,6,-1,8,10,12,-1,-1,-1,-1,-1,-1],"split_conditions":[8E0,2.3E1,3.18E2,1.0475452E-1,1.01E1,5E0,1.14E1,2.3224004E-2,8.009446E-2,5.2674912E-2,3.777885E-2,8.042858E-2,1.1349526E-1],"split_indices":[6,5,5,0,16,1,28,0,0,0,0,0,0],"split_type":[0,0,0,0,0,0,0,0,0,0,0,0,0],"sum_hessian":[7.94E2,1.47E2,6.47E2,6.5E1,8.2E1,5.51E2,9.6E1,1E0,8.1E1,3.95E2,1.56E2,6.7E1,2.9E1],"tree_param":{"num_deleted":"0","num_feature":"31","num_nodes":"13","size_leaf_vector":"1"}},{"base_weights":[7.8397766E1,1.4856302E2,6.2251385E1,1.7024915E2,1.3227392E0,4.723494E1,1.2660724E2,1.8637583E0,1.3392233E0,8.290757E-1,4.1589442E-1,1.0921023E0,1.471956E0],"categories":[],"categories_nodes":[],"categories_segments":[],"categories_sizes":[],"default_left":[0,0,0,1,0,0,0,0,0,0,0,0,0],"id":69,"left_children":[1,3,5,7,-1,9,11,-1,-1,-1,-1,-1,-1],"loss_changes":[8.914195E5,2.976125E4,6.202445E5,1.019E4,0E0,1.0268425E5,2.7622125E4,0E0,0E0,0E0,0E0,0E0,0E0],"parents":[2147483647,0,0,1,1,2,2,3,3,5,5,6,6],"right_children":[2,4,6,8,-1,10,12,-1,-1,-1,-1,-1,-1],"split_conditions":[8E0,2.1E1,1.1E1,3.17E1,1.3227392E0,7.7E1,3.4E2,1.8637583E0,1.3392233E0,8.290757E-1,4.1589442E-1,1.0921023E0,1.471956E0],"split_indices":[6,5,3,13,0,5,5,0,0,0,0,0,0],"split_type":[0,0,0,0,0,0,0,0,0,0,0,0,0],"sum_hessian":[7.94E2,1.47E2,6.47E2,5.9E1,8.8E1,5.26E2,1.21E2,3.8E1,2.1E1,7E1,4.56E2,6.9E1,5.2E1],"tree_param":{"num_deleted":"0","num_feature":"31","num_nodes":"13","size_leaf_vector":"1"}},{"base_weights":[1.0696145E2,2.0947125E2,8.5110886E1,2.3445238E2,1.8753048E0,6.407995E1,1.7499321E2,2.3652017E0,5.5191815E-1,1.008104E0,4.8792273E-1,1.5094386E0,2.0241976E0],"categories":[],"categories_nodes":[],"categories_segments":[],"categories_sizes":[],"default_left":[0,0,0,0,0,0,0,0,0,0,0,0,0],"id":70,"left_children":[1,3,5,7,-1,9,11,-1,-1,-1,-1,-1,-1],"loss_changes":[1.76289E6,3.22195E4,1.2307195E6,9.5575E3,0E0,2.949345E5,5.12355E4,0E0,0E0,0E0,0E0,0E0,0E0],"parents":[2147483647,0,0,1,1,2,2,3,3,5,5,6,6],"right_children":[2,4,6,8,-1,10,12,-1,-1,-1,-1,-1,-1],"split_conditions":[4.7E1,2.1E1,1.1E1,5E0,1.8753048E0,1.16E2,3.4E2,2.3652017E0,5.5191815E-1,1.008104E0,4.8792273E-1,1.5094386E0,2.0241976E0],"split_indices":[5,5,3,6,0,5,5,0,0,0,0,0,0],"split_type":[0,0,0,0,0,0,0,0,0,0,0,0,0],"sum_hessian":[7.94E2,1.38E2,6.56E2,6E1,7.8E1,5.33E2,1.23E2,5.9E1,1E0,1.55E2,3.78E2,6.9E1,5.4E1],"tree_param":{"num_deleted":"0","num_feature":"31","num_nodes":"13","size_leaf_vector":"1"}},{"base_weights":[9.436072E0,1.6071106E1,5.3171983E0,2.1839516E1,1.4316482E1,3.1673799E0,1.9391125E1,2.3923816E-1,1.6630745E-1,1.568959E-1,1.1914665E-1,2.4444848E-2,8.708863E-2,1.5148313E-1,2.8180033E-1],"categories":[],"categories_nodes":[],"categories_segments":[],"categories_sizes":[],"default_left":[0,0,0,1,0,0,1,0,0,0,0,0,0,0,0],"id":71,"left_children":[1,3,5,7,9,11,13,-1,-1,-1,-1,-1,-1,-1,-1],"loss_changes":[2.1640992E4,2.7642344E3,1.4824725E4,3.5123438E2,5.913828E2,1.6932412E3,1.9969473E3,0E0,0E0,0E0,0E0,0E0,0E0,0E0,0E0],"parents":[2147483647,0,0,1,1,2,2,3,3,4,4,5,5,6,6],"right_children":[2,4,6,8,10,12,14,-1,-1,-1,-1,-1,-1,-1,-1],"split_conditions":[1.8E1,2.4E1,3.34E2,3.2E1,7.7E1,3.1E2,9E0,2.3923816E-1,1.6630745E-1,1.568959E-1,1.1914665E-1,2.4444848E-2,8.708863E-2,1.5148313E-1,2.8180033E-1],"split_indices":[6,5,5,13,5,5,19,0,0,0,0,0,0,0,0],"split_type":[0,0,0,0,0,0,0,0,0,0,0,0,0,0,0],"sum_hessian":[7.94E2,3.03E2,4.91E2,6.8E1,2.35E2,4.27E2,6.4E1,4.6E1,2.2E1,1.46E2,8.9E1,3.79E2,4.8E1,4.5E1,1.9E1],"tree_param":{"num_deleted":"0","num_feature":"31","num_nodes":"15","size_leaf_vector":"1"}},{"base_weights":[1.1593395E3,1.8064801E3,1.0242327E3,2.0267344E3,1.6059277E1,8.619871E2,1.5385483E3,2.0445675E1,4.783749E0,1.1316668E1,7.802559E0,1.378304E1,1.7813555E1],"categories":[],"categories_nodes":[],"categories_segments":[],"categories_sizes":[],"default_left":[0,0,0,0,0,0,0,0,0,0,0,0,0],"id":72,"left_children":[1,3,5,7,-1,9,11,-1,-1,-1,-1,-1,-1],"loss_changes":[6.765894E7,2.752672E6,5.3747776E7,7.06272E5,0E0,1.0225792E7,3.653376E6,0E0,0E0,0E0,0E0,0E0,0E0],"parents":[2147483647,0,0,1,1,2,2,3,3,5,5,6,6],"right_children":[2,4,6,8,-1,10,12,-1,-1,-1,-1,-1,-1],"split_conditions":[4.6E1,2.1E1,2.89E2,5E0,1.6059277E1,9.4E1,3.38E2,2.0445675E1,4.783749E0,1.1316668E1,7.802559E0,1.378304E1,1.7813555E1],"split_indices":[5,5,5,6,0,5,5,0,0,0,0,0,0],"split_type":[0,0,0,0,0,0,0,0,0,0,0,0,0],"sum_hessian":[7.94E2,1.35E2,6.59E2,6E1,7.5E1,5.03E2,1.56E2,5.9E1,1E0,1.14E2,3.89E2,9.8E1,5.8E1],"tree_param":{"num_deleted":"0","num_feature":"31","num_nodes":"13","size_leaf_vector":"1"}},{"base_weights":[-3.5370594E-1,-3.8026664E-1,-2.9563662E-1,-4.0864968E-1,-3.4814295E-1,-2.2798213E-1,-3.4333083E-1,-4.127716E-3,-2.1587622E-3,-2.5553326E-3,-3.6996193E-3,-2.5260013E-3,-1.4477262E-3,-2.5447547E-3,-3.6584295E-3],"categories":[],"categories_nodes":[],"categories_segments":[],"categories_sizes":[],"default_left":[0,0,0,0,0,1,0,0,0,0,0,0,0,0,0],"id":73,"left_children":[1,3,5,7,9,11,13,-1,-1,-1,-1,-1,-1,-1,-1],"loss_changes":[1.1137543E0,3.5191345E-1,7.4131393E-1,1.3497543E-1,4.328518E-1,1.846633E-1,2.0094872E-1,0E0,0E0,0E0,0E0,0E0,0E0,0E0,0E0],"parents":[2147483647,0,0,1,1,2,2,3,3,4,4,5,5,6,6],"right_children":[2,4,6,8,10,12,14,-1,-1,-1,-1,-1,-1,-1,-1],"split_conditions":[3.5E1,2.066E2,2.93E2,3.4E1,3.4E1,3.9E1,9E0,-4.127716E-3,-2.1587622E-3,-2.5553326E-3,-3.6996193E-3,-2.5260013E-3,-1.4477262E-3,-2.5447547E-3,-3.6584295E-3],"split_indices":[6,22,5,6,5,16,0,0,0,0,0,0,0,0,0],"split_type":[0,0,0,0,0,0,0,0,0,0,0,0,0,0,0],"sum_hessian":[7.94E2,5.41E2,2.53E2,2.81E2,2.6E2,1.07E2,1.46E2,2.74E2,7E0,5.2E1,2.08E2,8.1E1,2.6E1,3.2E1,1.14E2],"tree_param":{"num_deleted":"0","num_feature":"31","num_nodes":"15","size_leaf_vector":"1"}},{"base_weights":[1.6954285E1,2.7649723E1,1.4724689E1,2.9007591E1,2.3384499E1,1.2518462E1,2.4160322E1,3.1633186E-1,2.5682834E-1,2.3646894E-1,6.837938E-2,1.7329961E-1,1.0843415E-1,1.9245209E-1,2.602945E-1],"categories":[],"categories_nodes":[],"categories_segments":[],"categories_sizes":[],"default_left":[0,0,0,0,0,0,0,0,0,0,0,0,0,0,0],"id":74,"left_children":[1,3,5,7,9,11,13,-1,-1,-1,-1,-1,-1,-1,-1],"loss_changes":[1.8550844E4,1.0933594E2,1.3436859E4,5.178125E1,3.2890625E0,4.1400234E3,6.382422E2,0E0,0E0,0E0,0E0,0E0,0E0,0E0,0E0],"parents":[2147483647,0,0,1,1,2,2,3,3,4,4,5,5,6,6],"right_children":[2,4,6,8,10,12,14,-1,-1,-1,-1,-1,-1,-1,-1],"split_conditions":[4.6E1,5E0,1.1E1,2.4E1,4.3E1,1.05E2,3.24E2,3.1633186E-1,2.5682834E-1,2.3646894E-1,6.837938E-2,1.7329961E-1,1.0843415E-1,1.9245209E-1,2.602945E-1],"split_indices":[5,1,3,5,5,5,5,0,0,0,0,0,0,0,0],"split_type":[0,0,0,0,0,0,0,0,0,0,0,0,0,0,0],"sum_hessian":[7.94E2,1.35E2,6.59E2,9.8E1,3.7E1,5.36E2,1.23E2,5E1,4.8E1,3.6E1,1E0,1.36E2,4E2,3.7E1,8.6E1],"tree_param":{"num_deleted":"0","num_feature":"31","num_nodes":"15","size_leaf_vector":"1"}},{"base_weights":[3.971874E1,4.844881E1,3.034297E1,3.5773167E1,5.320979E1,2.6987833E1,3.2804783E1,3.3258408E-1,4.1256487E-1,5.329619E-1,1.3860399E-1,3.108533E-1,2.450749E-1,3.2163954E-1,5.0086653E-1],"categories":[],"categories_nodes":[],"categories_segments":[],"categories_sizes":[],"default_left":[0,0,0,0,1,0,1,0,0,0,0,0,0,0,0],"id":75,"left_children":[1,3,5,7,9,11,13,-1,-1,-1,-1,-1,-1,-1,-1],"loss_changes":[6.36015E4,2.2839375E4,2.3029375E3,2.1364062E2,2.6775E2,9.557578E2,8.033125E2,0E0,0E0,0E0,0E0,0E0,0E0,0E0,0E0],"parents":[2147483647,0,0,1,1,2,2,3,3,4,4,5,5,6,6],"right_children":[2,4,6,8,10,12,14,-1,-1,-1,-1,-1,-1,-1,-1],"split_conditions":[1.74E2,3.9E1,1.26E1,5E0,2.8572E3,2.33E2,2.76E1,3.3258408E-1,4.1256487E-1,5.329619E-1,1.3860399E-1,3.108533E-1,2.450749E-1,3.2163954E-1,5.0086653E-1],"split_indices":[5,5,28,1,7,5,28,0,0,0,0,0,0,0,0],"split_type":[0,0,0,0,0,0,0,0,0,0,0,0,0,0,0],"sum_hessian":[7.94E2,4.09E2,3.85E2,1.14E2,2.95E2,1.68E2,2.17E2,8.3E1,3.1E1,2.94E2,1E0,5.9E1,1.09E2,2.12E2,5E0],"tree_param":{"num_deleted":"0","num_feature":"31","num_nodes":"15","size_leaf_vector":"1"}},{"base_weights":[6.126483E0,9.335228E0,5.508191E0,8.511596E0,1.1108616E1,4.8974867E0,9.0589695E0,9.987218E-2,7.499824E-2,4.6674907E-2,1.13433234E-1,6.439608E-2,4.5697022E-2,7.963613E-2,1.1239815E-1],"categories":[],"categories_nodes":[],"categories_segments":[],"categories_sizes":[],"default_left":[0,1,0,0,0,0,1,0,0,0,0,0,0,0,0],"id":76,"left_children":[1,3,5,7,9,11,13,-1,-1,-1,-1,-1,-1,-1,-1],"loss_changes":[1.5258145E3,9.094629E1,1.4063438E3,6.096045E1,2.991211E0,2.6021484E2,1.4220508E2,0E0,0E0,0E0,0E0,0E0,0E0,0E0,0E0],"parents":[2147483647,0,0,1,1,2,2,3,3,4,4,5,5,6,6],"right_children":[2,4,6,8,10,12,14,-1,-1,-1,-1,-1,-1,-1,-1],"split_conditions":[7E0,1E1,3.18E2,1.8E1,1.16E1,8E1,1.14E1,9.987218E-2,7.499824E-2,4.6674907E-2,1.13433234E-1,6.439608E-2,4.5697022E-2,7.963613E-2,1.1239815E-1],"split_indices":[6,29,5,5,17,5,28,0,0,0,0,0,0,0,0],"split_type":[0,0,0,0,0,0,0,0,0,0,0,0,0,0,0],"sum_hessian":[7.94E2,1.26E2,6.68E2,9E1,3.6E1,5.72E2,9.6E1,3.3E1,5.7E1,2E0,3.4E1,9.7E1,4.75E2,6.7E1,2.9E1],"tree_param":{"num_deleted":"0","num_feature":"31","num_nodes":"15","size_leaf_vector":"1"}},{"base_weights":[7.7624275E1,1.4983698E2,6.2228245E1,1.5686227E2,1.1638447E0,4.8344387E1,1.3008629E2,1.7416803E0,1.3896115E0,8.321968E-1,4.2453712E-1,1.1724086E0,1.5260845E0],"categories":[],"categories_nodes":[],"categories_segments":[],"categories_sizes":[],"default_left":[0,1,0,0,0,0,0,0,0,0,0,0,0],"id":77,"left_children":[1,3,5,7,-1,9,11,-1,-1,-1,-1,-1,-1],"loss_changes":[8.74548E5,1.441075E4,6.1269125E5,1.0494E4,0E0,1.08842125E5,1.4221125E4,0E0,0E0,0E0,0E0,0E0,0E0],"parents":[2147483647,0,0,1,1,2,2,3,3,5,5,6,6],"right_children":[2,4,6,8,-1,10,12,-1,-1,-1,-1,-1,-1],"split_conditions":[4.7E1,4.72E1,3.12E2,2.1E1,1.1638447E0,7.7E1,3.49E2,1.7416803E0,1.3896115E0,8.321968E-1,4.2453712E-1,1.1724086E0,1.5260845E0],"split_indices":[5,16,5,5,0,5,5,0,0,0,0,0,0],"split_type":[0,0,0,0,0,0,0,0,0,0,0,0,0],"sum_hessian":[7.94E2,1.38E2,6.56E2,1.11E2,2.7E1,5.46E2,1.1E2,5.2E1,5.9E1,7.7E1,4.69E2,7.4E1,3.6E1],"tree_param":{"num_deleted":"0","num_feature":"31","num_nodes":"13","size_leaf_vector":"1"}},{"base_weights":[1.0590419E2,2.0741101E2,8.4267426E1,2.3215567E2,1.8567892E0,6.47906E1,1.7948863E2,2.519136E0,1.8567963E0,1.2007959E0,5.5477136E-1,1.5687871E0,2.012716E0],"categories":[],"categories_nodes":[],"categories_segments":[],"categories_sizes":[],"default_left":[0,0,0,1,0,0,0,0,0,0,0,0,0],"id":78,"left_children":[1,3,5,7,-1,9,11,-1,-1,-1,-1,-1,-1],"loss_changes":[1.728565E6,3.1641E4,1.206847E6,9.2395E3,0E0,2.750065E5,2.30935E4,0E0,0E0,0E0,0E0,0E0,0E0],"parents":[2147483647,0,0,1,1,2,2,3,3,5,5,6,6],"right_children":[2,4,6,8,-1,10,12,-1,-1,-1,-1,-1,-1],"split_conditions":[4.7E1,2.1E1,3.12E2,3.17E1,1.8567892E0,7.7E1,3.41E2,2.519136E0,1.8567963E0,1.2007959E0,5.5477136E-1,1.5687871E0,2.012716E0],"split_indices":[5,5,5,13,0,5,5,0,0,0,0,0,0],"split_type":[0,0,0,0,0,0,0,0,0,0,0,0,0],"sum_hessian":[7.94E2,1.38E2,6.56E2,6E1,7.8E1,5.46E2,1.1E2,3.9E1,2.1E1,7.7E1,4.69E2,5.8E1,5.2E1],"tree_param":{"num_deleted":"0","num_feature":"31","num_nodes":"13","size_leaf_vector":"1"}},{"base_weights":[9.343255E0,1.5912637E1,5.265134E0,2.1626997E1,1.4174486E1,3.1359665E0,1.920388E1,2.368967E-1,1.6471668E-1,1.553376E-1,1.17968425E-1,2.4201043E-2,8.623552E-2,1.5000124E-1,2.7912322E-1],"categories":[],"categories_nodes":[],"categories_segments":[],"categories_sizes":[],"default_left":[0,0,0,1,0,0,1,0,0,0,0,0,0,0,0],"id":79,"left_children":[1,3,5,7,9,11,13,-1,-1,-1,-1,-1,-1,-1,-1],"loss_changes":[2.121486E4,2.7129062E3,1.4541314E4,3.4352344E2,5.7947266E2,1.6604663E3,1.9608418E3,0E0,0E0,0E0,0E0,0E0,0E0,0E0,0E0],"parents":[2147483647,0,0,1,1,2,2,3,3,4,4,5,5,6,6],"right_children":[2,4,6,8,10,12,14,-1,-1,-1,-1,-1,-1,-1,-1],"split_conditions":[1.8E1,2.4E1,3.34E2,3.2E1,7.7E1,3.1E2,9E0,2.368967E-1,1.6471668E-1,1.553376E-1,1.17968425E-1,2.4201043E-2,8.623552E-2,1.5000124E-1,2.7912322E-1],"split_indices":[6,5,5,13,5,5,19,0,0,0,0,0,0,0,0],"split_type":[0,0,0,0,0,0,0,0,0,0,0,0,0,0,0],"sum_hessian":[7.94E2,3.03E2,4.91E2,6.8E1,2.35E2,4.27E2,6.4E1,4.6E1,2.2E1,1.46E2,8.9E1,3.79E2,4.8E1,4.5E1,1.9E1],"tree_param":{"num_deleted":"0","num_feature":"31","num_nodes":"15","size_leaf_vector":"1"}},{"base_weights":[1.1478618E3,1.7803575E3,1.01229895E3,2.0068806E3,1.5829111E1,8.5012427E2,1.5233641E3,2.0244625E1,4.759831E0,1.1129254E1,7.724734E0,1.2994159E1,1.6886164E1],"categories":[],"categories_nodes":[],"categories_segments":[],"categories_sizes":[],"default_left":[0,0,0,0,0,0,0,0,0,0,0,0,0],"id":80,"left_children":[1,3,5,7,-1,9,11,-1,-1,-1,-1,-1,-1],"loss_changes":[6.636333E7,3.040224E6,5.3158336E7,6.78272E5,0E0,9.364064E6,3.616032E6,0E0,0E0,0E0,0E0,0E0,0E0],"parents":[2147483647,0,0,1,1,2,2,3,3,5,5,6,6],"right_children":[2,4,6,8,-1,10,12,-1,-1,-1,-1,-1,-1],"split_conditions":[4.7E1,2.1E1,2.89E2,5E0,1.5829111E1,9.4E1,3.24E2,2.0244625E1,4.759831E0,1.1129254E1,7.724734E0,1.2994159E1,1.6886164E1],"split_indices":[5,5,5,6,0,5,5,0,0,0,0,0,0],"split_type":[0,0,0,0,0,0,0,0,0,0,0,0,0],"sum_hessian":[7.94E2,1.38E2,6.56E2,6E1,7.8E1,5E2,1.56E2,5.9E1,1E0,1.11E2,3.89E2,7E1,8.6E1],"tree_param":{"num_deleted":"0","num_feature":"31","num_nodes":"13","size_leaf_vector":"1"}},{"base_weights":[-3.5019746E-1,-3.764871E-1,-2.9272032E-1,-4.0458548E-1,-3.4468547E-1,-2.257391E-1,-3.399397E-1,-4.0865894E-3,-2.1398729E-3,-2.5302612E-3,-3.6628002E-3,-2.5010493E-3,-1.433785E-3,-2.5200783E-3,-3.6221636E-3],"categories":[],"categories_nodes":[],"categories_segments":[],"categories_sizes":[],"default_left":[0,0,0,0,0,1,0,0,0,0,0,0,0,0,0],"id":81,"left_children":[1,3,5,7,9,11,13,-1,-1,-1,-1,-1,-1,-1,-1],"loss_changes":[1.0910797E0,3.4487152E-1,7.26614E-1,1.3149643E-1,4.239292E-1,1.808734E-1,1.9666672E-1,0E0,0E0,0E0,0E0,0E0,0E0,0E0,0E0],"parents":[2147483647,0,0,1,1,2,2,3,3,4,4,5,5,6,6],"right_children":[2,4,6,8,10,12,14,-1,-1,-1,-1,-1,-1,-1,-1],"split_conditions":[3.5E1,2.066E2,2.93E2,3.4E1,3.4E1,3.9E1,9E0,-4.0865894E-3,-2.1398729E-3,-2.5302612E-3,-3.6628002E-3,-2.5010493E-3,-1.433785E-3,-2.5200783E-3,-3.6221636E-3],"split_indices":[6,22,5,6,5,16,0,0,0,0,0,0,0,0,0],"split_type":[0,0,0,0,0,0,0,0,0,0,0,0,0,0,0],"sum_hessian":[7.94E2,5.41E2,2.53E2,2.81E2,2.6E2,1.07E2,1.46E2,2.74E2,7E0,5.2E1,2.08E2,8.1E1,2.6E1,3.2E1,1.14E2],"tree_param":{"num_deleted":"0","num_feature":"31","num_nodes":"15","size_leaf_vector":"1"}},{"base_weights":[1.678677E1,2.7379683E1,1.4578554E1,2.8723303E1,2.3158676E1,1.2393803E1,2.392237E1,3.1323057E-1,2.543125E-1,6.772749E-2,2.341849E-1,1.7741995E-1,1.0910502E-1,1.905782E-1,2.5772145E-1],"categories":[],"categories_nodes":[],"categories_segments":[],"categories_sizes":[],"default_left":[0,0,0,0,0,0,0,0,0,0,0,0,0,0,0],"id":82,"left_children":[1,3,5,7,9,11,13,-1,-1,-1,-1,-1,-1,-1,-1],"loss_changes":[1.8197047E4,1.0611719E2,1.3176703E4,5.0710938E1,3.171875E0,4.0664297E3,6.246328E2,0E0,0E0,0E0,0E0,0E0,0E0,0E0,0E0],"parents":[2147483647,0,0,1,1,2,2,3,3,4,4,5,5,6,6],"right_children":[2,4,6,8,10,12,14,-1,-1,-1,-1,-1,-1,-1,-1],"split_conditions":[4.6E1,5E0,1.1E1,2.4E1,3E0,9.4E1,3.24E2,3.1323057E-1,2.543125E-1,6.772749E-2,2.341849E-1,1.7741995E-1,1.0910502E-1,1.905782E-1,2.5772145E-1],"split_indices":[5,1,3,5,5,5,5,0,0,0,0,0,0,0,0],"split_type":[0,0,0,0,0,0,0,0,0,0,0,0,0,0,0],"sum_hessian":[7.94E2,1.35E2,6.59E2,9.8E1,3.7E1,5.36E2,1.23E2,5E1,4.8E1,1E0,3.6E1,1.14E2,4.22E2,3.7E1,8.6E1],"tree_param":{"num_deleted":"0","num_feature":"31","num_nodes":"15","size_leaf_vector":"1"}},{"base_weights":[3.932507E1,4.7967777E1,3.004311E1,3.5421913E1,5.267996E1,2.6543594E1,3.2351795E1,3.300791E-1,4.1161323E-1,5.2765036E-1,1.3791096E-1,3.0779657E-1,2.3736519E-1,3.0870837E-1,3.8353455E-1],"categories":[],"categories_nodes":[],"categories_segments":[],"categories_sizes":[],"default_left":[0,0,0,1,1,0,0,0,0,0,0,0,0,0,0],"id":83,"left_children":[1,3,5,7,9,11,13,-1,-1,-1,-1,-1,-1,-1,-1],"loss_changes":[6.233475E4,2.23725E4,2.259875E3,2.3465625E2,2.51625E2,1.1600547E3,8.425156E2,0E0,0E0,0E0,0E0,0E0,0E0,0E0,0E0],"parents":[2147483647,0,0,1,1,2,2,3,3,4,4,5,5,6,6],"right_children":[2,4,6,8,10,12,14,-1,-1,-1,-1,-1,-1,-1,-1],"split_conditions":[1.74E2,3.9E1,1.16E1,1.48E1,2.8572E3,2.33E2,3.43E2,3.300791E-1,4.1161323E-1,5.2765036E-1,1.3791096E-1,3.0779657E-1,2.3736519E-1,3.0870837E-1,3.8353455E-1],"split_indices":[5,5,28,29,7,5,5,0,0,0,0,0,0,0,0],"split_type":[0,0,0,0,0,0,0,0,0,0,0,0,0,0,0],"sum_hessian":[7.94E2,4.09E2,3.85E2,1.14E2,2.95E2,1.58E2,2.27E2,8.5E1,2.9E1,2.94E2,1E0,5.9E1,9.9E1,1.87E2,4E1],"tree_param":{"num_deleted":"0","num_feature":"31","num_nodes":"15","size_leaf_vector":"1"}},{"base_weights":[6.0660195E0,8.963555E0,5.394875E0,1.0274185E-1,7.8133736E0,4.756801E0,8.97036E0,2.2732891E-2,7.853212E-2,5.166771E-2,3.6924396E-2,7.885147E-2,1.1131164E-1],"categories":[],"categories_nodes":[],"categories_segments":[],"categories_sizes":[],"default_left":[0,0,0,0,0,0,1,0,0,0,0,0,0],"id":84,"left_children":[1,3,5,-1,7,9,11,-1,-1,-1,-1,-1,-1],"loss_changes":[1.4976504E3,1.4282812E2,1.4356934E3,0E0,4.663086E-1,2.2179004E2,1.3968652E2,0E0,0E0,0E0,0E0,0E0,0E0],"parents":[2147483647,0,0,1,1,2,2,4,4,5,5,6,6],"right_children":[2,4,6,-1,8,10,12,-1,-1,-1,-1,-1,-1],"split_conditions":[8E0,2.3E1,3.18E2,1.0274185E-1,1.01E1,5E0,1.14E1,2.2732891E-2,7.853212E-2,5.166771E-2,3.6924396E-2,7.885147E-2,1.1131164E-1],"split_indices":[6,5,5,0,16,1,28,0,0,0,0,0,0],"split_type":[0,0,0,0,0,0,0,0,0,0,0,0,0],"sum_hessian":[7.94E2,1.47E2,6.47E2,6.5E1,8.2E1,5.51E2,9.6E1,1E0,8.1E1,3.95E2,1.56E2,6.7E1,2.9E1],"tree_param":{"num_deleted":"0","num_feature":"31","num_nodes":"13","size_leaf_vector":"1"}},{"base_weights":[7.6858406E1,1.483695E2,6.161198E1,1.5532161E2,1.1526219E0,4.6910477E1,1.2442642E2,1.7245921E0,1.3759469E0,8.239815E-1,4.075085E-1,1.0711696E0,1.4419435E0],"categories":[],"categories_nodes":[],"categories_segments":[],"categories_sizes":[],"default_left":[0,1,0,0,0,0,0,0,0,0,0,0,0],"id":85,"left_children":[1,3,5,7,-1,9,11,-1,-1,-1,-1,-1,-1],"loss_changes":[8.576385E5,1.409025E4,6.00881E5,1.029575E4,0E0,1.133695E5,2.6983625E4,0E0,0E0,0E0,0E0,0E0,0E0],"parents":[2147483647,0,0,1,1,2,2,3,3,5,5,6,6],"right_children":[2,4,6,8,-1,10,12,-1,-1,-1,-1,-1,-1],"split_conditions":[4.7E1,4.72E1,1.1E1,2.1E1,1.1526219E0,7.7E1,3.4E2,1.7245921E0,1.3759469E0,8.239815E-1,4.075085E-1,1.0711696E0,1.4419435E0],"split_indices":[5,16,3,5,0,5,5,0,0,0,0,0,0],"split_type":[0,0,0,0,0,0,0,0,0,0,0,0,0],"sum_hessian":[7.94E2,1.38E2,6.56E2,1.11E2,2.7E1,5.33E2,1.23E2,5.2E1,5.9E1,7.7E1,4.56E2,6.9E1,5.4E1],"tree_param":{"num_deleted":"0","num_feature":"31","num_nodes":"13","size_leaf_vector":"1"}},{"base_weights":[1.048597E2,2.0538174E2,8.343288E1,2.2990585E2,1.8384564E0,6.2795067E1,1.7163577E2,2.3194907E0,5.3656286E-1,1.0029778E0,4.829068E-1,1.4809791E0,1.9847239E0],"categories":[],"categories_nodes":[],"categories_segments":[],"categories_sizes":[],"default_left":[0,0,0,0,0,0,0,0,0,0,0,0,0],"id":86,"left_children":[1,3,5,7,-1,9,11,-1,-1,-1,-1,-1,-1],"loss_changes":[1.69519E6,3.1146E4,1.185169E6,9.52175E3,0E0,2.85628E5,4.89345E4,0E0,0E0,0E0,0E0,0E0,0E0],"parents":[2147483647,0,0,1,1,2,2,3,3,5,5,6,6],"right_children":[2,4,6,8,-1,10,12,-1,-1,-1,-1,-1,-1],"split_conditions":[4.7E1,2.1E1,1.1E1,5E0,1.8384564E0,1.12E2,3.4E2,2.3194907E0,5.3656286E-1,1.0029778E0,4.829068E-1,1.4809791E0,1.9847239E0],"split_indices":[5,5,3,6,0,5,5,0,0,0,0,0,0],"split_type":[0,0,0,0,0,0,0,0,0,0,0,0,0],"sum_hessian":[7.94E2,1.38E2,6.56E2,6E1,7.8E1,5.33E2,1.23E2,5.9E1,1E0,1.47E2,3.86E2,6.9E1,5.4E1],"tree_param":{"num_deleted":"0","num_feature":"31","num_nodes":"13","size_leaf_vector":"1"}},{"base_weights":[9.251349E0,1.5755731E1,5.213579E0,1.962286E1,1.3265252E1,3.104865E0,1.9018442E1,2.7508986E-1,1.7813213E-1,1.4590314E-1,1.1374437E-1,2.1684112E-2,7.214408E-2,1.4853384E-1,2.7647156E-1],"categories":[],"categories_nodes":[],"categories_segments":[],"categories_sizes":[],"default_left":[0,0,0,0,0,0,1,0,0,0,0,0,0,0,0],"id":87,"left_children":[1,3,5,7,9,11,13,-1,-1,-1,-1,-1,-1,-1,-1],"loss_changes":[2.0797102E4,2.6675156E3,1.4263321E4,1.1796953E3,3.050703E2,1.6314707E3,1.9253906E3,0E0,0E0,0E0,0E0,0E0,0E0,0E0,0E0],"parents":[2147483647,0,0,1,1,2,2,3,3,4,4,5,5,6,6],"right_children":[2,4,6,8,10,12,14,-1,-1,-1,-1,-1,-1,-1,-1],"split_conditions":[1.8E1,4E1,3.34E2,2E-1,4E0,2.95E2,9E0,2.7508986E-1,1.7813213E-1,1.4590314E-1,1.1374437E-1,2.1684112E-2,7.214408E-2,1.4853384E-1,2.7647156E-1],"split_indices":[6,5,5,11,1,5,19,0,0,0,0,0,0,0,0],"split_type":[0,0,0,0,0,0,0,0,0,0,0,0,0,0,0],"sum_hessian":[7.94E2,3.03E2,4.91E2,1.16E2,1.87E2,4.27E2,6.4E1,1.9E1,9.7E1,1.06E2,8.1E1,3.49E2,7.8E1,4.5E1,1.9E1],"tree_param":{"num_deleted":"0","num_feature":"31","num_nodes":"15","size_leaf_vector":"1"}},{"base_weights":[1.1364958E3,1.7628477E3,1.0022502E3,1.9872217E3,1.5672823E1,8.4166064E2,1.5083208E3,2.0045553E1,4.7360315E0,1.1018955E1,7.647684E0,1.3506965E1,1.747244E1],"categories":[],"categories_nodes":[],"categories_segments":[],"categories_sizes":[],"default_left":[0,0,0,0,0,0,0,0,0,0,0,0,0],"id":88,"left_children":[1,3,5,7,-1,9,11,-1,-1,-1,-1,-1,-1],"loss_changes":[6.508083E7,2.984736E6,5.2124544E7,6.5104E5,0E0,9.182368E6,3.552672E6,0E0,0E0,0E0,0E0,0E0,0E0],"parents":[2147483647,0,0,1,1,2,2,3,3,5,5,6,6],"right_children":[2,4,6,8,-1,10,12,-1,-1,-1,-1,-1,-1],"split_conditions":[4.7E1,2.1E1,2.89E2,5E0,1.5672823E1,9.4E1,3.38E2,2.0045553E1,4.7360315E0,1.1018955E1,7.647684E0,1.3506965E1,1.747244E1],"split_indices":[5,5,5,6,0,5,5,0,0,0,0,0,0],"split_type":[0,0,0,0,0,0,0,0,0,0,0,0,0],"sum_hessian":[7.94E2,1.38E2,6.56E2,6E1,7.8E1,5E2,1.56E2,5.9E1,1E0,1.11E2,3.89E2,9.8E1,5.8E1],"tree_param":{"num_deleted":"0","num_feature":"31","num_nodes":"13","size_leaf_vector":"1"}},{"base_weights":[-3.467238E-1,-3.7274516E-1,-2.898328E-1,-4.0056172E-1,-3.4126237E-1,-2.2351815E-1,-3.365821E-1,-4.045872E-3,-2.121149E-3,-2.505436E-3,-3.6263473E-3,-2.303936E-3,1.2842327E-4,-2.4956411E-3,-3.5862566E-3],"categories":[],"categories_nodes":[],"categories_segments":[],"categories_sizes":[],"default_left":[0,0,0,0,0,1,0,0,0,0,0,0,0,0,0],"id":89,"left_children":[1,3,5,7,9,11,13,-1,-1,-1,-1,-1,-1,-1,-1],"loss_changes":[1.0688629E0,3.379593E-1,7.122097E-1,1.2810898E-1,4.1519165E-1,1.7846823E-1,1.9247437E-1,0E0,0E0,0E0,0E0,0E0,0E0,0E0,0E0],"parents":[2147483647,0,0,1,1,2,2,3,3,4,4,5,5,6,6],"right_children":[2,4,6,8,10,12,14,-1,-1,-1,-1,-1,-1,-1,-1],"split_conditions":[3.5E1,2.066E2,2.93E2,3.4E1,3.4E1,6.86E1,9E0,-4.045872E-3,-2.121149E-3,-2.505436E-3,-3.6263473E-3,-2.303936E-3,1.2842327E-4,-2.4956411E-3,-3.5862566E-3],"split_indices":[6,22,5,6,5,16,0,0,0,0,0,0,0,0,0],"split_type":[0,0,0,0,0,0,0,0,0,0,0,0,0,0,0],"sum_hessian":[7.94E2,5.41E2,2.53E2,2.81E2,2.6E2,1.07E2,1.46E2,2.74E2,7E0,5.2E1,2.08E2,1.04E2,3E0,3.2E1,1.14E2],"tree_param":{"num_deleted":"0","num_feature":"31","num_nodes":"15","size_leaf_vector":"1"}},{"base_weights":[1.662092E1,2.7112278E1,1.4433883E1,2.8441805E1,2.2935034E1,1.2270398E1,2.3686762E1,3.1015968E-1,2.5182125E-1,2.3193458E-1,6.686656E-2,1.6992773E-1,1.0626418E-1,1.8872258E-1,2.5517386E-1],"categories":[],"categories_nodes":[],"categories_segments":[],"categories_sizes":[],"default_left":[0,0,0,0,0,0,0,0,0,0,0,0,0,0,0],"id":90,"left_children":[1,3,5,7,9,11,13,-1,-1,-1,-1,-1,-1,-1,-1],"loss_changes":[1.7849953E4,1.03E2,1.2921547E4,4.965625E1,4.4746094E0,3.9884219E3,6.113125E2,0E0,0E0,0E0,0E0,0E0,0E0,0E0,0E0],"parents":[2147483647,0,0,1,1,2,2,3,3,4,4,5,5,6,6],"right_children":[2,4,6,8,10,12,14,-1,-1,-1,-1,-1,-1,-1,-1],"split_conditions":[4.6E1,5E0,1.1E1,2.4E1,4.3E1,1.05E2,3.24E2,3.1015968E-1,2.5182125E-1,2.3193458E-1,6.686656E-2,1.6992773E-1,1.0626418E-1,1.8872258E-1,2.5517386E-1],"split_indices":[5,1,3,5,5,5,5,0,0,0,0,0,0,0,0],"split_type":[0,0,0,0,0,0,0,0,0,0,0,0,0,0,0],"sum_hessian":[7.94E2,1.35E2,6.59E2,9.8E1,3.7E1,5.36E2,1.23E2,5E1,4.8E1,3.6E1,1E0,1.36E2,4E2,3.7E1,8.6E1],"tree_param":{"num_deleted":"0","num_feature":"31","num_nodes":"15","size_leaf_vector":"1"}},{"base_weights":[3.8935143E1,4.749153E1,2.9745886E1,3.5074142E1,5.2155407E1,2.6455587E1,3.216017E1,3.2583252E-1,4.051667E-1,5.260019E-1,3.5849735E-1,3.047699E-1,2.4021588E-1,3.4819633E-1,2.896647E-1],"categories":[],"categories_nodes":[],"categories_segments":[],"categories_sizes":[],"default_left":[0,0,0,0,0,0,0,0,0,0,0,0,0,0,0],"id":91,"left_children":[1,3,5,7,9,11,13,-1,-1,-1,-1,-1,-1,-1,-1],"loss_changes":[6.1095625E4,2.1915125E4,2.2154688E3,2.3885938E2,2.61E2,9.220781E2,8.4296875E2,0E0,0E0,0E0,0E0,0E0,0E0,0E0,0E0],"parents":[2147483647,0,0,1,1,2,2,3,3,4,4,5,5,6,6],"right_children":[2,4,6,8,10,